//AUTO_GENERATED WITH get_params.py
//--------------------------------------------

#ifndef EXP_WIDTH
#include <ap_fixed.h>

#define EXP_WIDTH	16
#define INT_WIDTH	4

typedef ap_fixed<EXP_WIDTH, INT_WIDTH> float24_t;

#endif

#ifndef __WEIGHTS_H
#define __WEIGHTS_H

float24_t conv_layer1_bias[8] ={ -0.25494972,-0.17372504,-0.3718534,-0.21812439,0.07969386,0.09687165,-0.6330432,0.058513954};

float24_t conv_layer1_weights[4][4][1][8] ={ -0.061127238,0.03830695,-0.20477192,-0.266943,0.30334333,0.2737971,-0.44636002,-0.373241,-0.044595934,0.28187582,-0.06472259,-0.14626728,0.4272377,-1.0624757,0.5392436,-1.135125,-0.10134378,0.031679504,-0.16608387,0.012442459,0.25940004,-0.7020311,0.26343617,-0.05859156,-0.15525165,0.13538659,-0.07463522,0.31472585,0.62929493,-0.004847605,0.20605136,0.39794737,-0.013814024,0.106517516,-0.08845801,-0.89879405,0.23708777,-0.4301641,0.1526788,-1.1126068,-0.040736627,0.538636,-0.08635699,-0.066335045,0.3413226,-0.4049833,0.5649211,-0.15303752,-0.06629225,0.25674877,0.20202889,0.17613745,0.22963268,0.2551446,0.22579348,0.13234419,-0.015461237,0.009601661,0.13709141,0.31391302,-0.008223973,-0.266593,-0.35438687,0.41388696,-0.06804119,-0.28039613,0.040286556,-0.19143915,-0.65964204,-1.0499613,0.3792246,-1.3492293,0.075660095,0.058357395,-0.19494037,0.36677983,-0.3291166,0.31421614,0.2284232,-0.40587974,0.035313003,0.2776054,0.008450331,0.33573687,-0.20839703,-0.051499814,-0.09528043,0.08219994,-0.042029116,0.27331337,-0.1519871,0.36713296,-0.15413524,0.18580042,-0.53283054,0.29621625,0.04229909,-0.8535567,-0.044338234,0.52395904,-0.46852002,-0.049362488,0.18524075,-0.8575281,-0.0012196483,-0.40307906,-0.06092438,0.1091709,-0.6619199,0.49127787,-0.09849825,-0.5499692,-0.097422816,0.10640108,0.061326467,-0.37070566,-0.49231133,0.33781874,-0.0017427423,-0.22128671,0.06877599,0.12658355,-0.08706206,-0.14662318,-0.09217466,0.039279513,-0.48085588,0.103071876};

float24_t conv_layer2_bias[16] ={ 0.033641137,-0.22590813,-0.10560452,-0.115224056,-0.1956265,-0.4057045,0.101953365,0.20167036,-0.2504109,-0.072353095,0.10261604,-0.10200199,-0.027829664,-0.1695358,-0.08216228,-0.17245045};

float24_t conv_layer2_weights[2][2][8][16] ={ 0.14690536,0.20730917,-0.06064888,0.17460468,-0.14676902,-0.10136371,-0.15961064,-0.13540861,-0.09331999,-0.1788813,-0.07626198,0.111402705,-0.044127442,0.042466573,0.22002561,-0.039480615,-0.4593187,0.4059502,0.06200495,-0.68815726,0.14824931,-0.32838964,0.6235383,0.6814678,-0.36743504,-0.31749612,-0.38041168,-0.14391087,-0.25146052,0.16648372,-0.76181835,0.05518327,-0.24247262,-0.08170776,-0.0030924852,0.31520385,-0.08618673,0.11252025,-0.16731614,0.105641566,0.06337456,-0.1741395,-0.035454873,0.10189649,0.07190815,0.24857196,0.07196543,-0.16310291,-0.18069327,-0.30358413,0.3114889,-0.71911395,-0.479948,-0.3252233,0.09560311,0.015801374,-0.31905553,-0.28023887,-0.14048447,-0.16629918,0.4289193,0.5131602,-0.104364246,0.050185047,0.15564102,-0.1627949,-0.6084519,0.19475792,0.46763596,-0.2390499,0.66466606,0.05383594,0.019450536,0.11619496,-0.4845517,-0.22113879,-0.009340159,0.21036394,0.4483416,0.08238217,-0.03740171,-0.4973062,0.19062771,-0.106586434,-0.5085156,-0.3009066,-0.45494854,-0.6405052,-0.13778508,-0.19122615,0.21318185,-0.26751062,-0.15974073,-0.15583286,0.5322665,-0.05806768,-0.47271413,-0.55870724,0.12001686,0.06009627,-0.7297048,0.110409416,-0.21613552,0.1475839,-0.21812728,-0.71985924,0.15378983,-0.12346412,0.75900275,-0.51856846,-0.85968024,0.04173966,-0.2768999,0.13047528,0.3466657,-0.098423265,0.063473724,0.090391114,0.4770092,-0.017138088,0.17240691,-0.32334107,-0.73321456,-0.017815594,-0.7882253,0.051307462,0.030678479,-0.026618788,-0.14821829,-0.087224655,0.113174126,-0.257205,0.04902791,-0.25877503,-0.19125426,-0.2752923,0.03547473,-0.12970194,0.016399208,0.17014034,0.09144549,-0.024343858,0.23433569,-0.1373561,0.02355013,0.39534792,0.048386984,-0.106941916,0.42803577,-0.3297177,-0.15344635,-0.11213205,0.028813919,0.0852117,-0.13162261,0.072067834,-0.039567336,0.2982,-0.7488286,-0.044561386,-0.18503092,0.08822455,0.15243873,0.022175204,0.17696889,-0.12294533,0.0083512515,0.012959298,0.1705365,-0.07616649,0.0334483,0.10753486,0.042635664,-0.113730215,0.16907161,0.031885676,0.4586155,0.25512314,0.0034532999,0.23217858,0.40725014,-0.038004387,-0.3661674,-0.7782595,-0.17532721,-0.4721367,0.19407883,-0.0033690392,-0.31022912,-0.8398232,-0.48186055,0.0109139,-0.28553188,0.24742112,-0.32648966,-0.76013374,-0.6821305,-0.47371128,-0.017049652,-1.0383806,-0.111108065,0.42280817,-0.16264571,-0.07928732,-0.38527644,-0.74489486,-0.11228434,-0.22077022,0.28176886,0.06356952,0.10428989,0.28745216,-0.08834031,-0.26946402,0.09773727,-0.09477358,-0.00157855,-0.2752011,0.07368931,-0.08499544,0.06369086,-0.45296863,0.054646995,0.0054266267,0.24114463,0.012764776,0.52778566,-0.8203326,-0.5349518,-0.027445287,0.7216146,-0.071297586,-0.08383999,-0.07952731,-0.85482913,0.05688309,0.06449712,-0.82733786,-0.9956874,0.03358748,-0.37318677,-0.04175727,0.38337812,-0.14280936,-0.13820665,-0.26727355,-0.021933902,-0.53176755,0.04018151,0.5828398,-0.28880087,0.0051735365,-0.15360355,-0.61787874,-0.20935377,-0.20317487,0.0707144,0.14513355,-0.003210649,-0.008814665,-0.02469713,-0.07689467,0.15273285,0.19141603,-0.099798694,-0.12111868,-0.13743463,0.09116395,-0.085084744,-0.06318065,0.10637772,-0.13126719,-0.21096928,0.0053791665,-0.17998046,-0.60937434,0.03063542,-0.13064109,-1.1683851,0.1569519,-0.005379291,0.19638716,0.36556408,-0.24791592,-0.041344102,-0.47842082,0.41066238,-0.15911359,-0.17403571,-0.2717888,0.15613014,0.11515898,-0.012958966,-0.014577097,-0.118645705,0.110817164,-0.10288448,-0.0067773378,-0.13980448,0.007778098,-0.16765384,-0.012993917,0.016357329,-0.07094854,0.06501335,-0.23549236,0.031043556,-0.4162155,0.35764816,-0.2856626,-0.51571673,0.45069444,-0.01613656,0.5767204,-0.5840246,-0.28833124,0.15032524,-0.25432086,0.5129224,-0.18349765,-0.10165543,0.5257713,-0.60625285,0.06949656,-0.76648915,-0.28568608,-0.3960032,-0.24043636,-0.102181,-0.80007124,0.40519068,0.09060441,-0.84122527,0.14153947,-0.38219008,-0.2676733,-0.19146101,0.27747756,-0.10623813,-0.16464576,-0.06725279,-0.18044384,-0.36682624,-0.37043798,-0.02116249,0.5482574,-1.1603471,-0.09745546,0.030857816,0.318806,0.17862105,0.018944273,0.061732378,-0.31149834,0.112422995,-0.15029573,-0.22500654,0.0749779,-0.6751954,-0.3405886,-0.12230869,-0.26227948,-0.71025074,-0.11940586,-0.7005698,0.17200601,0.06269276,-0.33062267,-0.7101968,-0.3212637,0.71138734,0.4520396,-0.28006712,-0.070787184,-0.29059017,0.27002192,-0.29178718,0.0703572,-0.96575534,0.037106596,-0.71713793,0.26648247,0.46221963,-0.008903901,0.24198686,0.18098685,-0.1734602,0.03878015,-0.22267795,-0.19137965,-0.17441021,-0.007548294,-0.277851,0.02708886,0.09639385,-0.2549066,0.17773943,0.2563057,-0.28222978,-0.083993845,0.068899505,-0.38868925,-0.29907286,0.5231248,-0.14814924,-0.2556763,-0.3221406,-0.009081564,-0.05511102,-0.43011507,0.43857872,0.067534275,0.25187796,0.10529111,0.10508356,-0.21880035,0.08299792,0.02822332,-0.009823685,-0.18122616,-0.0110738585,-0.00013965344,0.14503863,0.24318445,0.044469863,0.22167365,-0.08590888,0.015168833,0.08856552,0.16184779,0.2409525,0.07736276,-0.082814865,-0.32566577,-0.38008383,0.39518714,0.23676956,-0.13619299,-0.15320452,0.01374905,-0.117294095,-0.5879934,0.09891689,-0.107727736,0.621809,0.04385941,-0.112999335,-0.21375391,0.526576,0.22936863,-0.3449319,0.29438567,-0.24654791,-0.13691838,-0.6390399,-0.3438773,-0.02300806,-0.669517,-0.07213225,-0.22993347,-0.22674006,0.33368862,-0.063241065,0.08811109,-0.61638224,0.46012157,-0.019208066,0.09318128,0.063649006,0.19138847,-0.12292021,-0.47672772,-0.115800954,0.25148058,-0.35355952,0.106752776,-0.06569614,-0.8158062,-0.09947307,-0.15135142,0.15774094,0.16193703,0.2305282,-0.7774057,0.5330643,-0.2258609,-1.0755403,0.11372259,-0.038593777,-0.50929254,-0.09042125,-0.1657559,-0.20920183,-0.61354417,-0.9385004,-0.20699494,-0.72976094,-0.41104248,0.24058324,0.31341094,-0.1679494,-0.26810643,-0.059756253,-0.49503878,-0.052271105,-0.62822187,-0.65762633,-0.10668035,-0.9755891,0.12487085,-0.14340058,-0.056064688};

float24_t fc_layer1_bias[120] ={ 0.15482771,-0.19485527,-0.11613711,-0.06841989,0.029867142,-0.068324745,-0.12934299,-0.061414845,-0.13544512,-0.037070855,-0.27450398,-0.16936085,0.05913757,-0.09700595,-0.24890536,-0.16884425,-0.18311058,0.3209547,-0.05000956,-0.08478678,0.20798568,-0.04971587,-0.12293937,-0.04617659,-0.05504829,0.14635375,-0.2537206,-0.046180103,-0.26927564,-0.22726329,-0.12079951,-0.04816705,-0.04697899,-0.054064,-0.108919755,-0.0725125,-0.119373456,-0.05404023,-0.05402678,-0.28908953,-0.054101758,-0.09800583,-0.21113369,-0.22479075,-0.054030757,-0.05403784,-0.20494594,-0.2813326,0.17200497,-0.053714525,-0.054595746,-0.21028632,0.14941825,0.19966611,-0.05586558,-0.04511028,0.03693287,-0.12911506,-0.052021332,-0.054001532,-0.055943355,-0.054054964,0.15019609,-0.044777967,-0.15263195,-0.05404846,-0.05404032,-0.04595723,0.1177637,0.37788975,-0.022232976,0.038290042,-0.042471167,-0.15040839,-0.26076642,-0.20883997,-0.28176558,-0.07590907,-0.04763652,-0.07879116,-0.121011935,-0.16634741,-0.054113917,-0.05404045,-0.13951376,-0.056189377,0.11337843,-0.09857567,0.11741832,-0.14327218,-0.060771804,-0.17136955,-0.26973453,-0.053825535,-0.21355765,-0.26406044,-0.054024316,-0.032564666,0.21914676,-0.0073735127,-0.053684205,-0.015949441,-0.20758635,-0.05434735,-0.19434085,-0.054032106,-0.054102328,-0.3856937,-0.05781155,-0.15712465,-0.3845496,-0.1853365,-0.20114033,-0.13030386,-0.05404268,-0.43653303,-0.045924075,-0.05000459,-0.04651217,-0.0458569};

float24_t fc_layer1_weights[576][120] ={ 0.059889253,0.059941985,0.012718447,-0.14092028,0.021565376,-0.048264053,-0.012369747,-0.035210557,0.07775332,-0.07267034,0.02124393,-0.09384368,-0.026490424,0.019037457,0.119372405,-0.05674047,-0.018795408,-0.06711945,-0.10233681,0.04171684,-0.05192226,-0.02651707,-0.03750583,-0.046765644,-0.086562715,-0.07980095,-0.07971495,0.0116292685,0.007937611,-0.024665669,-0.047442105,-0.061947934,0.077664524,-0.0017037258,-0.05662402,-0.010300173,0.032603357,0.009752542,-0.070808575,-0.055707164,0.018080799,-0.14189349,0.03306586,0.012262461,-0.008312441,-0.09318501,-0.14159642,-0.11988641,-0.06357975,-0.11664623,-0.0043498906,0.013316653,0.074549325,0.013883281,-0.021137474,0.012713611,0.10288269,-0.009767203,0.055719104,-0.07187873,-0.015057803,0.0076776324,0.17119192,0.01472018,-0.12762688,0.005714608,-0.010966891,-0.09064165,0.016480371,0.03741349,-0.059975263,-0.0627274,-0.07563021,0.05624824,-0.08215359,-0.045275807,0.12381625,-0.065501444,-0.120913535,-0.0688671,-0.072038405,-0.020854207,-0.07764286,-0.120071135,-0.04825878,0.015905205,-0.09493833,-0.055601615,-0.049019743,0.007171487,0.017905613,-0.045447223,-0.06166447,-0.09426068,0.02636233,-0.070583306,-0.037151232,0.023596628,0.024762064,0.036434498,-0.010797804,-0.100615576,-0.03531836,-0.021597698,0.13176565,-0.079433516,-0.018368252,-0.043332346,-0.069785014,-0.07127114,-0.11216458,0.04440572,-0.14261772,0.040638596,-0.013278593,-0.084157646,-0.091399334,0.010032462,0.070563026,0.05755032,0.14873178,0.07374563,-0.14651166,-0.027211439,0.0936654,-0.04550258,-0.12516828,0.086303,0.07262145,0.03406062,-0.2223271,-0.10347488,0.14540373,0.06895029,0.025458163,0.11824773,0.013676812,0.03570643,-0.12938257,0.041316252,0.024561023,-0.04518101,-0.056857415,0.021348722,0.022971842,0.16179939,-0.22990292,-0.009791439,-0.05627966,0.053390063,-0.099423595,-0.10516471,-0.035502378,-0.008112264,-0.003905096,-0.08383195,0.0085706385,0.0366087,-0.090402536,-0.036821105,0.035592414,0.031085813,-0.13182192,-0.12622136,-0.1429198,0.016767176,-0.03444704,-0.042182155,-0.113017574,-0.047757663,-0.10375398,-0.0617382,-0.022004783,-0.027077574,-0.110447,0.06812019,0.03261102,-0.0059215627,0.03635396,-0.080005795,-0.101597875,-0.07618065,-0.011991472,-0.034417886,-0.006563764,0.035402294,0.009895993,0.04943329,0.074180216,0.2743326,-0.061914597,-0.026918458,-0.028297503,-0.1529775,-0.044680797,-0.04853459,0.08583929,0.0089808265,0.048558608,-0.0575032,-0.08805856,-0.057160992,-0.061325397,-0.02622575,0.023450859,0.014492657,0.10570578,0.026542155,-0.13650525,-0.139819,-0.08258919,-0.021760654,0.053914815,0.011363359,-0.010437661,-0.011876889,-0.13419478,-0.059806194,-0.18246031,0.006862818,-0.11739043,-0.11718982,-0.09872828,-3.5773977e-05,-0.043454256,-0.1430901,-0.042823356,-0.0782648,-0.09844908,-0.096539676,-0.061338667,0.02377247,-0.13272235,0.008570157,-0.066617765,0.060250666,0.022213891,-0.01957276,-0.07303795,0.0691319,0.1291345,0.03984121,-0.0006731972,-0.060748808,0.07545334,0.08763681,0.02491249,-3.984824e-05,0.0792992,-0.03011614,0.07097582,-0.00792777,0.05906425,-0.014472783,-0.002883535,0.12388986,0.048770554,-0.014798549,0.08057199,0.107771695,0.107026495,-0.121939555,0.029391907,0.029925462,0.07928001,-0.18238252,0.041691396,0.059475727,0.010601357,-0.0023938138,-0.15394683,0.0074062645,0.05434389,-0.03649273,0.008404963,0.085366495,-0.040208716,-0.07479294,-0.09045765,0.024913006,0.024910174,0.0430801,0.054630853,0.036345474,-0.008868769,-0.08272778,0.003012147,-0.089724876,0.08591206,-0.06003196,-0.013971165,-0.055072535,0.042615358,0.016048325,-0.09267646,-0.008636767,0.0882763,0.04272501,0.05775685,0.055857264,0.052152984,-0.090525426,0.10809014,0.05738876,-0.033756424,-0.028864123,-0.083202615,-0.090088315,-0.06493068,-0.09988605,0.036421508,0.03458325,0.009143221,-0.08467127,-0.058663584,0.058942918,-0.01236894,-0.080360964,0.08933937,0.09881019,0.047472067,-0.0024919435,0.084309556,-0.023050606,-0.0010414422,-0.041284688,-0.1489268,0.08365845,-0.12866455,-0.053943064,-0.07479188,0.07091273,0.0058752666,0.03551098,0.021032192,-0.041560493,0.010792993,0.39381093,0.107837774,0.018892262,0.07929694,0.05024036,0.10680377,0.047395624,0.0017812384,-0.061425727,0.09076319,0.17355761,0.087946065,0.0364934,0.22643444,0.0024666637,-0.07273012,-0.11186721,0.08877315,0.035600476,-0.10701631,-0.014032416,0.06407871,0.024220817,0.20138697,0.36443886,0.08099022,0.033569835,-0.24543951,-0.23342897,0.04878807,-0.04945644,-0.22752157,-0.22158362,-0.08414338,0.04292202,0.33020067,-0.059387244,-0.9760151,0.034940053,0.07951594,-0.09771539,-0.09125732,-0.43763044,-0.06788595,-0.008825071,-0.0067157596,-0.046710525,0.067580305,-0.54453504,0.0332947,-0.061082784,0.14934368,-0.029298574,-0.07317806,0.017807245,-0.15051737,-0.057133503,-0.033044245,-0.0637342,-0.002439339,-0.014205836,0.044669576,0.13011082,-0.04613254,-0.031073472,0.06666506,-0.0028656449,-0.0074035227,0.0269683,0.46482357,0.059100162,-0.22212464,0.023044921,-0.0047790036,0.150646,0.40476024,-0.030669577,-0.073805206,0.06629693,-0.46087787,0.70452774,0.3022828,-0.045816228,0.039697863,-0.014530845,0.37977603,-0.09810386,-0.07575763,0.042143546,-0.051410638,-0.02885332,-0.45274973,0.12706274,0.037910514,-0.12775536,-0.06277478,-0.034846786,0.17027968,0.6932933,0.027385449,-0.096789695,0.037381075,-0.20721805,-0.13868283,-0.06703809,0.0021037087,-0.014456958,0.038072206,-0.021088326,-0.75072765,-0.011343703,-0.5793149,0.1955592,0.02477565,0.0218586,0.0021108494,0.08275636,-0.2932225,-0.070017494,-0.065828785,-0.2795101,0.10363476,0.36439058,-0.07125619,0.06319846,0.3742765,-0.08139567,-0.37401432,-0.046193615,-0.029034508,0.76741195,-0.042658165,0.070395194,0.67742485,0.09401051,0.020232111,-0.573631,-0.0046875402,-0.03128888,-0.0007178709,-0.120625235,0.0742301,-0.009929486,-0.009165162,-0.06688739,-0.02030727,0.0127860345,-0.07469561,0.011242808,0.06773604,-0.09297107,0.09248452,-0.017795833,-0.031249564,-0.07162802,-0.036858764,0.06743959,-0.08968723,0.019548425,-0.04433556,0.031761046,0.017102346,-0.027975526,-0.017644716,-0.12270771,-0.037855443,0.061696373,-0.039464727,0.086110614,-0.071719974,-0.020240761,0.09977322,-0.13196358,-0.054176018,-0.044772398,-0.108205676,-0.077076234,-0.026516829,0.024242666,-0.024454784,-0.06941309,-0.084261075,0.031471755,-0.02155657,0.04835846,-0.066214405,-0.10691278,-0.028378516,-0.022475395,0.017787145,0.012389388,0.019205103,-0.030488089,-0.11787112,0.06456898,0.08039479,-0.06421243,0.05035753,0.07131081,-0.04925564,-0.06488619,-0.10737151,-0.026910033,0.024099967,0.0036260786,-0.028934112,-0.039143182,0.0043480205,-0.01841847,-0.121400766,0.021802172,-0.062136695,-0.11921534,0.0664411,0.062723435,-0.08536536,0.060446598,0.029518303,-0.036083926,0.07667226,0.087957166,0.00817994,-0.005875101,-0.0655399,-0.008788518,-0.075710446,-0.09068527,-0.01407782,-0.123670384,-0.17176238,-0.07356083,-0.06937681,-0.0728791,-0.04047635,0.07584398,-0.040396146,-0.059235837,-0.02845445,-0.071590506,0.021432199,0.044931315,0.037873134,-0.03988717,-0.024312817,0.028970627,-0.0407881,0.0029750858,0.029817877,-0.11264421,-0.0060117426,0.059704293,0.02427598,-0.025250897,-0.062132183,-0.055005804,-0.08168679,-0.02538767,-0.057933625,-0.08626645,0.08285872,0.012333326,-0.08127467,0.0032166243,-0.02440054,0.012084328,-0.08284453,-0.053903926,0.074838646,-0.0033811703,-0.08677161,-0.05742318,0.09162427,-0.017285086,-0.05576929,-0.09254327,0.08215969,0.010627165,0.014010392,-0.0012018159,-0.04534735,-0.008369058,-0.019568034,-0.0829439,-0.0608372,-0.052224223,0.021215923,-0.08470401,-0.090521686,-0.08543819,-0.043927576,-0.026200712,-0.0018667579,-0.03664182,0.04277944,0.023736246,0.051853873,0.01855307,0.028181873,-0.0054868236,0.07694466,0.050172023,0.012757815,-0.06368722,-0.06878557,-0.026540048,0.013173275,-0.008252487,0.019039832,0.02658943,0.03540232,0.03401164,0.0517487,-0.0854675,0.08815495,0.06189982,0.013306029,0.053118892,0.06707994,0.0002798736,0.008852698,0.008501008,0.0011291653,0.036616437,0.059378646,0.040368937,-0.053234737,-0.05731387,0.045826904,-0.030682735,-0.01948794,0.022901185,0.04569421,-0.0007217005,0.007080242,0.08030621,-0.03921518,-0.045698352,-0.07714852,-0.040513713,0.08121463,0.046072476,0.04265725,0.05317027,-0.053084407,0.03316558,-0.07727826,-0.06367923,-0.050561056,-0.029719524,-0.089135975,-0.03414056,0.057851397,0.037727483,0.07571488,-0.06279797,-0.00892099,-0.088057,0.043073587,0.054817863,0.0036352947,-0.06612033,-0.075139,-0.048112724,-0.006154023,-0.03520582,0.05122734,-0.001390487,0.015168093,-0.031004027,-0.09097715,0.025567539,-0.07183679,0.013052806,0.057331778,0.00027949363,-0.032630976,0.045890845,0.07600955,-0.05585009,0.06487166,0.037638493,0.015549548,-0.034550954,0.06976776,0.093500264,-0.08537305,-0.07003519,-0.08917317,-0.06416018,-0.017826602,-0.102570035,-0.06897107,0.018601162,-0.3039306,-0.1259693,-0.06754005,0.000799946,0.08520437,0.008695312,-0.12178046,-0.05793268,-0.059295636,-0.05617886,-0.06552921,-0.13853665,-0.074221686,-0.020913517,-0.007338351,-0.06078152,-0.05934356,-0.087820075,-0.052908614,0.022920517,-0.1318371,0.006141246,-0.11376082,-0.05270739,-0.07375295,-0.08568094,-0.13066898,0.028149467,-0.06824609,0.030035997,-0.11246536,-0.05952024,-0.018005531,-0.1928538,-0.10743359,-0.041232623,-0.07045434,0.0033804004,-0.06641208,-0.10748762,-0.051597137,0.15828854,0.08871731,0.055648804,-0.09875527,-0.058704402,-0.003626432,0.14554647,-0.08504599,0.024920184,-0.088273644,-0.06850987,0.020024639,-0.11385365,-0.070828915,-0.1175725,-0.07568811,-0.07954629,0.036521472,0.10213729,0.06912933,-0.039875045,-0.037711393,-0.16146173,-0.1791542,0.026869334,0.1673169,-0.15064941,-0.075437576,-0.0641479,-0.062038314,-0.13245028,-0.007560473,0.03770993,-0.105802454,-0.056672152,-0.07359424,-0.0485721,-0.14402226,-0.19484484,-0.052645262,-0.09857471,-0.10886552,-0.014002225,-0.034979336,0.045085866,-0.00819123,0.026048299,-0.028518379,0.061047364,0.019983616,0.035857815,-0.040255442,-0.14654443,-0.05383786,0.0032345906,-0.06821674,-0.04726968,-0.0059532374,-0.21898064,-0.049997695,-0.18425523,-0.029282577,-0.082304806,-0.06240158,-0.30751985,-0.014508184,0.04049483,0.03347799,-0.12782708,-0.41176686,0.10853191,0.07946435,-0.0064748228,-0.045010343,-0.36000133,0.30411425,0.037398092,-0.30218628,0.23261045,-0.018260956,0.054152332,0.09413416,0.09176118,0.161041,0.44536054,-0.016617998,0.15212087,-0.054269932,-0.2191181,-0.3548507,-0.0048770234,-0.050873667,-0.065502405,-0.054948885,0.17525029,0.05090595,0.014030606,0.0024836138,0.09731722,-0.003454484,-0.03375368,-0.0049816445,-0.057449814,-0.079538345,0.07135738,0.088617645,-0.0700378,0.014776431,0.08188834,-0.03260948,-0.062062465,-0.053996414,-0.04525086,-0.020050168,-0.004521005,0.07185348,0.07887044,0.21714176,0.048080824,0.070337884,0.4642478,0.046762362,0.15944663,-0.08722561,0.014913566,-0.5816942,0.29398885,-0.633849,0.09052441,0.07231005,-0.017416842,-0.09164818,-0.07449518,-0.081051774,0.07024758,-0.07223299,0.042570166,-0.0057325293,0.35176218,0.54285324,0.095405996,-0.024740137,-0.02412828,0.057308935,0.38228476,0.134698,-0.06466354,-0.02052579,-0.076105155,-0.07895958,-0.07598225,0.06925664,-0.03226154,0.073122285,-0.045742426,-0.26930106,-0.02376943,-0.35166094,-0.084820956,-0.025755368,0.55857974,-0.08461325,-0.0841987,-0.031182911,0.08019235,0.01906529,0.61120015,-0.4936019,0.06809879,0.07196253,0.089897744,-0.67823684,0.040866278,-0.018159429,-0.008090779,-0.05931474,0.29854143,0.072857626,-0.037082892,0.25720793,-0.06952213,-0.020280235,0.3176308,-0.039142992,0.023854852,-0.055673793,0.031189859,-0.007437128,0.04586663,0.092524804,0.062295534,-0.08462264,0.0037479922,-0.06204854,-0.044021834,0.070139475,0.062363274,-0.08842457,0.09026908,-0.019400388,0.041540213,-0.035865843,0.019740254,0.007399164,-0.055065636,0.021532677,0.011643544,0.070928685,0.08902515,0.041565396,0.02642642,-0.08583346,-0.0009894818,-0.08381919,-0.040979646,-0.015968464,0.06950056,0.053535752,-0.060600054,-0.031034507,-0.08755788,-0.001663588,0.018499054,-0.07550354,-0.062436063,0.07330116,-0.02421426,0.07070903,0.04872354,0.003196746,0.04082819,-0.056919154,0.020832852,-0.045647215,-0.019527808,-0.09207554,0.04348371,0.013866149,0.040026106,0.0274219,-0.053104397,0.0018168613,-0.019569673,0.06476583,0.086942665,0.014172919,-0.047424056,0.011849508,-0.06379148,-0.0077031627,0.073287986,-0.013681486,0.07921233,0.06142115,-0.07944765,-0.04856252,0.024161309,-0.046425916,-0.040821433,0.02924709,0.077304445,-0.075502306,-0.0025769249,-0.032938123,0.022012249,-0.089529365,0.041299604,0.068318374,-0.036371157,-0.022847548,0.01015652,0.047398247,-0.024839446,0.07664416,0.054153495,0.018558428,-0.020904817,-0.086416826,-0.03314984,0.036532573,0.0033525452,0.00070830435,-0.081398904,-0.0638528,-0.052196596,-0.08873982,-0.04827753,0.0661562,-0.018130347,-0.004849933,0.03547799,0.08718745,-0.0068885162,0.019706875,-0.012696341,0.0651791,-0.07196009,-0.02384086,0.036372446,-0.05079079,-0.08289031,0.050408266,0.0720269,-0.0014880896,-0.06326172,0.075253956,0.073805,0.06407038,-0.088158846,0.15092477,0.030835861,-0.13714956,-0.086292975,0.046369415,-0.01593648,-0.16435677,0.021783164,0.031713266,0.05460469,-0.23959382,-0.108039066,-0.029798156,0.074949756,0.03471207,-0.023442281,-0.043810934,0.041705284,0.07954886,-0.045741137,-0.06262685,-0.058275368,-0.128102,0.04416524,-0.00967295,-0.07249444,-0.1287363,-0.03692052,0.05152351,-0.12190972,-0.018132085,-0.07993487,0.03044388,0.044155315,-0.021962304,0.03646718,-0.005076492,-0.023824878,0.012218855,-0.2531164,0.01179704,-0.03740325,0.083848774,-0.094143674,0.0380693,0.04224462,0.11563693,-0.0919739,0.053019267,0.00078071654,0.033641912,0.07072188,-0.0885647,0.11055049,-0.048336215,-0.015723327,0.05147459,0.02126561,-0.037654426,0.06451688,-0.0938368,0.061020873,0.07120382,-0.028933056,-0.24385387,0.07395528,0.019493543,-0.056143828,-0.04399709,0.027422588,0.19225354,0.16944456,-0.088290215,-0.113817476,-0.09192687,-0.057549175,-0.01913334,0.0069147646,-0.06262962,0.051496446,-0.106861755,0.05187676,0.054988913,-0.08825516,-0.118290365,0.06626138,-0.02177427,0.101562604,-0.11256914,-0.19415793,0.029529043,0.03034921,-0.2617598,0.02626405,-0.07208135,-0.03583996,-0.07076591,-0.020599592,-0.078984335,0.016398802,0.08606977,-0.03329583,-0.0033421027,-0.03662091,-0.08876394,-0.012321421,-0.039994124,-0.24274062,0.0039170175,-0.20426413,0.3880784,-0.109022275,-0.06324951,0.022126868,0.012186553,-0.020456301,0.023870075,-0.0498218,0.041008756,0.046279345,-0.18062681,-0.09473604,-0.048727404,-0.062116556,-0.07717863,-0.3016888,-0.22343801,-0.1172319,-0.08682273,-0.0485519,-0.22442055,-0.10909181,0.035276588,0.055783007,0.15008342,-0.090176314,-0.12879516,0.0817412,-0.11562768,-0.10078912,0.28715643,-0.08771281,-0.105573416,0.04449487,-0.081770964,0.2870157,0.044060163,-0.12207362,-0.13135882,-0.115922086,-0.012346859,-0.023162596,-0.026328702,0.0076868627,-0.13121161,-0.046090864,0.010632038,-0.09455352,-0.059553888,-0.016597029,-0.07065988,-0.08353964,0.019236673,-0.10489685,-0.021162542,-0.0035950455,-0.060061272,-0.10074728,-0.13406813,-0.016792838,-0.046744246,0.010652652,-0.19720025,0.06717642,0.01609494,-0.06787547,-0.11204343,0.028354527,0.26671925,0.014557879,-0.112788446,-0.058646694,0.17548098,-0.12795335,-0.035142638,-0.05709877,0.02410183,-0.009802589,-0.20424548,-0.15888105,-0.0055529005,-0.07325626,-0.11928027,0.03918103,-0.058552943,0.33831546,-0.074769855,-0.0050325054,0.043601107,-0.06818691,-0.16049965,-0.08847079,-0.07347988,-0.003311585,-0.0032552022,0.00020419029,-0.033910118,0.0010424337,0.2173836,-0.0046501593,-0.10317144,0.12584636,-0.065530226,-0.044821143,-0.03601097,0.039380737,-0.10796179,0.08153143,-0.22220835,0.3534949,-0.00644026,-0.110386774,0.32766944,0.0035934027,0.028197976,-0.10843532,-0.098045886,-0.06639024,-0.11463954,-0.058205277,-0.1301187,-0.122565396,0.033076905,0.12917471,0.0008467073,-0.00066214934,0.03319513,-0.06000522,0.031675998,-0.084127046,-0.0014339238,-0.06422324,0.08758002,-0.054247487,0.068390064,-0.060430974,0.054399393,-0.079980455,-0.07974815,-0.03279242,0.073570706,0.060662217,-0.05275705,0.043897294,-0.06766347,0.00019655377,0.07229588,0.06490923,0.059001304,-0.06420254,-0.059359495,0.060669713,-0.07730294,-0.023777992,0.057612933,0.026301898,-0.09112807,0.0472204,0.0354423,-0.0365123,0.006528221,0.0042769685,0.06453753,0.041775294,-0.021528028,-0.0045397505,0.024632178,0.052797206,-0.005356133,-0.02429349,0.03280448,0.001014322,-0.05609047,-0.038114037,0.008311853,-0.025980964,-0.03908338,0.08988621,0.052422084,-0.017670594,-0.08761061,0.013555929,-0.014215842,0.017004699,-0.0475594,0.03798888,0.070137106,0.02467154,-0.06756837,-0.046154674,-0.07117861,0.0077971146,-0.016937584,0.03545753,-0.068794735,0.069170944,0.060813643,0.08012403,-0.010286592,0.017524488,0.092383824,0.023136295,0.037661307,0.018796928,-0.086699955,0.012234375,-0.049062584,0.033028148,-0.007310018,0.06056007,0.07173512,-0.0015268028,-0.052941404,0.021470144,0.08270516,-0.05751474,-0.08525926,-0.0010338053,0.019382283,0.0033743754,0.06675414,-0.025969118,-0.0885131,0.03786031,0.018081889,0.08528737,0.056061246,-0.011721067,0.045786165,0.020948999,0.090142794,-0.07921838,0.053001396,-0.052177936,-0.037573818,0.041033365,-0.08156198,-0.0013490692,-0.0025096238,0.04948006,0.07656365,-0.07003153,0.0160418,-0.080604665,-0.035923045,-0.07082196,0.06741168,-0.08159408,-0.053999092,-0.07089561,-0.084999494,0.20568763,0.021845141,-0.05455176,0.026700038,0.013339622,0.18327598,0.081979685,-0.11804473,0.056600608,0.06536978,-0.10916121,-0.08893009,-0.09623492,-0.15289226,0.21564806,-0.071482226,0.015849814,-0.025756888,0.048364524,0.025568573,0.034420263,-0.14581977,0.026320517,0.029506898,-0.11991775,0.009164713,-0.07837283,0.010373706,0.07298451,-0.077457316,-0.06685329,0.011957032,0.015335554,-0.044261318,-0.001162529,0.015899964,-0.010692337,-0.06948772,0.021045351,0.007249202,-0.03795427,-0.043763336,-0.0099728815,-0.001174263,-0.13641648,0.019005984,-0.026999883,-0.21620215,-0.025754863,0.038587585,0.042668674,0.15470316,0.12783423,-0.10248279,-0.090746485,-0.06868169,0.013220416,0.026810411,0.02491351,-0.105171956,-0.09317484,0.101207815,0.018718183,-0.10506281,-0.0836234,-0.093569316,0.04800218,-0.18526855,0.037519023,0.1721846,-0.002582406,-0.1006618,-0.03084017,-0.060539152,0.009189595,0.08263384,0.00045278308,0.041596897,-0.04224707,-0.12299134,-0.11316946,-0.0024872674,-0.0067553013,0.058317967,0.035316486,-0.16731417,0.011196713,-0.42789438,0.0070754485,0.012363065,-0.02892489,0.079060726,0.03233835,0.020224364,0.03922195,-0.06679986,-0.10142896,0.11186692,0.24659622,-0.039722536,-0.07165222,-0.18203147,0.0016587802,0.06035292,-0.06257803,-0.010425727,0.11603568,-0.10182472,-0.03783691,-0.019575851,0.03823925,-0.08388539,-0.19462438,-0.027716164,-0.038738873,-0.07678838,-0.11551846,-0.030494727,0.09134694,0.25304496,0.02927962,-0.040460914,0.024230482,-0.03689636,0.018992312,-0.10472596,-0.024034292,-0.038614746,-0.013490477,0.06506864,-0.095129155,0.012878212,-0.022570953,0.09268395,-0.054106526,0.014433157,0.06692989,-0.0034106774,-0.10032304,0.055518936,-0.046784174,-0.029008124,0.04832109,-0.03617448,-0.10378393,-0.04623076,-0.12425293,0.036404762,-0.05818001,-0.093115434,0.03603552,-0.0958541,-0.031512357,-0.011797066,-0.10319504,0.018147526,-0.07233843,-0.059750713,-0.12455322,0.013221403,-0.13440628,0.016586486,-0.10118101,-0.13376188,-0.08017117,-0.10765644,-0.12473743,0.057436112,-0.0002950227,-0.06207253,0.105241396,0.0014428806,0.09443826,0.0021541596,0.06784103,0.018740648,0.047842268,0.03473274,-0.13313419,-0.107889324,0.03509051,0.024187164,-0.04306778,0.021714766,-0.1412607,-0.0522195,-0.09072883,-0.10017568,0.034433644,0.07043319,0.027379775,0.022391338,0.08594412,-0.07425584,0.050436646,0.04217998,-0.071352914,-0.008781301,0.0871827,0.021696197,-0.053562053,-0.0699506,-0.08907224,-0.07847614,-0.1097147,-0.101535976,0.0254622,-0.014514076,0.037176356,-0.118491024,0.0060651707,0.019295394,-0.08064311,-0.1452489,-0.056332156,-0.078569904,-0.015320945,0.033867374,0.057446778,-0.1400679,0.010966154,-0.052251562,-0.015571616,0.011439453,-0.073574886,0.030994372,-0.06638949,-0.10771657,-0.043748237,-0.14325006,-0.054489262,-0.12627292,-0.0797979,-0.07959204,-0.0071531367,-0.050286207,-0.023209348,-0.06561077,-0.07086964,0.0036672235,-0.055004932,-0.073953524,-0.092732355,0.03553835,-0.041246675,-0.16790748,-0.13361621,0.15905245,-0.064285874,-0.10040827,-0.1263371,0.08862523,-0.01777903,0.14210598,-0.15169314,-0.26976237,-0.101424746,-0.060841437,-0.14874084,-0.03591975,0.040178433,-0.062484387,-0.07422208,-0.041476656,0.102548346,-0.124815345,-0.017461248,-0.058616854,-0.08640569,-0.16497105,-0.065300174,0.046957333,-0.045665376,-0.044596907,0.0037916831,-0.10158923,-0.032828946,-0.08648151,-0.2516326,0.008563144,-0.06966114,-0.12424362,-0.1875241,-0.011080648,-0.021494497,0.023350583,-0.21990299,-0.098698586,-0.14166161,-0.1140107,0.079414696,-0.097166754,0.07583598,-0.112969264,0.047686245,-0.05095822,0.16263244,0.045045048,-0.10343857,-0.08410277,-0.07466199,0.0782444,0.05432686,-0.11089797,-0.11078911,0.02857231,0.0039228275,0.07234982,0.09061316,0.007972038,-0.048562955,-0.12313012,-0.12362674,-0.101351656,-0.045542948,0.19129741,-0.03837186,-0.021064136,-0.096247084,-0.033414084,-0.17819676,-0.013344824,0.010012945,-0.17406802,-0.072430775,0.15158762,-0.06882491,-0.11355814,-0.09430402,0.008972186,0.010628623,-0.060753994,-0.008296105,-0.054147456,-0.3197029,0.025420545,0.60317063,-0.13270609,0.058597956,-0.099185444,-0.024663107,0.03028874,-0.01009538,-0.04302859,-0.12319024,-0.09760877,-0.089974076,-0.09034426,-0.19596985,-0.006120151,-0.155562,-0.041444562,-0.06476121,-0.12086607,-0.48415527,-0.10313129,-0.03891577,-0.08906105,-0.027960313,0.032297693,-0.04382502,0.019804962,0.056096382,0.05773621,0.055364765,0.08342061,0.04533317,0.024384692,-0.009531073,0.06313319,-0.064333454,0.04180663,0.05824671,0.045695998,0.044072233,-0.021184824,0.047139682,-0.044232156,-0.028664581,-0.0076285154,-0.006003335,0.008204378,-0.053979922,-0.0042569116,0.04509013,0.018049702,-0.037691716,0.061759435,-0.02709563,-0.053598244,0.0022096783,-0.07314768,-0.09062041,0.027858391,0.025828995,-0.0873929,-0.07274842,0.059656657,-0.07775743,-0.026309758,0.005272366,0.03497865,0.0476292,-0.07455811,-0.054650065,-0.040830642,0.023812331,0.07956763,-0.06964208,0.03479112,-0.021571241,-0.087828346,-0.041933466,0.050630517,0.07966014,0.03371922,0.03933788,-0.05287648,4.941225e-05,-0.044600464,0.05784758,-0.079327404,0.082430534,-0.043877613,0.08126245,0.02943401,-0.04457171,0.043939836,0.020544566,-0.013604961,-0.0354116,-0.06903222,-0.059374813,-0.02816534,-0.0647309,0.030689307,-0.04863081,0.075789966,-0.041053493,-0.025264911,-0.017893903,0.0589787,0.06179855,0.09122049,0.027580552,-0.024333,-0.08885502,-0.07640047,-0.091353536,0.07492114,-0.078530796,0.009128183,-0.0021982566,0.08547784,0.012806714,0.08324281,-0.0033617318,0.080847494,0.086665906,0.06612971,0.07606531,0.008099273,0.035166614,-0.036156256,0.003995411,0.038949452,-0.0060840696,-0.07284476,0.045850985,-0.012885608,-0.030459665,-0.08515002,-0.06908003,0.07731011,0.05431389,-0.017132342,0.08277673,0.08761116,-0.04354355,-0.08162832,0.28063133,-0.08955727,-0.123683505,-0.17350508,-0.002157536,0.22224893,-0.059214722,-0.008259348,-0.025919193,0.057255693,-0.14398345,0.030743241,-0.06993498,0.048432317,0.12745588,0.01587922,-0.0071454276,0.03830389,0.14095192,-0.13733226,-0.01648119,-0.04858798,0.07842534,-0.040421132,0.21290478,-0.0883602,-0.005100101,0.036327507,0.08335259,-0.0425306,-0.083088264,-0.01510861,0.008714991,-0.04634438,-0.07553911,0.0040047537,-0.10899763,-0.1146512,-0.03725091,-0.09280841,-0.072064675,0.017336397,-0.058346055,-0.077447064,-0.112154536,-0.13043799,-0.022136038,-0.124885865,-0.07076371,-0.07857024,0.07768237,0.097882,0.048763283,-0.14613442,-0.0037510246,-0.14669247,0.13836642,-0.11795418,-0.04851127,-0.07738208,-0.06528046,0.113084204,0.036717035,-0.1240621,-0.06851139,0.0029125044,0.024805821,-0.049656544,-0.15844603,0.07008699,0.13311079,0.019525746,-0.09009921,-0.1364585,-0.0019475847,0.15233806,-0.08627687,0.050681196,-0.08546277,0.026184753,-0.07988598,-0.04250331,-0.048747316,0.01868476,0.021377321,-0.13381907,-0.119791895,0.079993874,0.007578766,-0.121067956,0.013708599,-0.05641035,-0.063895226,0.0087542115,-0.06955763,-0.080165654,-0.05755219,0.1446421,-0.10797035,0.02261715,-0.018643599,0.0029104513,-0.099844314,0.014639585,0.034084607,-0.0879331,-0.06183196,-0.051237736,-0.0063705593,0.01845885,-0.08317762,-0.0072718165,-0.09239447,-0.04218921,-0.023433167,-0.08295072,-0.10128334,-0.08678454,-0.03236496,-0.15664364,0.15630904,-0.0028144165,-0.05192083,0.055041734,-0.0637123,-0.14109477,-0.07017266,-0.10373835,0.30751142,-0.16278684,-0.1084627,-0.30915183,0.0165604,-0.07364134,-0.34449297,-0.058667175,-0.21563116,-0.050264973,-0.3441788,-0.1295589,-0.06902997,-0.02267573,0.039092116,-0.06525754,0.20873518,-0.239595,0.018880956,-0.085352466,0.088836886,0.0099292565,-0.026744593,-0.0027612902,0.03175809,-0.08810808,-0.13551982,-0.028483277,-0.06980491,0.018755797,-0.042314857,-0.049818967,-0.0010846598,0.013977032,0.0027127606,-0.11248781,-0.068242356,-0.08907772,-0.11959394,-0.033289857,-0.11916915,-0.05734265,-0.074755155,-0.32290435,-0.26385358,-0.057062514,0.04582066,0.04891368,0.2974193,0.4999572,-0.00031985668,-0.12377043,0.011968349,0.119632505,-0.002668979,-0.019795517,-0.015957344,-0.08600296,-0.0012719012,0.13991411,-0.09375669,0.008200889,-0.030693237,-0.10668357,-0.040400624,-0.04572917,-0.10410921,0.099868245,-0.02118534,0.008816524,-0.018833835,-0.04922087,-0.06772111,-0.0405714,-0.09482299,-0.020572243,-0.0730426,0.6324174,-0.07958937,0.031383414,-0.095312454,-0.1288885,0.18788692,0.16882667,-0.0074270903,-0.063289255,-0.07488248,-0.10448432,-0.456247,-0.2539208,-0.19700746,-0.03199699,-0.121611275,-0.14898677,-0.012680968,-0.0020696246,-0.101600714,-0.12614164,0.06664187,-0.08813791,-0.0015275329,-0.24519001,0.018191269,-0.024970893,-0.14647901,0.004646212,0.034828357,0.009249426,-0.00424486,-0.062974185,-0.01225505,0.65841675,0.34418428,-0.050490417,0.086550616,-0.15670729,0.05526154,0.52196527,-0.12079809,0.49436715,-0.6450436,-0.23601389,-0.014767922,-0.15358835,0.033451818,-0.38528314,-0.07630639,-0.0013619512,0.36152846,0.06507256,0.1056603,0.07471845,-0.06403903,0.040541776,-0.11531253,0.09169384,-0.02647133,-0.12465438,0.05259844,-0.051135037,-0.003594907,-0.072951645,-0.017260447,0.09184087,0.022550762,-0.08856412,0.018196754,-0.03689482,0.009262182,-0.07577105,-0.02143231,-0.0644822,-0.08503046,0.075214595,0.11099813,-0.0157127,0.01756522,-0.069051564,0.03065396,-0.4630504,0.0241898,-0.0505951,0.31070694,-0.0068844734,-0.15760233,0.015820123,-0.09553168,-0.43271148,0.5450529,-0.10127338,0.010625683,0.06204737,0.088884555,-0.2338667,-0.06030331,0.03310723,-0.06763755,0.051337965,0.026486784,-0.17957935,0.051022492,-0.31682372,0.3319099,-0.015999766,-0.005932765,0.07220288,0.08474793,-0.30975333,-0.007465549,0.05643139,-0.09100629,-0.1111084,0.010800913,0.06266854,0.0584623,0.013332903,-0.038333215,-0.55143267,0.042735837,-0.27304673,-0.018906072,0.054053895,-0.021088943,-0.12702638,0.0894035,0.0011171475,0.013938085,-0.08624031,0.43771538,0.017028801,-0.2986665,-0.047917236,0.035657458,0.663218,0.049529515,-0.009074335,-0.07734536,0.06405363,0.5201163,-0.08956067,-0.074694976,0.6574749,0.034863673,-0.038733333,-0.40998334,0.087138124,0.07950901,0.025537815,-0.019070975,0.0879517,-0.07956225,0.23118798,0.5289683,-0.0960539,0.00912927,-0.71011806,0.39205298,0.21244003,-0.07565954,0.6825808,0.10854578,-0.42188358,-0.30747646,-0.42257527,-0.008150015,-0.34714764,0.06723825,-0.21738347,0.36578482,-0.116653234,0.11049957,-0.96564245,0.027556516,-0.21762395,-0.065617405,-0.07130359,0.622092,-0.027022356,-0.0064727664,-0.6009666,0.030601317,0.035537496,0.0395768,0.20145841,0.03248777,-0.0036185412,-0.108998634,-0.16453555,-0.098066,-0.08858501,-0.35485116,-0.14327939,0.0501378,0.0597198,-0.24964571,-0.13481131,0.020845653,0.16227722,0.1497931,0.3068402,-0.07186745,0.048653964,-0.22348545,0.28726882,-0.4409007,0.008814672,0.0070386454,-0.03141051,0.13937658,0.11003325,0.024413757,-0.046652704,0.010288476,-0.11897615,0.020079989,-0.07572919,0.025548868,-0.015858613,-0.025810756,-0.039383363,0.18802997,-0.67240995,0.390772,-0.0056121815,0.11886976,-0.30101332,-0.8228764,0.69660574,0.007898175,0.004504867,-0.15828,-0.0038253693,0.1290885,0.0055343057,-0.011213097,-0.016387463,-0.0055181906,-0.03148098,0.045939386,0.41214943,-0.09131184,-0.06542801,-0.082640894,-0.2274583,0.054602455,-0.31088325,-0.051521298,-0.048783913,-0.3675433,0.35124734,0.5561096,-0.052309737,-0.09772839,0.315786,-0.099014826,-0.13806038,0.0061040483,0.039650604,0.32702556,-0.12643708,-0.061516732,0.37325853,-0.084193915,0.076159246,-0.3277012,-0.09122647,0.025661346,-0.026212089,0.019401805,-0.07565895,-0.008996718,-0.044020902,0.24755022,0.012403536,-0.11386081,-0.09892763,-0.18894683,-0.18686788,-0.045503803,0.26561072,0.07980167,-0.19095933,-0.24944302,-0.15688638,0.028362222,-0.27315325,0.099405594,0.024270123,0.084176406,-0.0377606,-0.1826353,-0.21835417,-0.07533832,-0.043441687,-0.052733187,0.045185752,0.004945939,-0.06604508,-0.062220894,0.08158239,-0.122223385,-0.035430737,-0.07548703,-0.06592052,-0.0058756485,-0.06031945,-0.09560039,-0.12009974,0.019297026,-0.02002855,-0.031950228,-0.0014401694,-0.049986485,0.10564842,-0.011779063,-0.020880718,0.023489894,-0.021592053,-0.00091457675,-0.21970175,0.005701773,-0.06403516,0.19828543,0.015926968,-0.027338423,0.03397037,-0.02089975,-0.034620345,-0.013892777,-0.28392738,-0.08871075,-0.09270396,-0.03583162,-0.41803417,-0.04046071,-0.09675392,0.12936898,-0.11962775,0.077917896,0.18567935,-0.16602406,0.13337876,0.23761462,-0.13096891,-0.085986115,0.007814193,-0.12404207,0.3324099,0.017723536,0.0074865595,-0.04016336,-0.07551433,0.048240583,-0.14559902,0.03893797,-0.023718467,-0.0739687,0.19691427,0.041236404,-0.23523411,0.07801434,-0.033585835,0.10985632,-0.3218882,-0.077648886,0.030206222,-0.013646244,-0.05736266,-0.11926654,0.033875186,-0.07514779,0.06889575,-0.0053693117,-0.16935933,0.014877942,0.040633563,-0.038264472,-0.024973158,0.21113743,0.047978498,0.07137309,-0.13317615,-0.088454366,0.0339625,-0.095898114,-0.13766532,-0.09624554,-0.06324166,0.023253294,-0.0800806,0.029513791,-0.07184454,-0.041861013,0.02458977,0.08341431,0.07117226,-0.04120276,0.07687644,0.047145702,-0.06300814,-0.04647424,0.0050315186,-0.055535596,-0.019949533,-0.08150356,-0.004273869,-0.012691408,0.077936225,0.067804016,-0.0660687,-0.029181786,0.06790542,-0.0142220855,0.045517646,0.0911975,0.0717788,-0.073745236,-0.028461613,0.02860216,0.07530119,-0.08815497,0.03456656,0.09093336,0.018394656,0.043225266,-0.078784965,0.07296335,0.031728692,-0.09067038,0.041300975,0.036833487,0.021083884,0.022436649,0.05289478,0.0041657537,-0.019815743,-0.092653416,-0.0013845563,0.08032293,-0.041687727,0.0059308633,0.027983353,0.021561787,0.04136052,-0.012396216,0.0669715,-0.08347109,-0.006878443,0.09260202,-0.017276138,-0.09156231,-0.053471643,0.08765017,-0.089458175,0.083703615,-0.006683439,0.009608038,0.03301876,-0.092137635,0.029779628,-0.08472535,-0.0056364015,-0.046807837,-0.07405767,0.04620514,0.043510906,0.051076435,0.065439604,-0.06817491,-0.0027408004,0.032182954,0.07623122,0.012120992,-0.0743901,0.059683956,-0.04836579,-0.012948744,-0.09062903,0.022999868,0.054260068,-0.0062146336,-0.080304004,0.048750497,-0.08001328,-0.078853786,-0.07496303,-0.018530488,0.058607884,0.033945583,-0.042312447,-0.01388479,0.04811924,-0.0741504,-0.021903463,0.0047001094,0.0028811023,-0.08774695,-0.08771986,0.0066441074,-0.040432163,-0.04553733,-0.03732279,0.0010054037,-0.08633392,0.046738617,-0.030876186,0.025912121,-0.005261272,-0.012183145,-0.022064134,-0.021695383,0.06566592,0.11224121,-0.027430957,-0.021258198,-0.02269614,-0.07941768,-0.17037377,-0.09897079,0.05192653,-0.0040217056,-0.1625206,-0.0876218,0.09150555,-0.005590933,0.2370762,0.15855724,-0.1964421,-0.079771966,-0.0073961457,-0.072917655,-0.10253621,-0.03564341,0.016682632,0.040676966,-0.03962752,-0.058380824,-0.13208582,-0.07548386,0.01563267,-0.0229233,-0.046400785,-0.004221514,-0.093249604,-0.052209906,-0.13894488,-0.08823329,-0.13606934,-0.040900756,-0.01824828,-0.018196119,-0.036374416,-0.10493914,-0.068271324,-0.087171786,-0.056670006,-0.00831708,-0.038305946,-0.059239708,0.0042902743,-0.13837898,-0.06639749,0.08567725,0.13320711,0.08295618,0.038742073,-0.12957026,-0.031981118,0.04502201,-0.14583966,-0.12733148,-0.10950643,-0.03561966,0.012938673,-0.06063826,-0.07006512,-0.029021936,-0.04550889,-0.13370752,0.13241662,0.18132871,-0.052456792,-0.062036272,-0.12990636,-0.058908302,-0.111187756,0.066429466,0.091291055,-0.02091862,-0.12067512,-0.1049322,-0.18429445,-0.19398077,-0.057862416,-0.1176811,-0.07897503,0.036289997,0.02181597,0.02376806,-0.07258723,-0.21738608,0.00847456,0.048756775,-0.10791455,-0.048186794,-0.11691078,-0.11122927,-0.0733961,-0.065864295,-0.096044086,0.14721696,-0.009944831,0.0022931693,-0.09235825,-0.07193668,-0.103391744,-0.08998009,-0.13875367,-0.12753761,-0.08423338,-0.13551836,-0.065702364,-0.14005159,0.02766674,0.020202817,-0.013453244,-0.2796258,-0.056698404,-0.031891882,-0.07434616,-0.009598466,-0.15642564,0.69135946,-0.08308919,-0.035828743,-0.08272448,-0.6892882,1.2629411,-0.06605618,-0.16481866,-0.35313007,0.054619707,0.04919762,-0.31758472,0.065249465,0.01850419,0.29410577,0.023726374,0.36579746,0.06845323,-0.17545918,-0.534373,0.044130035,-0.012178674,0.032104038,-0.07278045,0.32079184,0.0071522295,0.03356815,0.089391716,0.09366761,-0.013380051,-0.064099185,0.050561078,0.0028001517,-0.02914539,-0.048417192,-0.06240992,-0.06794343,0.041851975,0.04154802,0.012505747,0.060190372,0.056421895,-0.0019524917,0.03979797,-0.07405096,-0.050593883,0.018753275,-0.4773846,0.056315683,0.090371706,0.23290546,0.15175658,-0.025232425,0.010923378,0.043375663,-1.1315746,0.23032284,-0.4624123,0.0479343,0.08702671,-0.04852006,-0.8600805,0.004197523,-0.023735777,-0.07543838,0.0063240975,0.015040852,-0.2132339,0.354811,0.2884993,0.10868059,0.022925578,-0.027883515,0.078688346,0.1582256,0.19726108,-0.0064493716,-0.01683423,-0.042978425,0.058616184,-0.0027454048,-0.055707395,-0.09092298,-0.026353434,0.01598046,-0.4499005,-0.048560083,-0.4554806,0.08729163,-0.07509882,0.6200647,0.012205097,0.05301065,-0.058209255,-0.0537818,0.01711087,0.36490527,-0.54689384,-0.11960636,-0.050456062,-0.061588693,-0.020616565,-0.08244091,-0.3775375,-0.0011275485,-0.030274812,0.9532668,0.077005245,-0.02485454,0.7435039,-0.00481119,-0.0857655,0.11399427,0.052170105,-0.021721788,0.06373406,0.08095836,0.060210858,-0.072821826,0.0058153123,0.07643638,-0.038265076,0.068284996,0.018578969,-0.051520057,0.07874588,0.052423246,0.002868794,-0.089593075,-0.08933946,0.037382863,0.016835973,-0.04381851,-0.07995185,0.04672783,0.01464472,0.03154803,0.023213312,0.07625056,-0.0918658,0.023122817,-0.07981401,-0.04651745,0.064349,-0.0053074285,-0.0040987507,0.0346907,-0.07074563,-0.03557725,-0.055385817,-0.019054376,0.08111761,0.07866605,-0.041298743,-0.01028987,0.04389409,0.029068448,-0.0015725419,0.0009402782,0.028500639,0.057285123,-0.004413709,0.08287076,0.0071444586,0.02907566,-0.018603034,0.018419936,0.015680358,0.07892799,-0.08205886,0.02379404,-0.047824994,-0.041387092,-0.057551883,-4.106015e-05,0.0632396,0.010790579,0.027513638,-0.075012624,-0.04945748,0.009639345,-0.004379593,-0.0060816333,-0.03296896,-0.06541315,-0.074046694,0.08919176,-0.01489982,0.0734111,-0.06961797,-0.052483596,-0.07362915,-0.035051238,0.018975765,0.027174942,-0.056192033,0.07761597,0.03439974,0.09085756,0.05282984,-0.08413809,-0.015711635,0.043507136,-0.00061488897,-0.07077736,-0.07010162,0.063713215,-0.006392807,0.08409076,-0.091322854,0.016842708,0.008977853,-0.07555793,0.09034402,0.071423985,0.06655278,-0.076203175,0.04134377,0.043814532,-0.05938349,0.07383796,-0.035259057,-0.024256878,0.08873773,-0.03502618,-0.0884404,0.038069807,-0.014608279,0.017335817,0.025646567,-0.061905093,-0.0039697364,-0.015987657,0.068569206,-0.07598172,-0.019054614,-0.04633947,0.09118528,0.08114234,-0.022549024,0.10652537,-0.0029810513,-0.089472815,-0.15419874,-0.3367274,-0.097886495,-0.14696392,-0.021189317,0.15919891,-0.44016424,-0.2723331,0.18610136,0.0052307346,-0.07744393,0.18051203,-0.18538426,0.43733191,-0.0022518486,-0.44339818,-0.29214552,0.024549525,-0.118523315,0.021532167,-0.05566096,0.26809496,-0.10024548,-0.11518786,0.18219788,0.02849876,-0.030536985,-0.07373362,-0.056715343,-0.014195258,-0.08840505,-0.03361697,-0.11671848,-0.08555733,-0.01114428,-0.2776489,-0.04617104,-0.069509216,0.012605821,-0.12789951,-0.017419256,0.090177976,0.08189712,-0.12578619,0.034105908,-0.06896238,-0.06222123,0.021253757,-0.34924576,-0.10534225,0.021412252,0.0057168882,-0.18464138,-0.060159672,0.14800785,-0.05526719,-0.017020656,-0.016043,0.22453466,0.0072107804,-0.19570686,0.062078062,-0.040538087,-0.0103207575,0.12251016,0.040128086,0.07521508,-0.114778794,-0.117678136,-0.05296987,-0.024756081,-0.09117025,-0.017030835,0.055490736,0.03713377,-0.09332492,-0.11467768,-0.04657829,0.048051648,-0.018289201,-0.118756026,-0.039473247,-0.05997848,0.036770206,-0.023003547,-0.16778648,-0.022742808,0.21311906,-0.42895785,0.0456549,-0.10113474,-0.031985357,0.050506465,-0.21831675,-0.055005092,0.16749947,0.05861538,-0.041650075,-0.14998949,-0.062202994,-0.120312706,0.0571306,-0.053962987,0.3942712,0.024427345,-0.08182876,0.10700584,-0.10757713,-0.016620904,-0.15530805,0.05780556,-0.29776785,-0.05010371,-0.041383937,-0.04795924,0.036705527,-0.14716527,-0.08638137,0.006116875,-0.079148516,-0.15329245,0.011689663,0.060134627,-0.14657986,-0.020963022,0.065596275,-0.45699418,-0.0004725235,-0.04212065,-0.06139649,0.013134183,-0.152728,-0.14371514,0.1976701,-0.079306774,0.07458041,-0.042374577,-0.06340532,-0.12048345,0.013733459,-0.10489099,0.21913847,0.040326968,-0.043342236,-0.06798789,0.0327908,0.032808103,-0.042156737,0.013186603,-0.11727972,-0.13904877,-0.06393475,-0.03067065,-0.011981324,-0.06928207,-0.0689535,-0.103571534,-0.071264215,-0.00083603757,-0.08791578,-0.09839467,-0.0807627,0.03030286,-0.11882315,0.02188265,-0.07876116,-0.09767427,-0.044007454,-0.1855798,0.012097132,-0.075041495,-0.08045778,-0.23680261,-0.08671919,-0.020184679,-0.095422596,0.01864946,-0.07125376,0.18514846,0.032130886,-0.096184894,0.023802305,0.011735299,-0.11263259,-0.053114407,-0.10242893,-0.04947013,0.13470414,0.008841027,0.05812907,0.017836995,-0.058905922,0.006530661,-0.07074051,-0.12748832,-0.17028545,0.00962316,-0.0038578908,-0.1380657,-0.13888887,-0.08726802,-0.12917054,0.12757239,0.0027317822,0.18472509,0.23132022,-0.038813632,0.042191878,-0.022494804,-0.122959584,-0.11377866,-0.055960927,-0.006116945,0.0034626448,-0.0031662546,0.22967204,0.016879205,-0.014964584,0.014392414,-0.054424107,-0.110455826,0.005638781,-0.030575143,0.019377274,-0.055855643,-0.043417998,-0.03639322,-0.102110036,-0.06836716,-0.0154606085,-0.040956557,-0.13024306,-0.08826515,-0.018682532,0.0022256735,0.016860167,0.05191476,-0.048329152,0.052091874,-0.023141459,-0.015395835,-0.018274747,-0.08841408,0.07874476,-0.029921018,0.08207945,-0.05654746,0.038386457,0.0068623945,-0.07703978,0.0773566,0.0511887,-0.0774751,-0.023327671,-0.078499496,-0.09107512,-0.0444241,0.041536264,0.002825141,-0.06453118,0.052786686,-0.08059045,-0.09076388,0.0024493486,0.08878679,-0.035139076,-0.032909255,0.04839299,-0.040109787,0.071539946,0.028269842,0.08282747,-0.02217134,-0.09087156,-0.01464279,0.042540394,0.064832084,-0.040212877,0.03457161,0.065235905,-0.03170872,-0.032119446,0.039346866,0.032145828,0.026671804,0.065423466,-0.059562087,0.07391142,-0.032254986,0.08163423,0.0694521,-0.048515722,0.03405478,-0.07951364,-4.6886504e-05,-0.032005396,-0.029315934,-0.03856144,-0.06834552,0.062222503,-0.06285637,-0.08554203,-0.021370813,0.075850405,0.092715956,0.07229429,0.05827173,-0.06354048,0.029981822,-0.027043454,-0.026832186,0.049341477,0.078927465,0.092787914,0.044136353,-0.08210409,0.0431133,-0.035500083,0.08252505,0.06745901,-0.09098458,0.06292141,-0.06661548,0.09163421,-0.0009897724,-0.053474255,0.022349142,0.05766193,0.015677013,0.021907255,0.07078951,-0.008399755,0.06881375,0.06436036,0.044753782,-0.0015291944,0.019637272,-0.0764074,-0.016049996,0.006072335,0.05986499,0.07199881,0.009472452,-0.069162115,-0.092813134,-0.03889681,0.024511538,0.060956188,-0.08295871,-0.040298942,0.03099209,-0.08944565,-0.0828061,0.059695624,0.008619666,0.000108867884,0.109566905,-0.08004804,-0.13486126,0.03242003,-0.2911697,-0.15093474,0.07381755,-0.078412086,0.79047936,0.3827243,-0.089449495,-0.40457684,0.29806995,-0.00075049856,0.010121632,0.26896083,-0.097798005,-0.07582349,-0.110459715,-0.023713754,-0.55207396,-0.09714959,-0.010324602,-0.05503431,0.0039543626,0.5133043,0.07589188,0.0011127983,0.010611856,-0.040747806,-0.07561048,-0.10886568,0.08812124,-0.12109693,-0.13114452,-0.04519265,-0.043071717,-0.08750183,0.0286398,-0.09445819,-0.0016237922,0.048527043,0.035089467,-0.012199034,-0.036958944,-0.14351463,-0.032332197,-0.012957061,0.26932886,-0.12903063,-0.06994448,-0.018507577,-0.26546097,-0.12799324,-0.061815057,-0.015825994,-0.09208466,0.41389543,0.26500666,-0.115907885,-0.12031334,-0.06820075,-0.11068018,-0.027358461,-0.029348742,0.035358574,-0.037886154,0.0031588306,-0.015462643,-0.014843674,-0.2509059,-0.073587276,-0.021904124,-0.010721386,-0.114677064,-0.14470457,0.11474488,-0.05109454,0.042809863,-0.050421722,-0.089536674,-0.10724519,-0.045640256,0.036110286,-0.021119857,-0.08110878,0.36160558,-0.10218744,0.15664549,-0.013737231,-0.11413293,0.015581948,-0.25912008,-0.12413247,-0.14871712,-0.013930339,-0.060186144,-0.2364409,-0.19551682,0.44347322,0.024309585,0.029800817,-0.18384612,-0.0766864,0.04306119,-0.14553651,0.024309527,0.4007107,-0.08665021,-0.06763687,-0.2979592,-0.07666919,0.010152282,-0.029290492,-0.09472102,-0.24143785,0.0761063,0.038672563,-0.080504894,0.029417671,-0.1527858,0.044225756,-0.13119486,-0.027864736,0.007459175,0.31082985,0.3704768,0.08751113,-0.34585673,0.005226511,0.08632567,-0.021384424,-0.11354728,-0.0973199,0.033361863,0.10989952,0.0033391216,0.097172685,-0.09471999,-0.17932019,0.19580895,0.0108762905,-0.10385077,0.013116494,-0.056216728,0.0057975566,-0.03195962,-0.011173223,0.028139072,-0.0618403,-0.057353135,-0.10584262,0.07976158,0.022703584,0.02724594,-0.08462213,-0.08977366,-0.0018954305,-0.07633829,0.013149576,-0.059639584,-0.035667516,0.034980465,-0.104689054,-0.016263383,-0.049616896,-0.0028663776,-0.031136887,0.012593927,-0.09921855,-0.06687577,-0.09144584,0.10518765,-0.04720983,0.016982153,-0.050747667,-0.016748326,-0.019261813,0.024153462,-0.1457054,-0.1304199,-0.0715287,0.1560132,-0.06112893,0.018011084,-0.048706077,-0.04584368,-0.08348023,0.030069852,-0.12796643,-0.20223899,-0.18233328,0.032153018,0.039917044,-0.018256191,-0.1660155,0.05242558,-0.119628735,-0.010660977,-0.006888766,0.0011746433,-0.06909377,-0.04729868,0.0068041277,-0.05828164,-0.07200008,-0.055958506,-0.044385605,-0.045978017,0.030460348,-0.023036888,0.015385969,0.020036966,0.005270222,-0.08341374,-0.059145365,-0.053071987,-0.04789454,0.035043024,-0.016130287,0.016238945,-0.071956635,-0.03644183,0.01772835,-0.019538112,0.015915334,0.00024659417,-0.0922523,-0.08161723,0.03834489,0.0017571447,0.012295979,0.027316151,-0.1058869,-0.038800023,0.025245227,-0.08508839,-0.1346084,-0.036759365,-0.039554775,0.038808823,0.10986921,-0.17740059,-0.05349266,-0.09546377,0.048935264,0.16860475,0.0073784064,-0.04823146,0.21713483,-0.22286464,-0.42957526,0.19670121,0.05391788,-0.20997329,0.10311804,-0.15061097,0.16483632,-0.010613567,-0.660235,-0.30319822,-0.070499435,-0.058849003,-0.1279097,-0.05083378,0.12936218,-0.2421376,-0.069238484,-0.019387344,-0.10657767,-0.116387926,-0.056957506,-0.017340237,-0.062125333,-0.1633095,-0.0839076,-0.10759803,-0.11208559,-0.03020931,-0.3488164,-0.13795722,-0.1405421,-0.12002128,-0.17997764,-0.11723097,-0.103431076,-0.09794415,-0.16849425,-0.28282046,-0.023568884,-0.13190271,-0.024553558,-0.091039315,0.021923278,-0.1309239,-0.106510535,-0.14010407,0.3060449,0.49647096,-0.045329493,-0.14598158,-0.018373486,0.22464435,-0.018342718,-0.17251478,-0.004165781,-0.07839693,-0.084691435,0.3967186,0.16181804,0.0046866233,0.20049116,0.027980078,-0.14080387,-0.13516954,-0.09075663,-0.16088295,-0.007594788,-0.120501556,-0.12709321,-0.10983084,-0.14915237,-0.10807824,0.0017080349,-0.16581137,-0.020596428,0.0949811,-0.062011212,-0.0034487036,-0.112549454,-0.14191142,0.1829384,-0.31025144,-0.045208868,-0.056272887,-0.18309812,-0.0047550574,-0.29050124,-0.054433286,0.15167913,-0.09037487,0.033365976,-0.1988383,-0.116400525,-0.060647357,-0.10866443,-0.027997859,0.60012,-0.14420372,-0.11356407,-0.509267,-0.1312349,-0.04829786,-0.09513392,-0.0134476535,-0.42672917,0.017039547,-0.05236541,-0.05608265,0.016583083,0.042557098,-0.0215642,-0.0845585,-0.013846628,0.0026063398,0.034453504,-0.06952733,-0.076132536,-0.07050893,-0.03999917,-0.08778985,0.05595524,0.010448255,0.090267904,0.027603023,0.09085678,-0.07033259,0.07560583,0.0017104521,-0.07821747,0.09145763,0.02091188,0.046069644,0.00088475645,0.07648053,-0.049141724,0.045961715,0.044934534,-0.017451286,-0.037310258,0.010160394,-0.07323271,0.041325845,0.064266734,-0.020055614,-0.035447508,-0.066944204,-0.04963249,0.03475208,0.008171089,0.068402566,-0.02048517,-0.079666205,-0.075942755,0.07724909,0.043079503,0.061758853,-0.08924768,-0.014134005,-0.07773127,-0.006900333,0.061393626,0.012045257,-0.05086092,0.0887498,-0.06441959,0.043608792,0.02608689,-0.050827757,0.04356002,-0.061994284,0.009927094,-0.0696178,0.067164086,0.031737983,-0.077997856,0.047664903,-0.039651137,-0.06594788,-0.079803936,0.050712176,-0.083628215,-0.007963337,0.04159742,0.0871144,-0.018528916,0.06294618,0.08647279,-0.08056433,0.06671321,0.043040358,-0.00023358315,-0.087631084,0.051732995,0.074563675,-0.039372284,-0.07829712,-0.012790732,-0.056708436,-0.09093748,-0.024710014,-0.056869213,-0.021805048,0.03917653,-0.009117335,-0.04735368,-0.003358543,-0.029292576,-0.0465557,0.03509531,0.03617493,-0.023211472,0.05316695,0.08610275,0.075330816,-0.06653114,0.07080113,-0.07156387,-0.06591753,-0.046432447,0.0136999935,0.047211967,-0.023177959,-0.08112653,-0.051129214,0.058428608,-0.06823437,0.026798092,0.03444437,-0.06397931,0.8191437,0.2433215,-0.08751051,-0.08660383,-0.3754067,-0.04339839,-0.24279526,-0.016365953,0.4917002,0.22491612,-0.32063967,-0.0049019037,-0.17318307,0.00010788239,-0.46791044,0.40562823,-0.049217947,-0.03987208,0.013137668,-0.35339165,-0.69579816,0.04774911,-0.008904585,0.07019357,0.040309653,-0.002765004,-0.016868517,-0.023736574,-0.086846344,0.064941354,-0.0685131,0.030260209,0.23783916,-0.07059048,-0.07135033,-0.06813919,0.02883878,-0.07106659,-0.041659225,0.013986696,-0.08760975,-0.12150027,-0.005164745,-0.07829745,-0.05037242,-0.11573031,-0.049726952,-0.027958069,0.018539466,0.036231175,-0.08299701,0.12393598,-0.2579054,-0.12711197,0.0225496,-0.07158698,-0.43204656,-0.057012368,-0.10703209,0.018679734,0.015148499,-0.12781878,-0.8215379,0.049499784,-0.08789647,0.018975547,0.013174299,-0.019896895,0.5328205,0.031744,0.22454455,0.9762109,-0.0001596464,0.09017091,-0.07727954,-0.18134439,0.50232625,-0.036941424,-0.09267881,-0.07770426,0.010202442,0.025458233,-0.065016724,-0.07826728,0.070379876,0.036310554,0.30090487,-0.028588032,-0.4352894,0.11899516,-0.06220273,0.06640488,-0.52151287,-0.09615348,-0.23472129,0.017800376,-0.06811063,-0.2756687,-0.51220626,-0.1097511,-0.102220856,-0.11897375,-0.18004134,-0.1440002,0.9376444,-0.14673512,-0.07428372,-0.1644118,-0.069521055,0.06345775,0.030532217,-0.05907469,-0.12587626,-0.45060095,-0.08700496,-0.132929,-0.0031878054,0.008329648,0.03035529,-0.043978803,0.17376903,0.19303656,-0.03493275,-0.049947657,0.10529819,0.105821304,-0.2106542,0.0009356046,0.033291113,0.05542684,-0.033102628,-0.27680412,-0.020944675,-0.07360107,-0.027634203,0.25872692,-0.10000179,-0.6651604,0.012340828,-8.6595595e-05,-0.07982129,-0.076746926,-0.12169516,0.053693898,-0.0029409616,0.01661507,-0.23868223,0.055721052,-0.22776964,-0.014856317,-0.019700944,-0.000621678,-0.13860059,-0.09521363,-0.10575172,-0.03256481,-0.03290356,0.016977811,-0.095677644,-0.10488384,-0.07179339,-0.04740047,-0.14024642,-0.11894949,-0.06731454,-0.12577376,-0.019764433,-0.1114893,-0.01461287,-0.14107624,0.004258725,0.097357936,-0.39538714,-0.024881981,-0.10443223,0.08609785,0.11686726,0.0991648,0.40797397,-0.086229146,-0.051020943,-0.0024133283,0.3547048,-0.011280964,-0.097371854,0.012277757,-0.11728462,-0.050331652,0.057808734,0.3825511,-0.05319969,-0.52047473,-0.09641335,-0.07288096,-0.17747372,0.225245,0.21427818,-0.11521206,-0.12572484,0.0149765005,-0.047815695,-0.008019805,-0.074812226,-0.050736263,-0.06276834,0.008257886,0.70453286,-0.021050263,0.029643219,-0.05452988,-0.054087024,-0.005777859,0.047180858,-0.016871102,-0.026196724,0.016288184,-0.10365912,0.49981332,-0.29973817,-0.5815661,0.02808754,-0.07240921,-0.05970526,0.027337318,-0.25255755,-0.11164917,0.015415051,0.054906085,-0.111406736,0.08926647,-0.1504398,0.100009196,-0.06840009,-0.122890234,-0.008565309,-0.10957654,0.07033667,-0.073610224,0.024006203,0.05573427,0.46901155,0.54744864,-0.0877821,-0.022068124,-0.90082526,-0.07594687,-0.051423296,-0.0021002311,0.5626199,-0.536369,-0.13748449,0.1465925,-0.26371375,-0.058490343,-0.7636958,0.0017947768,0.018141387,0.81953496,0.030117214,-0.14993964,0.2779275,-0.027128609,0.14449134,-0.097162545,0.08926716,0.93766344,-0.120961174,0.048975118,-0.27779272,-0.06538577,-0.16195548,0.07742862,0.14050806,-0.012391299,-0.03335375,-0.01912497,0.14412837,0.005764082,-0.023969546,-0.050813776,0.03529247,0.08359171,0.034464434,-0.11295701,0.046384834,0.004200645,0.019395608,-0.29726315,-0.80031973,-0.03115004,0.0497886,-0.65659696,0.62220293,-1.0139695,0.060944937,-0.0035757842,-0.5570344,0.35383323,-0.87474716,0.017041206,-0.024726503,-0.018133514,-0.21787807,-0.032392003,-0.0412386,-0.07559946,-0.08961584,0.05895444,-0.33768767,-0.2983566,-0.69455147,0.4391039,0.015703581,0.01968556,-0.20300114,-0.015546336,0.11737469,-0.05227372,0.03819426,0.06960007,0.20199934,0.19268201,-0.011088252,-0.0018807501,0.08032739,-0.038742032,-0.8030774,-0.036748584,0.1420772,0.006834061,0.0035407778,0.13178341,-0.4248699,0.048862852,0.23189512,-0.06186066,-0.048201337,0.997375,0.48642722,-0.30087447,0.08362936,0.043476555,0.87226474,-0.02298154,-0.47690728,-0.07896872,-0.007948525,0.33848745,-0.016983913,-0.02777818,-0.24099563,0.064797536,0.061063286,-0.5848598,0.049933814,-0.18383345,-0.020973707,-0.08489637,-0.06008958,-0.04640183,0.03841838,0.5441706,0.101782255,-0.06505971,-0.56468666,-0.48049206,0.18447334,-0.011030977,-0.29695424,-0.63097245,-0.27016413,0.39419717,-0.08675661,0.014028882,-0.027311238,0.1727931,-0.21745351,0.33536687,0.013136653,-0.3395851,0.6005018,0.0122324005,0.025576262,-0.086376585,-0.10731793,-0.2959372,-0.13220505,-0.03801358,-0.03652202,-0.085802935,-0.12998308,-0.035849705,0.04767626,-0.06018643,-0.08837327,-0.097852916,-0.23058617,0.001295814,-0.04292237,-0.258243,-0.020585941,0.074659474,0.14228852,-0.22761367,0.012363992,-0.0014586062,-0.25844806,-0.3776885,-0.42767644,-0.0643923,-0.07471528,0.013049161,-0.06799971,-0.69615626,0.023995865,0.03300399,-1.2970119,-0.1264265,-0.16329579,-0.032345604,0.056787442,-0.071397826,-0.120585985,-0.09822933,0.15063949,-0.09873008,-0.057936024,0.060154237,-0.062903225,0.14196059,0.19034672,-0.216052,-0.15909423,-0.051625498,0.09489583,0.31227738,0.2842951,0.072181284,0.07096853,-0.07374958,-0.22264457,-0.0032056344,-0.10945906,-0.1224728,0.020428961,-0.08056719,-0.48581737,0.02923795,-0.84938353,0.112076975,-0.1280947,-0.041795786,0.035610333,0.064016856,-0.38076755,-0.07594356,-0.024057524,0.15500726,0.13648437,-0.96034575,-0.088092744,-0.11863715,0.46838215,-0.046336897,-0.2853742,-0.07546679,0.015013358,-0.30313343,-0.13566266,0.12797129,0.41981733,-0.10265285,-0.041818816,-1.4440304,0.002615216,-0.37600765,-0.038363054,-0.07420004,-0.046375517,0.0038499981,0.2246415,0.10997536,-0.06238121,-0.015292382,-0.30367848,0.18069696,0.15437236,-0.03314535,0.62287086,-0.23254517,-0.19725583,0.08743757,-0.12927121,-0.026150241,-0.31905937,-0.07130792,-0.09063179,-0.06444446,-0.011708647,0.33538315,-0.056709513,0.005450915,-0.13402307,0.08053251,-0.10832947,0.42559248,0.10101375,0.010004997,-0.07270395,-0.020455262,-0.092228435,-0.071858525,0.106441036,-0.06335986,0.08820897,-0.13602592,-0.18100388,-0.12475805,-0.041011713,-0.04966094,-0.11528213,-0.053101715,0.03001564,-0.10205134,-0.098006554,-0.035469048,-0.21035102,0.0019251304,-0.002029034,-0.07949996,-0.09729686,-0.1734209,0.096841484,-0.29936075,-0.13250907,0.07548127,-0.1801242,0.11600391,0.23041211,-0.016080253,0.061618246,-0.10433302,-0.2327676,-0.07328938,-0.114852645,-0.08637322,-0.096607886,-0.119338386,0.057120588,-0.087494895,-0.30051956,0.30380028,-0.028047934,0.07363952,-0.19191206,-0.015164739,0.16226311,-0.12217283,-0.0012990832,-0.01958226,-0.19569787,-0.04532144,-0.08887338,-0.13213894,0.021029044,-0.04709723,-0.65210915,0.09732112,-0.40335065,-0.10136359,-0.018851556,0.027838089,0.10362074,-0.04307643,-0.14409295,0.0019194699,-0.028827984,0.051008157,0.04325105,-0.004805501,-0.036652558,-0.026812626,0.7350944,-0.11092914,0.11014634,-0.015826557,0.0016779845,-0.18826923,0.086186774,0.10623961,-0.2875416,-0.26319236,-0.028747411,-0.41508776,0.025523584,0.15333344,0.08292421,0.022754584,-0.09245834,-0.06624064,-0.048265133,-0.02892416,-0.086277165,-0.011970304,0.052110814,0.056427635,0.016153902,-0.026953094,-0.014368892,-0.07960329,0.07854355,0.028889358,0.03547079,-0.027137578,-0.091370225,-0.07536577,-0.057408616,0.09223554,0.0033705458,-0.09219134,0.013249002,0.040777884,0.03990688,-0.034418177,-0.06349915,0.019609846,0.064943545,0.0044814646,0.03625091,-0.007159464,-0.06908787,0.054062985,0.051487513,-0.07663949,-0.048856314,-0.042747874,-0.087474845,0.0037495866,0.084936224,0.042013995,0.01294449,-0.0031310245,-0.064737365,-0.06636086,-0.0013960674,0.008126706,0.0014768913,0.0841561,0.0076169,-0.0054870024,0.015546143,-0.07356582,-0.053508233,-0.053025324,0.080358036,-0.010564476,0.072076164,0.08704115,-0.065085486,-0.0073290095,0.00575687,0.06294083,0.041133873,-0.055831473,-0.08907539,-0.08994523,-0.05060212,0.08567204,-0.07019762,-0.033620838,0.07405601,-0.023658454,0.0022303984,-0.03785951,-0.04930695,0.030573599,0.068191715,0.042487524,0.05740062,0.040382557,-0.076691575,0.0335285,-0.033630602,-0.016814858,0.0923925,-0.08922432,-0.014264569,0.040696673,0.08920363,-0.0014108345,-0.029143885,0.024965182,-0.08605691,0.064831086,-0.07618294,-0.041587584,0.00673721,0.083354495,0.018719472,0.0069170073,-0.07601818,-0.036068328,-0.029904276,0.03739745,-0.04543127,-0.015563764,0.0672388,-0.05366401,0.07208689,-0.05846179,0.024666734,-0.02209603,0.0886626,-0.07778348,0.043780454,-0.01646521,-0.067868605,-0.039908588,0.016108565,-0.085927166,0.076953016,0.10132769,-0.16088054,-0.1439066,-0.072954014,-0.035693455,-0.17918116,-0.0062637646,0.071432196,0.02449562,-0.27725166,-0.13233843,0.0571162,0.013643957,0.22147708,0.16924201,-0.1353104,-0.12309066,0.035202157,-0.1533374,0.040110387,-0.07453016,-0.0036437646,-0.12449512,-0.028447453,-0.099169225,-0.08824208,-0.028453607,-0.02174332,0.04452155,0.022758186,-0.0045366134,-0.13860928,-0.123110645,-0.08800892,0.0053773513,-0.11807685,-0.040671673,-0.04179258,-0.08818867,-0.08528617,-0.13395141,-0.07167868,-0.13892993,0.0061265514,-0.088842615,-0.022463156,-0.032047596,0.096014,-0.13416035,0.027721638,0.07423805,-0.015388956,0.0071736886,-0.063267134,0.016085608,0.0036040263,0.16199654,-0.10940951,-0.09582532,-0.029088272,-0.049164895,-0.009938385,-0.031865366,-0.04841711,-0.1189437,-0.12739548,-0.033231642,0.030673638,0.09747339,0.07237944,0.02967405,0.027217384,-0.21344209,-0.21067852,0.0944075,0.18188421,-0.05759008,-0.055521358,-0.10332133,-0.0788948,-0.14681482,0.01896801,-0.07889324,-0.10651427,0.0025905343,-0.07226896,-0.092818074,0.0226819,-0.13010818,-0.032773558,-0.022846997,-0.22216578,-0.12966555,0.0019347114,-0.108134784,-0.07565259,0.043881305,-0.020738227,0.03094763,0.02017371,-0.08065045,-0.018673792,-0.11700597,0.0065515516,-0.042954132,-0.13129148,-0.14307988,-0.14587212,-0.09687395,-0.119949594,-0.20610006,0.01211515,-0.06618106,-0.13903998,-0.40627262,-0.10142891,0.013078727,-0.12587973,-0.036487106,0.5998147,-0.3928906,0.010796115,-0.090848245,-1.0421755,0.74910045,0.6014314,0.05415701,0.6159456,0.3792592,-0.13063256,-0.097329505,-0.6868248,0.08562627,-0.8024662,-0.21942449,0.06311909,0.544967,-0.02355811,0.7023687,-0.20397498,-0.06956768,0.060701676,-0.091894686,0.05050189,0.058576133,0.016706742,-0.04737088,-0.31299326,-0.032053187,0.038769267,0.038214244,0.27185625,0.062829666,0.029504798,0.0114917755,0.069375046,-0.043933023,0.014816031,0.020394057,0.07371739,0.085570104,0.08686619,-0.11853084,-0.0419164,-0.05993427,0.039120782,0.008034857,-0.8739689,0.03048335,0.019932687,-0.58260226,-0.3081335,-0.5420302,-0.008169159,0.0044838786,-1.8578026,1.9785638,-0.30046976,-0.09119422,0.009041585,0.07273454,-0.509529,0.085154064,-0.01628258,0.07152278,-0.03922266,-0.052244347,-0.20834957,-1.0034072,-0.42438367,0.8578264,-0.05927334,0.09101055,-0.0112319365,-0.22402494,0.30277678,0.06783918,0.08924208,0.0034957305,-0.070449844,-0.08975576,0.0185453,-0.015935943,-0.009172946,0.035545684,-1.0667214,-0.037383642,-0.16652618,0.1241415,0.09270521,-0.3105458,0.07959048,0.04301033,-0.053788178,0.05141323,-0.0054030344,0.9812518,0.79875445,-0.1330965,-0.05991944,-0.07089634,0.7157774,0.0136395395,-0.3408358,0.051861532,-0.07085341,0.26470634,-0.08813779,-0.03452939,-0.13145621,0.016540915,0.08927067,-1.0506902,-0.0917496,-0.26815575,0.016976677,-0.025455527,0.06653669,0.041169725,0.024408726,0.11112735,-0.07430159,-0.06901522,-0.08769551,0.039664634,0.04297775,0.024529219,-0.09009204,0.011027049,-0.026467368,-0.019191243,0.014377756,-0.09051514,-0.045127258,0.122040406,0.00045641512,0.061765254,-0.020142786,0.057156295,0.057557493,0.079093374,-0.09276027,0.0621664,-0.0044550374,-0.056493126,-0.047747426,-0.07295431,0.09112241,-0.05247782,-0.00022730231,0.059391774,-0.070565045,-0.045288358,0.085626625,-0.00619296,-0.08168498,-0.035004664,0.05874441,-0.01711753,0.014150426,0.015138827,-0.014947988,-0.052160427,0.020789795,-0.065677345,-0.013762593,0.01700773,0.017757803,-0.015184097,-0.02755005,-0.025130091,0.077961534,0.05085875,-0.060793746,-0.0049070194,-0.033014134,0.0072289994,0.09221546,-0.03572685,0.054464005,0.08017636,0.052424107,0.058231898,0.0392207,-0.014692776,-0.024009496,0.031719483,0.024029102,-0.03688966,0.08143368,-0.11511929,0.07619127,-0.08485722,0.05478824,0.107703425,-0.0051456676,-0.0010788515,-0.009613246,0.018099666,0.004062243,-0.0017812923,-0.03671228,0.049433418,-0.058801673,0.005146183,-0.027694002,-0.032538757,0.06567063,0.07585064,-0.06413412,0.02069687,0.037296496,-0.03532941,0.007621281,0.0013424754,0.019980058,-0.068238646,0.05991978,0.012866862,-0.017579168,-0.042435944,-0.06917651,0.021321848,0.00916616,-0.068506315,-0.06470223,0.012117267,0.08614353,-0.0534304,-0.050210122,-0.071261995,0.054794945,-0.065702006,0.007905647,-0.027311973,0.08956457,0.052411743,-0.062454768,-0.043344166,-0.19386351,-0.049461134,-0.12848192,-0.07515912,-0.42631435,-0.24991664,-0.0723143,-0.13579544,0.20925753,0.27285048,-0.42307404,-0.55995226,-0.25831273,0.0028096547,0.03548255,0.20634326,-0.12702018,-0.129576,-0.058551475,-0.34585962,-0.40060475,-0.047191653,-0.09414518,0.03296253,-0.074915886,0.3300504,0.06372548,-0.135287,-0.41435468,0.038191676,0.10059243,-0.028573262,0.020350644,-0.1091096,-0.17955722,0.01680972,-0.00719012,-0.08834238,0.034764834,-0.11651231,0.019373199,0.047687374,-0.00801855,-0.078260615,0.02915617,0.029460154,-0.1865145,-0.09354527,-0.100350045,-0.0018494278,0.051254656,-0.030214412,-0.12306752,-0.12633616,-0.023043556,0.0271574,-0.16363323,0.063028485,0.2561297,0.05286833,-0.067740075,-0.042357214,0.19950254,0.0009833768,-0.19155584,-0.053191107,0.01946502,-0.041873425,0.032717362,-0.20961493,-0.114152245,-0.31866246,-0.039032843,-0.11051333,-0.17729874,0.2903104,0.21620503,-0.14079691,0.01769149,0.025237354,-0.11322903,0.04878117,0.038776703,0.07398645,-0.103439935,0.0005328705,0.007063642,0.09833835,-0.20503476,-0.13220157,0.04311885,-0.094821036,-0.05045759,0.06773755,-0.23206782,-0.020904314,0.095647976,0.54128313,-0.21801981,0.100800924,0.08098102,-0.09746755,0.021574544,-0.025494585,-0.10545349,-0.07972665,-0.07412564,-0.17372246,0.0052933325,-0.19584614,-0.58592224,-0.09150191,-0.08904127,-0.090425804,0.06734101,0.041500006,-0.11883283,-0.0040947385,0.013912214,-0.11439218,0.08819304,-0.013422493,0.036080413,-0.0116969,-0.15483178,0.45934406,0.7471739,0.037322942,-0.40701124,0.15832222,-0.5062394,0.0037080913,-0.10728103,-0.05849117,-0.32293123,0.26637256,0.028107597,0.293597,-0.03465449,-0.23178788,-0.028421566,-0.007849179,-0.09319903,0.03208783,-0.09325477,-0.38138545,-0.0637834,0.03715822,-0.0703421,-0.043026846,-0.073508464,0.015696526,0.039036322,0.009314948,-0.00624051,-0.020841574,-0.027250845,-0.06255302,-0.02495069,-0.096450955,0.03882461,-0.07597849,0.0709086,-0.073093936,-0.13857384,-0.006511854,-0.09295365,-0.119795054,-0.26671785,-0.03487474,-0.14110237,-0.0791838,0.10455261,0.10473764,-0.025540024,-0.116547786,-0.16750173,-0.20215926,0.38409385,-0.0065835784,-0.050040487,-0.06547767,-0.10436035,0.020298427,-0.09308053,-0.036823552,0.023360375,0.009006321,0.0013537436,-0.50356203,-0.017966392,0.19847852,-0.13419968,-0.016897406,-0.080554545,-0.030432742,-0.3052157,-0.14192395,-0.11301948,-0.12795575,-0.13252698,-0.16608141,-0.10676164,-0.010909579,0.027105635,-0.061751537,0.03701129,-0.053818785,-0.44101518,-0.006803108,-0.15103984,0.1755384,-0.10950451,0.0014882819,-0.1684432,-0.11879949,-0.08707038,-0.30982977,-0.059390865,-0.23723531,-0.08781278,0.05021058,-0.057079986,0.0003970593,-0.002519504,-0.11715249,0.00846165,0.07062284,-0.06453572,-0.08731072,-0.05265917,-0.012018707,-0.13220389,-0.0791223,0.019384094,-0.027061429,-0.008147472,-0.020780453,-0.03319011,0.021350093,-0.023474388,0.09059525,-0.06027781,0.031194419,-0.084699914,-0.028728075,-0.062367816,0.06860445,-0.073075116,0.09044788,0.00012797117,-0.050057095,0.049504094,0.034357063,-0.023971245,-0.0042319,0.039242037,-0.017741472,0.0847876,0.065841176,-0.03697834,0.004255429,-0.05001853,0.055024616,-0.059022132,-0.05509255,-0.04236834,0.052940957,0.06950774,0.047714777,0.011506192,-0.076251164,-0.037682243,0.083333306,-0.013394065,-0.002757579,0.09012743,-0.0741371,-0.056715365,0.080717824,0.0023053065,-0.02587422,0.036710538,-0.03068291,0.08614094,-0.027285293,0.05759915,0.049501292,-0.01109159,0.019644096,-0.087889045,0.0902533,-0.036206063,-0.071209334,-0.02510079,0.07090319,0.021243572,0.081748344,-0.049603228,0.0036737695,0.0024793893,-0.083869085,-0.049342968,-0.03455467,0.06570525,-0.07103527,0.031808957,-0.0495619,-0.050760772,-0.002842851,0.09151522,-0.0832964,-0.033953972,-0.024456196,-0.047182254,0.07275378,-0.06220449,-0.057547677,-0.060848027,0.047821246,0.069726,-0.010321081,0.0370299,-0.051696043,-0.014242142,0.048412494,0.022392929,-0.02233132,-0.047915995,0.0704129,-0.058125712,0.0290187,-0.0871248,-0.03443345,-0.0028236583,0.0800618,0.03979168,0.010739423,0.043724604,0.060667656,0.026933677,-0.046187524,0.026906565,-0.044927843,-0.042905774,0.058493085,0.09099277,-0.08706304,-0.061709076,-0.057147738,0.024148181,-0.04896813,0.0772754,0.01912085,0.019297898,-0.023221567,-0.06355992,-0.08748937,0.0412808,0.08590623,-0.20788614,-0.0041991416,0.021477781,-0.11651921,-0.74151456,-0.07068351,0.18992704,-0.009975013,0.22994933,-0.11304594,-0.33484507,-0.19473664,-0.18887252,-0.07543042,0.12219284,0.02481686,-0.105785295,-0.21842003,-0.09193782,-0.2781542,-0.013132025,-0.04710523,-0.06837823,-0.0030522645,0.0103096925,0.073572144,-0.19496891,0.03954473,-0.08059734,0.018224299,-0.10683241,-0.017860562,-0.017973844,0.03568101,-0.036948845,-0.082182154,-0.1144318,-0.06271519,-0.09801406,-0.2752185,0.0014180916,0.047295067,0.06489451,-0.21345781,-0.014683634,0.018877363,-0.21886788,-0.17425531,0.008803969,-0.013301395,-0.06822239,-0.3101029,0.1448149,-0.23422702,0.13355552,-0.05692834,-0.4708763,0.1395116,0.37250024,-0.041936748,-0.003548287,0.019254614,0.19577564,-0.08314578,-0.009584824,-0.10608035,-0.10378845,0.023768764,0.062220372,0.11116104,0.076477036,-0.05057636,-0.08206842,-0.020912038,-0.06613694,0.016632598,0.30262884,-0.11264336,-0.09637721,-0.15383768,-0.11772426,-0.1116829,-0.053366538,-0.073582835,-0.090572484,-0.07493246,-0.18746637,0.11035368,-0.13926409,0.07013766,-0.06532752,-0.38597432,0.16200888,0.033323493,-0.2450325,0.026209705,-0.07963786,-0.10209754,-0.031464417,0.3126209,-0.062484562,0.046064466,0.16841748,-0.122410886,-0.1658136,-0.042363267,-0.039514493,-0.2070492,-0.005647621,0.21213561,-0.15770929,-0.16158447,-0.019051597,-0.86581075,0.019486874,0.1332242,-0.018787846,-0.1026367,-0.038943198,0.036557056,-0.15742244,0.070078805,-0.033120424,-0.011231448,-0.49174422,0.41312215,0.3968119,0.07482769,-0.079762,-0.07145033,0.024870982,0.03416744,-0.08069562,-0.07657683,-0.081018396,-0.19284962,0.03426391,0.7161856,-0.087637655,-0.15575904,-0.23613432,0.002947092,-0.02955458,-0.06990719,0.010156787,-0.036182992,-0.091664,0.011732892,-0.11993555,0.048365526,0.051851127,-0.12913728,0.17808124,-0.0007670889,-0.13646217,-0.07481034,-0.045674026,-0.085189074,-0.05195097,-0.025491491,-0.024109386,-0.07110865,0.0004589963,-0.09187041,-0.14663647,-0.119397126,-0.023970606,-0.055793606,-0.14753973,0.017679669,0.028868135,0.16320258,-0.3185658,0.07514912,-0.0424258,-0.000639461,-0.06817315,0.04659812,0.35114336,-0.0007608789,-0.027472977,-0.05718967,0.391416,-0.042032417,-0.14516932,-0.10890952,-0.0077019352,-0.102965936,0.6225244,-0.34488097,-0.2651415,0.27935794,-0.035713386,0.047284044,-0.03968095,-0.038311213,-0.073819906,-0.031120919,0.04548842,-0.11014184,-0.14129266,-0.07011469,-0.014238488,-0.12466292,-0.08086355,-0.08790369,-0.32392147,-0.01769107,-0.22474118,-0.015838122,-0.10282008,0.113545485,-0.15187567,-0.053707995,-0.07976656,-0.024552912,-0.06182758,-0.058296744,0.46665958,-0.055774596,-0.03281616,0.07215108,0.14506215,0.037438378,0.08725988,-0.0035831372,0.03365023,0.050598703,-0.14741103,0.0777674,-0.09054327,-0.13117431,-0.12795676,-0.12601194,-0.12311869,-0.10655132,0.034854762,-0.05504551,0.025157921,-0.048916552,-0.3216102,0.22225201,-0.07216288,-0.076460674,-0.49194157,0.056511488,0.4156176,-0.10700177,0.09660267,0.14236203,-0.21940392,-0.37746242,-0.15909399,-0.013546401,0.10821436,0.29479882,-0.117892064,-0.1113777,-0.14233896,-0.17278358,-0.0937279,0.03045334,-0.17358771,-0.0030387207,-0.034374338,0.1810287,-0.16184299,0.0628928,-0.51724577,-0.017642548,-0.12798865,-0.008150124,-0.114558466,-0.037260458,0.0024030795,-0.067779705,-0.16508923,-0.053444862,0.011311601,-0.29325598,0.013611079,0.030788457,-0.116686866,-0.09982557,-0.05486362,0.01425655,-0.17307913,-0.106520735,-0.0039508813,0.0073764212,-0.07967521,-0.47241503,-0.082211144,-0.14507972,-0.03783599,-0.09508557,-0.037312493,-0.018860884,0.56598514,0.01692611,-0.09489189,0.020427037,0.25804228,-0.12627076,-0.13206482,-0.011786206,-0.016990578,-0.07883001,0.1289702,0.052104894,0.04829531,-0.0705077,-0.08654961,-0.046075024,-0.26808602,-0.017346423,0.20026743,-0.15245906,-0.09578274,-0.12469133,-0.0177027,-0.14946115,-0.04262855,-0.026566235,-0.037413906,-0.06481418,-0.27360812,-0.011534935,-0.08779809,-0.10117504,-0.08973299,-0.33831546,-0.11345342,0.03225041,-0.28207687,-0.16258901,-0.027690483,0.22515072,-0.0172392,-0.17171714,-0.040074598,-0.033677485,0.13018104,-0.004323615,-0.43414226,-0.10661059,-0.14129674,-0.12799592,-0.14023647,-0.041244164,-0.49933347,-0.21979766,-0.055140562,-0.59475964,-0.08987149,-0.110635474,-0.09065105,-0.103151165,-0.11016369,-0.0020080793,-0.04293703,0.04938131,-0.05243211,-0.08880727,0.07405872,-0.017486349,-0.024715304,0.009693466,0.023573563,0.08725988,-0.04862357,0.041123204,0.067800336,-0.041452307,-0.08394758,-0.017851777,0.060743295,-0.08086585,0.052398063,0.074409954,-0.06544186,-0.033737145,-0.012680538,-0.039055355,-0.037621565,-0.0032217652,-0.049217008,0.052781187,0.021429278,0.00509724,-0.03717228,-0.06873125,0.049564175,-0.017176881,0.08079792,0.09188499,0.040834643,-0.06968002,-0.07176921,0.017281383,0.058404826,-0.043293916,0.08873289,0.006014541,0.053746797,-0.015806712,-0.08917531,-0.048407428,-0.025842763,0.084081985,-0.047251277,-0.013434179,-0.07162213,-0.034354933,-0.018200807,-0.023991324,0.067152016,0.087826885,-0.019232199,-0.08684767,0.028762586,0.07399551,-0.015989557,0.020684317,-0.050679907,0.059471555,-0.036401264,-0.02529008,-0.08726132,0.04955063,-0.014548644,0.065709956,-0.016244836,0.06746098,-0.0869884,-0.024252273,-0.03205465,0.010397032,-0.06305015,0.010083117,-0.08480172,-0.0023364723,-0.041294914,0.036958657,0.06312362,0.060554676,-0.049998984,-0.09141853,0.029222734,0.068463065,-0.08940766,-0.035471547,0.05528111,-0.037378218,0.06292557,-0.07194912,0.02466853,0.07344427,-0.013286568,0.059197538,-0.046523273,0.02561482,-0.090033375,0.02326341,-0.06836418,-0.08759859,-0.055080887,0.020944528,-0.05269735,-0.0489287,0.062429957,-0.066525914,0.062251754,-0.032480005,0.008122273,0.007957868,0.0016541779,-0.033562418,0.0582458,0.01786998,0.28517362,0.21260472,-0.10102429,0.019244408,0.06708799,0.23318996,-0.23536812,-0.074604005,0.24084665,-0.33920988,-0.25111088,-0.13173601,-0.5004848,0.004189051,-0.68619984,-0.32164598,-0.04230397,0.13006115,-0.029191596,0.37944344,0.46816674,0.014431945,-0.08017733,0.092058234,0.030819757,0.25892204,0.15429983,-0.0499958,0.009061876,0.02715259,-0.114562266,-0.08772743,0.102921195,-0.015714025,0.015831426,-0.118143536,-0.083261505,-0.01407647,0.028055552,-0.20178914,-0.09641245,-0.05887213,0.06200273,-0.18133076,-0.03478316,-0.05075441,-0.11988155,-0.13194332,-0.081959784,0.039272882,0.02779681,-0.6188184,0.16916023,-0.22124533,0.021967202,0.04570683,-0.89952695,-0.07870917,0.44807902,-0.11970269,0.003439538,-0.034041535,0.3287758,-0.12419681,-0.14544898,-0.029090544,0.019113353,-0.04778643,-0.23600033,-0.0007987515,-0.3247547,0.12892066,-0.037551627,0.16915101,-0.16677818,-0.20241594,-0.03379622,-0.045764666,-0.0366813,-0.054969106,-0.10133299,-0.2141367,-0.097662374,-0.029708846,-0.009577572,-0.013955617,-0.19302814,0.037307978,-0.43169147,-0.26681983,-0.0997684,0.32143444,-0.12565923,-0.06586752,-0.07051313,-0.08616015,-0.082110286,-0.1011134,0.30784497,-0.56917286,-0.023860032,-0.08469332,0.3354468,-0.07063585,0.6829089,0.02041139,-0.07852943,-0.16299316,-0.12820852,0.13717216,-0.09122395,-0.0799287,-0.012156871,-0.548277,-0.039348245,0.084743775,-0.014304832,-0.08486694,-0.019504942,-0.01794263,-0.12984984,0.33726206,-0.06231607,-0.13533607,0.03917349,0.23496546,0.17615183,0.041832633,-0.18752295,-0.1275537,-0.13911767,0.6327436,-0.06737581,-0.0003084528,-0.016042793,-0.04667148,0.0355481,-0.7839055,0.015577385,-0.35420024,-0.1521235,-0.049074385,-0.03642825,0.09194317,-0.004828331,-0.42512518,-0.25324073,-0.042626444,-0.11209267,-0.33549154,-0.12706651,-0.020115048,-0.019387811,-0.005166449,-0.033365577,0.009020216,0.020508207,-0.14100157,0.005047874,-0.26791292,0.006163314,-0.030106558,-0.077865265,0.01919893,-0.087226845,-0.046112668,0.07621923,-0.007931577,0.061255977,-0.0033282058,0.028072067,0.3149202,0.13794006,-0.10778722,-0.06155502,0.060935482,0.97818965,0.108079605,0.1517349,-0.091954075,0.02147361,-0.040880036,0.3158478,-0.010264479,-0.1257497,-0.12782483,-0.10806854,-0.035028294,0.2770795,1.0165466,0.5235133,-0.5018291,-0.019448353,-0.02456884,-0.20432092,0.17152333,0.63097256,-0.002986831,-0.13200884,0.05039945,-0.13343024,-0.11318436,-0.0173195,-0.027425243,-0.20483162,0.009325046,-0.18863192,0.00020687425,-0.055124488,-0.21234748,0.013665659,-0.35094473,0.2787439,0.009426969,-0.07286833,-0.011968754,0.025770638,0.04613686,-0.06260367,-0.064891875,-0.019101659,-0.09149726,-0.17532079,-0.052472964,-0.2654565,-0.052582577,-0.050606884,0.2618173,-0.13151477,-0.086258195,-0.043152977,0.05269359,-0.13613623,-0.526885,0.022767197,-0.1600972,0.025069328,-0.07987439,-0.05568497,-0.052027147,0.09575052,0.71364975,0.19754909,-0.079058886,-0.28861874,-0.21707228,-0.93530905,-0.122661315,0.33730465,-0.62444353,-0.09369948,0.19514574,-0.30261704,0.008935131,-0.49345472,-0.59276205,-0.23425636,0.1926861,-0.056788262,0.096810535,0.7021809,-0.028775897,0.03682665,-0.10405461,-0.05915534,-0.00080027274,-0.01989205,-0.0606025,0.13851078,-0.073001534,0.12363337,0.04018859,-0.008903573,0.008311546,-0.13762535,0.08879759,-0.13111587,-0.027154997,-0.034197185,-0.23898634,0.027031993,-0.10228048,0.16116188,-0.17975026,-0.05734035,-0.0031218827,-0.10629555,0.028830094,0.1403911,0.030512877,0.055152077,-0.24016601,0.4584812,-0.0018513332,-0.04758109,0.0071179015,-0.25955155,-0.05590813,-0.87789077,-0.0548247,0.065044425,-0.07117678,-0.35311046,-0.05817189,0.16778581,0.046021663,0.049353875,0.008120105,-0.6296842,-0.42318016,-0.08220673,-0.21292853,-0.07764303,-0.026391504,0.091436386,-0.5119513,0.20293948,0.049193792,0.0050032735,-0.040440112,-0.06358782,-0.041609336,-0.019243822,-0.04135964,0.04251038,-0.01821567,-0.00955974,-0.22184679,-0.6048315,-0.18538243,-0.0039646598,0.15819485,-0.2667043,-0.08150013,0.19833696,0.017903324,0.08495284,0.024184724,0.5667608,-0.5167611,0.06499802,0.10057616,0.34272143,-0.057543673,-0.5323431,0.046676897,-0.02583415,0.15492897,0.083994195,0.025062572,0.027010702,-0.030606981,0.092660695,-0.47155327,-0.024409672,-0.35199907,-0.03086812,0.05898001,-0.0020900518,-0.092296995,-0.21930587,0.48368078,0.030546663,0.009813692,-0.331373,0.26374286,-0.45241672,-0.05908111,-0.1851647,-0.33769813,-0.27950272,-0.08057273,-0.3220469,-0.015371338,0.2195304,0.25150973,-0.25719616,0.14267574,-0.017797807,0.41789803,-0.1560666,0.08884457,-0.0791075,0.009128697,-0.07611786,-0.13996175,0.0063936794,-0.039324623,-0.1981195,-0.029861823,-0.23832093,-0.098656304,-0.08960846,0.11650385,-0.13340448,-0.02431081,0.13489908,-0.07462535,-0.14023201,-0.16756208,-0.0077634617,-0.16741979,-0.19547252,-0.12996152,-0.072176106,-0.10216406,0.06959264,-0.32236168,-0.665978,-0.01235741,-0.02080271,0.2494094,0.5150329,0.32286617,-0.14481163,0.029670052,-0.7436272,-0.12913895,-0.92989534,0.013672156,-0.0075058816,-0.034679625,-0.31113175,-0.08736081,-0.041683197,-0.006249823,0.13827032,-0.017949514,0.22514123,0.113617636,-0.043586124,-0.041042473,-0.07482783,-0.15980206,-0.082222424,-0.030684913,0.39185548,-0.14954516,-0.0054294528,-0.013578663,0.030659737,0.020006046,-0.028565228,-0.0025442846,-0.15225874,-0.047148794,0.29482105,-0.066071115,-0.28561705,-0.04612959,-0.06650243,0.3594849,-0.005417682,-0.08065379,-0.22588025,-0.25295234,-0.10596176,0.17551689,-0.53871167,-0.4880678,0.09103552,0.023455009,0.3391629,0.02220185,0.12229717,-0.018894468,-0.023307726,-0.46565434,-0.04020067,-0.17617707,-0.7263199,-0.06681741,-0.047089484,-0.07857672,-0.014006404,-0.34168118,0.037853174,-0.030663976,0.029171886,0.031149033,0.03336872,0.34511352,0.015005179,-0.130445,-0.13934048,-0.3324122,-0.26515064,-0.107314005,0.0033526493,-0.22557172,-0.24075127,0.45962355,-0.30811986,-0.029888649,-0.2362576,-0.26262018,-0.12982725,0.11135782,-0.021306992,0.10355733,0.60264313,-0.012220842,-0.08008226,0.09040608,-0.03808287,0.08836598,-0.11094209,-0.088075854,0.32499558,0.045094203,-0.061389297,0.0477302,-0.023614045,-0.026932975,0.09886055,-0.11633513,-0.11086262,0.037970647,0.03451598,-0.14843725,0.012383924,-0.20092237,0.17061803,-0.07975499,-0.096919924,-0.08099878,-0.34751332,-0.30430657,-0.22203487,-0.08135056,-0.13887091,0.018586397,0.7534899,-0.010820898,-0.08393672,-0.014712833,-0.1452174,-0.28140038,-0.44107378,-0.055969756,-5.4062188e-05,-0.04759354,0.18429112,0.024413481,0.11849158,-0.07904352,-0.14304018,0.03505885,-0.1462035,-0.07254122,-0.2561602,-0.21052158,-0.047784444,-0.060725693,0.018406913,-0.20803665,0.03769239,0.06058899,0.07199504,0.06993896,-0.08230088,-0.124706574,-0.106924325,-0.09936909,-0.07535218,-0.12411231,0.08719649,-0.14383899,-0.65569526,-0.15638615,0.0410784,0.18919493,0.33810353,-0.0045260936,-0.0203986,-0.018368637,0.012920121,0.00348135,0.16494307,-0.18671064,-0.061418574,0.10442062,-0.11147685,-0.06900593,-0.11779843,-0.03271506,0.029723672,-0.2107596,0.15038083,-0.15041168,0.0101718735,-0.13780446,-0.13340488,-0.35004532,-0.11670231,-0.32330924,0.06952947,-0.12925333,-0.078613125,-0.010668504,0.0041858437,0.05190622,0.060522027,0.07495586,0.054734178,-0.039631106,-0.08071968,-0.06826543,0.03942871,-0.025039611,0.0075201616,-0.025350206,0.045879297,-0.011820704,0.054545514,-0.033708435,0.025314033,0.028422996,0.049701624,-0.028219895,-0.013084687,0.021021076,-0.011258788,-0.040224344,-0.07990275,-0.059183896,-0.070277005,0.07317894,-0.023382127,0.08233059,-0.019508995,0.017281584,0.0627977,0.044955574,-0.034295782,0.029894315,-0.081463255,-0.079207644,-0.03717465,0.090307675,-0.009867877,0.08657075,-0.09107851,0.003783986,-0.04610407,0.04355783,0.0684653,0.027996458,0.011337064,-0.09249118,-0.02184669,-0.03374726,-0.08751029,-0.011425234,0.08383236,0.06746165,0.040485553,0.06622539,-0.0017371699,0.06172525,0.012200572,-0.01070708,0.06433235,0.08993348,0.021302722,-0.08242805,-0.013962001,0.0036019385,0.05995678,-0.020971268,-0.0403797,-0.037627466,0.025416948,-0.0075000376,-0.016732618,0.03100276,-0.08966617,0.08235755,0.08990667,0.033890642,-0.00016407669,-0.078912914,0.04987412,-0.073467486,0.07490439,-0.035400778,0.006760277,-0.062527776,-0.01986207,0.06982564,0.018415533,-0.07212748,-0.06812841,-0.051674526,0.025105037,0.013862811,0.03241422,0.06278289,0.087432064,-0.031200334,-0.056563463,0.052250482,0.054789733,0.037923016,0.0050214455,-0.024675101,-0.07377437,-0.07572734,-0.027777374,0.03751155,0.08949534,0.066627584,0.07360343,0.036132775,-0.003593482,-0.002811417,0.07323093,-0.03708338,-0.036842134,-0.017937869,0.10906588,-0.031419244,-0.039867267,-0.09423992,-0.08976404,-0.079069294,-0.122740015,-0.14174855,0.002925179,0.019925388,-0.3076846,-0.19627191,0.061869137,-0.0076307547,0.11337624,0.109615274,-0.068787605,-0.10892959,-0.02480479,-0.047868032,0.113495976,-0.029278217,0.013016345,-0.013942309,0.028640157,-0.032501493,-0.11240435,-0.060394265,-0.12382608,-0.09101457,-0.049303573,-0.13749936,-0.11394682,-0.115571186,0.017360877,-0.0043336055,-0.025066677,0.016530616,0.0062305736,-0.069798924,-0.002672765,-0.010129663,-0.02338913,-0.11510581,-0.05846641,-0.12132737,-0.029791705,-0.12791638,-0.008772785,-0.08835559,-0.005621794,0.087690145,0.13613084,0.0075302836,-0.1197834,-0.010570261,0.03146652,0.10322203,-0.09803138,-0.043215193,-0.04114486,-0.014410298,-0.030509103,-0.12849353,0.03132569,-0.08608688,-0.12628983,0.043708313,-0.05265616,0.19687943,-0.003061786,0.07256005,-0.13194185,-0.0645423,-0.22455366,-0.06037233,0.13478659,-0.13958801,0.012100454,-0.0009977467,-0.10366337,-0.09524493,-0.017363312,-0.12316073,-0.056448486,-0.0009394842,0.030976351,-0.11725396,-0.04288751,-0.13724068,-0.106108405,-0.08245968,-0.23375201,-0.08453288,-0.1550271,-0.0739524,-0.09726155,-0.110121675,0.028392177,0.05703311,-0.105065376,-0.08164645,-0.017207405,-0.085953854,-0.052934263,-0.024820453,-0.009746904,0.05113201,-0.078892924,-0.22164162,-0.020134287,-0.20917316,-0.015083404,0.017885353,-0.078152776,-0.34499282,0.023975223,-0.006476998,-0.0472181,-0.01573677,0.054971594,0.7921474,0.089905955,-0.03640769,-0.44101605,0.43226454,-0.6559271,-0.025069974,0.013165169,-0.6389174,-0.33850107,0.34431896,-0.05714424,-0.09226173,-0.25308093,-0.8498141,-0.020479439,0.38656425,-0.0045906454,0.08966917,0.00359929,0.010962516,-0.15488249,-0.0339064,-0.006353162,-0.5108391,-0.034930293,0.020174041,-0.40581918,-0.05375282,0.030654863,-0.0449792,0.3202899,-0.063511305,-0.1030569,-0.055347715,0.061239567,-0.12051175,0.035434503,0.021313734,0.026718458,0.040135585,0.039932374,-0.123879,0.08213512,-0.1026163,-0.25045127,0.00044024092,0.75615895,-0.06891447,-0.03759382,0.310628,0.09100457,0.04449234,0.08252096,-0.085934274,-0.9420152,0.43449444,-0.9520711,0.0912239,-0.090046346,-0.09012146,-0.4146334,0.042692162,0.06528265,-0.041637573,-0.07080223,0.07643191,0.057667006,-0.4289094,0.18620388,-0.05742824,-0.08733185,-0.0027935728,0.039400917,-0.48973894,0.8196243,-0.1012259,0.047180377,-0.12073409,-0.11119531,-0.24800716,-0.052654658,-0.022528803,-0.048282806,0.043193698,-0.0806406,0.11107407,-1.0755844,0.119946264,-0.059569683,0.055979293,-0.39753443,-0.05967516,0.102603905,-0.056231614,0.03342464,-0.34406036,0.7036452,-0.8800757,-0.048224404,-0.05102516,0.03917727,-0.12439631,-1.440641,-0.005127892,0.10192154,0.27107468,-0.0014156019,-0.066729344,0.16426024,-0.084466055,-0.0603896,-0.42262465,0.07073549,0.26415795,0.07502059,-0.005175963,-0.083304934,-0.016255222,0.008695796,-0.11828759,-0.08683738,-0.044337947,0.108647615,0.047598615,0.029550374,-0.036224946,-0.019734839,-0.010242242,-0.06397376,-0.0259173,0.08272253,-0.007474959,-0.07978407,0.12617874,0.05190564,0.0409265,0.016005032,-0.06554609,0.17002119,-0.028660707,0.0071413815,0.06931763,0.04376892,0.026663406,-0.037334386,-0.01626788,0.054772086,-0.07356274,-0.07141894,-0.04299919,-0.024825767,-0.015586719,0.08531938,0.017317317,-0.048493274,0.051587857,-0.073343255,0.036122017,0.032636948,-0.06190691,-0.059367485,-0.0792882,0.006899208,0.0040703937,-0.060306586,-0.016697735,0.069672816,0.03273227,-0.05966912,-0.040965386,0.051360913,0.17193288,0.055432655,-0.03147994,-0.015136449,-0.100363225,0.024626698,0.010182887,0.032412894,-0.04077218,0.11845386,0.043292142,0.089825474,0.06418083,-0.028450765,0.06181305,-0.14068533,-0.05716168,0.06957002,0.082205966,0.07313428,-0.07565981,-0.071389675,-0.048848424,-0.09312343,-0.019106172,0.04628294,0.035990946,-0.037906434,0.05108478,0.027285255,-0.07884728,0.066134565,0.070838235,0.04973598,0.069675334,0.06260309,-0.08297135,0.0034160092,0.1185172,0.028752267,-0.08387521,0.058385126,0.07051628,-0.06013361,-0.051670983,0.02042297,0.03066994,-0.022732131,-0.015385389,-0.09813643,-0.026991546,-0.073155664,-0.060468562,0.070815094,-0.07281282,0.08316759,0.07632532,0.009217508,-0.059724152,0.013046987,-0.03630349,0.014861725,0.076356165,0.042894997,-0.007867128,0.08433015,-0.077206224,0.40603065,-0.21831468,-0.041463744,-0.042722102,0.039664324,-0.30738068,0.080080695,-0.0119659575,-0.11901208,-0.11772906,-0.0057406304,-0.22919446,-0.17535256,-0.07666499,-0.25455138,-0.19065015,-0.06980921,0.1104044,-0.057921458,-0.27225956,-0.11552714,-0.017004477,-0.088470615,-0.10929246,-0.058559485,0.29565474,-0.26928738,-0.005259977,-0.032097768,-0.16327617,-0.058509856,0.028674768,-0.062207617,-0.017499134,-0.13170917,-0.030786877,-0.08468956,0.07441048,0.023964645,-0.32232878,-0.11940918,-0.08092875,0.12687713,-0.0671667,-0.041591465,-0.06884204,0.1608696,-0.05960315,-0.29385713,0.051719815,-0.024920188,-0.060408834,0.1555224,0.044639792,-0.13500355,0.050563563,-0.52200115,-0.013526208,-0.07433484,-0.08205321,-0.009263941,-0.113382615,-0.20521851,0.004238847,-0.043016396,0.030760625,-0.0075465725,-0.10946496,0.30186525,0.4027626,0.2818238,0.04709509,-0.019694906,-0.19870563,-0.07987816,0.0721279,-0.081849314,0.004128729,-0.11239058,-0.0049357386,-0.021119608,-7.5283955e-05,0.027694995,0.11740444,-0.12621853,-0.055257104,0.12835191,-0.11208792,-0.12777068,-0.16814004,0.002615854,-0.30006275,-0.23560219,0.012691937,-0.20168841,0.00014721454,0.048336476,0.27951854,0.13232212,0.19956292,0.033200197,0.054472983,-0.089048706,-0.08257585,-0.4051883,-0.021118125,0.020441499,-0.3642101,-0.043424208,-0.01913584,-0.052527927,-0.117217466,-0.09777693,-0.5624369,-0.04113328,-0.33375067,-0.10195014,-0.053211357,-0.037608072,-0.0659829,0.12340862,0.22461176,-0.012700659,-0.09052906,-0.25831917,0.47097003,1.23642,0.037280027,-0.62932175,-0.5610682,-0.4110424,-0.4104322,-0.059786104,0.00061563065,-0.2710195,0.37149957,-0.044980127,0.4720772,0.03972725,-0.21811773,-0.33803785,-0.00035750208,-0.020541046,-0.08098988,-0.041360334,-0.118136756,-0.10078257,-0.022613695,0.03819785,0.028073896,0.024933917,-0.026664956,0.08618048,-0.013103411,0.0094527295,-0.041225396,-0.10724812,-0.08406669,-0.10021556,-0.09464332,-0.05401134,-0.074919105,0.033941057,-0.041835383,0.029558111,-0.083061345,0.01679165,0.010819821,-0.4013441,-0.11754788,-0.011644352,-0.18788351,0.18992597,-0.48638633,-0.067443594,0.05497495,-0.35213482,-0.005985926,0.43283695,-0.05375764,-0.03405058,-0.07448225,-0.2443171,0.016982818,0.03377937,-0.025252726,-0.019796642,0.031887665,0.24125835,-0.32702333,0.06307041,0.39704943,-0.032792147,-0.08083197,-0.06188844,0.28775278,-0.32052106,-0.14356872,-0.097011186,-0.09194698,-0.14901884,-0.13859296,-0.11431754,-0.030710477,-0.029430844,-0.009817983,-0.63980544,-0.02407387,-0.31857234,-0.12424147,-0.14150748,-0.08215861,-0.20262307,-0.10042216,-0.037226215,0.021936575,-0.05198604,-0.46744484,0.20453355,-0.13034034,-0.13395515,-0.07188276,0.06070679,-0.05950394,-0.027068196,-0.063334875,-0.05685304,0.04705939,-0.027959391,0.0032471006,-0.063951805,-0.22671981,-0.111442596,-0.2554707,-0.014444328,0.25107622,-0.045561682,-0.024844442,-0.03537231,-0.021410873,-0.05809352,0.016092427,-0.00053969026,0.07290015,0.07501351,-0.012014866,-0.060014162,-0.09051965,0.05142974,-0.06673291,-0.024227679,0.049042292,-0.015159413,0.055913128,0.053259112,0.05386222,0.08485509,0.010896146,0.06582912,0.0512333,0.060847603,-0.08927385,-0.009786859,0.027513303,-0.08189235,0.03806793,-0.07394964,-0.043974794,0.05498282,0.076050736,-0.05551472,0.06811904,0.0058128983,0.022766486,0.084582634,0.08405342,-0.02037555,-0.03688953,0.003920704,0.027074471,-0.03716378,0.07529699,0.004099764,0.033045523,0.0653835,-0.088351965,0.014979072,0.0624663,0.036963977,0.06891676,0.017003044,-0.07645511,0.0045792237,-0.052048482,0.015476987,0.05302573,0.034273706,0.026561342,-0.041421536,-0.06424524,-0.028767124,0.039386876,0.0029226765,-0.024904236,0.062040262,0.05723452,0.080640234,-0.028057933,0.022004873,0.010386936,-0.05578421,-0.06195882,0.0048752353,0.06910858,0.053558104,0.003691323,-0.06274894,-0.053445723,-0.09181599,0.0334196,-0.036964793,-0.090388775,-0.03434216,-0.021261618,-0.04753972,-0.044217147,0.07795415,0.04900629,-0.063951425,-0.0519853,-0.067078374,0.032217555,0.044952385,0.042476915,-0.0073768944,0.090491064,-0.049867935,-0.042637277,0.03318391,-0.014539391,-0.042617932,-0.027799442,0.05691906,0.080400534,-0.020424716,-0.07658574,0.0708426,-0.048457943,0.037046187,0.05422809,0.04026284,-0.066021815,0.08159485,0.06179344,-0.051730577,-0.05508487,0.06989851,-0.06060138,-0.07756902,-0.04540225,0.004935414,0.11019422,-0.18310617,-0.04798472,-0.22895966,0.07086171,0.02606064,-0.038255207,-0.15632771,-0.084224895,0.012840812,-0.081711635,-0.25795516,0.002416126,0.0070671453,-0.13986073,-0.16106348,-0.11048259,-0.07760626,0.13117349,0.044582397,0.14195518,-0.046230312,0.0012924671,-0.07236774,-0.089255705,-0.31613,0.02728209,-0.030196553,0.007153002,-0.19342096,0.033782575,0.026262041,-0.023563083,-0.19920008,-0.11029567,-0.1820046,-0.14670105,-0.09344398,-0.16624868,-0.023003247,-0.20191352,-0.28271016,-0.15620542,0.015481258,-0.12921931,-0.17718436,-0.20908202,0.09912336,-0.03857813,-0.09299051,-0.15326919,0.12802018,0.11870077,-0.030426387,-0.086194634,-0.5617882,-0.09098879,-0.1566427,-0.122190475,-0.062338658,0.022754304,-0.1000338,-0.11872392,-0.18357117,0.013074072,-0.004628167,-0.026633635,0.054478865,0.0036171651,0.09369195,-0.37119225,-0.025515094,-0.052852172,-0.0679642,0.22235903,0.2438842,-0.09055509,0.022125581,-0.13871326,-0.23669787,-0.21107475,-0.11289566,0.03577078,-0.2316051,-0.119614914,0.02821002,-0.06279962,-0.4490153,0.039849058,-0.044043392,-0.2516112,0.023070848,-0.14395975,-0.2722801,-0.08632917,-0.13035132,-0.23358445,-0.081378214,0.057150893,-0.09529214,0.024878334,0.06140953,-0.08236766,-0.040634844,-0.07816762,-0.051212065,-0.26645544,0.022492642,-0.1254752,0.021408675,-0.2575774,-0.0225158,-0.61978203,-0.03367909,-0.4035733,0.0067056417,-0.14120673,-0.078413464,-0.07668157,0.27686623,0.012073581,-0.014767462,0.02378378,-0.17977622,0.750928,0.8612941,0.02645035,0.12313858,0.39345828,0.0046547456,-0.03764469,-0.05287911,-0.05283601,-0.06114659,-0.68636316,-0.119259715,0.56088054,0.038206838,0.38452283,-0.83511204,-0.065516815,-0.05244038,-0.04138738,-0.11091302,-0.2048986,-0.064036764,-0.036902588,-0.047391172,0.036477365,0.014049889,-0.03777863,0.20547806,-0.032042824,0.02543181,-0.0281721,-0.13615516,-0.14415307,0.03368894,0.023294875,-0.0659606,-0.104169905,0.0014515688,-0.14300656,0.017032826,-0.034817353,-0.109280184,-0.08812311,-0.09550189,-0.017452976,0.02354407,-0.19714476,-0.40600437,-0.1512069,-0.020772537,0.040257268,-0.3412798,0.056495562,0.13240038,-0.047599215,-0.11926673,-0.14026181,0.14881805,-0.047706626,-0.06554257,-0.06354787,-0.057783812,-0.09207817,0.5630047,-0.6353577,-0.17457509,0.39183185,-0.027244687,0.012751594,-0.09577379,-0.109163575,-0.38220376,-0.04873006,-0.027455501,-0.06572293,-0.03243513,-0.020820025,0.021038072,-0.055995706,-0.021610385,0.007288125,-0.30933625,-0.07109848,-0.3244487,-0.14303982,0.0027349545,0.25062963,-0.38831466,-0.13132355,-0.009464064,-0.018575512,0.037155315,-0.29836255,-0.072972246,-0.16888872,0.006232457,-0.007876771,0.3920664,-0.024653915,0.036064778,0.011291047,0.037331797,0.050296076,-0.038580578,0.061349902,-0.11551256,-0.051125612,-0.042084612,-0.4148354,-0.12582251,0.0059975255,0.02909629,-0.11393557,-0.06652768,-0.065620884,-0.060976036,-0.016838476,-0.20650838,-0.010191926,-0.28632227,-0.051949922,0.12926783,-0.14791362,-0.26983634,-0.07991697,-0.07186845,-0.16135637,-0.1830379,0.059310928,-0.14471748,0.006199331,-0.15179832,0.48153538,-0.12850256,0.112120934,-0.009746379,-0.09506136,-0.10810579,-0.034269203,-0.11098866,0.16950807,-0.20923665,-0.11288602,-0.23571102,-0.0966387,-0.10010854,-0.09183268,-0.05221604,-0.04607846,-0.28258175,0.051105537,-0.12169953,-0.037826844,0.027378317,-0.4789566,-0.13748883,-0.007993283,-0.051922124,-0.27221623,-0.08670643,-0.12164315,-0.22933343,-0.3068835,0.13898122,-0.04319486,-0.116285056,0.08841738,-0.31097424,0.21042311,0.0025273787,-0.099291354,-0.66960865,0.16077219,-0.23212692,-0.025151335,-0.06268278,0.012364155,0.0626024,-0.086896956,-0.12938558,-0.07315849,-0.09558392,-0.012490253,0.13943663,0.37327534,0.4146353,-0.45883816,