//AUTO_GENERATED WITH get_params.py
//--------------------------------------------

#ifndef EXP_WIDTH
#include <ap_fixed.h>

#define EXP_WIDTH	16
#define INT_WIDTH	4

typedef ap_fixed<EXP_WIDTH, INT_WIDTH> float24_t;

#endif
float24_t conv_layer1_bias[8] ={ -0.44180158,-0.5115683,0.27718493,-0.5878676,-0.7581149,-0.1671145,-0.33852154,0.19440994};

float24_t conv_layer1_weights[4][4][1][8] ={ 0.42644477,-0.10364291,0.30719486,0.032237254,-0.22759537,0.039031442,0.4068163,0.29585806,0.26946595,0.14232808,0.48787615,-0.25761044,-0.107422434,0.15844841,-0.3724915,-0.813217,0.35396802,-0.047827225,0.4984659,-0.12935688,-0.20489015,-0.13871233,-0.96531373,-0.3527453,0.09396044,-0.009399862,0.46241796,0.022445513,-0.08687355,-0.282927,-0.07511839,0.014894852,0.6612049,-0.12490031,-0.6295001,-0.21563284,-0.031268153,-0.17155387,0.2710003,-0.8408942,0.32462844,0.0525619,-0.015162207,-0.017842323,-0.10769526,0.5624056,0.2155823,-0.59786737,0.28668103,-0.020251796,0.2681306,-0.17017989,0.14676598,0.1441098,-0.4966447,-0.27568412,0.30079353,-0.2215957,-0.31533328,0.115305685,-0.06545505,0.1265492,-0.5176309,0.30673814,-0.06260817,0.07878185,-0.9727175,-0.13240172,-0.035856657,-0.10068219,-0.09775484,-0.8059918,-0.2772983,0.07857981,-1.8285967,0.16458535,0.02242398,0.10370809,0.528438,0.011266931,0.017619051,-0.09513476,-1.1159579,-0.020079212,-0.18474251,0.07709395,0.35792765,-0.00530401,0.17023753,-0.021956276,-0.9632963,0.063397914,-0.04748889,0.3165442,-0.28487772,0.44418332,-0.8958139,0.071711555,0.23800276,-0.0832208,0.09680433,-0.36895272,-0.31897432,-0.37092656,-1.0706146,-0.07717867,0.050566338,0.08695422,0.17240736,-0.0063037314,0.16792904,0.03706563,-0.50085723,-0.08712324,-0.47104537,-0.17184736,0.05883328,0.28257412,0.413428,0.328485,0.318406,-0.08811636,-0.38250136,-0.12637879,0.020536883,0.21952078,0.50458705,0.42477015};

float24_t conv_layer2_bias[16] ={ -0.31808937,-0.6524886,0.061768126,-0.018666456,0.08149403,-0.26769084,-0.3036222,-0.22247398,-0.28469437,0.036703266,-0.1283893,-0.014857797,-0.14476663,-0.04880027,0.17276749,-0.49689415};

float24_t conv_layer2_weights[2][2][8][16] ={ -0.014056569,-0.015458346,-0.1698161,0.030724386,-0.5650652,-0.12203412,-0.017899783,-1.0111736,0.80349094,0.09065741,0.11246597,0.13538016,-0.9430514,-0.39110997,-0.03128846,0.09131806,0.16796924,0.255539,-0.19327016,-0.18630391,0.056471553,0.028871814,-0.2927526,0.025147984,-0.033935003,0.062964775,0.058091465,-0.0696234,-0.016220713,-0.32482782,-0.037757818,0.12026427,0.16518667,-0.38690174,0.06939086,-0.5492233,0.38766354,0.38123342,-0.17191398,0.32735333,-0.018774917,-0.6191961,0.49926665,0.23350467,-0.081324115,-1.0101568,0.08794718,-0.1780343,0.2390271,-0.022802979,-0.06689991,0.20071703,0.22253175,-0.20395361,-0.013332039,0.11272668,-0.042294174,0.23805787,0.022986459,-0.10630213,0.1270407,0.21514596,-0.18988048,0.06857996,0.14330848,-0.044507273,-0.08011217,-0.26283115,-0.10042941,0.11619302,0.023243438,-0.08111011,-0.042047758,-0.005104771,-0.0077084405,-0.20610875,-0.1808459,0.16404955,-0.0060370243,0.15581793,0.2743655,-0.34685275,0.20465443,0.37068683,-1.0067384,-0.44882435,-0.12806027,-1.0034019,0.14972545,0.5248806,-0.15030988,0.2328469,-0.7991411,0.21908051,0.25701562,-0.27669108,0.45484096,-0.07625359,-0.58571297,-0.2981098,-0.2704728,-0.031507704,0.38413665,-0.29957888,-0.20036858,0.36019784,-0.36457473,0.11412805,0.21947533,0.11747091,-0.48862588,0.031406745,-0.26629755,-0.08724951,0.5056471,-0.95950955,-0.22465616,-0.18229811,-1.3119413,0.02628859,-0.37497064,-0.013221918,-0.3621417,-0.0344402,-0.28506863,-0.9061775,-0.06948059,0.024350315,0.11035521,-0.27888852,-0.74460435,0.5350459,0.2715887,-0.4387945,-0.2714062,-0.5755695,-0.52816564,-0.49633527,0.312543,-0.7733221,-0.15753004,-0.34874767,-0.65700454,-0.01371814,-0.13597518,-0.050625034,0.028109051,0.14774552,0.06490411,-0.27440447,-0.08569473,-0.08534611,0.11734388,-0.009717164,-0.018568123,0.18586105,0.08641655,-0.23363708,0.13784926,-0.10976947,0.2930225,-0.012826519,-0.5371905,0.72212183,-0.24451911,-0.85723335,-0.4030655,0.3779634,-1.061722,0.37381288,0.29827407,-0.5818675,0.39434817,-1.4176152,-0.58456033,-0.048347354,0.008583291,0.056846675,-0.001591421,-0.12409809,0.1414723,0.12709357,0.15146257,0.12420665,0.08699812,0.01595774,-0.005803542,0.22864324,-0.2700431,0.09805437,0.08414395,0.068421915,0.065509066,0.06466691,-0.29354832,0.14139375,0.11967536,-0.15286855,0.0140081905,0.05790633,-0.029030073,-0.11707285,-0.25514805,0.041670483,0.04078103,-0.11478433,-0.03813424,-0.018089509,0.22590917,-0.13987896,0.42750147,0.08751779,0.31782705,0.4700431,-0.24783304,-0.6329254,0.34787828,-0.44395638,-0.24803165,-0.12781303,-0.6257679,0.33902627,0.13265063,-0.3703635,-0.5572603,-0.1527331,-0.404898,-0.14925475,-0.68982965,-0.02358437,-0.19472584,-0.14232953,0.26410025,0.38550308,0.09633228,0.12290817,0.40804982,0.44289434,-0.45377266,-0.11412673,-0.29236993,-0.1630985,0.25489283,-0.09928164,0.5343237,0.41044915,0.442612,-0.12206649,-0.92787653,-0.81291926,-0.5008712,0.2927631,-0.33770838,0.06727261,0.17084499,-0.08744128,0.057580654,-0.03711035,-0.508756,-0.66396755,-0.7400974,0.21747631,0.043435592,0.087442115,-0.44871348,-0.23818125,-0.6776153,-0.6871655,-1.2088925,-0.45250928,0.45397124,0.0992432,0.23059289,-0.13132003,0.0067550796,-0.16655628,-0.1812241,0.107193984,-0.0058201286,-0.0072691306,-0.23827009,-0.042489685,0.021612428,-0.13475017,-0.004187162,-0.3073388,-0.19948146,0.13503285,0.56878996,-0.17455374,-0.11913687,-0.90792966,-0.024356522,0.202338,0.16917796,0.049422253,-0.04578015,-0.44136196,-0.118236035,-1.1485678,-0.06246269,-0.7284226,-0.19774823,-0.22196037,0.013254312,-0.15902561,0.015272418,-0.16715081,0.14512041,0.21292451,0.1509374,0.026362635,-0.14538191,0.09459556,0.112554476,-0.16012572,0.020920483,-0.24246992,0.037164293,0.045612775,0.2661847,0.03697654,0.039311796,0.084759496,-0.0024909333,-0.24902965,0.06268784,0.102525026,-0.22404657,0.07522342,0.1936904,0.15804417,0.14127009,-0.08150679,-0.13541085,-0.046619195,-0.19741236,-0.14852911,0.026581006,-0.12105783,-0.94531035,-0.3514971,0.29533187,0.18808047,-0.4051471,0.1872626,0.08016825,-0.29242584,-0.056031927,0.33762512,0.34888282,-0.39410537,-0.58571887,-0.20224029,-0.29306734,0.17552714,0.3462245,-0.5262517,0.6462416,0.030934747,-0.78808504,-0.6373687,0.2395827,-0.6893608,-0.4234603,-0.340171,-0.68373555,-0.11056428,-0.13293652,-0.009196352,0.40097123,-1.108695,-0.28107473,0.00930723,-0.5607836,-0.12696303,0.15477943,0.3610883,0.35860232,0.19103788,0.5500236,-0.4047264,-0.45319515,-0.31240785,0.07960574,-0.1856933,-0.7021943,-0.17763175,0.025775287,-0.47571188,0.1945003,0.108044885,0.39265388,-0.53744197,-0.6329071,0.9377562,0.13542622,0.22694753,-0.33824128,-0.111719914,0.088669874,-0.10357602,-0.087063566,-0.0064241737,0.027593786,-0.032137744,0.27454323,0.0702636,-0.0094378395,-0.027730528,-0.16566946,-0.16765803,0.10504792,-0.051512595,0.24884857,-0.16712785,0.30887538,-0.008576856,-0.955804,0.10287206,0.21001205,-0.8642025,-0.28291833,-0.19971763,-0.1905337,-0.22132623,-0.47814414,0.4910093,-0.24312682,0.5547671,-0.4880101,-0.020595036,-0.14122285,-0.13967808,-0.10715923,-0.010491558,-0.037517045,-0.07101433,0.26774094,0.12502812,-0.057232745,-0.20622778,0.10919298,-0.11103708,-0.08822595,-0.072431505,0.035371915,-0.055376664,-0.11358187,0.0051989397,-0.091959745,0.12637202,0.17775555,-0.082940966,0.057965267,0.07339469,-0.0030824377,-0.2005179,-0.099436246,0.1051577,-0.14203545,-0.04633973,0.13848034,0.13872056,-0.10057939,-0.1365351,-0.42515913,-0.9278705,-0.29738355,-0.044507798,0.0882698,0.3615683,0.22483642,-0.15632641,0.3560867,-0.2698226,0.40854996,-0.15811391,0.14893538,0.15004808,-0.79346806,-0.2044243,-0.4931748,-0.7760928,-0.07260267,-0.40242502,0.004943259,0.65628535,0.1534558,0.40756035,-0.08522951,0.1392966,0.6238832,-0.69769377,-0.44050825,0.017257957,-0.0055619623,-0.18039234,-0.24761103,-0.3523591,-0.34273833,0.31430125,-0.6058669,-0.529124,-0.302138,-0.2185039,-0.094266586,-0.40107366,0.28967968,-1.0177116,-0.6113367,-0.04302724};

float24_t fc_layer1_bias[120] ={ -0.04441703,-0.045879707,-0.046117157,-0.031612303,-0.05397041,-0.049984347,-0.022295669,-0.14519964,-0.05403682,-0.4592068,-0.038850144,-0.123159096,0.36193758,0.0124745555,-0.03254904,-0.20480599,0.021594383,-0.054038268,0.040113445,0.0495122,-0.05399956,-0.05103879,0.24532385,-0.03347498,0.084427126,-0.06942512,-0.19936422,-0.04164851,0.4553912,-0.053845882,-0.10553574,-0.053994656,-0.04002102,-0.054039493,-0.19780087,-0.05402707,-0.054040182,-0.05403503,-0.054030225,-0.12344203,-0.04591535,-0.13675182,-0.043109417,-0.049544614,0.09365476,-0.046804782,-0.076219626,-0.032224122,-0.06706766,-0.075684994,-0.05360013,-0.22598413,-0.03941638,-0.046318598,-0.03565073,-0.054024372,-0.046267558,0.11930606,-0.038228,0.115431674,-0.04597257,-0.054041028,-0.2480398,-0.046222124,0.056243826,-0.2332954,-0.03074838,-0.054008514,-0.05738864,0.08603991,-0.054035313,-0.054027338,-0.054393936,0.037883423,0.18444414,-0.04578598,-0.05006776,-0.09571908,-0.029818706,-0.05712834,-0.03339531,-0.05228527,-0.04746555,-0.05404018,-0.03162772,-0.10028551,-0.049834784,-0.151881,-0.14125685,-0.054762337,-0.1787247,-0.047862064,0.080992684,-0.22402786,-0.05402288,-0.09517527,-0.054020967,-0.045488425,-0.04573041,-0.34323317,-0.18102798,-0.025656309,0.21080922,-0.09395447,-0.054037407,0.118856974,-0.04749872,-0.05403639,-0.14230222,-0.05233393,0.025206024,-0.05927736,-0.05857023,-0.054002922,-0.046093922,-0.07956751,-0.046393164,-0.054038256,-0.11829706,-0.054008707};

float24_t fc_layer1_weights[576][120] ={ 0.04439147,-0.034128882,0.039452687,-0.011987357,-0.14422387,0.014978746,0.043622162,-0.037960492,-0.097953476,0.014414007,0.042860456,-0.061481375,0.13921596,-0.55094475,-0.005595857,0.04615582,-0.052011136,-0.012871593,0.09600202,-0.0047868146,-0.057650827,-0.020559464,0.050731596,0.026507864,0.010598776,-0.027457772,-0.008541199,-0.10857721,0.22222623,-0.101087175,-0.037861582,-0.069489986,-0.10593604,0.011592603,-0.037368875,-0.01465704,-0.02905539,-6.857761e-05,-0.04738004,-0.120341,-0.006233939,0.06616115,-0.10213793,-0.041005656,0.0046329335,-0.096122906,-0.049772277,-0.14900732,0.23032771,-0.061389707,-0.067825146,-0.09677099,-0.056472532,-0.058810994,-0.07603346,-0.07902837,0.08802839,-0.44508618,0.00038486623,0.10917908,0.07268234,-0.07209471,0.032641914,-0.116650224,-0.1036016,-0.13545075,-0.030594861,0.030812867,-0.033403013,0.25223014,-0.11938103,-0.06326051,0.030500814,0.32624233,-0.13800591,0.017608143,-0.021774223,-0.05367503,-0.073296905,-0.13662377,-0.020175599,0.087437816,0.043977078,-0.11720435,-0.2348875,0.21605138,0.040593006,-0.025563665,0.22421892,-0.06729702,0.2882122,-0.013943144,0.009238662,0.046972115,-0.0028318986,-0.010949131,-0.047368374,0.019346846,-0.1107893,-0.08524339,-0.24750768,-0.05427913,0.20762259,0.0046128784,-0.14229143,-0.021536417,-0.12012034,-0.027381264,-0.11634062,0.016812576,-0.12373364,-0.020485144,-0.031405516,-0.1200727,-0.07671143,-0.12508225,-0.06688709,0.0037378634,-0.13251348,0.037562232,0.04152646,-0.069994874,0.0030226856,-0.073365346,0.05222573,-0.07347273,-0.06861734,-0.020692132,-0.07352044,-0.057968784,0.06059768,-0.006290294,-0.013994053,0.052544408,-0.019518316,-0.06237169,0.036737405,0.01988899,0.0040216893,-0.054868132,-0.07263714,0.07232044,-0.07093358,0.062024273,0.08218626,-0.08934258,0.0012763068,0.068368934,0.024426773,0.067953594,-0.0427691,-0.07478805,0.032104306,0.03398419,0.055830978,0.009492308,0.06505018,0.052739076,0.033693887,-0.03684475,-0.06896928,-0.057118252,-0.077291295,-0.08413169,0.07618623,-0.053966817,-0.032169405,-0.004851833,-0.092395216,0.0590199,0.03514973,0.09154657,0.021167137,-0.073317826,-0.012587123,-0.09116062,-0.0013918206,0.07490056,0.011346184,-0.045165744,-0.00993938,-0.04432836,-0.033027977,0.00071709603,0.02521342,-0.040133208,0.02316302,0.047999255,0.043930717,-0.048888855,-0.0064701065,0.07113772,0.050379865,0.062003158,0.08935141,0.09136727,0.036126234,-0.08030622,0.092679165,0.029130295,0.0549395,0.07636102,0.016824313,0.0338135,-0.08426987,-0.009870581,0.07254142,0.03669884,0.041852973,-0.07123769,-0.06938548,0.011300027,-0.0127206,-0.027925462,-0.060750138,0.028777085,0.06309458,-0.052718997,-0.041000698,-0.08874504,-0.031899143,0.061143465,0.04509949,-0.031128876,0.0674958,-0.036497556,0.06683465,-0.028227009,0.08168074,-0.07570623,-0.08600608,-0.017088734,-0.007244408,-0.092639916,0.017762482,-0.028719462,-0.070702516,0.09266887,-0.019583575,-0.067538485,-0.030918825,0.043435924,0.036619633,-0.027798211,0.0019542216,0.00797799,0.020857632,0.071682036,-0.06973174,-0.06691759,0.0024569186,-0.113983884,-0.027916797,0.056646027,0.007933964,-0.3848083,0.0027345666,-0.09513515,0.33317307,0.7011953,0.020359676,-0.008007948,0.12172756,0.04079801,-0.007971343,-0.07870555,-0.12333018,-0.058246102,0.9750551,-0.06013198,0.015657235,0.0025183621,-0.07707522,0.010825922,-0.052306503,0.0053986963,0.03332669,-0.09882315,-0.061091702,-0.10571222,-0.08814669,-0.54689175,-6.6922956e-05,-0.07782676,0.0018589431,-0.009032077,0.026541557,-0.0050401925,0.14348215,-0.51931286,-0.1286687,-0.13443951,-0.05759714,-0.033515867,-0.11508744,0.016661583,0.07155528,0.24085698,0.043998368,0.124142624,0.01200074,-0.07353941,-0.104496606,-0.09925824,0.16289374,0.02749484,0.05871857,-0.129357,0.06390845,0.060712617,-0.11255578,-0.14028701,-0.12860486,-0.09079589,0.28311846,-0.00797636,-0.067393355,-0.27188718,0.06075401,-0.071930125,-0.047767006,-0.10014739,0.015220321,-0.07834968,0.34946126,-0.1596728,-0.0859957,0.082218625,-0.020526111,-0.0424934,-0.15602772,-0.06968202,0.03971209,0.014240592,-0.039481837,-0.036907714,-0.11029734,-0.13340685,-0.0762026,-0.05397004,-0.58144397,-0.29783234,0.022675728,0.011656698,0.019519622,0.2519007,0.029263727,-0.1040994,-0.039492898,-0.10401238,0.13556135,0.018255131,-0.047386575,-0.12980369,-0.028191127,-0.9281592,-0.08082616,0.006172758,0.017156325,-0.10546542,0.012506731,-0.026428938,0.04711102,-0.10839588,0.036768574,-0.052679766,-0.111998156,-0.10229857,-0.059604242,-0.09243006,0.016782278,-0.025484124,0.14340009,0.08877655,-0.014797488,0.09029472,-0.043293603,-0.05369904,0.14385122,-0.052986734,-0.13397238,0.0048078867,0.06340578,0.057989087,-0.026249558,-0.059511766,-0.056219436,0.035530552,-0.02790667,-0.017991401,0.084173456,-0.04676728,0.0031787995,-0.13013867,-0.05344448,-0.104745165,-0.034644067,-0.04298802,-0.1129171,-0.06803477,-0.11698331,0.011652598,-0.121876426,-0.13687183,-0.034769785,-0.10403287,-0.121155605,-0.018386561,0.06670157,-0.0061578373,-0.039900944,0.029023258,-0.01344387,-0.02664232,-0.103289984,-0.1365657,-0.095201075,0.09419202,-0.046025153,-0.046038922,-0.05193158,-0.11293277,-0.058741428,-0.09486085,0.035878062,-0.034833163,-0.013889646,0.0017757519,0.015087428,0.07165839,-0.038536776,0.02647471,0.0069505465,0.11126666,0.01842426,-0.074175246,-0.07887917,-0.032926176,0.013212637,-0.138166,-0.08401359,0.12557656,0.013207638,-0.14523436,0.0018598321,0.025586428,-0.060740102,-0.065846935,0.014207464,-0.14323291,0.07448399,-0.03779667,0.111473374,-0.118460506,-0.085533336,-0.14405678,-0.007900194,-0.06852729,-0.11904941,-0.069014035,0.076969184,0.066534534,-0.0460919,0.061868303,-0.14637168,0.111302875,-0.117589064,-0.047679912,-0.014736873,-0.036269747,-0.0016425931,-0.13704032,0.030401627,-0.03968832,-0.13071103,-0.045218594,-0.08095873,-0.09981677,-0.025007762,-0.11135336,-0.029263986,0.0073886667,-0.03788231,0.006368747,0.000548592,-0.05914995,-0.051638097,-0.012774225,-0.052254327,-0.5499937,-0.024944954,-0.19007869,-0.112843506,-0.12483419,-0.09635807,-0.0054919864,0.02945332,0.037212268,0.13152903,-0.048199195,-0.09097531,-0.0745304,-0.1433371,-0.030385343,-0.005259839,0.008199945,-0.2066969,-0.09974969,-0.050016608,0.008375621,0.017286712,-0.12311157,-0.0024937754,-0.10395583,-0.26870757,-0.13232145,-0.12804557,-0.12338892,-0.062848054,-0.056462523,-0.006710382,0.062078774,-0.013962205,-0.055888813,-0.047302715,-0.11277365,-0.08123359,0.03752367,0.016596027,0.09889787,0.017318027,-0.26798645,0.0026557257,0.027305856,0.007957513,0.03186828,-0.10071365,-0.019035876,0.033263292,-0.22841164,-0.062496748,-0.037096404,-0.039275195,0.038234815,0.039748512,-0.27490464,0.046901166,-0.04904148,-0.104991555,-0.10267947,-0.06546744,-0.07978571,-0.05293288,0.062969565,-0.012000954,-0.116452664,-0.12035015,0.078547664,-0.023096656,-0.116920955,0.0052320315,0.091600284,-0.046994656,0.019728728,-0.15473261,-0.0027677803,-0.10434132,-0.13266087,0.054568205,0.029232388,0.046730194,-0.09096555,-0.12047353,-0.04834308,-0.07886372,-0.065638855,-0.056114767,-0.094326906,-0.08034759,-0.28484038,-0.0019908312,0.1798761,0.12626572,0.015983239,-0.09273077,-0.042013805,0.040808436,-0.07174764,0.03268981,-0.064583406,-0.03760695,-0.032618392,-0.041141603,-0.077259436,-0.068517104,0.123227246,-0.081108026,-0.009602258,-0.06400406,-0.08641012,0.037233688,0.04268817,-0.01718498,-0.0153429285,0.032552682,0.05347366,0.021896072,-0.043770052,0.07547393,-0.1164472,0.059596248,-0.13550141,0.18961686,0.01497708,0.08397844,0.32055286,0.05744291,0.06078709,0.0048928857,-0.13301714,0.04326678,-0.003804639,-0.047928344,-0.08146208,0.24504423,-0.20399879,-0.0892443,0.08098882,-0.033416368,0.072639816,0.10676322,0.008690082,-0.039987724,0.08319726,-0.008223918,-0.039452218,-0.019701913,-0.043993764,0.030210651,-0.06840626,0.027109332,-0.008902528,-0.12510148,-0.11413978,0.058861338,-0.07123794,-0.12344328,-0.11477472,-0.54091835,0.023423033,0.014421955,0.032033946,0.029439678,0.022876212,0.09135214,0.05624602,0.08088957,-0.052544884,-0.030648135,0.2854614,0.0026338552,0.050448112,-0.0054926053,0.015644386,-0.10911306,0.05966585,0.07663154,0.060643904,-0.04687537,0.02321062,-0.020610176,0.045557894,-0.12009066,0.02205788,-0.107297815,-0.07179205,0.06485496,0.2587323,-0.058432966,-0.10087075,-0.021735914,0.3868303,0.06780461,-0.026424848,0.022268934,-0.1439006,0.050929673,-0.015691629,-0.061982974,0.019759173,-0.045262918,-0.009253131,-0.076587826,-0.042282805,0.08965989,-0.11357338,-0.06397066,0.08319951,-0.11978947,-0.007538048,0.104237966,-0.13687871,-0.06843708,-0.17637864,-0.025046311,-0.010060451,0.058927678,-0.0036607087,-0.017416127,-0.009492464,0.33499232,0.030878201,-0.072230704,0.03785234,0.012829973,0.36352944,-0.085343845,0.085446484,-0.04432564,0.04501783,-0.02790876,-0.047977492,0.02333825,-0.11848008,-0.07130012,-0.06748037,-0.039395947,0.07029744,-0.05481581,-0.008454177,-0.036757704,0.010874051,0.002929126,0.3133206,-0.006953209,-0.03857864,0.061460156,-0.09800003,-0.09727081,0.0006766281,-0.075559594,0.056981295,-0.0040879147,0.0012294444,-0.1719042,-0.09208666,-0.082326494,0.03602175,0.091240846,-0.0070063635,-0.04413697,-0.082172416,-0.051418412,-0.081038386,-0.04539791,-0.11563617,-0.038840342,0.0052976073,-0.04192786,-0.0724289,-0.0014793202,-0.052077338,0.06961293,0.049451835,-0.04772345,0.009314373,0.04015782,-0.043017548,-0.0016292379,-0.05526223,-0.1040992,-0.002560329,-0.02129177,0.090398006,0.013557841,0.03249901,0.047666587,-0.036955696,-0.112741396,-0.094266206,-0.07246791,-0.006326417,-0.09181877,-0.04760254,0.08884919,0.06383029,0.024073604,0.03254096,-0.01716053,-0.11869462,0.0012001883,-0.08192201,-0.11356578,-0.1705829,0.016027808,0.040297277,-0.112756565,-0.15114492,-0.088176936,0.033294443,-0.087317154,0.07794496,0.02449115,0.021664403,0.04223762,-0.034008306,-0.12854496,0.028196797,0.13464771,-0.055724937,-0.005265004,-0.004422918,0.0018992678,-0.047818907,0.036132775,0.011168174,0.002202718,-0.09441223,0.039259277,0.006501777,-0.01841592,0.0046223337,0.10352651,-0.06238931,-0.089550525,0.033076193,-0.094885156,-0.08407062,0.0790105,0.031386778,0.14006798,-0.10254816,-0.09205963,-0.10281795,-0.0918932,-0.0040671076,0.09178675,-0.13920927,0.040139817,-0.12561637,0.007008579,-0.103073515,0.028387517,0.02366778,-0.1320193,0.009456292,-0.013542537,-0.12635358,-0.104555935,0.0032635324,-0.058956075,-0.15960254,0.11000635,-0.20478913,0.030401783,0.048576567,0.14198183,-0.115948774,0.057169404,0.37390456,-0.012959239,-0.0031775618,-0.055165816,-0.07899922,-0.2725692,0.1077931,0.0106668295,0.02900938,0.03614528,-0.1378724,-0.0020396917,-0.12684406,-0.113925435,0.012642287,0.02531927,0.007448955,-0.13942912,0.038597103,0.030758973,0.0040876577,-0.008961093,0.22251943,-0.07768998,-0.08153539,0.1404823,-0.043652132,0.11387775,-0.08077003,-0.17737557,0.23234363,-0.11750025,-0.052818384,0.038418487,0.0039051014,-0.015602189,0.015030499,-0.011882882,-0.09646884,-0.103105016,0.012301369,-0.10101295,-0.025403164,0.032568358,-0.06970582,-0.2264369,0.045057513,-0.029806176,-0.061584648,-0.05510692,0.024341552,-0.046487104,-0.0032362132,0.08754405,0.037376065,-0.08651619,-0.12735195,0.01167223,0.22154072,-0.111609995,-0.10057214,-0.04451681,0.21770795,0.025127167,-0.13325538,-0.2835776,0.119166344,-0.04758753,-0.15670599,0.07714749,0.029095806,0.089926474,0.018603424,-0.10709507,-0.15207417,0.0336082,-0.034168735,-0.022894638,0.024292165,-0.009990235,0.08013886,0.029509582,0.0830644,0.03925961,0.043012958,-0.02161594,-0.058640245,-0.0778349,-0.037923828,0.061753165,-0.10110739,-0.065487415,-0.12697743,-0.027916307,-0.0955822,-0.08266853,0.20855469,-0.115529895,0.013557224,-0.02036789,-0.009347166,0.026555195,0.018479578,0.024211654,-0.003047078,-0.090838484,-0.035329208,-0.113149434,-0.08312024,-0.07825536,-0.13512263,0.048692074,-0.0816948,-0.017004106,0.03106985,0.011365786,0.0117027005,0.13259582,0.03291382,0.04984966,-0.07814775,-0.02215912,0.009094262,0.06285193,0.01653032,0.11465387,0.023710616,-0.009497364,-0.105760984,0.08110181,-0.055423845,-0.04993104,-0.07978482,-0.099971466,0.02733122,0.05060234,-0.07703647,-0.11177874,-0.113501586,-0.0958374,-0.046218388,0.05641871,-0.049266435,0.0808268,-0.037711088,0.013782701,0.0031891172,-0.062072586,0.032072425,0.02495312,-0.0059852763,-0.007308729,0.028255217,-0.06707685,-0.0017675161,0.0032833545,0.011790927,0.07370222,0.0045877174,0.021415507,-0.013045471,-0.051433217,-0.099482626,-0.037066575,0.04129245,-0.028961675,0.08891506,-0.040822748,-0.13267197,-0.0391876,-0.09684365,-0.071650594,-0.06903722,-0.07976377,-0.016934885,-0.06006965,0.04319454,0.017785762,0.013826709,0.03665629,-0.07013083,-0.0006757366,0.11246523,-0.11755168,-0.09879687,-0.060648218,-0.020949211,-0.070535086,-0.027857259,0.015864342,-0.1005379,-0.03680667,-0.0040418133,-0.059366863,-0.07965736,-0.13369656,-0.0072224764,-0.09675583,-0.010567635,-0.020246029,0.025497634,0.21049455,0.0019394769,0.071326874,0.04026894,-0.12543595,0.09814583,-0.108862884,-0.1316826,0.032783937,0.020355297,0.0828719,-0.13183768,-0.02833774,-0.11753195,0.01511313,-0.016124114,-0.073247336,-0.0244,0.024460396,-0.117257096,-0.05797227,-0.05610867,0.027823057,0.01830358,-0.04475626,0.013422536,-0.06666445,-0.08897748,-0.03275388,-0.08713257,-0.03512509,0.100224026,0.17968945,0.041601747,0.01858888,-0.26785415,0.004641873,-0.038592126,0.071264416,0.57854503,0.0068712165,-0.06182352,-0.13041589,-0.06775583,-0.40760243,-0.111008085,0.0076176636,0.0037003926,0.046206675,0.0031676143,0.1557861,0.05128514,-0.1084668,-0.009561641,-0.023674525,-0.040206052,-0.031128636,0.0101855695,-0.015873056,0.11446624,-0.07380899,-0.027225662,-0.028771967,-0.032241285,-0.20167632,-0.051382214,0.012875359,0.11382531,-0.18720867,0.25718752,0.087468974,0.30060065,-0.12728737,0.049685158,-0.09721709,0.044536058,-0.016494699,-0.05174774,0.011227392,-0.01001359,0.047413193,-0.038944446,0.050770603,-0.021916702,0.2151983,-0.07789419,-0.054742396,0.0014482215,-0.02041024,0.3652091,-0.02203555,-0.011097113,-0.36124587,0.09258998,-0.47858062,-0.049968015,-0.064129084,-0.23611675,0.031058947,0.030904708,-0.12411435,0.20452471,-0.09919514,-0.0837876,0.20193093,-0.23582494,-0.10442934,0.032052994,0.0020275011,0.031704754,-0.14874487,-0.0075757876,-0.36484662,0.17894785,0.06739835,-0.048976272,-0.010588318,0.022046437,0.023757808,-0.077836856,0.027999492,-0.008767426,0.01952774,-0.09342362,-0.12277617,-0.37204915,-0.01863992,0.07092001,0.16241811,0.040293343,0.015514705,-0.123876825,0.014328077,-0.052922368,-0.053551666,0.26162776,0.025357932,-0.055453327,-0.06399258,0.04595195,-0.084574685,-0.051668726,-0.061977785,-0.037792362,-0.107206084,0.027357358,0.045235783,0.076632775,0.012967752,-0.19525819,-0.03128398,-0.13449596,0.29424953,-0.055406295,-0.09763963,0.49194586,0.036662288,-0.021300223,0.12210023,0.22259979,0.027944194,-0.042629354,0.2357959,-0.005637073,-0.5727201,-0.47831556,0.029853165,-0.03129961,0.6363202,-0.02403013,-0.02698229,-0.037935298,-0.029600596,-0.13238999,-0.059851866,-0.06537241,-0.025453938,-0.08176314,-0.093773104,-0.03852812,-0.01463104,0.04893634,-0.02202367,0.008396484,-0.07492478,-0.014666811,-0.021685066,0.5372616,-0.95286816,-0.05274899,-0.028901886,0.25629425,-0.022742784,-0.030579887,0.041187808,-0.0707125,0.017688923,-0.5862269,0.037781354,0.5544711,-0.074350476,-0.08101011,-0.10854444,-0.009917356,-0.40303308,0.08380288,0.034738317,-0.094718486,0.014567591,-0.012526398,0.031527568,-0.13561746,-0.47518536,0.4922522,-0.32362562,-0.07963999,-0.08732939,-0.010775108,-0.07134405,0.028003192,-0.119583845,0.9241158,-0.11382092,-0.11097584,-0.41621628,0.054424662,0.0037353719,0.00010793745,0.079528354,0.022154063,-0.743292,-0.087551884,-0.27765244,-0.14677571,0.0013570774,0.02073744,-0.13610947,-0.05645242,0.01744686,-0.12821986,-0.070113674,0.22610734,-0.03372382,-0.032907866,-0.089058466,-0.0050341976,0.04662194,0.0127587505,-0.17552419,0.017165512,0.23177381,-0.08638421,-0.027283482,-0.07702429,0.029952824,1.086179,-0.04822175,-0.026979325,-0.04563088,0.019327216,-0.077137575,-0.007965649,0.0067106094,-0.05402772,0.006675377,0.0022631828,-0.07623691,0.015876386,-0.11485675,-0.0433338,0.020885766,0.0037256593,0.14265989,-0.01302578,0.028717995,0.14902477,0.1125357,-0.082468204,-0.023448916,0.033042513,-0.07642676,-0.13094911,-0.056797747,-0.008837448,-0.16660759,0.25543845,-0.08656399,0.0050263484,0.09975625,-0.13758272,-0.010250503,0.022924978,-0.0051715085,0.020863973,0.01642851,0.026759425,0.005631221,0.004924438,-0.03300352,-0.112979114,-0.068543114,-0.11247715,-0.077663705,0.054028355,0.06525904,-0.09514372,0.07090314,0.20829917,0.050847426,-0.045843568,0.025068196,-0.018799532,0.03656198,-0.103543915,-0.08608425,-0.03295019,0.026172394,-0.051286638,0.04097243,-0.0739699,-0.108867474,-0.044646714,-0.079367235,-0.0024766976,0.0676024,-0.060969498,-0.09747815,-0.09826037,-0.057556953,0.08828407,-0.1377419,-0.062223535,0.0019663568,-0.045246944,0.1111613,-0.06053928,-0.12284968,0.0009868313,-0.09108082,0.020270804,-0.095058315,0.06395384,-0.10781996,-0.06740406,0.06862478,-0.02836617,-0.13020708,-0.050531045,0.036692787,-0.047340576,-0.12361851,-0.06298007,0.014894716,-0.012238698,-0.05522045,-0.07391263,-0.035122152,0.040885754,-0.049562868,-0.057741683,-0.0517517,0.049473405,0.0061445665,-0.08898285,0.0068111527,0.12597853,-0.046121582,-0.08625082,-0.12215287,-0.005592072,-0.2112766,0.023040796,-0.14243227,0.033514593,0.036540408,0.108024254,-0.086007394,-0.03229531,-0.09461933,-0.09032147,-0.11212015,-0.07692444,-0.06656484,-0.115786776,-0.1115475,-0.0590963,-0.076536655,0.011127467,-0.06504831,-0.041247815,-0.029585412,-0.13803606,0.15287901,0.2509576,0.024442451,0.20503475,-0.044480115,-0.031673405,0.18046723,0.12398302,-0.113522954,-0.030369751,0.07625802,-0.119007766,-0.12388694,-0.23567478,-0.12758829,-0.087830216,-0.027793707,-0.1286923,-0.099021755,-0.12263949,-0.05027476,-0.041088235,-0.094721965,0.0024084568,-0.13780534,-0.10008775,-0.10973993,-0.08473186,0.009063942,-0.07639132,0.011506542,-0.06785004,-0.4276833,-0.04234987,-0.102053694,0.25808105,-0.3514062,-0.08246763,0.018344743,0.10420631,-0.07834208,-0.032040253,-0.020571815,0.012316854,0.0027334264,-0.15902244,-0.092780575,0.20731492,0.02175364,-0.039756857,-0.13476604,-0.08389649,0.02475458,0.03178121,-0.012428188,-0.01690649,-0.14616634,-0.26441726,-0.12357409,-0.066677056,-0.20849454,0.47265112,-0.016405802,-0.07534004,-0.064547434,0.5213798,-0.0013659807,-0.14765322,-0.008156633,0.28314176,0.04132037,-0.019024204,0.0023867285,0.20470965,-0.09871579,-0.07377198,-0.30881026,-0.05441158,-0.6502573,-0.1104619,-0.4802323,-0.19308895,-0.11655522,-0.09437974,-0.09017619,0.0058130794,-0.059787538,-0.111175075,-0.33090934,0.1630809,-0.10463881,-0.11445112,0.034211703,-0.072109416,-0.08570358,0.030352335,-0.1304618,-0.0018895447,0.06175305,-0.02972743,-0.012066584,-0.11262501,-0.11172279,0.49549034,0.044237662,-0.1075603,-0.048338287,-0.014417898,-0.053676452,0.022115603,-0.013148524,-0.0050243214,0.019401789,0.062115125,0.03039562,-0.0819567,-0.062839165,-0.024763338,0.09154218,-0.090843245,0.13716821,-0.047895156,-0.09146134,-0.10639921,0.054724798,-0.056347057,0.053808723,0.07896467,-0.022230357,0.0909447,0.122625485,-0.0055143386,0.08346338,0.035498787,0.08703736,0.06880402,0.12298296,-0.005373083,0.061948225,0.016292326,0.08693407,-0.04480465,-0.031448174,0.062643014,-0.027943842,-0.08450343,0.09164306,0.09125344,-0.001511842,-0.060371667,-0.087187804,0.075068094,0.09476047,-0.015957862,0.037417192,0.08048008,0.020777736,0.0073660775,-0.05406674,-0.062310413,-0.023074605,0.022042416,-0.009906091,0.047470696,0.09257922,0.088689126,0.02305594,-0.036960877,0.07128065,-0.07260697,0.009899713,0.024443641,0.038952712,-0.049554903,-0.026534155,0.05230286,0.03651788,0.01813827,-0.09231971,0.06968472,-0.03579247,0.016610913,0.08078402,-0.0040253177,-0.018968351,0.10121504,-0.0017188415,0.04456777,-0.029889114,0.024693947,-0.012998439,-0.037408456,0.04615596,-0.07412943,0.02572593,-0.021859549,-0.01650816,-0.06278983,-0.083187655,-0.031065565,-0.11625171,-0.03324797,0.08570086,0.06822642,-0.0068587437,0.020110756,0.07134407,0.055204235,0.026426308,0.13751307,0.06507824,-0.028529793,-0.008499019,0.04843349,0.00471054,0.08912841,-0.051942155,0.0804273,0.05400558,-0.023535728,-0.020283043,-0.06836717,-0.056126665,-0.031632107,0.059452973,-0.0127260685,0.020254001,0.06910824,-0.011490315,-0.024876371,-0.09019269,-0.02799327,-0.056033403,0.0030178875,-0.05589082,0.0037094727,0.013644606,-0.027948774,0.011465855,-0.006536211,0.008499811,0.09926315,0.043554105,0.13629343,-0.00764857,0.005073026,0.06400916,0.09464119,0.03866949,-0.0024056733,-0.07975522,0.01475434,-0.10993646,-0.02475064,-0.049493276,0.04285077,-0.04097547,-0.05329526,-0.2688098,-0.04091308,0.043387316,0.06539453,-0.004698299,-0.052331474,0.032159336,0.018651202,-0.022753134,-0.0686934,-0.05365002,0.08413618,-0.011120588,0.05537576,0.0009787084,-0.07876657,0.015234382,0.045607395,-0.077976234,0.10896772,-0.046781585,0.04349435,0.04507137,0.02403199,-0.022784546,0.008802332,-0.027487136,0.013836915,-0.06477521,-0.13460484,-0.04562083,0.062241368,-0.083240956,0.080823146,-0.25721297,-0.028581105,0.014688969,-0.0011077598,0.08579202,0.019932408,0.03294698,-0.068611935,-0.03606881,-0.2714861,-0.13375892,0.037522458,0.07050162,-0.049436264,-0.04029536,-0.0009458814,-0.018940367,0.10889166,0.060009383,0.0706222,0.37797162,-0.22458313,-0.087429225,0.010524161,0.08829344,-0.08480662,-0.2536088,0.048018403,0.103417195,0.0751459,0.025871985,-0.14637598,0.04432351,0.046495847,0.06366826,0.03794635,0.048737668,-0.1449304,-0.0027406055,0.044397213,0.050535046,-0.011288266,0.05589857,0.0021147802,-0.036040228,-0.041309766,0.22310182,0.05615201,-0.04033174,-0.06021937,-0.019617528,0.10728823,-0.08720022,-0.088621326,0.02452249,0.052221783,-0.015864514,0.037047096,0.07435607,0.07521822,0.053181075,-0.06950313,-0.055082392,-0.04035041,-0.08389686,-0.091387585,-0.073151864,-0.048577882,-0.08049582,-0.017308883,0.08416321,-0.07654129,0.04031966,-0.013691954,0.055408068,0.085934155,-0.017392531,0.0911568,-0.072866365,0.055337466,-0.034968227,-0.059547324,0.053975098,-0.080377184,0.021646857,0.04734894,0.04900541,0.054854877,-0.09016646,-0.06798799,-3.9577484e-05,0.083702125,0.01915425,0.07490092,0.07792177,-0.06907281,-0.0384775,-0.007579401,0.04541678,0.06873014,-0.055262692,-0.07801092,-0.08863095,-0.055503786,-0.0566751,-0.05041575,-0.05289098,-0.06294107,0.046991818,-0.0544219,0.057753526,0.02320636,0.09239625,-0.01226107,-0.0893289,0.0038249642,-0.07687759,-0.07276498,0.012283452,0.05172976,0.067811854,-0.053457387,0.024720684,0.0038382187,0.013572596,-0.059007324,0.0060628876,0.08797584,-0.070146084,-0.07465844,0.02320616,0.068968795,-0.057009205,0.014392473,0.08491384,0.054104798,-0.035547387,-0.07724601,0.0797246,0.03793063,0.030903235,-0.023484953,-0.009215891,-0.069417484,-0.08252753,-0.0375411,-0.058128033,-0.02970443,-0.052064486,0.061580725,-0.07520899,-0.054686148,-0.030328639,-0.01626715,0.049923606,0.0803647,0.055634923,-0.091135375,0.06413644,-0.0024059862,-0.033237234,-0.03601086,0.04398241,0.058128215,-0.08997618,0.048234813,0.033117734,0.038297556,-0.020200476,-0.087006725,-0.0143361315,-0.021580115,-0.062140606,-0.037051436,-0.0668312,-0.05484976,0.017674256,-0.041515853,0.025977558,-0.034581304,-0.07802763,0.030103715,0.03424433,0.024096418,-0.0023775215,-0.11242253,0.0052012596,-0.12265726,0.08449751,-0.572026,0.04543518,0.004835026,-0.032145087,-0.11502946,-0.025969323,-0.004921046,0.010033709,-0.10582381,0.080390885,0.014688476,-0.33172995,0.077151164,0.031259492,-0.05081885,0.16439283,-0.017478567,0.10774123,0.006257809,-0.061328538,-0.06871049,0.009748988,-0.10142203,-0.06562199,-0.029084727,0.020873917,-0.0054121423,-0.13261019,-0.037501033,-0.07117919,-0.07547625,0.010112728,-0.12195256,0.006995384,-0.08441717,0.06342347,0.041253068,-0.10372407,-0.018985262,-0.045832478,0.03279204,-0.083467826,-0.015610004,-0.042706102,-0.5102731,-0.018131413,0.14544478,0.09082756,-0.13225698,-0.04579902,0.04008262,-0.114485614,-0.19948518,-0.1088936,0.0028972402,-0.05434617,0.19261386,-0.07251177,-0.039311014,0.19362314,0.2902246,-0.031951685,0.019415043,0.02470892,-0.0028560893,-0.044699244,-0.09158967,-0.096784815,0.116004795,-0.09092987,-0.13960023,-0.23180212,0.27407867,0.018040223,-0.03239239,0.2979479,-0.110198915,0.2957492,0.012199673,0.020150768,0.14187148,-0.08427167,-0.08071328,0.005190622,0.005203986,-0.1105529,-0.074883826,-0.23768178,-0.06078128,0.061313644,-0.07401706,-0.13815042,-0.0009588103,-0.024656737,-0.044563092,0.0032768252,-0.025405733,0.034684274,-0.020458153,0.038332812,-0.045995854,-0.00755128,-0.21635538,-0.014884033,-0.061804365,0.007397593,-0.0026616664,-0.08509197,0.070782565,0.08468207,0.03602592,0.003063172,0.0123247355,0.061050348,-0.08307139,-0.03522417,0.017091319,-0.0009087324,-0.056589164,-0.08095484,-0.055580597,-0.0028455928,-0.082056865,0.020945191,-0.07058546,0.030445829,-0.034838464,-0.057727892,0.06006203,-0.08785013,0.029071525,0.07507656,0.06323444,-0.031175297,-0.08098964,-0.055802982,-0.0041183606,-0.048482537,0.06501103,-0.025568932,-0.03661831,-0.032270372,0.082063995,-0.08576951,0.04254397,-0.0049603507,-0.019180045,-0.0077208504,-0.090691276,-0.066417284,0.038675062,-0.06566504,-0.042450886,0.044665568,0.09055219,0.08807116,-0.056530148,0.022023976,0.015842907,-0.038866263,-0.06342256,-0.051150087,-0.079920046,0.05180367,0.03665165,-0.07023871,0.062279798,0.020837322,-0.07135798,0.06282536,-0.0775657,-0.017169707,-0.086354114,0.089987315,-0.008246481,-0.08320064,0.06133943,-0.0025208518,-0.0136254355,0.039424278,-0.08037871,0.06377495,0.06004969,0.027711645,0.0181017,-0.06820756,-0.06130404,-0.0013347939,0.017672166,0.06803771,-0.028333575,-0.052200228,0.07606026,0.072780736,-0.06188196,-0.07304877,0.05284121,-0.03125698,0.06463627,-0.08559713,-0.07573441,-0.021814145,0.029530503,0.05122947,-0.08949795,-0.004963912,0.017511278,0.023673534,-0.038511038,0.060708605,0.06331911,-0.041616384,0.0822695,-0.051600944,-0.008210443,-0.008848026,-0.076094724,0.05143758,-0.04764168,0.07122251,0.01575812,-0.04894681,0.059878282,0.08495096,-0.012490362,-0.015813284,-0.039295316,-0.055208154,0.035101175,-0.053290535,-0.027125232,-0.059931405,0.0019196585,-0.034653828,-0.0975898,0.0039300458,-0.17881595,-0.12313171,-0.11942517,-0.4112695,-0.34016788,0.045610677,0.8341753,-0.07262748,-0.110594966,-0.019990675,-1.2629716,0.0076308544,-0.0184213,-0.108131014,0.02111717,0.16790833,-0.90989184,0.027499508,-0.05952329,-0.28449705,0.024790758,0.015526298,-0.1012195,-0.044063557,-0.12911147,-0.01135803,-0.12953778,-0.03946286,-0.02399803,-0.09571738,-0.022509458,-0.13686408,0.22720091,-0.064120784,0.07776261,-0.26767352,0.047272135,-0.11772574,-0.30106905,-0.41526288,1.053231,0.031221867,-0.32970157,-0.0072368234,0.044374026,-0.07529393,-0.1255169,0.033741817,-0.1916923,-0.005201956,-0.41485146,-0.085294746,-0.038008492,-0.096265666,-0.100147136,-0.0872566,0.061868705,0.038546707,-0.0072780224,-0.12710394,-0.2890409,0.014626216,-0.00862576,-0.37252873,0.23690613,-0.7496019,-0.12816133,-0.09020935,0.24061392,0.052190304,-0.12653121,-0.029238809,0.8309874,-0.1314089,-0.014116993,-0.2322922,-0.091121316,0.027202904,0.01889793,-0.2201727,-0.10285477,0.037854813,-0.01855684,-0.5801979,0.026237521,-0.13864687,-0.06180732,-0.026082149,0.011341072,-0.12517338,-0.077378996,-0.086870596,-0.4875331,-0.0777637,-0.04553957,-0.120981276,-0.4205098,0.012467115,-0.012625277,-0.03996252,0.03315188,0.4554893,0.035145152,0.04605822,-0.07996307,0.082780294,1.3114141,-0.0938779,-0.023917109,-0.016475404,0.004672468,0.043938503,-0.041793093,-0.024116274,0.029441915,-0.10840658,0.042288125,-0.09883144,-0.037016176,0.022124374,-0.1249232,0.025576407,-0.13663124,0.04892971,0.019571524,0.06720111,0.05498059,0.065773405,-0.039048478,0.08584975,-0.051205274,-0.024705991,0.026281426,0.09484348,-0.037174642,-0.043577958,-0.0466943,-0.12960504,-0.03284518,0.062638804,-0.13779882,0.024212666,-0.015616726,-0.010428954,-0.026785042,-0.039764144,-0.108421095,-0.026355585,-0.048583094,-0.031897705,-0.050368164,0.042358685,-0.11253234,-0.06969353,-0.10740559,0.03243378,-0.0014302804,-0.048559915,0.048079625,0.104510926,0.0915104,-0.069053635,-0.08081602,-0.010619289,0.0084750345,-0.034299623,-0.00040599162,-0.110496454,0.039283864,-0.055665843,-0.08930716,0.0050626793,-0.017399281,0.03459327,-0.022384662,-0.042995665,-0.0646873,-0.025009107,-0.065785244,-0.014210993,0.10193172,-0.03607982,-0.09378966,0.08780027,0.11410772,-0.02004722,0.03178678,-0.00047983162,-0.07104062,0.056100875,-0.017493073,0.025795268,0.07819903,0.010033004,-0.10576718,0.060167555,-0.07457993,-0.050618447,-0.07533924,-0.04984127,0.020771615,-0.009295433,-0.09621429,0.10818208,-0.11831745,-0.10331964,-0.11401933,-0.10179237,-0.026021315,-0.116807126,-0.14096627,-0.053367108,-0.03390124,0.04533696,-0.08569562,-0.021877058,0.09295254,-0.06333102,-0.13600352,0.06878976,-0.08136111,0.014383982,0.029847365,-0.01581053,-0.043041162,-0.06536473,-0.09195848,-0.04652673,-0.034068916,-0.09596783,-0.034118846,-0.114137724,-0.041349575,0.008775525,-0.055749256,-0.039238874,0.008884747,0.012930989,-0.063050136,-0.008660057,-0.45046547,-0.02484018,-0.041073628,-0.054600716,-0.0800474,-0.045531612,0.018741509,0.013173791,-0.14493795,0.027359866,0.10910502,-0.1452619,-0.10219936,-0.0042409776,-0.123211354,0.028305026,0.1474835,-0.107421495,-0.05644809,-0.09882876,0.03238781,-0.05838553,0.02882996,-0.09489512,-0.123279095,-0.25803414,-0.03890023,-0.105984926,-0.04956491,-0.13247944,-0.119486205,-0.118097186,0.040016994,0.016739115,-0.05578528,-0.07205167,-0.036964662,-0.17742345,-0.060988683,-0.056989245,0.018448407,-0.048684247,-0.22054833,0.0068560014,-0.024857149,-0.09781536,-0.0002662612,-0.10099152,0.013115491,0.04980201,-0.30657333,-0.08084034,-0.13221942,-0.10215663,0.031063152,-0.041873574,-0.32033336,-0.039234795,0.031997085,-0.11561965,-0.109056875,-0.009359168,-0.04357042,-0.1281848,0.077369265,-0.06364706,-0.13644312,0.0074911085,0.085171424,0.051266897,-0.056863993,-0.034603894,-0.04389177,0.010078381,-0.035928965,-0.059961025,0.07267052,-0.03697853,-0.111892916,0.06133173,-0.04036743,0.045601126,-0.08537033,-0.008557379,-0.019614017,-0.14276999,-0.095935285,-0.11639786,0.041670665,-0.040700678,-0.3109052,-0.18827362,0.06851965,0.058020726,0.0025960233,-0.05763976,-0.09478325,-0.00056121085,-0.09159698,0.12610361,-0.068342954,-0.06884594,0.0005425418,-0.07270245,-0.010433352,0.011120246,0.06519171,0.027578965,0.012816597,-0.06535199,-0.10336905,0.07386973,0.028283127,0.008563069,-0.021106467,-0.017464079,0.019780606,0.097235255,0.05246946,0.01905834,0.20480166,-0.008270688,-0.08971445,-0.34255108,-0.08474408,0.05213815,0.65579706,-0.006045294,-0.07976038,0.01755284,-0.60642874,-0.060261264,-0.0011046156,-0.15791565,0.056096133,0.46874127,-0.4951319,-0.08735208,-0.052135937,-0.15078527,0.05405705,0.12201517,0.001242051,-0.009266985,-0.0084566595,-0.05545721,-0.04232284,0.11353165,-0.042316362,-0.11852957,-0.08322082,0.033886366,0.41613346,-0.07190833,-0.019777521,-0.30984166,-0.05793259,-0.06557199,-0.066077635,-0.64122874,0.4623966,-0.04041959,-0.118821904,-0.059992146,0.04956854,0.054145746,-0.05954211,-0.035304055,-0.17905244,0.05833599,-0.16344063,0.032948717,0.039921958,0.044494458,0.027128063,-0.12515591,0.045828518,0.1305549,0.012107,0.026151398,-0.16071253,0.0258632,-0.06282176,-0.1643449,-0.32847834,-0.6186002,0.07872041,0.027481036,0.4228031,-0.13283554,-0.024482012,0.1089615,0.7162798,0.087570876,-0.017021943,-0.12276855,0.011051486,0.029526383,-0.113791145,-0.18834575,0.04286162,0.4026191,0.021369653,-0.37030503,0.10650188,0.03032131,0.004720166,0.052578457,0.14514826,0.048980176,-0.31309322,0.032835364,0.18787383,-0.13356963,-0.023190148,0.10071377,-0.06625321,0.040023174,-0.08355158,-0.13767792,0.004773475,-0.022457235,0.02848815,-0.007244607,-0.07706528,-0.05067917,0.62480015,-0.024731614,-0.034818765,0.053147927,-0.087532446,0.034103982,0.0061057336,0.04818639,-0.048391733,-0.09062996,-0.0008023299,0.022299057,0.013617046,-0.025445586,-0.082783654,0.019539192,0.09496136,0.2299323,0.020281132,-0.038279213,-0.2191581,-0.0062379334,-0.04794867,0.39039567,0.28690106,0.038976148,-0.07498845,-0.043294903,-0.11137521,-0.14608331,0.019234575,-0.04453991,-0.0071300147,-0.030129436,0.022416677,-0.23179267,-0.09055116,0.024099555,-0.07053932,-0.0692633,-0.045431446,-0.022711787,-0.09413989,-0.032133847,-0.10659835,0.022400543,-0.08177921,-0.0015924547,-0.076098576,-0.49332055,-0.033369012,-0.1018981,0.057797674,-0.25682604,-0.13602243,-0.10258873,0.02620498,0.013810153,0.08335892,-0.1178686,-0.03675253,-0.09032323,-0.31634438,-0.027575642,0.42556518,0.062113978,-0.073776126,0.027778864,0.080676235,-0.5084129,0.050167266,-0.005482636,0.005371443,0.093053326,0.029056264,-0.12616202,-0.049457416,-0.21516988,-0.20499136,0.083322026,-0.06047004,-0.002222202,-0.21373019,-0.037169546,-0.00025737594,-0.07046532,0.067454875,-0.12331647,-0.105434164,0.111082315,0.18001378,-0.13127653,-0.008006095,0.10622604,0.019032959,-0.16706038,-0.109523766,0.20211907,0.28865567,0.010298706,-0.18576351,-0.0021696684,-0.069063194,0.08883632,-0.13953145,-0.14077662,0.034947466,0.15107594,-0.04393191,-0.1449052,-0.40836224,-0.022640122,-0.10941787,0.48285967,0.04374912,0.5823891,-0.05667958,-0.025864968,-0.14428946,-0.07673348,-0.10557192,-0.029038563,-0.04629031,0.033796724,-0.05608166,0.026864583,-0.105165504,-0.047673166,-0.011892745,-0.06934532,0.026639795,-0.023781309,-0.03842292,-0.02012639,-0.074897885,0.025851348,-0.021746848,0.42902777,0.15587403,0.0540497,-0.19260103,-0.20899805,-0.0028700016,-0.048656993,0.91008073,-0.100865155,-0.09907917,-0.2600362,-0.10114826,-0.25451443,0.08242019,-0.019777736,-0.12440728,-0.0610815,-0.1344457,0.14110954,-0.14615639,0.02401124,-0.061219767,-0.053234987,-0.10321024,-0.08952503,-0.028496856,-0.09868603,-0.02128236,0.040113952,0.21784984,-0.026908502,-0.026046075,-0.11207847,-0.0616088,0.03843884,0.09977306,-0.31843594,-0.26192725,-0.08536159,0.63745403,-0.03643644,-0.12465623,-0.110534236,-0.10623769,-0.031942856,-0.14934324,-0.00834198,0.18542725,-0.08372023,-0.1390964,-0.011230086,0.0069519808,0.007161987,-0.091764115,-0.049571823,-0.09924719,-0.060811244,-0.11216953,-0.12758131,-0.043231174,0.303946,-0.14877266,0.028014531,0.043087665,-0.0768014,-0.49720287,-0.04018214,-0.10680751,0.017904669,0.030010674,-0.0550514,-0.14387341,-0.19749397,0.10473034,0.033182327,-0.062076874,0.016142529,-0.14196642,-0.123853214,-0.03132446,0.41565812,-0.26814872,-0.02329345,-0.17823559,0.016758868,-0.1318467,0.04681443,-0.0861619,0.052244313,0.3594525,0.2980129,-0.012709248,-0.1251588,0.3389273,-0.10193558,-0.09481756,0.062044304,-0.027430326,0.040899146,-0.06737601,-0.1400564,-0.009331262,-0.07793291,0.2546765,0.041843176,-0.044512387,-0.123444155,-0.13424681,0.0330505,-0.08403406,-0.07287018,-0.11237413,0.024439706,-0.031149676,-0.063270226,0.021473594,-0.07384129,-0.11553306,0.033841986,0.012604086,-0.006899268,0.036678534,0.008049903,0.13277371,-0.038034692,-0.11173988,-0.09097757,-0.2265518,0.023130707,-0.06017553,-0.09093873,0.020897543,0.07481059,-0.19616938,0.01726511,0.02379698,-0.12871818,-0.009897875,0.05093201,0.023928273,-0.12630059,-0.12789392,-0.07131435,-0.06696026,0.015598043,-0.07760024,0.028922688,-0.05137884,-0.09403541,0.14036125,-0.053197075,-0.040750023,-0.03938122,-0.044562533,-0.16253583,0.05258309,-0.013383617,0.23092456,-0.019799098,-0.24415338,-0.04834931,0.068579815,-0.09995197,-0.049571995,-0.037164133,0.032016076,-0.026370725,-0.09598954,-0.08419544,-0.110409215,-0.0022461882,0.018506866,-0.04021716,-0.018035337,0.044846408,-0.10828074,-0.15359047,-0.20733961,-0.11803316,-0.021761382,-0.1545225,-0.11453981,-0.23051183,0.012380207,-0.13091804,-0.06890303,-0.044962477,0.017645583,0.0562112,0.14600818,-0.01699991,-0.09939625,0.13616543,-0.10512902,-0.064375475,-0.053006332,-0.07049342,-0.037128728,-0.104684465,0.09409879,-0.08681178,0.05942488,-0.023709374,-0.02701477,0.03281972,0.041386038,0.05354113,-0.082044564,0.095269695,-0.03791372,0.0323599,-0.049939025,-0.119083814,-0.06749088,-0.014173303,-0.14037776,0.009912769,-0.017191807,-0.010933458,-0.10490031,-0.021231478,-0.060073655,0.08063733,0.06777193,0.008322544,0.037926536,-0.111391895,-0.11035214,-0.011484249,0.064426385,0.009874577,-0.0028596702,-0.10121528,0.00093640754,0.044890676,0.031815596,0.046143748,-0.33174157,-0.093393,-0.008372234,0.68845147,0.22921482,-0.036358763,0.19098704,0.082677364,-0.03970429,-0.32679537,0.00015694788,-0.104709916,-0.047466204,-0.28807515,0.009626849,-0.049639456,-0.29991606,-0.011222134,0.035011187,-0.19757648,0.019347334,-0.11065008,-0.069728345,-0.11314471,-0.013566824,-0.073412165,-0.100880116,-0.110368945,-0.040086027,-0.0839476,-0.04273482,0.014815569,-0.32580772,-0.042268436,0.035074748,0.3166683,0.02419839,-0.12482205,-0.00058034307,-0.9510203,-0.020949103,0.066826545,0.42778093,-0.06535779,0.022753708,0.0021232404,-0.06669612,-0.034883864,0.19568945,-0.08583214,0.68069303,-0.051764578,-0.06120618,0.12655142,-0.04401557,-0.11276475,0.06321262,-0.008611345,-0.091789894,0.04148498,-0.06234188,-0.120657116,-0.08326962,-0.2625689,-0.16660088,0.10365725,-0.11890913,-0.09323521,0.12882096,-0.0932916,0.059162494,0.024545683,0.6278865,-0.0039741,-0.09610757,-0.26572666,0.23525915,-0.014798508,0.023186235,-0.27654502,-0.00048813014,-0.629943,-0.06903939,0.21985227,-0.28662565,0.096336104,-0.16038375,-0.10563014,-0.032191362,0.08506561,0.03697923,0.04808985,0.27534416,0.41664904,0.041056912,-0.09100594,-0.23108682,-0.053655434,-0.11422578,-0.26023766,0.059008114,0.44743866,-0.11241656,0.03298706,-0.11123464,0.008619398,0.67554384,-0.002350755,-0.07469443,0.12476659,0.009435547,0.025903806,-0.0713507,-0.043887403,0.027830714,-0.09856502,-0.03687028,-0.04464155,0.06794744,-0.021474121,-0.34463423,-0.10361306,0.02249873,0.41993335,0.038781192,0.02708558,0.61291504,-0.2861137,-0.13359304,-0.3149696,0.20345555,-0.109734654,0.04253008,0.0796128,-0.10083236,-0.16436546,-0.32137346,-0.06490642,-0.1179435,-0.7534342,-0.026136648,0.1777181,-0.10275682,-0.04721595,-0.10167506,-0.19158912,-0.072109155,-0.07420884,-0.023565313,-0.08076796,0.01248941,-0.063352406,-0.47481185,-0.009213664,-0.07796797,-0.82163113,-0.08645605,-0.20653528,0.21529508,-0.64279145,-0.11524756,-0.06106264,0.5155725,0.028668594,-0.051432353,-0.08024727,0.017774232,0.004489593,-0.24837674,0.007724985,-0.43409893,-0.06492422,0.03189779,0.012052178,0.0271473,0.10183454,0.08397615,0.041380845,-0.056258883,0.022301838,-0.73698014,-0.0972595,-0.03271485,0.2953236,0.42584768,-0.2596419,0.027569063,0.0632616,0.12985054,-0.025816947,-0.00034581817,-0.1028301,0.44350806,-0.037801497,-0.0257153,-0.3283259,0.79683447,-0.055677094,0.021146933,-0.22078292,-0.13416581,-0.45597222,-0.045373008,0.27039197,-0.2864442,-0.020509666,-0.073382765,-0.05428146,-0.018275635,0.0026013628,-0.11088195,0.010509848,0.60839516,0.072955064,-0.108669885,-0.03484789,0.26610336,0.028512472,-0.08515991,-0.2823822,-0.019962506,-0.23178804,-0.10676487,-0.066894315,-0.12207534,0.08550299,1.0808353,-0.059298795,-0.116257735,-0.019067207,-0.013499101,0.042710334,-0.036189996,0.044769306,0.058625102,-0.11258722,-0.1218853,-0.024142671,-0.08107584,0.0070367036,0.02059738,0.05247694,-0.10868756,0.07426689,0.9153098,-0.054514706,-0.15208754,0.05483309,0.035628546,-0.5832307,-0.40146574,-0.020846171,-0.12692101,-0.045022227,-0.1073933,-0.73969775,0.19822541,-0.0036631208,0.023086121,-0.04959906,0.0057008304,0.19201715,-0.044960387,-0.0011074637,-0.100965574,-0.07981846,0.012071772,-0.10727066,-0.12480606,0.012693836,-0.041351344,0.022359991,-0.39243168,0.006867451,-0.09183603,0.027495049,-0.08916244,0.0024310022,-0.0147845335,0.2867972,0.45104644,-0.035890304,-0.17621739,0.05113751,-0.07334059,-0.058208685,-0.009235879,-0.06372573,1.2753378,0.03986878,-0.33365765,0.0110265175,-0.1207051,-0.105952166,0.02419411,1.1297053,0.039207615,-0.08726715,-0.034129955,-0.06309567,-0.08664865,-0.052830923,-0.1276905,-0.1155987,0.051396888,0.104025014,-0.12514432,-0.059951697,-0.9385214,-0.06290661,0.038046964,0.0414592,-0.22446719,-0.11140698,0.008347769,0.17649801,-0.8347839,-0.030647993,-0.13771968,-0.058582585,-0.022868836,-0.26737764,0.005592373,-0.15791187,-0.1899082,-0.10869401,-0.10279047,0.026751509,-0.0883524,-0.062224377,-0.01009786,-0.7225396,-0.0017192902,0.04881129,-0.030506603,-0.088370934,0.03706709,-0.06686549,-0.05129668,-0.2788899,0.014176963,-0.5796597,-0.08493465,-0.02920312,-0.10566678,-0.10145293,-0.30501893,-0.052164167,-0.14345369,-0.020570694,-0.10291032,-0.025215281,-0.09096201,-0.024237558,-0.09911885,-0.12254195,-0.12545271,-0.044975538,0.03852435,-0.09997515,-0.2209727,-0.038385663,-0.17382205,0.031573016,-0.033523757,-0.05637366,0.31838927,-0.5099555,-0.093322374,0.02328507,0.24445933,-0.106076255,-0.007848204,-0.09311755,-0.02143421,0.044282354,-0.025556505,-0.08362202,-0.07876503,-0.4614038,-0.011002256,0.07064364,-0.02702304,-0.06803572,-0.10477747,-0.11250475,0.037541326,-0.09735397,-0.14435786,-0.108136736,-0.03619648,-0.085142106,-0.28138006,0.0124998465,-0.13201201,-0.7601129,-0.0064256582,-0.18760629,0.113985896,-0.41023266,-0.07747393,-0.060185827,0.4762872,-0.07422755,-0.034331422,-0.08544151,-0.053228647,-0.081876405,-0.34378096,-0.042584535,-0.30657417,-0.12109025,-0.03233525,0.03313279,-0.09874333,-0.043559965,-0.0096469,-0.014825145,-0.10540122,-0.0071310047,-0.55733514,-0.099902034,-0.039322447,0.22938481,0.10556836,-0.51837915,0.0040015657,0.04370344,-0.0150481835,-0.043044187,-0.094645314,0.021433199,0.15727691,-0.05599911,-0.02446882,-0.200499,0.6156904,0.0058134007,-0.1327837,-0.38238552,0.027493231,-0.18847549,0.01006694,0.19403484,-0.12792324,-0.0971498,-0.1014414,-0.021581454,0.009771777,-0.12959193,-0.31134376,0.13791023,0.41455072,0.08873196,0.043730676,-0.07294694,0.18237978,0.020749956,0.022633405,-0.022189824,-0.123810336,-0.066609666,-0.11347754,-0.035046034,-0.004612116,-0.034775853,0.8929239,-0.002979625,-0.0057146787,0.010616651,-0.013681662,0.08470399,-0.035441972,-0.06820444,-0.049828377,-0.0627788,-0.0153764635,0.013604499,0.07921443,-0.079683185,-0.026216052,-0.008393608,-0.044561636,-0.029552273,0.05191673,-0.04206228,0.08504816,0.020934772,0.08644142,-0.11908786,-0.075207576,0.055431016,-0.042798035,-0.087637216,0.07696397,0.06439016,0.04705687,0.07187786,-0.0104445815,-0.03187517,-0.07283153,-0.06716066,-0.07646286,0.091248564,-0.08719422,0.061276235,-0.0906238,0.01366318,0.08164472,0.084516935,0.04031957,-0.033365026,0.022908803,0.087235995,-0.008630358,-0.066486776,-0.036282234,-0.038655024,-0.119257994,-0.049221292,0.021875914,-0.082193404,0.028577218,-0.017251544,-0.05266992,-0.04349631,0.051487125,-0.0056375265,0.07581235,0.0057212934,-0.17015187,0.004574023,-0.05533612,-0.0016523451,0.029387876,0.040243283,-0.029915698,-0.054108534,0.010230392,-0.023514261,-0.022008171,0.031963073,-0.062926166,-0.0017906514,0.015631307,-0.10273256,-0.06112885,-0.079645105,-0.17796512,-0.01802221,-0.013466299,0.083631806,0.0033268193,-0.030934274,0.0070659593,0.13849308,-0.07880503,0.054404818,0.03797082,0.0071469233,0.017753758,-0.09399595,0.09176508,0.07013294,-0.017053943,0.03414143,0.10178897,0.0628803,-0.072676346,0.029372513,0.080468394,0.072078414,-0.067622915,-0.050169658,-0.010082409,0.02467528,-0.0062353313,0.049583323,0.037679516,0.018015545,-0.04469813,0.085671104,0.0010327622,0.045604356,-0.008102976,-0.054456547,0.13844717,0.035941817,0.035933234,-0.017665967,0.071027406,-0.03854997,-0.054816723,0.10558302,0.09846745,-0.03659385,-0.00055585057,-0.035848286,-0.030110568,0.020045653,0.0013589457,0.0050552776,-0.13778001,-0.09468459,0.16445874,-0.014739082,0.22151332,-0.15287879,-0.010473292,-0.042321447,-0.23424722,0.027993424,0.05252672,-0.24254498,-0.110173754,0.015906528,-0.25035292,-0.020770546,-0.021839762,-0.1873822,-0.048292484,-0.111665435,0.06103181,0.051423106,0.03586957,-0.040752877,0.047146533,0.07149518,0.05439955,0.02362568,-0.07268076,0.042011335,0.16169189,-0.024424681,-0.042978838,-0.18234181,0.026211143,-0.09252574,-0.052941944,-0.204503,0.2782809,0.011051081,-0.07673994,-0.028520675,0.038831793,0.08404116,-0.03263326,-0.07508663,-0.053371754,0.11373306,-0.22119339,-0.07672748,0.06505487,-0.07525115,-0.08821379,0.03768375,0.078197084,0.016713895,0.013410911,-0.049187724,-0.10705265,-0.04105584,0.108922735,-0.16993882,0.015111661,-0.43994224,0.026708148,-0.012724233,0.16912103,0.011319984,0.024195956,0.12906195,0.1610459,0.055036444,0.13146831,0.12579508,-0.06328607,0.06297713,0.05573516,-0.23208064,0.062822886,-0.26861796,-0.009981964,-0.20094176,-0.026027977,-0.06028699,-0.023873009,-0.054224685,-0.039355733,0.008859202,0.019368475,0.0018361362,-0.07952762,-0.21012698,-0.084416464,0.13378435,-0.0473069,0.05435464,-0.06991405,-0.069426894,0.033834033,-0.0012413858,-0.044862308,0.0037527077,0.12513949,-0.020172536,0.18269786,-0.09100548,-0.006689091,0.06771266,-0.08639491,-0.031204939,-0.03687461,0.023935959,0.07985888,0.06291906,0.0026902184,-0.07041642,0.052143,-0.0025802627,0.006770149,0.07149214,-0.008194268,0.046586446,-0.011184879,0.06975613,0.01376348,0.063346125,-0.05163884,0.005690083,0.0017193258,-0.087833904,0.05427543,0.0019043237,-0.072769254,-0.06889147,0.020798758,-0.044065576,0.03239236,-0.0092097595,0.033677973,0.019246921,-0.07178714,-0.066260874,-0.029389977,-0.08092062,-0.059806697,-0.024958894,0.06180247,-0.023754217,-0.010289118,0.059092633,-0.033374324,-0.07079002,0.08702005,-0.06316325,0.050255112,-0.08206008,-0.013924949,0.030757532,0.02382955,0.030254059,0.015598737,-0.040014025,-0.0072046444,0.07972852,0.05123771,-0.0720917,-0.044802018,-0.03995368,-0.026887305,0.07503245,-0.002296321,0.04175108,0.06384612,0.0020970479,-0.048639156,-0.06756465,-0.032264218,-0.03602992,0.07130211,0.025616221,-0.048118237,-0.049321428,0.029928543,-0.004963912,0.047384657,-0.03480209,0.035358183,0.023282684,0.057212822,0.077725194,0.01127331,0.036908187,0.048191287,0.025677562,-0.0061184242,-0.0045768768,-0.07202507,0.076212205,0.07798911,-0.05927212,0.08508121,0.036290266,-0.07323388,0.010047585,-0.022243,-0.022108033,-0.081606805,-0.0011927187,-0.07308096,-0.054588657,-0.07546602,0.08711866,0.06950534,0.04601512,0.083277635,-0.06465787,0.018411882,-0.07469567,-0.082220875,-0.029239915,-0.011052474,-0.053815227,0.055415817,0.046396367,-0.08145756,-0.06764375,-0.06681201,-0.01339829,-0.069070004,-0.020196075,-0.037031725,0.006291932,-0.055172585,-0.030921742,-0.02044573,-0.040207643,-0.013438442,-0.09323381,-0.09977163,0.046092514,-0.10752196,0.18485384,-0.47762066,-0.08719202,-0.11705367,0.02601539,-0.02225369,-0.050525002,0.024919812,-0.005068678,-0.119905375,0.3333142,-0.058578815,-0.35079408,0.07427747,0.050080452,0.017727943,0.5168766,0.005865808,0.017417034,-0.09764939,-0.01302266,-0.07760898,0.06412285,-0.11656552,0.018633166,-0.10646707,-0.12355194,-0.07616551,0.03215703,-0.031296358,-0.12016521,0.08935549,0.09326778,-0.058946047,-0.08133098,-0.14642948,0.18604249,-0.1927359,-0.14083068,-0.04599323,-0.05563847,-0.09100986,-0.02584621,-0.10276172,-0.06440279,-0.37450403,-0.074349895,0.08514977,-0.03975082,-0.047574636,-0.028349303,-0.04355479,-0.06264615,-0.17066877,-0.0015265981,-0.12495587,-0.022473238,0.22194019,0.03534503,-0.07601549,0.09769777,0.39639646,0.077608004,0.016693782,-9.493634e-05,0.18948562,-0.021888994,0.01038654,-0.07027839,-0.044665545,-0.009802974,-0.03904518,-0.33490422,0.23490281,-0.052648883,0.058433987,0.14339226,-0.09136372,0.33576602,0.07403115,-0.16566288,-0.08006652,0.0004764938,0.020982815,-0.015784172,0.023779204,-0.0386964,0.089280844,-0.4569365,0.052141406,0.016240703,-0.11699741,0.026447795,0.0032404503,-0.1319196,-0.066631556,-0.08996291,0.026903795,-0.16476826,-0.0048353104,0.044922,0.027262446,-0.017506998,-0.18731119,0.014419013,-0.04332473,-0.064651236,-0.012341359,0.06946481,0.02946411,-3.156811e-05,-0.05267519,0.03447088,-0.0046318844,-0.0380778,-0.015397847,0.043546475,-0.0849874,-0.07071422,-0.064401686,0.07878456,0.024389677,0.009509377,0.07020948,0.028168038,0.050811283,-0.058809575,0.018141061,0.03863319,-5.9060752e-05,0.073201455,-0.00089374185,0.06804418,-0.08645041,0.043907233,-0.041183833,-0.0785497,-0.010012805,0.013192862,0.087794654,-0.04691967,0.090155415,0.06812198,-0.016076624,-0.07786827,0.04780812,0.092607714,-0.07894639,0.055574007,0.0012295097,-0.070024915,-0.084464334,0.09166252,0.090878285,-0.0214542,-0.0058951154,0.030111544,-0.0009335652,0.052459158,-0.009265676,0.012810297,-0.076435804,0.037517153,-0.021481454,-0.06550827,0.07401753,-0.047716856,0.038473673,0.073353834,0.007652916,0.089152224,-0.046678737,-0.07988164,-0.09149311,-0.02136942,-0.084107846,0.019006446,0.010328457,0.035366796,-0.0013818145,-0.084149264,0.057013877,0.03060127,0.076540045,-0.016841955,0.078840844,0.049206577,-0.06722116,-0.044630393,-0.08131462,-0.08914891,0.021361671,-0.04972739,-0.016952723,-0.039521486,0.00014904886,0.032940455,0.04704339,0.07369516,0.07535308,0.08760049,0.06603227,-0.014865018,0.008877821,0.071506344,0.08824407,0.090426676,-0.025367536,-0.0066503882,0.046981506,-0.078249484,-0.05938555,0.08735808,-0.07127665,0.046127267,-0.06957771,-0.07959627,-0.060747724,-0.06858898,0.04988157,0.025973834,0.0012138411,0.08550268,-0.0145870745,-0.03787324,-0.04190814,0.06907391,0.031994797,0.015541887,-0.07060629,-0.06109164,0.013496126,-0.1196471,-0.118909635,0.028937414,-0.049325015,-0.127855,0.3246034,-0.09210812,0.029031347,-0.1557349,-0.17521769,-0.08507115,0.7392097,0.53035855,-0.017430598,-0.17590216,-0.5982698,-0.13434476,-0.0993567,-0.14449452,-0.018025007,0.4995759,-0.3752223,-0.13651705,-0.0118542025,-0.039478425,-0.09617169,0.19514059,0.025200741,0.041507263,-0.064499974,0.113003545,-0.0103891725,-0.007740084,0.02101377,-0.056443263,-0.05411654,0.013105948,0.82118833,-0.092656046,-0.041218255,-0.5693468,-0.10636308,-0.11356092,-0.30719876,-0.8699338,0.5909298,0.010677068,-0.1976862,-0.026776511,-0.041063625,-0.0799281,-0.024839276,0.033415366,-0.2475322,0.003936192,-0.034517217,0.048195515,-0.10602355,-0.053038895,0.031414833,-0.4931225,-0.07394358,0.043702193,-0.12323985,-0.030578434,-0.49236697,0.007018628,-0.09878982,-0.5394569,-0.09532784,-0.35144988,0.026041659,-0.061185304,1.1545734,-0.08359931,-0.035366617,-0.08658924,0.8654832,-0.024931472,-0.07246017,-0.4140112,-0.29445833,-0.09258425,0.07224199,-0.18473814,0.03712924,0.6466727,0.031509966,-0.55338484,0.20940843,-0.03158588,-0.08216717,-0.0034866019,-0.1215672,-0.048140008,-0.11381943,-0.04352485,-0.27598092,0.14356558,-0.10867301,-0.015161156,0.031085776,0.05266116,0.034254014,-0.3495506,-0.13610752,-0.057495497,-0.04488486,0.04335117,-0.09108648,-0.08128437,0.99960744,0.0075971964,-0.050053123,0.019317815,-0.13859437,-0.08841102,-0.11758109,-0.013527684,0.03804556,-0.13874546,-0.12243932,-0.109864816,-0.059394363,-7.210482e-05,-0.05256483,-0.07929518,-0.081043765,0.0067289653,-0.02918842,0.03675982,0.06911522,0.12123452,-0.120275006,-0.052543074,0.03811367,-0.09982211,-0.13613163,-0.0037594547,-0.083786264,-0.049723167,0.034765,-0.14451273,0.0062006074,0.14338477,-0.015956484,0.06404718,0.0040925485,-0.09099603,0.014357312,-0.011949154,-0.034412347,-0.022414204,0.037446838,-0.14343715,-0.08824232,-0.13402364,-0.070013605,-0.09354234,-0.01945957,-0.07956644,-0.071231425,-0.0061551323,-0.046925683,-0.08442054,-0.047775026,0.0012678342,-0.020859702,0.04211058,-0.008411931,-0.04815833,-0.09381512,-0.08383729,0.028640646,0.036409006,0.21900581,-0.04529964,-0.10240163,0.0012068469,-0.08749348,-0.053914625,0.02470921,-0.06421971,-0.08358288,-0.10723615,-0.015019403,-0.028305436,-0.0025111837,0.08311154,-0.09562047,0.06862553,-0.12556486,-0.02807402,0.21929058,-0.031342063,-0.10889788,0.04408992,0.08812798,-0.086585954,-0.09132813,-0.04342079,-0.021517552,-0.013488316,0.061833743,-0.08672207,0.010130178,-0.043582235,-0.08527283,-0.061349656,-0.13390067,-0.047062743,-0.15417555,-0.0033354086,-0.07692648,-0.004338181,-0.13197973,-0.07925297,0.10414631,-0.02852744,0.020063646,-0.007854496,0.04071248,0.015320835,-0.091816984,0.01225158,0.020206679,0.050954476,-0.11336809,-0.1436869,-0.11382451,-0.03403158,0.043792512,-0.11967997,-0.06390845,-0.022695348,-0.085482,-0.062486336,0.009104071,-0.09345392,-0.014242867,-0.022987809,0.018358225,0.012980121,-0.047262322,-0.016956313,-0.42308867,0.035537425,-0.20410039,0.07645198,-0.19606474,0.0024904977,-0.04462398,-0.123061605,-0.104850486,0.25266248,0.20027158,-0.06636043,-0.012364092,-0.07757364,-0.022460727,-0.040595423,0.051798187,-0.03435813,-0.108236596,0.033163685,-0.11797689,-0.14809138,-0.058936168,-0.015569101,-0.14568835,-0.18463996,-0.1383341,0.026655741,-0.1347731,-0.06646236,-0.07521574,0.01730636,0.10494019,0.013047611,-0.03977792,0.06623302,-0.052164715,0.028097667,0.09166691,0.04445625,-0.11426936,-0.11407033,-0.119836465,-0.017295254,0.03671713,-0.00547006,-0.025141645,-0.105082214,-0.06419556,-0.008691906,-0.14726079,-0.030616641,-0.09500682,-0.14019893,-0.07946456,-0.15737988,-0.31384313,0.003659137,-0.085248195,-0.027016353,-0.0012175471,-0.07974949,-0.07009533,-0.039967876,-0.06266483,-0.06400012,-0.08395919,-0.038161445,-0.046150923,-0.10039539,-0.1187945,-0.009816535,-0.07535151,-0.006975152,-0.085971884,-0.07847241,-0.01171711,0.0022279746,-0.12762909,-0.05272135,-0.01114629,-0.032397773,-0.036597684,0.040107083,-0.029448384,-0.051300783,-0.014556815,0.018282,-0.061638985,-0.13083844,-0.23220335,0.07103086,0.12753676,0.17678204,-0.048723746,-0.12211569,-0.05850553,0.03813298,-0.12735221,0.07506511,0.022418842,0.027928166,-0.12596866,-0.1283701,-0.10795922,-0.010163794,-0.0010251104,-0.06143284,-0.11852903,-0.024100428,-0.12951264,-0.0032177507,0.021287004,-0.02845537,0.04229434,0.0019144192,0.01663389,0.06138027,0.084864356,-0.13021664,0.37719294,0.038973205,-0.0543069,-0.32205087,-0.6310865,0.04279821,0.29784855,0.3749556,0.09025613,0.0019020004,0.26406327,0.05615612,-0.022570595,-0.28668118,-0.07680044,0.82068646,0.009212695,-0.23185332,0.010193161,-0.14132717,-0.044973046,0.27212906,0.078310706,0.029885644,-0.076802045,-0.026812715,-0.058956083,-0.07249593,0.032047242,0.017456455,-0.21818265,-0.07172343,0.38141075,0.02615318,-0.1366858,-0.14023462,-0.022416197,-0.21479641,-0.034685712,-0.52466697,0.5405714,-0.002589099,-0.016458893,-0.006773187,-0.0813529,-0.0426401,-0.055468973,-0.05638232,-0.23546064,0.010967448,0.38609585,0.050909102,0.026702704,-0.22698794,0.015797943,-0.31900865,-0.07211161,-0.02770753,0.08418014,-0.098488815,-0.26854506,-0.13536571,0.045451757,-0.15569612,0.1971487,-0.33560458,0.044001,0.012951416,0.5369902,0.06841644,-0.08025614,-0.034024633,0.91659904,-0.02450286,0.0045510917,-0.6262734,-0.3034191,0.0918928,-0.18867873,-0.06751114,0.018621298,0.08230961,-0.06980562,-0.23239638,0.0036936966,-0.08683133,-0.05786131,-0.030033246,-0.09758538,-0.038620424,-0.39792776,0.118678376,-0.017775554,-0.5567186,-0.33015308,0.07839033,-0.0065893624,-0.043452848,0.037810147,-0.4209402,0.046840616,0.5034874,0.10450647,-0.092742056,0.13729271,-0.09461256,0.8586465,-0.037782345,0.05543417,-0.110641904,0.0397474,-0.0025092883,-0.13281456,-0.07955149,0.0225352,0.0140604535,-0.045961324,0.015099178,-0.11278908,-0.10786055,-0.14697877,-0.079996616,-0.04558426,-0.17941515,0.30697566,-0.065099835,-0.002310898,-0.18116252,-0.08384111,-0.048867483,-0.3161871,-0.090149485,-0.09478426,0.11237561,0.011769578,-0.28199485,-0.5171302,0.017462946,-0.12421319,-0.09003957,0.025242817,0.072129354,-0.11652148,0.034251012,-0.035168648,0.06544512,0.025150118,-0.07484074,-0.1443232,-0.10352231,-0.13556026,-0.07476127,0.033130676,-0.026006117,0.06615449,-0.23423171,0.007949077,0.019223386,-0.1670492,-0.07125993,0.20884886,-0.07333949,0.38032645,0.081610754,-0.08903433,0.010810588,-0.099105954,0.042654086,0.024129653,-0.05100256,-0.0746659,0.08618163,-0.115439,-0.13416396,-0.027001835,0.26559177,-0.09064753,-0.096957125,-0.026291564,-0.0035450058,-0.2091752,-0.009639409,-0.14566512,0.020874666,-0.049650528,-0.33433065,-0.09267336,-0.11371396,-0.22069591,-0.029329922,-0.12760638,-0.05980332,0.13915756,0.06186705,0.033874378,0.205158,0.00046826518,-0.11989065,0.056368385,-0.022740547,-0.11365661,-0.41733596,0.0028885284,-0.05388754,0.36730632,0.007694368,-0.035351202,-0.113014504,-0.030191606,0.012909512,-0.03676241,0.07542555,0.21856396,0.2664406,0.0113802925,-0.05915173,0.15140882,-0.0083167385,-0.10602367,-0.2068119,0.001832058,-0.2916043,0.044915438,-0.028410608,-0.04710396,-0.049917214,-0.027102947,-0.029351465,-0.09711347,-0.0889342,0.022014016,-0.084193744,-0.13138713,-0.025037006,-0.006002811,-0.022931375,0.0034200074,0.04761948,-0.10163486,-0.07953116,-0.3235186,-0.0011758149,-0.13180463,-0.1497611,0.16253129,-0.11282904,0.017929597,-0.37266263,-0.09544565,0.17609824,0.32428333,-0.06010259,-0.07466496,-0.021553148,0.0317759,-0.32775342,-0.15203612,-0.12338611,-0.10531941,0.3123831,-0.08469394,0.07436009,-0.07329148,0.018325683,-0.026208272,-0.13360578,-0.04810503,-0.030416131,0.031340238,-0.04843937,-0.12445719,-0.047591675,0.24318473,0.009364042,-0.04440891,-0.22310093,-0.066805385,-0.3040555,-0.100555435,-0.07555157,-0.0043312525,-0.05194968,-0.109113224,-0.03614505,-0.023259792,-0.064244375,-0.05769738,-0.12360639,-0.37370867,-0.09471449,0.047944862,0.02146699,-0.02612922,-0.041628268,-0.06902516,-0.29704964,-0.026179766,0.018693458,0.019047916,0.044773646,-0.5226447,-0.094402015,-0.09575172,0.06288486,-0.005916068,-0.33190417,-0.0100049395,-0.10531988,-0.017971924,0.056628186,0.02859411,-0.07144364,0.36640462,0.03602193,-0.039578207,-0.08251799,0.27430132,-0.11427325,-0.21261424,-0.19073375,-0.02051123,-0.07924093,-0.12593523,0.2835751,0.0864331,-0.06873822,-0.087396935,-0.06030517,-0.12617151,0.0017331969,-0.3171687,0.06591078,0.10934165,0.09733541,0.034018807,-0.08616406,0.46525103,-0.08098524,-0.124871075,-0.023580868,0.031577475,0.07823105,-0.08029925,-0.0844044,-0.118225545,-0.022634428,0.22218113,-0.12571415,-0.06726909,-0.091783,0.016559336,0.02761107,0.08764576,0.038284943,-0.019043854,-0.11214955,-0.11253791,0.033315297,0.10934934,-0.116024196,0.002693835,-0.001852493,0.11389295,-0.007800762,0.31055287,-0.08153878,-0.050098836,0.075357996,-0.102531545,-0.17572573,-0.24266197,0.005610906,-0.049665317,-0.050683852,-0.03342654,-0.32301563,-0.11764655,-0.056061108,-0.07550583,-0.12331619,0.015916666,-0.029350333,-0.14199905,0.020422168,-0.13588187,0.07386542,0.028143156,-0.124182105,-0.037763838,-0.13336635,-0.07542645,-0.053083286,0.046088602,-0.13231497,-0.054126445,-0.10146137,0.035026077,0.16831085,-0.17560796,0.1287809,0.32236516,-0.09400739,-0.0583668,0.08669114,0.086450495,-0.114589706,-0.066270165,-0.09098474,0.12328945,-0.14856017,-0.15042916,0.027999088,-0.013635277,0.060166333,-0.092083104,0.2184528,0.020841971,-0.08659379,-0.047359843,0.04668986,-0.13550638,-0.12927493,-0.07015392,-0.105152085,-0.17561722,-0.2703463,0.036770616,-0.038892422,0.0081302505,-0.009198012,0.01673712,-0.090838395,0.11891805,0.0020888299,-0.056113083,0.38193515,-0.19324774,0.043826528,0.04133547,-0.11891249,-0.014969157,-0.33897048,0.000693949,-0.028821735,0.18746428,-0.042405218,0.0044978033,-0.10812134,0.031369485,0.04364846,-0.042224094,0.06540834,0.12753299,0.09438195,0.0134480065,0.035913672,0.0029859133,-0.05825084,-0.069876224,-0.13455653,-0.062878996,-0.4464927,-0.07350396,0.010498595,-0.08943302,-0.08952576,0.042412017,-0.073762104,-0.0051193223,-0.13044803,-0.12473902,0.050676752,-0.07523233,0.011604189,0.024643501,-0.07203084,0.041571975,-0.0040588393,-0.101769924,0.056819092,0.19234966,0.056732673,0.025565835,-0.3497369,0.2843745,-0.04502014,0.14054649,0.1210514,-0.01733004,-0.34788713,-1.0306181,-0.02577295,-0.016642503,0.21917665,-0.01193814,0.31761718,-0.32858628,-0.112617716,-0.015737718,0.1530948,0.025067149,-0.030514382,-0.12635943,-0.06760762,0.02115896,0.03306536,0.0067781545,0.12095632,-0.10895577,-0.010974884,-0.04401782,-0.13284272,0.2866536,-0.025038254,0.020611487,-0.387281,-0.035962824,0.215091,-0.51518875,-0.4485606,0.879208,-0.046099544,-0.2507179,0.045958582,0.0049420223,0.014647462,-0.070470296,-0.0035699457,0.13496844,-0.070537254,0.080188386,-0.051613938,-0.012045178,0.020579094,-0.056994565,-0.07453585,-0.04267884,0.06004008,0.01805535,0.068627335,-0.19283901,-0.13598634,-0.011367409,-0.2727457,-0.25762957,-0.39512125,0.018136345,-0.06900339,0.4390095,-0.018143432,-0.013695657,0.017029824,0.88844544,-0.00458813,-0.008642845,-0.0028286395,-0.11729302,-0.028139547,0.02407897,0.107666,0.03661451,0.056771155,0.017439809,-0.39786184,0.13567679,-0.040447533,-0.18042766,-0.03990267,0.015267526,0.076148525,-0.27459028,-0.5279471,0.059385363,0.18536282,0.005189416,-0.07143691,-0.23874089,-0.08274321,-0.01620198,-0.12869765,0.05969841,-0.11658219,-0.10125809,0.027065074,-0.07951524,0.038201295,0.6277982,-0.11329922,0.0068319086,-0.07889214,-0.05881743,-0.06479566,0.03794655,-0.0764322,0.0426389,-0.010495047,-0.1363234,-0.005271353,0.020491287,-0.030926231,-0.120143585,0.057901833,0.079305165,-0.08729933,-0.09878025,-0.12462555,0.016783966,-0.38602757,0.032267433,0.036946468,0.19202374,-0.018260423,0.014852491,-0.42217088,-0.019876512,0.19311965,0.15470597,-0.10293795,-0.056941237,-0.016009502,-0.022797942,-0.08751272,0.011504821,0.053743854,-0.017280838,-0.1270823,-0.090799846,0.029145576,-0.056474123,0.010316579,-0.28080642,0.0043727937,-0.13589731,0.044468585,0.054956786,-0.40232632,-0.080071166,-0.4490424,-0.30455574,-0.31368247,0.08866727,-0.049209073,-0.092119575,0.088991225,-0.028850973,0.014046795,0.019452393,-0.12909663,-0.26131675,-0.14952394,0.17534387,0.087887876,-0.027169036,0.12942016,0.069949605,-0.08691112,-0.05260357,0.024849044,-0.09057388,-0.20211197,-0.24965563,-0.04549316,-0.09789182,0.12179169,-0.220612,-0.13601443,0.031068273,-0.047129523,0.3274819,-0.08437666,0.017495565,0.014343723,0.26763058,-0.01720101,-0.011672991,-0.06700501,0.4034857,0.04046555,-0.17194416,0.20247702,0.03735248,0.06708649,-0.14564939,0.1759625,-0.09960871,-0.058361635,-0.18260129,-0.09813995,0.021062544,-0.05342737,-0.311347,-0.19349402,-0.20005406,-0.20486312,-0.16237836,-0.024526065,-0.047925647,-0.060250897,-0.03309156,0.34300166,-0.105321854,0.022415735,-0.031241333,-0.019333288,-0.067851774,-0.052779365,0.12256762,0.02536504,-0.017099796,-0.1876459,-0.0343104,-0.021897772,0.022433383,-0.05621004,-0.124593556,0.018323492,-0.051231816,-0.07518396,-0.040824547,-0.07899806,-0.07768377,-0.012087895,-0.033109754,-0.14402667,0.47171077,0.061752655,0.26740566,0.26159063,-0.06330662,0.20388533,-1.1878207,-0.025988732,-0.09819911,-0.08971304,0.040413678,-0.0073904246,-0.2670926,-0.10226873,0.017799964,-0.664032,-0.14347401,-0.6473002,0.003435937,-0.047307875,-0.09780125,-0.11124016,-0.055323035,0.034702513,0.023779413,-0.06810704,-0.011858547,0.041246485,0.09907229,-0.018208954,-0.07305203,0.0049562324,-0.058333848,-0.17815706,-0.24768895,-0.4678096,0.8830555,-0.00691523,-0.9725455,-0.10968444,-0.10864103,-0.034504686,0.021263907,-0.114283435,0.21427307,-0.10006389,-0.43226475,-0.002815337,-0.06276045,-0.06959617,0.035737853,0.06773518,-0.01594139,-0.027069988,-0.036165267,-0.025110688,0.62707275,-0.13756078,-0.078844234,-0.18072571,-0.5258998,-0.41707292,-0.11068719,-0.060972795,0.61038655,0.01780979,-0.030145707,0.05873662,0.71658176,0.0071214144,-0.027676368,0.49785075,-0.16606976,-0.12043019,-0.08062251,-0.61041874,-0.023772692,0.091566615,0.07497508,-0.5981619,0.7896465,0.02499106,-0.018175801,-0.035981685,-0.018740634,-0.12325627,-0.010937395,-0.1252361,0.37694207,-0.06674883,-0.021376029,-0.12373655,-0.16392782,-0.12653221,-0.08488004,-0.11711185,-0.053782232,-0.05155658,0.016501311,-0.14009432,-0.1423546,-0.11675641,0.2567528,-0.072516106,-0.003476829,-0.045345522,-0.06338247,-0.03217468,0.014153392,-0.11127273,-0.02815809,-0.11687381,0.027487407,0.054075144,-0.10566937,-0.06700533,-0.30807143,-0.025252964,-0.03375358,0.07301957,-0.2765606,-0.00509517,-0.15441835,-0.58587295,-0.0055944626,0.32584697,0.54693747,-0.015449802,-0.036819547,-0.18036611,0.04713995,0.1148014,0.37828276,-0.15903056,-0.09291501,0.27328175,-0.09259933,-0.071664095,-0.07161441,0.024505135,-0.13974427,-0.23861505,-0.09561575,-0.093286686,0.03461721,-0.04658676,-0.19756897,-0.11306281,-0.3110659,-0.0806325,-0.025354967,-0.017706,-0.098197736,-0.5601185,0.072186224,-0.123160124,0.14682558,0.025575716,-0.3520892,-0.07088179,-0.121673964,-0.010894146,0.004614687,-0.061882626,-0.37185153,0.03387409,0.3801816,-0.06673868,0.017332846,-0.25286222,-0.026466183,-0.23076345,-0.10929511,-0.046302445,-0.008667562,-0.04288536,-0.5454187,0.0050119576,-0.020117203,-0.16850345,-0.16166288,-0.028048161,-0.13262719,-0.1428536,0.49844283,-0.036845025,-0.106652655,-0.045256153,-0.010924546,-0.112975806,-0.14362417,0.18356015,0.4258195,-0.013084664,-0.12085513,0.00636909,0.024779007,0.0017358311,-0.123539515,0.09362178,-0.21233891,-0.098172106,-0.10595382,0.016896775,-0.12778975,-7.2723255e-05,-0.24461111,0.15939243,0.011524267,-0.45213884,-0.088097684,0.00514463,-0.16010796,-0.07881697,-0.058866836,0.30195412,-0.11219293,0.08978706,-0.05203174,-0.15004796,-0.08950465,-0.084540404,0.23428571,0.0074971863,0.016771264,-0.109817915,0.0069533666,0.084308915,0.060691632,-0.02009508,0.028467104,0.004200354,-0.053994246,0.056498535,-0.03176964,-0.08870932,-0.08295661,0.00092729926,-0.12668487,-0.06909729,-0.037516057,0.08918793,-0.15223077,-0.08062197,-0.014135905,0.063294694,-0.16870312,-0.044917215,0.039271034,-0.100695334,-0.011378966,-0.11814413,-0.375881,-0.03679824,0.07702873,-0.093772225,-0.022539936,-0.35052434,0.070429586,-0.07083044,-0.019450799,-0.038039636,0.031207658,0.085474186,-0.081532694,-0.08204587,-0.05159725,-0.0724695,0.057641152,-0.08532255,-0.048788358,-0.06284208,0.004114598,-0.0011509809,-0.15683353,-0.09550172,0.17287332,0.0106738955,-0.33649388,-0.085001566,0.03374038,0.08547192,-0.037775416,0.06656905,-0.2352971,0.08052451,-0.16797037,0.084361814,0.038223244,0.021349147,-0.08210975,0.05968919,0.00738132,0.04074148,0.04756861,-0.09832072,-0.17753609,-0.08833169,-0.0558386,-0.18376279,0.047520254,-0.4789827,0.007131286,-0.02954188,-0.09860715,-0.023938127,-0.06132206,0.050143056,-0.015214387,0.04996545,-0.08092681,0.5214983,0.19731726,0.06641797,0.052994274,-0.13727438,-0.016300295,-0.054274064,0.012915497,-0.25864697,0.10991034,0.05358828,-0.11853584,0.02942276,0.026714943,-0.09254311,-0.0015542135,0.26433057,-0.011372763,-0.086674914,-0.058004446,-1.6406178e-05,0.061089583,-0.048055213,0.0628156,0.36752164,-0.06459454,-0.018487679,0.06995883,-0.045208786,-0.07653518,0.09163194,-0.10480426,-0.07893326,-0.039015863,0.045509122,0.012650117,0.07754181,-0.014576228,-0.013382257,0.057378706,-0.0822968,0.035320617,0.1271994,-0.045965225,0.06675748,0.00026854093,-0.067717254,-0.06334422,-0.19570348,0.08950698,-0.112745434,0.11915115,-0.080287494,-0.117301375,-0.15820019,-0.30207145,-0.09091046,-0.011634447,-0.22669429,0.106683604,0.27203557,-0.15335168,-0.085281886,-0.0822684,-0.040159773,0.0062765633,-0.022188187,-0.050873782,0.10286317,0.028050968,0.045043238,0.02621811,0.04374402,-0.103693955,-0.056400895,-0.0049171457,-0.040583126,0.17115648,0.0020953317,-0.060285527,-0.122815974,0.064395286,0.013014603,-0.2001676,-0.42423272,0.2136316,-0.02965843,-0.17151654,0.014120725,0.011132998,0.029149506,-0.03747474,0.0354393,-0.11741573,0.12028632,0.083645694,-0.025066234,0.00021260815,0.062591925,0.0692487,0.0061183847,0.016628377,0.14297159,0.02082701,-0.019967517,-0.10900115,-0.053361792,-0.09159362,-0.18307737,0.027468257,-0.14759003,-0.041299596,0.026364172,0.2390511,-0.0945773,0.024473585,0.0024892776,0.26492462,0.0942994,0.02677005,0.10879313,0.104545765,0.054196037,-0.0615193,-0.11726248,-0.02224321,-0.044356927,-0.05074672,-0.2956492,0.09292157,0.0041373554,-0.16925655,-0.025231063,0.14223714,0.05590009,-0.2965604,0.19726977,-0.032767065,-0.20139538,0.10029877,0.13688752,0.08856434,0.0017678228,0.046591558,-0.008124266,0.018074825,-0.14698453,0.14282732,0.020502016,0.017369099,0.009006433,0.16877589,0.091016255,-0.08568674,-0.13295537,0.094196744,-0.007242501,-0.045834757,-0.08241236,0.07278132,-0.08150956,0.021500535,0.05832047,-0.060507808,-0.0033467934,0.07011678,-0.02348473,0.078206755,-0.06458349,-0.027906492,-0.03336921,-0.050750192,-0.042319573,-0.014895678,0.021631695,0.054385953,0.06715874,-0.0032541677,0.04237839,-0.047974966,-0.00831604,0.0012610108,-0.07736749,0.0066695586,0.08110332,0.031449854,0.08618925,-0.08460045,0.016191848,-0.06659892,-0.017114587,0.026606612,0.05999302,-0.08589405,-0.035424486,-0.069355145,0.06345073,0.035949014,-0.030085087,-0.042974886,0.08965457,-0.012619242,0.0022783205,-0.05146797,0.09243495,0.08978168,-0.065553114,-0.075499564,-0.008692473,-0.015280217,-0.0010161623,-0.055978194,-0.060231633,-0.056131534,-0.047516696,0.025573716,0.03594645,0.07523558,0.01649005,-0.02365832,-0.035550486,0.07338286,0.06439347,0.007925928,-0.009351365,-0.053087085,0.07374918,-0.012837619,-0.01788804,-0.0062281787,0.04849025,0.0018530563,-0.07468279,-0.055423804,0.01065021,-0.044666365,-0.08610984,-0.032197807,-0.056373663,0.04523807,0.0021505281,-0.08127171,0.041334487,-0.018928774,0.06727555,0.0046273917,-0.08972016,-0.05950088,0.028492562,0.042855702,-0.06520022,-0.02618108,-0.054389473,-0.09215211,0.02403292,0.0135206655,-0.04301929,-0.07507463,-0.011770301,-0.026453622,0.0120633915,0.03556528,-0.011995167,-0.01153218,-0.022505872,-0.017611861,0.027945563,0.0596217,-0.05340776,0.017259099,0.07573881,-0.07066776,-0.05650332,-0.009001479,0.036898293,0.07349058,-0.0072607324,0.04054927,0.017141536,-0.030978238,-0.052907605,-0.08415325,0.033885755,-0.039453626,-0.13617782,0.017888475,-0.04133079,-0.01071074,0.14931649,0.1202096,-0.074867986,-0.529758,-0.033055685,-0.07214951,-0.15255912,-0.12428268,-0.13544604,-0.104168944,0.090933904,-0.051562216,-0.7503049,0.3324073,-0.02911114,-0.03339331,0.7319283,-0.09355315,-0.28858915,0.021359349,0.0043619373,0.025079971,0.007286422,-0.029394004,-0.03829282,-0.04272417,0.022198915,-0.08143486,-0.050528698,-0.04135359,-0.075411335,-0.04703852,0.061439432,-0.10319073,-0.10741764,-0.11874379,0.086343236,0.04587437,-0.056256745,-0.18707016,0.0061402423,0.05261237,0.041483466,-0.06887027,-0.03125337,-0.33913597,0.028064195,0.051486596,-0.013796563,-0.08682965,-0.0044354806,-0.078544244,0.06498058,-0.15074725,-0.071833305,-0.099018745,-0.03609852,0.0033397074,-0.0682991,-0.08524647,-0.34570104,0.20245881,0.22726187,-0.088155106,-0.10299775,0.36647004,-0.056327496,-0.04218453,0.03251832,0.2455979,-0.115660705,-0.01925992,-0.1834751,0.5559448,-0.14025326,-0.011065558,-0.041926946,-0.01868584,0.16463171,0.090576835,-0.14434534,0.15184481,-0.11458156,-0.18435347,-0.10636574,0.018535672,-0.12230255,-0.10162864,-0.2104944,0.22198504,-0.31005162,-0.11395749,-0.03947195,0.2253223,-0.14762104,-0.0933058,-0.13284735,-0.07923332,-0.3342662,-0.071987934,-0.09010419,0.0013574243,-0.108795635,0.3339822,-0.035031974,-0.098364934,0.027981192,-0.07891287,0.024704278,0.02562625,0.084005184,0.08828988,-0.077207334,0.008710913,-0.027054459,-0.083528645,-0.08783541,0.06968445,-0.061542384,-0.0548421,-0.008097149,0.079324044,-0.0017199069,0.0120217055,0.010689415,-0.05666237,0.042030163,0.04477627,0.05680158,0.022078253,0.028316177,0.052661605,-0.030539531,0.07821604,-0.00083228946,0.0437442,0.015300296,0.06868204,-0.02385293,-0.018666208,-0.040891808,0.007784158,-0.065008864,0.06351928,-0.06582726,-0.05068482,-0.030532714,0.00685405,0.07909999,0.057975985,0.01284273,-0.004598856,-0.066898316,0.057210557,0.07923844,0.08800546,-0.084261715,0.0784842,-0.031072449,-0.046371568,-0.04193444,-0.007815681,-0.074264914,-0.07812102,0.09021514,-0.06924555,0.048687406,0.07180325,-0.024793044,-0.07651107,-0.050568737,-0.03882741,0.08709102,-0.029447801,-0.06381504,0.041838728,-0.031576168,-0.0031101033,-0.08526003,0.01856117,-0.025379024,0.066788755,0.03244514,-0.0034288093,-0.08797615,0.0004265979,-0.06609124,0.07198887,0.08411955,-0.07284193,0.06619813,0.034671284,-0.057819627,-0.022674419,-0.01558993,-0.03589719,-0.06963475,-0.03390629,-0.09156667,-0.023602322,-0.055736396,-0.06445419,-0.031541523,0.0748953,0.09099182,-0.05759762,-0.07209343,0.057782702,0.0058675706,-0.06435634,-0.015999302,-0.056911185,-0.0103526935,-0.06177427,0.011682525,0.051179834,0.034498163,0.00436496,-0.017726578,0.015410334,-0.04421365,-0.06567642,-0.08394895,-0.029466994,-0.058337227,-0.029347874,0.060593672,-0.06833259,-0.111150034,-0.058257774,-0.1132547,-0.045126814,0.008035042,-0.06644556,0.04896014,-0.046432912,0.037556294,-0.08060148,-0.09182441,-0.10037048,-0.3617972,-0.2999791,0.02350683,0.42290306,0.15556908,-0.107258506,0.4241592,0.28059572,-0.12257118,-0.06517786,0.09683689,0.06010042,0.52313745,-0.06079602,-0.038675316,-0.03468184,0.014787505,-0.032156292,-0.006872201,0.025861727,-0.10128749,0.022212649,0.25905946,-0.0811512,-0.060451195,-0.028519144,0.029696822,-0.04336632,0.023154285,0.5526927,-0.10322475,-0.005444703,-0.23101693,-0.030916391,-0.22147237,-0.11174169,-0.46149537,-0.063061565,-0.14015132,-0.091085784,0.03311514,-0.086230226,0.053456657,0.032227382,-0.057727575,-0.06879959,-0.018012343,0.2993236,-0.057568915,0.015356906,-0.27567783,-0.08049646,-0.4736352,-0.031616613,0.040877327,-0.12889077,-0.08597675,-0.6007849,-0.08765428,0.03282199,-0.021587785,-0.20830598,-0.31360832,-0.09036505,0.035107147,0.47359034,-0.027716262,-0.05220437,-0.11560996,0.19010316,-0.11007343,-0.14366992,-0.13013169,-0.2167266,-0.13396958,-0.12757051,-0.01595683,0.03414178,-0.16887966,-0.083351254,0.2535846,-0.08611861,0.010069863,-0.116836496,-0.12293965,0.0013742091,-0.010715902,-0.2640712,0.4105011,0.1916517,-0.7043569,0.018663885,0.016848141,0.30904317,0.03396819,0.008722354,-0.05631624,0.001845555,0.6388849,-0.06123453,0.052274592,0.014017719,0.008398762,0.58366084,-0.016687926,0.0035921035,-0.035258032,-0.095796555,-0.073227495,-0.036143612,-0.05062507,-0.017265042,-0.010203162,-0.05294543,-0.08671564,-0.022045072,-0.010593845,0.013730626,0.04023486,-0.17536195,-0.14192727,0.15333612,-0.062302876,0.114643045,0.070971794,-0.07603661,-0.2541698,-0.21751347,-0.013881962,-0.069371685,-0.05572118,-0.10949826,-0.296159,0.06657469,0.033683505,-0.097001724,0.006330126,-0.038097106,-0.06405578,-0.13405599,-0.04034889,-0.13610888,0.0060551036,-0.074233696,-0.052717716,-0.0774857,-0.004775762,-0.017538171,-0.08479815,0.15732123,-0.08582902,-0.1116308,-0.069207214,0.027861048,-0.11797563,-0.026595952,-0.003879224,0.3308392,-0.114693,-0.08026484,0.038728952,0.002435833,0.02810033,-0.10862923,-0.00014237975,0.20505475,0.017050672,-0.21168381,-0.038451977,-0.06912538,-0.07345777,0.008820327,0.17205289,-0.11138539,0.027663948,-0.023490077,-0.08626938,0.009388133,-0.005416795,-0.080499455,-0.19667496,-0.004681398,-0.09019971,-0.059011653,-0.026019838,0.20832726,0.010024852,-0.05214607,0.03181411,0.21945605,-0.079234235,0.0055611446,-0.00086762226,0.13810298,-0.08149715,0.024512978,0.008574334,-0.040154316,-0.48200655,-0.119992994,-0.19059218,-0.09818207,0.037250027,0.0025334405,0.014050386,-0.11032028,-0.024865437,-0.2901442,-0.32507622,0.27790767,0.10284035,-0.01271877,-0.027751442,0.17831208,0.00684725,-0.029744845,-0.20296764,-0.021466974,-0.3188332,-0.02674391,-0.097800076,-0.0314312,-0.029572709,0.52217144,-0.10044623,-0.13842629,-0.040103734,-0.10580431,-0.026687477,-0.12878613,-0.12507749,-0.10975758,0.028933154,-0.05868449,-0.058757003,-0.09864255,0.014191863,-0.29397532,-0.09541366,-0.07323417,-0.19310589,-0.15219216,0.02540242,-0.053364374,-0.09033232,-0.11057294,-0.14541395,-0.3132732,-0.011998026,-0.09468106,-0.046377122,-0.12340591,-0.42766052,0.053313557,-0.15754406,-0.09138459,0.11199575,-0.040014148,0.07852077,-0.10849297,0.009752269,-0.13627975,-0.14212781,-0.09630401,-0.08242092,-0.090967365,-0.13198094,-0.11893856,0.03260018,0.00810287,0.0019306683,-0.037766743,0.062250596,-0.051510938,-0.08808532,-0.14776346,0.084956475,0.14793175,-0.0060986183,-0.33452895,-0.019843113,-0.039675206,0.04218598,-0.07868192,-0.12526637,0.054269984,-0.03958623,-0.13734639,-0.08339617,-0.020578448,-0.122283794,-0.07849261,0.12763166,-0.299879,-0.11543153,0.0031129785,-0.14713931,-0.023010856,-0.058151297,-0.13042258,-0.07159277,0.08828965,0.118763156,-0.09803213,-0.010097654,0.15904082,-0.061214495,-0.054241415,0.042895626,0.040492825,0.0368704,0.032341994,-0.05117268,0.11866674,-0.06511353,-0.1259247,-0.038688157,-0.06715777,-0.09354143,-0.11837066,-0.33490056,-0.112346716,-0.099921264,-0.0071151573,-0.13751704,-0.10920238,-0.057596277,-0.10698967,-0.29824263,0.20459138,0.049454667,-0.1342365,-0.05448901,-0.031959757,0.024262516,-0.059525013,0.18568183,-0.07074159,-0.41661695,-0.1321972,-0.089755766,-0.10966064,-0.097372204,-0.13807297,0.028288893,-0.055794716,-0.17286173,-0.0830893,-0.12548643,0.03308113,-0.0022516486,0.02710807,-0.070310496,0.0011796579,-0.0009675469,-0.05522094,-0.059028268,-0.13783559,-0.07417992,-0.12660524,-0.20346613,-0.16153795,-0.06295923,0.31095386,0.11559698,0.0316684,0.57374424,-0.21546239,0.07041344,0.06558161,0.10865989,-0.12230016,0.63233566,-0.293095,0.04799018,-0.09716253,0.054579888,0.0174753,0.16252708,0.103532605,0.08386659,0.02477286,-0.056367774,-0.081156194,0.008775272,-0.009956093,0.09232201,-0.40683693,0.036024414,0.36134127,0.07995458,-0.059955407,-0.21354781,0.026342021,-0.29301736,0.307228,-0.430098,-0.23273663,-0.104803436,-0.2958674,0.03666421,-0.05405065,0.003428519,-0.02733281,-0.026635744,-0.41776964,0.11505815,0.12716967,0.009234108,-0.051062696,0.03911228,0.010309815,-0.46360397,-0.071371175,-0.118954495,-0.026593573,-0.08919162,-0.09193381,-0.033330232,-0.0026879094,-0.21950442,0.108723134,0.25364062,-0.045032613,-0.023958646,-0.2108929,0.07887489,-0.10444028,-0.12603565,-0.1710267,-0.09919646,-0.12392829,-0.27145898,-0.30423093,-0.03461353,-0.15787743,-0.16139056,0.060690776,0.031797517,-0.09027363,0.010093144,-0.35886502,0.02126364,-0.09591917,0.027090982,-0.07972952,0.014407811,-0.52877563,0.71925116,0.08593394,-0.49296758,-0.22011018,-0.10620538,0.18728188,-0.013126912,0.08565247,-0.26980767,0.055457987,0.9009752,-0.14048854,-0.0630134,0.10761027,-0.103705674,-0.05022381,-0.086939074,0.042359598,-0.036663566,-0.006029778,0.035114627,-0.0056149093,-0.031576235,0.0038585865,-0.10155286,-0.13694972,-0.03570474,-0.0224767,-0.10980918,-0.15230025,-0.04080759,-0.08382263,-0.34104994,0.39359865,-0.08509843,-0.030850729,-0.44177017,-0.05080588,-0.14401306,-0.5291863,-0.11060498,-0.04911957,-0.080652185,0.052769914,-0.41209063,-0.0833046,-0.020602847,-0.009412494,-0.02848456,-0.033019163,-0.19547339,-0.13218553,0.054346766,-0.002270832,-0.17282154,0.019908898,-0.024458656,0.025959594,-0.03313643,-0.12013077,0.014535007,-0.32904834,-0.091787815,-0.13073198,-0.73028255,-0.053091217,-0.17898113,-0.46381134,0.25814766,0.30208823,0.02036832,-0.4871034,-0.089368045,-0.12107703,-0.09521841,-0.07993482,-0.044318166,-0.08939729,0.023517031,0.0047456226,-0.08331866,-0.055809136,0.024519268,-0.0068994504,0.028817052,0.013190716,0.06435693,-0.04762882,0.07638096,-0.010439847,-0.09905782,-0.083010174,-0.21524906,-0.10050159,-0.45287657,-0.0984523,-0.068414345,-0.23475097,0.050628416,-0.11376348,0.029404065,0.32745823,-0.102322094,-0.021196416,0.545763,0.21330617,-0.12573841,-0.0302456,0.15599325,0.07774306,-0.22665277,-0.02850762,-0.013897831,0.09035323,-0.048425656,-0.009362674,-0.051702775,-0.08105808,0.012941927,-0.31711477,0.20817177,-0.015957223,0.025213478,-0.114972256,0.0022131088,-0.16016757,-0.08165641,0.0010786543,0.0060997833,0.046219908,-0.032770395,-0.0077391616,0.11387011,-0.011983212,-0.0024181157,-0.029418647,-0.022461498,-0.012749296,-0.045552474,-0.037018493,-0.040065866,-0.072382234,0.0027140803,-0.11649871,-0.0016338667,-0.114768974,0.04137776,-0.14809483,-0.050554153,-0.30546474,-0.010031483,-0.0006402046,0.2111048,0.32582477,-0.08822717,-0.10840701,-0.44365466,-0.019253828,0.010905502,0.24522004,-0.048015326,0.037988283,0.36192566,-0.078185596,-0.7023179,0.18072027,-0.07369137,-0.025506822,0.22011134,-0.027077984,-0.1040803,-0.13837345,-0.080027565,0.0061922614,-0.24281673,0.018965997,-0.0056301593,0.017260449,0.031533252,-0.13150856,0.025230655,-0.19437426,-0.08596332,-0.13541538,-0.34585345,0.026025206,-0.22997923,-0.20919435,-0.24186482,0.09970308,-0.027715994,0.324151,-0.034630813,-0.03000658,0.024936602,-0.059612438,0.035279505,-0.09348111,-0.094411105,0.1075699,-0.065243684,-0.009103914,-0.22509925,-0.066015944,0.09309456,-0.06478884,-0.10558684,-0.105057366,-0.112867095,0.05324184,-0.05449542,-0.10854735,-0.32151556,-0.2961092,-0.06647595,-0.13240562,-0.07629107,0.0003003825,-0.05750565,-0.08485142,0.0044580856,-0.026834274,-0.028249243,-0.11862489,0.40385294,0.32423356,0.0022626377,-0.08152191,0.08634174,0.006154846,-0.46227866,-0.032684665,0.1101551,-0.17689863,-0.06086316,-0.006164208,-0.14506137,-0.042187512,0.027320592,-0.37218305,0.12344075,0.26297122,0.31985536,-0.03941319,-0.024001103,0.11587548,-0.027990736,-0.0873325,0.004761606,-0.11628329,0.17293239,-0.11681183,-0.14017795,0.00837968,-0.02689874,-0.12823501,-0.09597373,-0.032898247,-0.11458626,-0.044762522,-0.09980649,0.026111744,-0.087150574,-0.07207847,-0.08938633,-0.07408407,0.015322153,0.045973085,-0.12482373,-0.036014747,-0.102076694,-0.18062435,-0.12234359,0.24532631,-0.013260254,0.1436414,0.017166644,-0.05124175,0.035841208,-0.065887146,-0.046135064,-0.10498624,-0.13686979,-0.042688258,0.119863756,-0.21053012,0.11585679,-0.10055116,-0.07510014,0.0047088605,-0.07354593,-0.08581125,-0.098036036,-0.07684642,-0.02474202,-0.022266012,-0.020082224,-0.102293104,-0.1086947,-0.06930667,-0.03169976,0.08822909,-0.078131944,-0.04779698,-0.17557777,-0.10936969,0.04910488,0.0069745635,0.19275893,0.12065334,-0.014930137,-0.34715673,0.05260087,-0.0075502694,-0.078679964,-0.09247131,-0.05205357,-0.021479292,-0.08893564,0.28624123,-0.06289435,0.02239798,-0.039256327,-0.11310911,-0.11500408,0.031078003,-0.021096632,-0.13803089,-0.10644679,-0.089199424,0.015213239,-0.057817653,-0.2738748,-0.21885279,-0.17752048,0.034183856,-0.14761813,0.0020439578,0.0028733998,-0.07032811,-0.08900289,0.17500533,0.028836504,-0.14220995,0.34343162,-0.1051259,-0.08201774,0.022909753,-0.050386783,0.01881336,-0.24451053,-0.13357522,0.008807067,-0.005232526,0.031753145,-0.16393356,0.03272995,-0.15604247,-0.055538982,-0.12004239,0.3844911,0.062353607,-0.15657939,-0.031004999,0.036927294,0.041538823,-0.0025775004,0.033519227,-0.16349956,-0.08287369,-0.028176552,0.043882784,0.03902395,0.017201338,-0.0019773766,0.06252555,-0.051720675,-0.07802814,-0.027267937,-0.0056002513,-0.044256855,0.044218697,-0.11133787,0.06275077,-0.050511137,0.0354205,-0.052830737,-0.24739635,0.018032469,-0.36767426,-0.027102135,-0.059370484,-0.48892462,-0.18798034,-0.027996598,0.07268955,0.1570368,0.010822493,0.093442984,0.034927797,-0.077480525,-0.10577121,-0.088838995,-0.052039154,0.8223373,0.11163983,-0.06935049,0.023689521,-0.14317675,-0.06444356,0.17788129,-0.07541686,-0.02365895,-0.036064994,-0.22334364,-0.0675728,-0.13575917,0.02627774,0.002037067,-0.2013839,0.020147149,0.038105838,0.008968177,-0.030809902,-0.5128222,-0.10317511,-0.33788413,-0.20502055,0.06305282,0.24093981,-0.060917687,0.20796265,-0.059956044,-0.015651532,-0.0048352648,0.02581498,0.077972315,0.083186224,-0.0834061,0.707699,-0.045043994,-0.14263107,-0.08785792,-0.07135244,0.35948023,0.036212545,-0.00651742,-0.012551332,-0.04157702,-0.0112549,-0.07918802,-0.07925795,-0.5017706,0.33638686,-0.40057993,0.048783056,-0.08925234,-0.05199296,0.009780742,-0.07941066,0.06382759,0.33990675,0.022409612,-0.049239285,-0.23697144,-0.48253947,-0.018487707,-0.16638955,0.060361747,0.09050838,-0.23703198,0.032041494,0.058551054,-0.36253992,-0.10065719,-0.17565215,0.036312394,0.012753674,0.037968375,-0.49185762,-0.008430469,0.4669534,-0.12846236,-0.24477364,-0.10862037,0.3502344,-0.08308212,0.024182955,-0.4020726,-0.057732567,-0.010757245,0.053041734,0.109424494,-0.0005689507,-0.043549262,0.25867456,0.03049851,-0.05519206,0.044911657,-0.05720868,-0.09666605,-0.015257353,0.054255884,0.059863176,-0.1392418,0.022242604,0.039099433,-0.14649749,-0.0064200875,-0.30890137,-0.022810249,-0.030157436,-0.06869228,0.023109399,-0.04207118,-0.13723294,-0.21897164,0.027778773,0.16482686,0.48618358,-0.032464888,-0.005609168,0.21290581,0.05341266,-0.012808339,0.11429487,-0.1437085,0.0726072,0.3822709,-0.047719393,-0.19825678,-0.11230243,-0.10113399,0.038726598,-0.20680167,-0.012973863,0.0006445086,-0.1441326,0.031430308,-0.32604718,-0.11304969,-0.343827,-0.008322802,-0.049238726,-0.49096924,-0.10096427,-0.4429877,0.091045365,-0.23474114,0.2204276,-0.13266127,0.468282,0.12286564,0.01762407,-0.060602378,0.017430754,-0.08614926,-0.23986247,-0.010384155,0.48217013,-0.029255161,0.023710098,-0.2644571,-0.07551439,-0.26680377,-0.25823858,-0.03430195,-0.04134482,-0.2011243,-0.1663998,-0.041965876,-0.048636768,-0.5656421,-0.14356677,0.19140783,0.048011795,-0.11168484,-0.11472451,-0.019875765,-0.03001781,0.016275221,0.17751457,0.044679876,0.024356028,-0.050040368,0.26467586,-0.05511633,-0.002912513,0.21227825,-0.025395209,-0.27869955,-0.115410104,0.046968892,-0.20431402,-0.13525386,-0.093104124,-0.10742811,-0.1041687,0.087865554,-0.37980038,0.14315917,0.3318407,-0.3204363,-0.14576921,-0.090557024,0.16363311,0.030870687,-0.12740868,-0.09712655,0.018871158,0.1320283,-0.024346687,0.0030132306,-0.093398616,0.008848742,-0.13943943,0.03515782,-0.044519965,-0.133561,0.027237123,-0.056464985,-0.010903577,0.04102147,0.030862924,-0.004720499,0.004851034,-0.0247139,-0.0047624526,-0.09789354,0.20153119,-0.036915228,-0.02815325,0.044999797,-0.1217137,-0.0042581526,0.23087485,-0.13730296,-0.13439564,0.14047308,-0.84668607,-0.0050233235,-0.07065151,-0.22762537,0.040263403,0.92252535,0.030483486,0.08089612,-0.12476277,-0.95640683,0.03929748,0.32532653,-0.010402818,0.033946842,-0.1104471,-0.06665374,-0.016640551,-0.06516771,-0.002539932,-0.030747494,0.023330323,-0.09120914,0.36896372,-0.0037722692,-0.0031287,-0.58237654,-0.058179863,-0.47078112,0.3644628,-0.20017008,0.5296363,-0.027830664,-0.087706916,-0.091177315,-0.05301389,-0.11534759,-0.13279681,-0.09830967,0.19852147,0.034689724,-0.91071165,-0.057921283,0.007988995,-0.14312963,-0.12281904,0.041969586,0.035285722,-0.11955772,-0.1110132,0.08798297,0.3796757,-0.093971245,-0.014337207,0.000616801,-0.33678117,-0.4114759,-0.079244435,0.015181567,-0.24393338,-0.07734387,0.03372213,-0.016001046,0.22516976,-0.058468167,-0.103557274,0.030359639,0.11171396,-0.14018928,-0.14507115,-0.17186873,-0.05588745,0.5867574,-0.020733856,-0.43706915,0.28647366,-0.11226367,-0.17581305,-0.051547077,-0.037589338,-0.008994953,-0.063031904,0.24880944,-0.42349544,-0.3205662,-0.0630198,0.021212127,-0.15019852,-0.13740852,0.012776328,0.16989416,-0.050375726,-0.40438545,-0.038717985,0.005583338,-0.02773383,-0.074814506,0.29779086,-0.038877785,-0.13218793,-0.13591559,-0.03060551,0.0139890155,-0.051681705,0.02280146,-0.042771757,-0.050738435,-0.046511956,0.048967972,-0.22505419,-0.0025884067,-0.37121797,-0.093954265,-0.023797084,0.097477935,0.064961,-0.05780081,-0.15569901,-0.017121147,-0.01195721,0.22751042,0.30959603,0.005563078,-0.10538457,0.08969502,-0.05262699,0.36109287,0.21030374,-0.06110639,-0.031203445,0.196221,-0.13395968,-0.1036491,-0.114848375,-0.06486317,-0.008722635,-0.12061782,0.019085824,0.009700312,0.020861497,-0.102383204,-0.18489473,-0.08145767,-0.05692343,-0.114930935,-0.09181648,-0.42765963,-0.10468023,-0.606142,0.3233846,-0.38384327,0.19291604,0.022404386,0.76278293,-0.049577422,-0.12580599,0.030307809,-0.09342886,-0.031323444,-0.2478258,-0.0413818,0.3350016,-0.07997899,0.015814856,-0.34582397,-0.081875466,-0.33000046,-0.17564653,-0.069884576,-0.03742691,-0.041505143,-0.1328649,0.034026567,-0.12879725,-0.4758594,-0.06413681,0.38701826,-0.003767393,-0.0752936,-0.058520105,0.047370907,0.035632294,-0.006360894,-0.023272498,-0.026679581,0.021092696,-0.04276638,0.28454497,-0.067692496,-0.18718915,0.12054542,-0.015367037,-0.022031303,0.01235769,0.010592991,-0.35249552,-0.013507544,-0.12677513,0.03034668,-0.12658791,-0.07703928,-0.21374573,0.094315,0.25432122,-0.2222018,-0.22528425,-0.13451687,0.26604697,0.00978231,-0.14489935,-0.022487022,-0.01316202,0.22223637,0.037974548,-0.14347762,-0.026375294,-0.08840876,-0.31223342,-0.0983382,-0.13591425,-0.04413054,-0.11148159,0.08190515,-0.004455082,-0.066069014,-0.04259345,0.04287819,0.064094536,-0.064197205,-0.07077158,0.047529332,0.148348,0.0066310912,0.014870965,-0.07415307,-0.034368813,-0.0558898,0.17030074,-0.17859009,-0.02717118,-0.093646236,-0.106660664,0.0047004446,-0.034843244,-0.21194491,0.0015665218,0.25294515,-0.05421181,-0.042331163,-0.08456723,-0.13912031,-0.08399406,-0.08009096,-0.02104503,-0.024310865,0.04070667,-0.10476094,-0.008890286,-0.0021853074,0.031359695,-0.026325122,0.051459976,-0.06546628,0.024205191,-0.039263483,-0.082753524,-0.17643835,0.057384647,0.047986794,-0.1968309,-0.07467476,0.25820467,0.056931503,-0.28118652,-0.035768554,0.01303833,-0.011411689,0.041329913,0.0039700116,0.07712454,0.021452658,0.14166324,0.050495304,0.0436837,0.0845158,-0.07953516,-0.047601745,-0.04822974,-0.02779714,-0.009269416,0.025984423,0.024050277,-0.070804566,0.06406211,-0.26919612,-0.31150803,-0.27444378,-0.029667392,0.061508425,0.020565039,0.03766004,0.032022998,-0.013930343,0.041936696,-0.0432639,0.07564544,0.2099619,-0.23972331,0.023753554,-0.080658585,-0.15310048,0.025946848,0.036310554,-0.116216294,-0.20663473,0.08800263,0.0064673424,-0.04449922,0.07172655,-0.08776639,0.028848715,-0.09518086,0.14545526,-0.13157772,-0.046829127,-0.10865528,0.05521878,0.2817721,-0.083741195,-0.07855574,-0.06394569,0.04938569,-0.45014387,-0.038491268,-0.028538555,-0.018599443,-0.042594843,0.22436762,0.06995503,0.0016743466,0.009370424,0.042828478,-0.023343826,0.057583414,0.036344625,0.038434107,-0.042570513,0.122051746,0.02664227,0.05681731,-0.01693823,0.021642013,-0.1108744,0.07757345,-0.25219882,0.21261387,-0.06465472,0.013292364,-0.14220919,0.0011519173,0.124971546,-0.16555423,-0.1095484,-0.089980334,-0.17236939,-0.1198952,0.11360432,-0.11785264,0.08393834,-0.047732335,-0.025411654,-0.004596819,0.06656585,-0.06593806,0.06794813,0.024580864,0.030151457,-0.02145289,0.049105905,-0.04663688,-0.13898732,0.012321472,0.049168635,0.18913834,-0.1289092,-0.097303726,-0.1481157,0.03239137,-0.14119579,-0.089043275,-0.06264017,0.063684076,0.030474743,-0.19514602,0.057664324,-0.08970204,0.06951463,-0.065365456,0.043264776,-0.09118557,-0.03715145,0.23933686,