//AUTO_GENERATED WITH get_outputs.py
//--------------------------------------------
#ifndef __FC_WS_H
#define __FC_WS_H

#include "defines.h"

float fc_bias[FC_BIAS_SIZE] = {0.058727834,-0.041857965,0.023478866,-0.09378015,-0.1777377,-0.11608201,-0.04995641,-0.15901488,-0.0765601,-0.18026473,-0.04944785,-0.066028945,0.26693264,-0.25753284,-0.0018643296,-0.1769791,-0.029668508,-0.0403096,0.29382986,0.07295056,-0.011556914,-0.09434612,0.30869398,-0.039912265,-0.050028205,0.07838849,0.34219044,-0.040391292,-0.04732639,-0.05000165,-0.082822174,0.15416212,0.22028734,-0.030595839,-0.18430413,-0.07320293,-0.029744163,-0.2662578,-0.25107667,-0.07886521,0.2731615,-0.057585392,-0.05002879,-0.046313915,-0.07458757,-0.19477516,0.033011366,-0.1091408,-0.039873235,-0.2411564,-0.005605596,-0.17863663,-0.08477995,0.18905555,0.073349364,0.108016804,-0.07232863,0.2372171,-0.06658713,-0.1783773,-0.05146818,0.36091983,-0.24990018,-0.065502316,-0.041608527,-0.036838908,-0.058822285,-0.038523763,-0.18672194,0.060881384,-0.0832525,-0.04789716,-0.15929377,0.052625548,-0.08997425,0.011935706,-0.068583004,-0.36622155,0.17237528,-0.06230042,-0.23194276,0.16000378,-0.28297886,-0.044540066};


float fc_weights[FC_WEIGHTS_H][FC_WEIGHTS_W] = {0.26465723,0.016565558,-0.10647329,-0.05384125,-0.39690804,0.002078366,-0.072780535,-0.10357314,-0.010594434,0.4531211,-0.001099733,-0.069108546,0.13529305,-0.01575655,0.17468609,0.07630306,0.66958094,-0.050434645,0.34730673,-0.21946181,-0.0009967885,-0.08579659,-0.17944817,-0.052860305,-0.051594563,0.22642967,-0.157098,-0.067191705,-0.054791868,0.008269092,-0.047678716,0.18413207,-0.05573668,-0.060528234,0.16598289,0.0020153567,-0.01958024,-0.30369723,-0.11336912,-0.06454334,-0.3165925,0.00501727,-0.08173784,-0.059387825,-0.05116721,0.121233344,1.0710434,0.013996443,0.5372871,0.23712532,0.06402746,0.31061375,0.07695621,0.21497335,0.100385144,-0.10135578,-0.04957013,0.12477141,-0.12445477,-0.25694472,-0.09316701,0.12182188,0.38457808,-1.120834,-0.022037845,-0.052059263,-0.07130453,0.027623795,0.020603105,0.10773729,-0.30076706,0.07249215,-0.016943924,-0.16436026,0.03319614,-0.24940123,-0.082950875,0.3238573,-0.58230466,-0.08066146,-0.31522182,-0.5480804,0.31345084,0.062241614,-0.1188004,0.007558062,0.010751031,0.0143586565,-0.04367447,-0.004710401,-0.020538721,-0.015073754,-0.022422776,-0.04630393,0.009355721,0.0057058632,-0.027257832,0.011656255,-0.05812742,0.11338039,0.063345894,-0.050230004,-0.059179034,-0.014964506,-0.006791316,-0.0418296,0.00613796,0.0054407734,0.04941637,-0.014385425,-0.0692837,0.016093628,0.064311855,0.014214426,-0.056350887,-0.07018721,0.040783696,0.020382732,0.025500648,-0.0037680352,-0.043552235,0.07079661,0.031918548,0.104936734,0.071373954,-0.008445528,0.034955733,-0.019340567,-0.032287814,-0.085383356,-0.07382609,0.026838923,0.0732348,-0.025735244,-0.07449057,-0.081310466,0.047975652,0.035538822,-0.073078156,-0.0349553,0.031151786,0.014065899,-0.07322298,-0.04498305,0.02258677,0.06540117,-0.020337574,0.053872183,-0.01178717,-0.059139833,0.028678752,-0.076087594,-0.052401163,0.06971961,-0.05955145,0.011140704,-0.081192814,-0.043624856,0.0038558058,-0.021460231,-0.00478327,-0.00476595,0.04250998,-0.00054458017,0.045768224,0.022072412,0.12409023,-0.052198675,-0.072775826,-0.054950446,-0.011300004,0.10857886,0.059954878,0.057916164,-0.06179426,-0.009301372,-0.10959828,-0.005462806,-0.115746945,-0.014348334,-0.09054932,-0.014238753,0.06409962,0.008688076,-0.022159662,0.021362638,0.08099908,0.09186917,0.08153424,-0.10805385,0.12200981,-0.06325777,-0.07331822,0.041536607,0.020401075,-0.043340776,0.028209455,-0.027199155,-0.010867982,0.07784668,-0.0369639,-0.040905017,0.023441233,-0.033591997,-0.08751353,-0.04402715,0.07073994,0.011812895,-0.0618916,-0.053031713,0.01464232,0.03369996,-0.07031668,-0.050188653,0.03356996,0.0018816547,0.08617089,0.065515734,0.040934097,0.0064904788,0.018517459,0.08429409,-0.007275261,-0.12498574,-0.13233428,-0.0017216409,-0.04665168,-0.013018634,-0.022226663,0.047044203,-0.008149573,0.07107526,-0.103226386,-0.05471131,-0.0088052675,0.019019276,-0.03155127,-0.01863043,-0.04197274,-0.04222225,-0.03804752,0.020961331,-0.026675139,-0.10832897,-0.123819664,0.014745779,0.03161893,-0.05624132,-0.055330113,0.021037959,-0.06785533,-0.01174037,0.080693655,-0.0323089,-0.016481508,0.050064515,0.18297663,-0.0042185155,-0.099204905,0.1005417,-0.0018202444,-0.52764094,-0.03421899,0.34528574,0.21488182,0.003625143,-0.11018578,-0.12230181,-0.10620913,-0.03883325,0.012845395,-0.70141476,0.039456777,0.06828303,0.40333217,0.0303534,0.016328452,-0.0116639035,0.0054592444,-0.060586404,0.05155168,-0.031336386,-0.0030339912,0.69859046,-0.0016846557,-0.07123328,0.27515772,0.09045829,-0.4572094,0.049832508,-0.42683232,-0.02819276,-0.08881844,-0.07891632,-0.099163845,-0.019963957,-0.047236525,-0.3433524,-0.17168616,0.16605002,0.20539768,-0.17234306,-0.007797597,-0.47242558,0.010437661,-0.1823947,-0.57005656,0.0010875259,-0.09300875,-0.14099044,0.018044924,-0.62348104,-0.10528982,0.323503,0.30954555,-0.4059536,-0.07081793,-0.00015465912,-0.014231618,-0.07300269,0.06827709,-0.097406656,-0.088195845,-0.0796993,-0.21965891,-0.8938041,0.014317519,0.008059148,-0.030983273,-0.3140341,-0.40193564,-0.05369868,-0.48012674,0.22483218,0.3818155,-0.038174268,0.123057574,0.03827963,-0.64775664,-0.03181468,-0.5474555,-0.100310266,-0.021807848,0.8453316,-0.012441165,0.24746312,-0.044352096,-0.33688614,0.54930776,-0.112445965,0.20597021,-0.053909637,-0.13362995,-0.08574889,-0.0808521,1.2443693,0.07564014,-0.092918076,-0.44203854,0.022580335,-0.06705759,-0.7585967,0.7999723,-0.056505904,-0.29550737,-0.08996083,-0.009376106,0.00015133154,-0.026155641,0.057075582,-0.03144837,-0.11148067,-0.15613344,0.86506945,0.3030043,-0.07330392,0.33095008,-0.07417846,-0.097911224,0.053784803,-0.04098298,-0.13696733,0.48956448,-0.063227884,-0.25206906,-0.8857423,0.115645595,1.1305804,0.050620314,0.23374768,-0.06792345,-0.7090059,-0.095816344,-0.021474555,-0.020397075,0.7399327,0.006403565,-0.16663463,0.0061807553,-0.08386509,-0.0062469235,-0.061411742,-0.00898289,0.036983762,-0.015694514,0.8050927,0.7674892,0.050476294,-0.11842512,0.96881205,-0.00061848445,-0.93382055,0.013860318,0.57036,0.45877674,0.024226593,-0.2682754,-0.47654143,-0.6835067,0.018290669,-0.0855544,-0.045408443,-0.04397971,-0.0033932086,0.1003258,-0.12293957,-0.0151837375,0.23330955,0.0017456725,0.013409445,-0.0070482614,0.012631587,0.11436107,-0.015145713,-0.005118135,-0.029227823,0.13403465,0.022833614,0.4993849,0.116991304,0.11272123,-0.03800183,0.059019167,0.022875423,-0.113002226,0.25491464,-0.22802794,-0.01063332,-0.009136355,0.0048628217,-0.063827865,0.028263891,0.06236306,-0.032007482,0.026761828,-0.036535464,0.00083179754,-0.51205057,0.33426076,-0.09701226,0.08211081,0.028271142,-0.028725289,-0.05854286,-0.04545983,-0.040824976,-0.116361015,-0.11267946,0.018281916,-0.25914246,0.049419407,-0.02299609,0.06485896,0.71932054,0.07895821,0.012032729,-0.077653676,0.01065145,-0.039009064,-0.04205754,-0.10639845,-0.04479579,-0.21831924,-0.27083567,0.03371623,0.040312614,-0.0712134,-0.06347436,0.024581008,-0.5890653,-0.057007894,0.0636196,-0.106294036,0.1467984,-0.047871515,-0.3086221,-0.023175344,-0.060856577,0.41553167,-0.04471363,-0.0028803945,-0.06120781,-0.05595144,0.048269782,-0.120202444,0.030121598,0.11081693,-0.011265827,-0.18142971,-0.099052556,-0.071217276,0.10252892,-0.08990688,0.029032113,0.023456858,-0.013227278,0.28066662,-0.0011572266,0.14473668,-0.017341433,-0.2488319,0.02795304,-0.41780743,0.16864234,0.03150189,0.008310807,-0.076339304,0.0010141324,-0.04225026,-0.29598615,0.51297116,0.03597416,-0.050359923,0.02161546,0.007846701,0.12840287,-0.21428773,0.1318663,0.033685844,-0.07831317,0.002832449,-0.03412515,0.26899436,0.009687226,-0.94831294,-0.1022376,-0.026025625,-0.03188267,-0.04581103,-0.45765042,0.9075902,-0.09566675,0.038628925,-0.04012491,-0.026474161,0.140553,0.09096502,-0.17681572,-0.032546144,0.1536993,-0.048464432,0.08341267,-0.043734804,-0.100961834,-0.0855998,-0.35979366,0.0725839,-0.617754,-0.05503068,-0.04596019,0.00309135,0.024234425,-0.0052895322,0.1510195,0.4332144,-0.059733614,-0.10933647,-0.14984797,0.018500214,-0.048300866,-0.027135313,0.1923182,-0.1326206,-0.10238092,0.02351018,-0.11378371,-0.061251637,-0.008346546,0.008292681,-0.09763224,0.057040066,0.037944227,0.06294125,0.060362816,-0.07333839,-0.023146804,-0.11129133,-0.0017784149,-0.030258875,-0.004951934,0.034434382,-0.07168988,0.022464532,-0.0965119,0.033042725,-0.07268072,0.08384162,0.050761245,0.0876846,0.10624013,0.115376115,-0.11149606,-0.02061289,-0.061173894,0.016647637,-0.11648401,0.011681287,-0.058632463,-0.09710018,0.10331738,-0.05662849,0.11479407,0.051810175,-0.020623574,0.0099754585,0.0633288,-0.045102865,-0.020722087,-0.03758492,-0.091780126,-0.0065558837,-0.0352954,0.056837562,-0.021908958,0.056982502,0.031401798,0.07273273,-0.032945298,0.09253957,-0.041806083,-0.0006818171,-0.01770441,0.10222857,-0.09982605,0.023694064,0.07254873,0.029141707,0.028135143,-0.099150956,-0.07794679,0.059589606,-0.033053614,-0.03802884,-0.10965599,0.013339404,-0.008516559,-0.07402024,0.020848334,-0.0375832,-0.06069347,-0.026959017,-0.0017321224,-0.04359412,0.08698545,-0.057211187,-0.014251152,0.005532488,-0.015728557,-0.046274897,0.0059440997,0.014455269,-0.026280439,0.047618415,-0.06403707,-0.31177542,-0.0065909456,-0.06431498,0.0036744617,-0.041564614,0.28106675,0.01915901,0.07665319,-0.047842078,0.025555674,0.21120012,-0.084100045,-0.1790022,0.031554855,-0.027746635,0.014467332,0.082866594,0.09859379,0.07255182,-0.11318482,-0.032670833,-0.10197055,-0.07151163,-0.0035159201,0.15909036,-0.016663117,0.0033309348,-0.097208075,-0.13079771,0.10501579,0.054489445,-0.1519496,-0.04765008,-0.063989855,0.015982935,-0.635476,-0.0767487,-0.058413364,0.27601802,-0.11914513,-0.083821535,0.051920414,-0.07470886,-0.26442835,0.060191225,-0.004517293,0.058995925,-0.28001943,0.05154483,-0.08138923,0.059352703,-0.09689183,0.07270689,0.05745433,-0.04017967,0.07912733,-0.046584584,-0.20663898,0.0025188338,0.119713575,0.013000652,-0.22492716,-0.10903625,-0.09433552,-0.038047183,0.008713485,0.032219872,-0.38159814,-0.04344392,-0.0980193,-0.110468835,0.028786128,-0.078196265,0.10203507,-0.08305446,-0.011615422,-0.08586048,-0.005490544,-0.011701718,-0.1102859,-0.007943619,-0.05302851,-0.06804055,0.023630954,0.07097666,0.07468824,-0.006286246,-0.001053296,-0.018007122,-0.021872465,-0.059016272,-0.05181755,-0.012982523,0.10689035,0.024598815,-0.118592,0.07112242,-7.158822e-06,-0.06915769,-0.057401747,-0.0034436781,0.020652961,-0.014101362,0.0009483844,0.0011934042,-0.09895243,0.014192885,0.036339693,-0.055374514,0.011237544,-0.119542375,-0.035761427,-0.071907036,0.007650546,-0.005181141,0.027913153,0.062548794,0.043936588,0.034439437,0.043772772,-0.01990151,0.025057852,0.009089194,-0.11073079,0.018513238,-0.054787073,0.042397328,-0.034250893,-0.017090794,0.029679164,0.10619169,-0.049819328,0.12401234,-0.048756488,0.08357522,-0.039863266,0.04579446,-0.062324267,-0.008790747,0.064748056,0.020677619,0.048366755,-0.06834829,0.048474416,-0.0055754427,0.031013496,-0.12324333,-0.09230791,-0.058054373,-0.026382163,-0.041315656,0.073884204,-0.05948764,0.0211884,0.046445377,0.04161226,-0.020390645,0.0033663586,0.023792237,0.08929109,-0.04275759,-0.065837905,0.022972077,-0.048877373,0.06029859,0.0012614183,-0.17181355,0.009106016,-0.08042387,-0.11876449,-0.0068191616,0.09954637,-0.08965751,0.14403674,-0.119786255,0.041859046,-0.049527984,0.05223007,0.24288115,-0.047894068,-0.16064423,0.118953,0.16269122,0.021253455,0.43278927,0.027447816,0.09757099,-0.006620231,0.18279466,-0.0942602,-0.06504573,0.32337603,-0.032071274,0.02922469,0.035047583,-0.04319887,0.007032664,0.041526355,0.48123324,-0.09658954,0.009632404,-0.073985554,-0.121327795,-0.71473366,-0.13606127,-0.12557288,0.09404443,-0.08694603,-0.0848834,-0.0046177953,-0.076150164,-0.0019716094,-0.25200516,-0.0073708636,0.11079405,-0.2632531,-0.014525044,-0.09720244,0.025242684,0.18160951,0.034442104,-0.18369068,-0.08511297,-0.056472242,-0.06973501,-0.16653433,0.0166132,-0.0058395867,-0.341216,0.10844573,-0.09424596,-0.10055584,-0.08220211,-0.0035844662,-0.01803749,-0.41391495,-0.027089696,0.04961673,-0.008481361,0.27179483,0.0010885405,-0.2526253,0.00085765385,0.22726372,0.08985346,-0.09555917,0.046918362,-0.19287445,0.018267285,0.06163867,-0.31419283,-0.035640668,-0.16564384,-0.09685987,0.12132209,-0.106203794,-0.12097639,-0.740052,-0.043178435,0.7304812,0.012944447,-0.20177916,0.227787,-0.1590523,0.28825685,-0.038206372,0.113911524,0.06743262,0.52317435,-0.1333075,0.043443546,0.014195596,0.6237379,-0.0156687,-0.059427664,0.52980375,-0.83518517,0.058524616,-0.050449643,-0.07341966,-0.021397138,0.09014433,-0.25422147,-0.27542922,-0.0016645975,-0.043870416,0.0033156963,-0.46711937,-0.28467476,-0.07302716,0.377754,0.009944648,0.0067003015,-0.06336367,-0.097988255,-0.46659335,0.34695667,-0.088601716,0.46807215,0.019524818,-0.038736843,0.62834364,0.07956152,-0.5886118,0.5012284,0.5172525,-0.009473273,-0.19948132,-0.0031295426,-0.52867794,-0.1119024,0.09984882,0.08940297,-0.0026543199,0.009996353,-0.025228184,-0.05018109,0.0128665585,-0.06678839,-0.41248593,1.1862661,0.0077821165,-0.05292602,-0.54930604,-0.0032455116,0.29234806,-0.08337998,-0.6970467,-0.5690365,-0.09904201,-0.2679198,0.90221727,0.977216,0.08017475,0.12355119,-0.09429365,-0.0016712551,-0.057786047,0.062415525,-0.05474388,-0.09847073,-0.026666902,0.0032915326,-0.12417224,-0.01506832,0.055674925,0.03928035,-0.10743652,-0.11982093,0.025985671,0.08706254,-0.06959123,0.04852105,-0.004370479,-0.03322467,-0.112802826,-0.02220082,-0.048240595,-0.099933185,0.042809658,0.05867338,-0.03521885,0.03880696,-0.0036389676,-0.10639307,0.10887791,-0.018503541,-0.031147635,0.045253858,-0.11342397,-0.096015066,-0.06758729,-0.038434237,-0.10510786,-0.03862019,-0.012147248,-0.068655245,-0.059652805,-0.020739382,0.08123442,0.0077750725,-0.057671502,0.02191558,-0.082008414,0.09445066,-0.10276566,0.050561834,0.0134889595,0.03735658,-0.013072364,-0.062264845,0.098982476,-0.036585234,-0.06897576,-0.04080336,-0.0975741,-0.0033523112,-0.026026074,-0.06631708,-0.061531633,-0.06214365,-0.11783187,-0.009788252,-0.014834397,0.066501826,-0.08280746,-0.04185489,0.004498132,-0.041665025,0.017330129,-0.018098228,-0.027958913,-0.054488778,-0.068816096,-0.06135551,-0.029782629,-0.08119356,-0.0058553065,-0.18353684,0.02752499,-0.065624714,0.045624178,-0.045972027,0.048369244,0.036070704,-0.09494196,0.0069998633,0.44386733,0.106457256,0.19920026,-0.3892748,-0.028234271,0.15766759,0.12539214,-0.04411946,0.020681033,0.17239673,0.29684952,0.023290247,-0.013144421,0.0035119215,0.11969591,0.018836774,0.3892408,0.02519315,0.1263717,-0.06406955,-0.060611427,0.0015949846,-0.21371816,-0.2509107,0.26874778,0.07473156,-0.0059638573,0.27253455,0.089945994,-0.21528047,0.126105,-0.099284306,0.01663614,0.026844688,0.034371816,-0.08855737,-0.16618827,0.28664643,0.08280533,-0.122602165,0.41477677,0.013470911,-0.16477926,-0.012088366,0.13106644,0.070892036,-0.012261869,0.10638469,-0.2696238,0.08130955,-0.0081617,0.072151795,-0.17114343,-0.14757416,-0.13640545,0.02020281,-0.008832879,-0.008302054,-0.0016138443,-0.042854488,-0.31419736,0.06520719,-0.0008211583,0.0820164,0.1554739,0.11021187,0.20868345,-0.0059134904,0.2336449,-0.08441502,0.016917221,0.033789188,0.22293784,-0.027452983,-0.09420129,0.0043716696,-0.022761935,-0.09751074,-0.10802346,0.17255495,-0.06668955,-0.050455846,-0.11751432,-0.06676344,-0.0058157486,0.010073572,-0.054953784,-0.0051692305,-0.07491587,0.03437652,-0.0074376776,0.23148389,0.04256328,0.20723064,-0.012630058,0.06613158,-0.12055277,0.08147781,0.013295833,-0.022938823,0.27525383,-0.4346185,0.0029151246,-0.0016774622,-0.12175967,-0.042383872,0.08827834,-0.19201875,-0.088799685,0.05491667,-0.014532939,-0.091064505,-0.29602817,-0.075171895,-0.039595243,-0.05280484,-0.0042955065,-0.053219587,0.07331495,-0.02964409,-0.09629093,0.21595518,-0.030844945,-0.008490811,-0.26522887,-0.011931636,0.0924583,0.04952313,-0.34346756,0.055040672,0.1754772,0.017337574,-0.013931852,-0.09214497,0.03510443,-0.08495681,-0.11064915,-0.108204246,0.1416957,-0.09251819,-0.0952693,-0.120845675,-0.021212092,-0.0696682,-0.13740928,0.020887151,-0.06214793,-0.11991977,0.14300914,-0.0037751792,-0.32545024,-0.030586794,0.022734623,-0.018746737,-0.010821157,-0.02468893,-0.24566886,0.07340823,0.006669455,0.0018521459,0.013575427,-0.06134465,-0.087379605,0.12030847,-0.03835656,-0.08274895,-0.5606968,-0.10864686,-0.017466623,-0.05269077,0.04401486,0.040584978,-0.026893714,0.012521895,-0.030700246,-0.17985609,-0.07327813,-0.41038156,0.04362878,0.022257404,-0.12250495,-0.056829583,-0.10238095,0.0035188636,0.21919036,0.35737562,-0.021961354,0.015759228,-0.041369047,-0.028526783,-0.025815882,0.028399449,-0.07116673,0.003840559,-0.045474984,-0.04100835,-0.023807611,0.19548729,-0.07175491,0.2890329,-0.10344885,-0.09206264,0.05250019,-0.020276824,-0.016662328,-0.23410732,-0.023906283,-0.047636133,0.058240063,0.026486542,-0.10396687,0.008229613,0.6576693,0.102161236,-0.06493207,-0.02405461,0.08403919,-0.021118311,0.042473093,-0.045142476,0.0017094619,-0.05044411,-0.050328422,0.005298771,0.02525706,-0.018643038,0.024358911,-0.032843012,-0.17290881,-0.046728875,-0.053555723,-0.071539946,0.04364146,-0.090600014,-0.14080036,0.015752167,0.07364066,0.092755936,0.017883122,-0.07212931,0.34487224,-0.095641725,0.023762014,-0.024594538,0.054106966,-0.06922521,-0.040159896,-0.038743865,0.06410876,0.05835238,0.06567758,0.058378845,0.049858235,-0.04678777,-0.073132746,0.008510262,-0.013898157,-0.025588397,-0.07339811,-0.0016986728,0.051563457,0.0499537,-0.059098717,-0.013602275,0.03347654,-0.036873065,0.018608391,-0.012434445,-0.009686559,-0.074066214,0.014413245,0.04954882,-0.042861685,-0.02484557,-0.06224504,0.0048625767,-0.030871052,0.005920768,0.0071674436,-0.029966194,-0.03940579,-0.053735748,0.00076238066,0.026437588,-0.0141716,-0.027850434,0.0097938925,0.019581854,0.07473718,-0.07367392,-0.06643908,-0.07157538,0.047672734,-0.07102996,0.059139073,-0.030109353,-0.048768893,0.026408426,0.03855391,-0.07248588,-0.0356321,0.013658427,0.043841936,-0.019437015,-0.041275088,0.015596278,0.008152075,0.03920041,0.06347689,-0.0473425,0.025112368,-0.063732095,0.009781554,0.05731529,-0.022746563,-0.037409946,-0.020817485,0.005692117,0.0681742,-0.07231442,0.05968845,0.0711166,-0.016023029,-0.038740195,-0.032212637,0.016731128,-0.005371265,-0.18912867,-0.09061862,-0.10093785,-0.09478356,0.4750215,-0.053580597,-0.01626638,0.0034465785,-0.12094997,0.117286935,-0.054323785,-0.029137375,-0.031125221,0.013708857,0.13642766,0.047811702,0.01070916,0.0033462334,0.12605026,0.10435203,0.03597418,-0.12065912,-0.10980853,-0.007880161,-0.016198307,-0.2838123,0.78284544,0.0017392485,0.008841843,-0.007854522,-0.118398726,0.039384853,-0.11006457,-0.018268462,0.038705684,0.015453323,0.032673147,0.39298454,0.46875224,-0.11252666,-0.18417189,-0.03886954,-0.06458644,-0.008027844,-0.037248436,0.018004635,0.3105585,-0.029944101,-0.12011122,-0.07928575,0.08635028,0.03980187,-0.0070101046,0.08678725,-0.068554185,-0.19554478,-0.09190536,-0.015606228,-0.121075146,0.06498104,-0.068091705,-0.26792455,0.3083863,0.48265046,-0.0703924,-0.100935616,-0.075024866,0.017543329,-0.043820523,0.5313927,0.5453594,-0.01289209,-0.116931014,0.072124586,-0.032252897,-0.3824203,-0.022736823,0.12961596,0.22718273,0.0006363906,-0.04812658,-0.12620151,-0.15937069,0.044827405,0.31074893,0.01138377,-0.5936151,-0.11243454,-0.0032338318,-0.07372122,-0.022265146,0.7847222,-0.024540657,0.4403787,-0.07714014,0.0055172355,0.07677024,-0.026080683,0.45134577,-0.006203685,0.16527577,0.010794979,0.016467666,1.0488946,0.08454333,-0.054661967,-0.22598939,-0.046727967,-0.01904666,-0.68943477,0.45474157,-0.014199493,-0.24468587,0.0044701644,-0.04939752,0.17200796,-0.23302408,-0.018863352,-0.014276362,-0.10591223,-0.15847184,0.18176593,-0.11017594,-0.05650882,-0.59658,-0.07710937,-0.06535034,0.028880775,-0.078553684,0.4042895,0.66167504,0.07506932,-0.15764648,-0.8727675,0.0051374086,0.8157038,-0.022779906,0.6947291,-0.11395896,-0.3335624,-0.023180751,-0.063754134,0.00020338573,0.6959031,-0.013856873,0.02788207,0.27223027,-0.25658464,-0.11162151,0.03064622,-0.05658382,-0.101291105,0.017988361,0.14624976,-0.12258322,-0.09442638,-0.1245964,0.5596881,-0.05005964,-0.30160573,-0.082438156,0.53560644,0.293841,-0.092368215,-0.08409578,-0.85066336,-0.70812386,0.029211573,-0.085815646,-0.058904443,0.009970727,-0.079153694,-0.052206594,-0.117168,-0.037931167,-0.14807789,-0.039018385,-0.035093006,0.028760178,0.10938752,0.14092804,-0.11016787,-0.09665646,-0.01751973,0.10970082,-0.0023681389,0.099579304,0.001900014,0.07210583,-0.12083974,0.08939671,-0.01966851,-0.027752822,0.22119705,0.15627766,0.03248155,-0.055989835,-0.019102804,-0.10649291,-0.01552691,-0.010536746,-0.13657185,0.05873864,-0.065558106,-0.034325127,-0.24046084,-0.2764751,-0.0032736154,0.56727093,0.022496482,-0.008807398,-0.073319085,0.014375212,0.0018653332,-0.27709347,-0.012035938,0.023282092,-0.547478,0.07270262,-0.102758996,-0.051329844,0.10132644,0.10185726,-0.10564237,-0.09130262,0.04084291,0.0012776509,-0.041574333,-0.07837976,-0.058513857,-0.048984796,-0.22150183,-0.051716056,-0.089057714,-0.07183824,-0.10259413,0.022209644,-0.30738834,-0.1259787,-0.050138336,-0.024565712,0.067466035,0.033295806,0.07788144,-0.07790289,0.07612702,0.3371684,0.009144776,-0.04561518,0.106007926,-0.08956063,0.017745133,0.22546051,0.09845209,-0.060107213,-0.03406447,-0.5086576,-0.11723307,0.025951628,-0.22582148,-0.03147665,0.32009783,0.11415901,-0.34635332,-0.0066737738,0.09515143,0.3816992,0.02655595,0.74194777,0.11293525,-0.016897283,0.3046257,-0.0017210059,-0.07179219,-0.4317274,0.065439664,-0.056907475,0.09143663,-0.07388203,0.059833627,0.12330876,-0.034197144,-0.109742686,-0.078918464,0.69495016,-0.086032584,0.054973647,-0.1056251,0.013258006,-0.3965707,-0.25342068,-0.007213193,0.7633746,0.098372266,0.06892538,-0.0057453066,0.0045019365,-0.18274413,0.48778346,0.005980797,0.32971427,-0.08357088,0.029966516,0.17144613,0.114169165,0.05432273,0.9439645,0.36767152,0.10682587,-0.017119164,-0.0704277,-0.17152804,0.005785654,-0.17461668,0.5966756,-0.29605442,0.071324594,-0.032471944,-0.058853503,0.07002585,0.06369208,-0.20509778,0.07191324,-0.06244721,0.0024666938,-0.12103537,0.050753016,0.7140666,0.0012051488,0.04976958,0.38727376,0.059399407,-0.062333412,0.53148335,0.2573413,-0.04183327,0.018383272,0.10422489,-0.079992,0.009304034,-0.05481255,-0.06281577,0.053719625,0.045357563,-0.04173498,0.0019571357,0.045749143,-0.06417774,0.021540605,0.035803158,-0.023804964,0.09711783,-0.05280061,0.111653924,-0.059690386,-0.020449758,0.06431109,-0.058445737,-0.07496554,0.03211229,0.015390523,0.018275127,-0.03196834,0.11139457,0.07289557,0.037533678,-0.020337574,-0.036047593,0.06326772,-0.07567072,0.10510176,-0.01422014,-0.011427272,0.04268547,-0.06864647,-0.05000412,0.016260415,-0.00075547287,-0.054517854,-0.007212788,-0.03179974,-0.020793654,-0.0848014,-0.053838104,-0.044378042,0.0009518564,0.0047679245,-0.10856688,0.020258226,-0.05111877,-0.051478382,0.04106029,0.030499937,-0.039709453,-0.026941488,-0.08146904,0.042475663,-0.093173005,-0.008692093,0.012674898,-0.016618699,-0.02027799,0.0014970371,0.04721594,-0.038286336,-0.039166916,-0.049622584,-0.049713694,-0.08715616,0.01564851,0.03788841,0.045902677,-0.0874385,0.053866908,-0.062821545,0.014149127,-0.03358353,-0.033086024,-0.024981903,-0.012755674,0.0399974,-0.10160597,0.042222228,-0.0033818935,0.12066652,-0.098324955,-0.061869398,0.014042422,-0.12667832,-0.10644527,-0.10284273,0.08675612,0.0641284,0.016012616,0.10611834,0.025096448,-0.010923282,0.0070390613,0.10242767,-0.020804664,0.03739751,-0.09903099,-0.031401444,-0.0061128777,-0.004794702,0.041765563,0.072545394,0.004534809,-0.023372829,-0.10966855,-0.008643251,0.04113412,-0.118685804,0.014682414,0.10846222,0.034998283,0.12563573,-0.05111778,0.06507805,-0.07908748,-0.05098732,-0.10921534,-0.050883576,0.059900805,-0.031180466,0.011389726,-0.02898582,0.098166026,0.093798675,0.0292232,0.0747725,-0.057848405,0.09781237,0.011767798,0.021422599,-0.010884463,-0.10599548,0.07280459,-0.109980375,0.016723119,-0.1152485,-0.030213872,0.10312804,0.0011058599,-0.013093652,-0.06243396,0.017018292,-0.014284414,-0.013532542,0.026859872,0.06409496,-0.061007284,-0.09883855,-0.015652956,-0.011760457,-0.005215688,-0.0053073606,0.025701994,0.024262495,-0.029920522,-0.032055583,0.02650756,0.017015206,0.0215421,-0.7008938,-0.028083524,0.4128674,0.06283139,0.30414703,-0.07683139,-0.054734517,-0.95658666,-0.084028326,-0.37060395,-0.054930683,0.064919144,-0.11121613,-0.17094567,0.22998948,-0.12857893,-0.017902294,-0.058219258,-0.20952713,0.11306404,-0.041777033,0.09092768,-0.019437805,-0.085723385,-0.09793094,0.3141296,0.29673955,0.017004495,0.38654423,-0.098689914,0.009594161,0.18842989,0.35229903,-0.12841895,-0.028573787,-0.07424655,-0.47300962,-0.7654442,-0.7704174,-0.02869216,0.27237383,-0.0069578257,-0.015573044,-0.13096467,0.1064705,-0.18803348,-0.17883174,-0.016613118,0.0037276328,0.08093449,-0.13346142,0.11525841,-0.01990469,-0.6050591,-0.33942956,0.5084621,0.009557895,-0.1808586,0.08414578,-0.4787414,-0.070793994,0.20448533,-0.3765242,0.47270605,-0.052362747,-0.056960914,-0.07059851,-0.009249382,-0.25479305,-0.13944009,-0.22155562,-0.06089627,0.018213471,-0.10781525,0.9095434,-0.013253174,-0.101962976,-0.11950963,-0.51665485,-0.12302637,-0.30349806,0.3521319,0.30866972,0.0015406365,0.5856104,-0.037462123,-0.5191237,-0.1226237,-0.39462534,-0.0035864045,-0.07779747,2.7722828,-0.108713076,0.42887792,-0.09968114,0.05521121,0.51870114,-0.011122898,-0.8856836,-0.05388448,0.8728528,-0.09690458,0.6407879,0.039503355,0.090482086,-0.07661505,0.22515509,0.027828394,0.01369572,-0.9786183,-0.19210088,-0.049301222,0.08180354,-0.08519552,-0.059469137,-0.23155317,0.13512506,-0.7821305,-0.007134166,-0.051053446,0.15181759,-0.56246316,0.96245486,-0.11357925,0.13001552,-0.039374426,0.007802764,0.05852811,-0.049165245,-0.7240393,1.4439193,-0.021692213,-0.43667158,-0.3419634,0.05974811,0.48903683,0.009169269,0.046171404,0.32275757,0.3613172,0.0049469867,-0.08462705,-0.03593522,-0.323205,-0.12006965,0.38605818,0.88969886,0.7207989,-0.05186936,-0.015889186,-0.0051528728,-0.03558806,-0.0382448,0.040952366,1.3744477,-0.090876885,-0.13326526,0.27523726,-0.027136765,0.99735165,-0.03980559,-0.6895913,-0.46699724,-0.03121845,0.019131953,0.5301168,0.4837484,0.048403032,0.005125561,0.102146305,-0.003492166,-0.024235252,-0.087485164,-0.0031597167,0.013611939,-0.032950435,-0.041606445,-0.114741646,0.07797245,0.035329152,0.024118789,-0.030774197,0.013968522,0.08859477,-0.0709909,0.06636252,0.054077625,0.11979819,0.055485733,0.009534799,-0.09260107,-0.034830958,-0.04988969,0.055354193,-0.008418575,0.02987188,0.021662034,-0.030211527,-0.08464774,0.1188326,0.016321138,-0.01770574,0.0025670335,-0.02183772,-0.037377454,-0.03514184,0.028071776,0.0014501751,0.016326055,0.00041820592,-0.099966116,-0.015985899,-0.037352286,-0.11252732,-0.06257906,-0.07091198,-0.004536018,0.024026915,0.07875811,0.006422556,0.0029265094,0.007993951,-0.008658771,-0.03719588,0.098101094,0.06628152,-0.114921,-0.012805204,-0.09648648,-0.12718444,-0.03326657,-0.056584902,-0.034642268,-0.021721056,-0.0035247526,0.016281316,-0.05187606,0.020664029,-0.033712383,-0.030618269,-0.03339107,0.039148938,0.046844613,0.06345029,-0.04192459,-0.003115157,-0.06781908,0.00077528524,-0.05552666,0.12777346,-0.03867867,-0.015315861,-0.034406517,0.10519014,-0.12421812,0.042469103,-0.5532366,-0.00087819423,-0.035564423,0.45497337,-0.11382326,-0.059561715,0.019915484,-0.07500359,-0.22361621,0.053415354,0.21571279,0.028374357,0.3781499,0.021583227,-0.29669508,0.08020196,-0.109197035,-0.0036969213,-0.3378346,0.061761152,-0.022455454,-0.16644448,0.060392465,0.08707098,0.12001008,-0.053343866,-0.10221672,0.11757501,-0.27418607,0.015454283,0.08201903,-0.10102092,-0.09854059,0.20836245,0.2639537,-0.045270134,0.035323363,0.031013675,0.023676062,-0.010708399,-0.019901603,-0.082424834,0.25742033,0.12705,-0.20113583,-0.0512445,-0.06492731,0.037844352,0.07489349,-0.1876548,-0.05923452,-0.045913205,0.111967325,-0.15111586,-0.08453283,0.14856818,-0.065406494,-0.08665912,0.35152557,0.5049602,0.009326668,-0.006155735,-0.14711048,0.08514776,0.0114926025,-0.056875706,-0.18810531,-0.025842272,-0.110257424,-0.12919243,0.09164396,0.35949636,0.012003909,0.29198128,-0.57154775,0.0981716,-0.058798723,0.35939974,-0.1581625,0.0013828326,-0.0151118,-0.06902322,-0.042323142,-0.035622466,-0.061832026,0.03503862,-0.038908683,0.03147319,-0.03990557,-0.056313783,0.009588033,-0.0042892746,0.024358861,-0.11486513,0.03062893,0.001443533,0.026963174,-0.11892341,0.04096561,0.10102047,0.09946047,-0.013757269,-0.01691452,-0.08455943,-0.072772875,0.0076415315,-0.002897401,0.013457477,0.005921278,0.015505861,0.00073692953,0.095458664,-0.08618651,0.01647917,0.06451786,0.02417497,-0.032957427,0.05783023,-0.037516974,-0.09571016,-0.00085955823,-0.0063849394,-0.05487465,0.05700904,0.018772263,-0.081491664,0.03925892,-0.09583738,0.123556726,0.03385424,0.08439843,-0.07449789,-0.040974215,0.11501382,0.09362576,-0.091912925,-0.076064005,0.03790115,-0.025766075,-0.05474643,-0.07807879,-0.055863407,0.035178658,-0.06778247,-0.086044714,-0.09951769,-0.08561626,-0.0008606126,0.051532447,0.049763955,0.05160387,0.015486083,0.060597185,-0.0750793,-0.0876377,0.0627116,0.0030464903,0.034110386,0.054396987,-0.097850345,-0.00644318,0.031190092,-0.09730598,-0.04919789,0.069031015,-0.078151554,-0.08664907,0.06726181,0.008982756,0.10178175,-0.124314085,-0.25563338,-0.011467438,-0.012770403,-0.08719103,0.031824198,-0.020265125,0.011714753,0.081651144,-0.019487059,0.0640445,-0.003056266,0.12082534,-0.0112963645,0.060825642,-0.10542963,-0.034489784,-0.042859327,-0.004563232,-0.02536705,0.40103653,-0.034372486,-0.020518478,-0.026994353,-0.09451769,0.10145505,-0.055762384,-0.097013645,-0.0068456316,0.032102086,-0.09852103,-0.3551082,0.18774256,-0.09610781,0.39572746,-0.06689621,-0.11610786,-0.029211551,0.009981799,0.026694158,-0.20314175,0.051530916,0.07904513,0.007899475,0.110062964,-0.09735888,0.049919445,0.0029281124,0.07025139,-0.06436906,-0.044440612,0.086237624,-0.029028319,-0.004066756,-0.08586992,-0.008036961,-0.037220456,-0.18511422,0.024653625,-0.0156133445,-0.11304588,-0.06105767,-0.0517408,-0.1846526,0.027618477,-0.10719368,-0.04939172,-0.06668051,-0.0017203954,0.09925584,-0.109746546,0.104315475,-0.24547116,-0.044720683,0.052587435,0.0439663,0.09801904,0.08616981,-0.08193145,-0.020427084,0.015314385,-0.0436159,0.08619496,-0.0772222,-0.0956011,-0.058162957,-0.1265438,-0.0049339533,0.030505659,0.046011463,0.0013393216,-0.044142082,-0.015503433,-0.1035344,0.043743573,-0.08872873,0.044313,0.09918758,0.05479,0.008250038,0.104929715,-0.0433082,-0.0319012,-0.037817094,0.029412359,-0.007597204,-0.04147389,0.00071705924,0.020774122,0.12343539,-0.120463766,-0.056401808,0.032107573,-0.034665074,0.08945916,0.04067803,0.07252467,-0.0622184,0.04833577,0.013452473,-0.07220923,-0.026844885,-0.03596115,-0.0007295164,0.04255148,0.04454149,0.115292266,0.068390876,0.059258495,-0.07705231,0.0013893661,0.04274611,0.08402666,-0.00045965292,-0.066102915,0.027891543,-0.11048219,-0.042927798,-0.07984511,-0.06564553,0.053235788,-0.010229722,-0.10894426,-0.08072433,-0.055372573,-0.060061783,0.02726899,-0.069843195,0.025524125,0.046405077,-0.026338864,0.06229028,-0.071483634,0.06937444,0.117394835,0.07070124,-0.048296362,-0.108615436,0.034758806,-0.01827955,0.0023324243,0.11630877,-0.036923874,0.0026349432,0.008278236,-0.022384923,-0.024103211,0.11539425,0.0018542001,-0.34069917,-0.105009705,0.016444879,-0.014022035,0.09211487,0.0336347,-0.08812998,0.010690215,0.052205764,0.080879934,-0.043034237,0.1588034,0.016247861,0.018391898,-0.0026845874,-0.014032095,0.01952235,-0.12502661,0.30092254,0.29972777,-0.067204006,-0.0063271606,-0.07203338,-0.02155704,0.08252569,0.035378926,-0.0059404336,0.0400623,-0.06526339,-0.11515838,-0.27755776,-0.28878996,-0.115685605,-0.029740827,-0.09047978,-0.04276357,0.007750638,-0.057680536,-0.070082076,-0.19404504,0.023328904,0.038869787,0.08457056,0.04326739,-0.0031878564,0.11110945,0.07659519,0.041140232,-0.02209859,-0.0769717,0.004391291,-0.0017899916,-0.045561336,-0.10388865,0.0069818115,-0.1295384,-0.2676107,-0.008647882,-0.051162805,-0.05701607,-0.08843098,-0.024138637,-0.24047445,-0.021900106,0.064588666,-0.07175348,0.11468996,-0.016470287,-0.011016133,-0.018140404,0.100436285,-0.29342,-0.0397643,0.06843269,0.062245425,0.0520844,0.036767524,-0.4974209,0.01608492,0.5432629,-0.03304788,-0.92497224,0.016351799,-0.061761286,-1.2889942,0.015943095,0.65958863,0.054711044,-0.031670764,0.5419738,-0.043608837,0.2033687,0.03513179,-0.043378096,0.004735091,0.3686531,-0.58689135,0.03627255,-0.06186823,0.22163896,-0.038184192,-0.034484074,0.20146227,-1.0286175,0.024816694,0.18240605,-0.09311605,-0.10719562,0.60276985,0.42421505,-0.5375622,-0.22278546,-0.050988995,0.1511481,-0.35999507,-1.12684,-0.045795184,-0.06771066,-0.027398188,-0.11725037,-0.07069085,-0.019586498,-0.34026363,-0.6649877,-0.087702416,0.77417815,0.30644873,-0.0387256,0.679692,0.18380754,0.021314846,0.55011034,-0.015096826,0.0088060675,-1.4841835,-0.038419764,-0.33441663,-0.06958835,0.6053951,-0.6061287,-0.53723145,0.07440482,0.04586301,-0.011291226,0.06423759,0.00042761795,-1.2502192,0.58733386,-0.02805176,-0.105939634,-1.0209852,-0.16108795,0.68714833,-0.09699976,0.24644773,0.0029864542,-0.008652025,-0.18773477,0.16900487,0.64410555,-0.03698316,0.04279678,-0.07775246,-0.10202697,0.1080402,0.100545555,0.010181894,-0.10275559,-0.06757342,-0.025224477,0.057923246,-0.12668219,0.06073941,-0.08575214,0.012008023,-0.06744596,-0.100529805,0.08183651,-0.106260285,0.015529194,0.021995278,-0.023100631,-0.0053689396,0.07002824,-0.09742539,-0.076841876,0.052607134,0.0739129,-0.0038436952,0.01226314,-0.10145456,0.057517916,0.011214833,-0.04013085,-0.0039162324,0.0596914,0.07268456,0.0103770215,-0.0084145665,0.073557675,-0.02747809,-0.06839628,0.004575572,-0.11983723,-0.018642195,-0.015901452,0.03043174,0.017538458,0.08462516,0.05850516,0.09457824,0.034984842,0.064743236,0.04245211,-0.0519188,0.044803232,-0.11520479,-0.08157841,0.10979159,0.101001,0.04752021,0.020551285,-0.018901762,0.04972441,-0.024635538,-0.07994903,-0.021897124,-0.028578244,0.0030266084,0.020713143,0.022599004,-0.04809335,0.01651046,-0.04455123,0.0055814637,-0.061733313,0.027891815,-0.0027079019,0.027190369,-0.04425349,-0.11562145,0.030935198,-0.0007906845,0.04694199,0.027546009,-0.1849383,0.030304683,-0.09054736,0.047051795,-0.053570863,-0.050252095,0.071762174,0.17444678,-0.038634624,0.2614045,0.048503708,0.20570756,-0.24247278,-0.04890163,-0.009228937,0.030132499,0.15800712,0.069196425,0.39335743,0.053303823,0.0277711,-0.10776074,0.1427833,-0.0052718287,-0.0024658889,0.33491427,0.1032928,0.10536305,-0.14448602,-0.03009852,0.05462587,0.13038045,-0.5744196,0.14444296,0.028139297,-0.10301349,0.3111571,0.26940182,-0.110043325,-0.09537808,0.1038807,0.002410986,0.0398283,-0.0529615,-0.01793065,-0.0726119,0.1422944,0.05899858,-0.11030151,0.02649813,0.00016343933,-0.2524165,0.065014705,-0.041006066,-0.039644282,0.21055134,0.0050215316,0.10710702,-0.033142723,-0.22128694,0.018420182,0.1431809,0.061589036,-0.07501493,-0.003677052,0.004497739,-0.11023908,0.04215509,0.0622918,-0.15425219,-0.028480778,0.036177985,-0.013115601,0.15622182,0.0844636,0.12126992,0.05762753,0.14019935,-0.09437326,-0.06648358,-0.025390632,0.0552632,-0.14313847,-0.08796089,-0.030048212,0.030821182,-0.023021705,-0.030208478,0.0014790745,-0.032414913,0.05087249,0.014336258,-0.11017917,-0.025245808,0.049342554,0.00042773783,0.117457785,0.10577547,-0.08564491,0.06777498,0.063525185,0.083095044,-0.053456947,-0.040964454,-0.06695812,-0.0021070386,0.01856965,0.031731874,0.0023313984,0.061862737,0.01820559,0.07142453,0.0031733,-0.028526694,0.020688789,-0.023445867,-0.0030694231,-0.050519582,0.03570219,-0.091331445,0.0049948455,-0.008656912,-0.0699772,-0.05246539,0.059250936,-0.003404514,0.056856483,0.00023318082,-0.04616826,-0.02993699,-0.1208634,-0.0024460468,0.045937464,-0.07119588,0.06632589,-0.020304417,-0.054646477,0.0024794042,-0.07023104,0.059900954,-0.016873367,0.029457442,-0.0329358,-0.023008248,0.013564751,-0.024027413,0.04300475,-0.0687367,0.11046157,0.004897638,0.10488044,0.11285361,0.05239445,-0.073930934,-0.038975418,0.061338216,-0.12779361,0.05647362,0.07639114,0.03227985,-0.044687666,0.05597055,-0.03413538,0.05227077,0.06673087,0.085487865,-0.08717223,-0.09562816,-0.055294517,-0.04582872,-0.11599439,-0.124727614,0.11074626,-0.073507145,-0.08210739,0.038746025,0.009845577,0.008653353,0.0012968591,0.114681214,0.117323354,0.03559264,-0.03584878,0.03053873,0.005591475,0.058702733,0.05488382,0.0607428,0.092448406,-0.028412187,-0.006271554,-0.026769174,-0.056698073,0.033346966,0.041931897,0.037198126,0.04992816,-0.10943177,-0.025029216,0.0062647676,-0.042090885,-0.11859274,0.13663754,-0.12243317,-0.062747605,-0.04895423,-0.020891838,-0.050598517,-0.023176452,-0.09130615,-0.097160146,0.05351828,-0.031475328,-0.07706351,-0.020258669,-0.08245231,-0.018109614,-0.039661665,-0.006498999,-0.052845407,-0.020772414,-0.02385681,0.029578265,-0.12134811,-0.012119899,-0.0028997366,-0.10776691,-0.12113386,-0.063802384,0.008502988,0.10866026,0.02186962,-0.106832236,0.019916719,-0.036522575,-0.06984216,0.0670473,-0.064644516,-0.011970316,-0.0022431314,-0.085553855,0.080497034,-0.065003924,0.048099186,-0.11852066,0.09267865,-0.06359125,-0.069510795,-0.07232837,-0.0144462455,-0.038744386,-0.027966961,-0.05637727,0.022501692,0.06706926,0.05937828,-0.01762934,-0.011834905,-0.047277562,0.004809104,0.031792507,0.0065649077,-0.059507746,0.05080454,0.011900738,-0.04530754,0.026325159,-0.071443275,0.060470402,-0.0049193725,-0.027611956,0.015443645,-0.036786284,0.06570433,0.015939258,0.026081592,0.043200783,-0.035086893,0.03532233,-0.062751144,0.07042161,0.06353143,-0.019649658,0.07110803,-0.06558377,-0.011290751,-0.04155016,-0.028575715,0.053067237,0.02746994,0.02442608,0.047441937,0.005542904,-0.06060763,0.034871638,-0.0064030737,-0.06039735,0.05644931,0.028148122,-0.056439575,0.036943085,0.02866251,-0.06123163,-0.060038127,0.04862783,0.017574124,0.06787495,-0.032360595,0.057680145,-0.017246254,0.07256463,-0.07206358,0.016365848,0.012363568,-0.052921034,-0.028117862,-0.009398699,0.034130402,0.06640948,0.04494472,-0.07040027,0.015233651,0.023112446,0.022800349,-0.008209139,-0.062484466,0.01888293,-0.010223456,-0.06789861,-0.02057666,-0.026370756,-0.0021863729,0.05678241,0.062231973,-0.06878678,-0.040972423,-0.105461195,0.048134964,-0.051744457,0.012064543,0.042044424,-0.09155575,-0.028164128,0.39624268,-0.11417845,-0.008621677,0.005326808,0.2555215,0.035599083,0.058367055,0.09566039,0.11007601,-0.2884143,-0.049192417,-0.08733665,0.09202061,-0.023184363,0.017353468,-0.435206,0.018419677,-0.11342189,0.2808624,0.46235406,-0.0001172065,0.08735932,-0.027836053,-0.104619294,0.10376368,-0.29159337,-0.048330884,0.026499145,-0.03206169,0.025210885,0.17361857,0.9640701,0.017423628,-0.80424273,0.03673982,-0.05231572,0.026371881,-0.008102427,-0.047072876,-0.26500836,-0.12129276,-0.39624992,0.090995125,0.11858417,0.015498908,0.0071919253,-0.24793254,-0.37467656,-0.0420148,0.050085835,0.082751945,-0.010369609,-0.02613532,-0.06878304,-0.0604483,0.7462891,0.70140046,0.039218463,0.0461275,-0.03037049,-0.0037206402,-0.07040399,0.61077124,0.51782715,0.0022139475,-0.096991844,0.03640548,0.09187764,0.46007204,-0.08649532,0.5427427,-0.62595534,-0.037849505,-0.06152509,-0.3882888,-0.04429086,0.0005336357,0.7262184,0.035425995,-0.45555568,0.0073937336,-0.9366576,-0.026825773,-0.0714267,2.378732,-0.07361739,0.07430904,-0.083790205,0.24150497,0.9514233,-0.038159188,-1.1679058,0.059455477,1.0517455,0.04317196,0.34016624,0.07801364,0.010833443,-0.0865749,-0.2739866,-0.10487899,-0.0084147565,-1.2147051,-0.27838582,0.026275177,-0.1962918,-0.07981388,-0.08942814,-0.14477165,-0.41849434,-0.7664762,0.06986929,-0.07898691,0.23664086,-0.79654515,0.1503605,0.019671855,0.16117881,-0.05401422,-0.055608824,-0.05561833,-0.0229776,-0.6478865,1.2486542,-0.11537898,-0.81818825,-0.47902095,-0.025192246,0.41611677,0.052162275,-0.4209397,0.13707475,0.7516057,-0.027197495,-0.20316753,-0.1186029,-0.17037049,-0.01936632,-0.18862438,1.2383401,-0.006679397,-0.022662722,-0.030988304,-0.058902916,0.010106958,0.011591554,-0.2776222,0.15626262,-0.052913234,-0.035664644,0.36051384,-0.079530805,1.1110674,-0.111556344,-0.34932908,-1.1450152,-0.04331854,0.10865312,0.047510475,0.21752478,0.010532955,-0.05856029,-0.080160655,-0.077324025,-0.037159618,0.019574706,0.00821129,-0.057408247,-0.26311618,-0.0033707893,-9.397997e-05,-0.10340633,0.06993038,-0.06397722,-0.03842638,-0.05784537,-0.007370832,0.042131037,-0.073766746,0.03951087,0.059371352,0.1031651,-0.045068126,0.03393182,-0.08574575,-0.081763364,0.030608065,-0.016384616,0.0034376907,0.018141419,-0.058735218,-0.08467681,0.11410439,-0.04935249,-0.09277258,0.05184951,-0.028360628,-0.024260595,-0.21341054,0.053368866,-0.10325972,0.021562414,-0.017547958,-0.021709029,0.026435658,-0.10627722,-0.038668923,-0.048687123,-0.0046341796,0.06750759,-0.030017778,0.06083698,-0.081502855,0.06884112,0.025830783,0.091199614,-0.010292545,-0.08627782,0.00048063954,-0.084883325,-0.0013370276,-0.040229972,-0.033168294,-0.0177338,-0.17461891,-0.098938584,-0.038614515,-0.10184458,0.02306608,0.03492932,-0.24135317,-0.0508083,-0.07297037,-0.06888671,0.100610435,-0.07494054,0.11220145,-0.018419553,0.0059083416,-0.0030647607,-0.07835339,0.051375344,0.040641278,-0.08381601,0.027186234,0.004552459,0.049580198,-0.0082217045,-0.060853127,-0.18907954,-0.08313754,-0.058222923,0.19602357,-0.03179965,0.1691036,0.01955165,0.17015101,0.30828002,0.09891562,-0.116289414,0.02029837,0.33973408,0.11645845,-0.36688936,0.30539805,0.014301197,0.004563887,0.06332868,0.11523602,0.0062033115,0.48555252,-0.20777555,0.120853744,0.08575826,0.009323805,0.014104018,-0.018157903,-0.7720732,-0.012216814,-0.001189733,-0.008723761,-0.088783346,-0.04674194,0.027586533,-0.025716374,-0.31411815,0.0713135,0.0035996723,0.012623116,-0.119716965,-0.18599336,-0.017097093,-0.037445545,0.088755324,0.09159552,0.019597702,0.15086538,0.056089595,0.2251548,0.8275028,0.19862947,0.0068089305,0.02967331,-0.09229076,0.14575419,0.01972364,-0.15706444,0.36524382,-0.011732915,0.00036553378,-0.07670475,-0.017768955,0.025920251,-0.06588669,-0.27712125,0.6597554,0.07398254,-0.10412438,0.039821323,-0.0045260494,0.3259147,-0.07413049,0.23366965,0.09811783,-0.01545126,-0.036406796,-0.1729579,-0.022640254,0.11240752,-0.09526788,0.11106023,-0.02807108,0.028756192,0.007237985,0.08279144,-0.056082092,0.05154386,-0.05334666,-0.022226823,0.07220752,0.04356754,0.03284138,-0.11083908,-0.06510095,0.08241473,-0.06293923,0.0590775,-0.03146356,-0.059688773,-0.02861761,-0.07640416,0.014835855,0.06456635,-0.061245184,-0.023249876,0.030384123,-0.008742398,0.08275481,0.043838352,-0.08376613,-0.0014740005,-0.0033116266,0.017620953,0.026661666,0.012831542,-0.0071454206,0.07058141,0.054162636,0.0139165865,0.03844267,-0.11079503,0.022699833,-0.049101405,-0.03370223,-0.10975017,-0.045384325,0.0051029287,-0.0037847012,-0.07118576,0.02839505,-0.059242096,-0.011103466,-0.057471156,-0.06360084,-0.05421118,0.040802523,-0.037060194,-0.057019524,-0.07650693,0.06620985,-0.09879371,0.050484866,0.02069708,-0.11135635,-0.05994158,0.106373526,0.00038986237,0.029420756,0.020134367,0.05191429,-0.07078384,-0.10757173,-0.0064988188,0.08746119,-0.020670995,-0.03687504,-0.0714017,0.048324093,0.069189265,-0.035973955,-0.0047162087,-0.08832486,-0.09919308,-0.056879297,0.0024822874,0.0011758533,-0.089563064,-0.03287555,0.06981975,-0.0874634,-0.024385672,-0.0057803383,-0.085124955,0.023469353,0.04072292,0.053443633,-0.07427052,-0.012569548,-0.012660182,0.027340068,-0.042542595,0.005830814,0.10423445,0.0050742514,0.02722772,0.06452264,-0.08795992,-0.06566199,0.012431011,0.06281172,-0.059601083,-0.07609214,-0.036811322,0.017239999,-0.011487591,-0.106998205,-0.09049261,0.07723142,-0.08646807,-0.0024241358,0.06412923,-0.06614939,0.01975677,0.028295718,-0.004060552,-0.0049967687,-0.011819236,-0.105907604,-0.10856669,-0.008708329,0.0065291934,0.034117244,0.028859442,0.00086041854,-0.006015147,-0.015681805,0.0022769375,0.07715096,-0.03246939,0.019301997,-0.0035043722,0.093614504,-0.0812754,-0.04487922,-0.07368146,0.040708695,0.0050818473,-0.08504788,-0.055013973,-0.0158903,-0.017410092,-0.0031196102,0.035853945,0.03392286,-0.09420839,-0.07579282,0.05024695,0.036518674,0.11826009,-0.090473145,0.067950256,0.028851397,-0.036150463,0.03554804,0.111895196,0.006462481,-0.013585329,-0.41190496,-0.09770296,0.20139049,-0.10996708,0.24945234,-0.032416534,-0.07268687,-0.7042113,0.033584688,-0.20959249,-0.061038963,-0.4404985,-0.24014375,-0.37765065,0.16515413,-0.12866817,0.24917546,-0.1211514,-0.2669306,0.16907412,-0.17967065,0.041152637,0.22278371,-0.041193042,-0.07048236,0.39191815,0.012062473,-0.06541915,0.54869133,-0.01135732,-0.021608355,-0.7331125,0.23912962,-0.3951225,-0.32872435,-0.087266795,-0.21234803,-0.4089475,-0.34695882,-0.024102112,0.58922017,0.0029336105,-0.07835639,-0.11830769,-0.029289845,-0.07869656,-0.03668959,-0.027969293,-0.4765651,0.1765843,-0.027590409,0.097833894,-0.09589467,0.3025093,0.11489966,-0.017866228,-0.19638059,-0.085082054,0.035034616,0.10114981,0.018911198,0.3800903,-0.4773368,0.124657564,-0.023895847,-0.03800989,-0.059543066,0.004165074,-0.049713038,-0.3904843,0.13877742,-0.05582605,-0.11354054,-0.45680434,0.18051904,0.1259282,-0.08350722,-0.45811373,-0.41535074,-0.15543994,-0.2621885,0.3665123,0.43327874,-0.06087405,0.16613719,0.016870504,-0.21345888,-0.08169269,0.07629297,-0.095636725,0.008325409,-0.26448107,-0.1020685,-0.12727822,-0.027707804,0.08529957,-0.0015574296,-0.09868544,0.11702266,-0.02132379,0.3989721,0.04421205,0.37270704,0.09638692,0.032783255,0.015212856,0.39766875,-0.014521164,-0.049301196,0.25445285,0.44576183,-0.028743196,-0.10246594,-0.08721747,0.021409713,-0.007545845,-0.11011038,0.00013858979,0.015855068,-0.09039548,-0.09363435,-0.38308004,-0.13325842,-0.044483107,-0.8206788,-0.10871057,-0.046471197,-0.064145885,-0.047019064,-0.21492319,-0.30726543,-0.018257832,-0.08809496,0.51835674,0.0358702,0.3240278,-0.017420193,0.087366834,-0.032362435,-0.098734945,-0.0018097403,0.012839908,-0.12333042,-0.028230762,0.0024530755,0.15904042,-0.15534392,-0.5873954,0.03223248,-0.03643423,0.02887593,-0.0689653,0.073976114,0.010298964,0.9388684,-0.090123616,-0.06586006,-0.0040989527,-0.03716376,0.18855117,-0.11124935,-0.15688051,-0.10243279,0.019550825,-0.04701649,0.19820385,0.047599286,-0.017348263,-0.026967475,0.050894577,0.0041155266,-0.031965297,-0.03659175,-0.07097215,-0.027402248,0.026636899,-0.11575026,-0.058510378,0.12560703,-0.094843484,0.10001937,0.082745545,-0.114475206,-0.0001305273,-0.027099907,-0.0008701641,0.022953354,0.05523484,-0.096519984,-0.06013833,-0.05436254,0.05639133,0.00587995,0.04193543,-0.043921962,-0.0060371184,0.11278762,-0.035223167,-0.051105227,0.09193335,0.02043046,-0.06838615,0.009075495,-0.06300234,-0.02343068,0.0635815,-0.07194875,-0.060144976,0.045581862,0.07556872,-0.010049609,0.0535381,0.010921438,-0.01789449,-0.004999839,-0.035174683,0.019381264,-0.04608021,-0.06684985,-0.07644805,0.03952777,0.030993424,0.019920167,-0.023739312,0.016332619,0.041768666,-0.011482733,-0.008156445,-0.09607491,-0.0932152,-0.09223103,-0.041535337,0.10625095,0.0030653798,-0.11152556,0.022262199,0.0722108,0.022463024,-0.010508105,-0.041004024,-0.038365167,0.114370316,0.06307933,0.054599836,-0.11688739,-0.023213977,0.0066669956,0.10065428,0.007341251,0.11696848,-0.05870177,-0.08031121,-0.11763986,-0.0064534554,0.058958583,-0.041199896,-0.19428305,-0.063405454,-0.07283218,0.16442849,-0.048703454,-0.050321136,0.095903166,0.20623256,0.052730367,0.040131055,0.082973264,0.12305933,-0.08337385,0.09597031,-0.14448035,0.04880304,0.026622795,-0.08390229,-0.19511387,0.031444646,-0.114154436,-0.28617224,0.40333745,0.11482039,0.09741229,-0.08178839,-0.0070695346,-0.09507167,-0.25195524,0.07115884,0.011360426,-0.013565453,-0.04019498,0.22752824,0.25790766,-0.04094274,0.053578254,0.026498044,-0.079745576,0.059480384,-0.059258077,-0.070106275,-0.3191604,0.08610716,-0.16194066,-0.2831003,-0.13656095,-0.063111424,0.09229103,-0.01109134,0.29002815,-0.08178099,0.013252723,-0.00040760153,-0.08792137,0.016480502,-0.094720714,-0.1119898,-0.046605397,0.27132118,0.04427006,-0.13807254,0.017115893,-0.025630176,-0.07282203,-0.25847316,-0.22412409,-0.0075181574,-0.097182825,0.05450362,0.10410399,0.11723939,-0.009504918,-0.02183318,-0.38606977,0.04206114,0.008049488,0.04317944,0.003947605,0.11226516,0.007984925,-0.04671177,0.003105517,-0.01800596,0.074164845,-0.013207937,-0.09126735,-0.061895646,-0.040198784,-0.04255812,-0.07529936,-0.022087513,0.025517533,-0.05147101,-0.0431697,-0.059422832,-0.010494955,-0.052343648,0.05402893,0.09496254,0.10570022,0.026255993,-0.01397667,-0.0140988,-0.022659488,0.040027767,-0.062153067,-0.07134505,-0.100087136,-0.11837344,-0.03765193,0.036102775,-0.0076171057,-0.035361055,-0.017595941,-0.09222482,-0.014637892,-0.030269377,-0.038402315,0.12494261,-0.031273834,-0.055347227,-0.11139581,-0.016660746,-0.06370688,-0.11194887,0.03315781,0.004734863,0.029250154,-0.007332219,0.015998535,-0.073466145,0.041245244,0.04491034,0.08981752,0.0061906106,-0.076688014,0.08381075,0.100008555,-0.05353351,-0.023458133,-0.0052441815,0.11576354,-0.056695618,-0.1017472,-0.02461139,-0.12298187,-0.006557245,-0.023687623,-0.04570142,0.042493492,-0.022238232,-0.0609897,0.03804975,0.032787822,-0.0065367776,0.05701725,-0.019068707,0.0025163963,-0.01691339,-0.054147497,0.084303856,0.009352536,0.0056477934,0.040526018,-0.042176075,-0.11194293,-0.09385636,-0.0004341479,-0.0073497714,-0.06758434,-0.030581154,-0.0057490016,-0.10715405,-0.08399913,0.0842638,0.028570222,-0.10434634,-0.017637096,0.034856748,-0.022604808,0.0037302831,0.008545452,0.016830003,-0.023904447,-0.11819115,0.107495144,-0.05271883,-0.093085505,-0.07197924,0.28065616,-0.026680185,0.034818854,-0.06947329,-0.04911789,0.009550342,-0.056251287,-0.03249885,-0.0071663763,-0.012411974,0.005526019,0.0441868,0.03703352,-0.05442622,0.027496828,-0.05319624,-0.05756065,0.030716203,-0.097655706,-0.11232779,-0.04244277,-0.041342046,-0.0074502956,0.01708492,-0.0017422051,-0.026015054,0.041707244,0.06883215,0.10629989,-0.04010003,-0.052572634,0.013675787,0.01407557,-0.10141541,-0.0062758545,-0.03873757,0.13111293,-0.1859783,0.02514658,-0.026930233,-0.1288975,-0.0007638099,-0.0663027,0.23975778,-0.017968776,-0.008069352,-0.041081257,0.022277372,-0.032041732,0.020785023,0.06350174,-0.01290146,-0.1451094,-0.01119392,-0.018353995,-0.039602965,-0.0053804656,0.0362834,0.0380464,-0.039282244,-0.04433095,0.10224322,0.09825857,-0.043391306,-0.107764326,-0.06456104,-0.036202062,-0.06327352,-0.05819144,0.04068547,0.00901149,0.01609839,0.050701372,-0.04928004,-0.07230683,-0.06149847,0.10096604,0.07668334,0.11206965,0.01581246,0.038621437,-0.033832714,-0.06740973,-0.0042696074,-0.070091516,-0.080772415,-0.079924315,-0.114419125,-0.0391917,0.09874049,-0.08189061,-0.061345756,0.012077586,-0.016302424,-0.024789935,-0.014233958,0.07373673,0.034563642,-0.0035764053,-0.08796923,-0.09603705,0.04711339,-0.10803501,0.0073322854,0.063991785,0.047241714,0.06438202,0.0010224655,0.06379187,-0.011382567,-0.008787002,-0.0047244728,0.08781043,0.011563733,-0.05244934,0.07984822,0.03511801,0.09326918,-0.018415207,-0.11228273,0.11933483,0.032839738,-0.076253116,-0.0024170016,-0.051654346,-0.098831385,0.07507837,-0.05647225,-0.07408186,-0.034879386,0.073955685,0.029523466,0.029598285,0.032967314,0.0699113,0.113643564,-0.070369385,0.009550583,-0.06370384,0.021821257,-0.02800447,0.04453854,-0.1035985,-0.026474483,-0.070505425,-0.11325902,0.009698197,-0.07009161,-0.117220365,-0.058733176,-0.07524248,-0.049144685,-0.03491472,0.0129556935,0.1643941,-0.05519403,0.0011947264,0.077304915,-0.028243093,-0.040303666,0.15123057,0.077561766,0.082482524,-0.09643634,0.01237498,-0.10136392,-0.1028797,0.008310132,0.31267232,-0.08857153,-0.08791537,0.022997553,-0.09969242,0.00014299736,-0.10708443,-0.009307569,0.06460718,-0.12603107,-0.096495874,-0.1606012,-0.010823697,-0.011681015,0.06444352,-0.033780135,-0.071878135,0.06203845,-0.08438441,-0.04686824,-0.3604309,0.085944705,-0.008780421,-0.07074866,0.01490246,-0.0038267628,0.0902916,0.042649195,0.09764748,-0.11028702,-0.11212686,0.016986592,-0.056028496,-0.09508962,-0.064748384,-0.12179113,0.12365014,-0.08674203,0.034646317,-0.022082247,-0.07389477,-0.07306468,-0.039449688,0.22844699,-0.0620347,-0.11684729,-0.10515542,0.07254776,-0.03590467,0.119334385,0.060471248,0.040328894,0.113655016,0.022565307,-0.004080415,-0.1490953,-0.046049327,0.07481031,-0.90431553,-0.013608468,0.3278392,-0.04167354,-0.19310945,-0.07340906,0.018081687,-0.8434793,-0.12556711,0.22202674,0.12134035,-0.5733277,0.034047663,-0.37824535,-0.11427311,-0.03773863,-0.14910194,0.036465198,0.30193675,0.1059819,0.10876033,-0.06862488,-0.52254385,0.0032347792,-0.03310125,0.5165451,0.4038776,0.08126089,0.31762546,-0.094329745,-0.05887729,-0.8977716,0.73189473,-0.07893073,-0.03918601,-0.1266751,-0.33189562,-0.04470189,-0.59562886,-0.0928727,0.39173943,0.035347033,-0.06280253,-0.060317375,-0.015941491,-0.5933466,-0.46108705,-0.119287655,-0.11642308,0.1032689,-0.24208987,0.29262435,0.0062417425,0.4861052,0.69778526,0.06893275,-0.21196784,-0.7530232,0.009590581,4.155576e-05,-0.00019673209,0.6317194,-1.5846955,-0.7137194,-0.0416527,0.044065528,0.0012010465,0.116282776,-0.046091925,-1.1205783,0.39204907,-0.021450993,-0.07511255,-0.35234925,0.6815393,0.68894094,-0.09458383,-0.034593515,-0.5122192,-0.039928693,-0.14369248,0.58365214,0.5383649,-0.11228145,0.04165464,-0.02585649,-0.08191713,0.0247657,0.07573391,-0.0048296633,-0.0425922,0.0027846098,0.06293779,-0.011161642,-0.043054916,0.00062561076,-0.07711612,-0.08467638,-0.07858391,-0.095812984,-0.00023041436,-0.015056434,0.12992056,0.050680198,0.115269266,-0.031834662,0.04940407,-0.01565404,0.024601823,0.031128384,-0.059661254,-0.04719799,0.03525528,-0.11254442,0.08256456,0.0096101565,-0.0050340635,-0.08389494,0.081306614,0.023253636,-0.016289266,0.04686939,0.02446144,0.0030740798,0.061650455,-0.124833524,-0.092510626,0.016276084,0.015856028,0.09088976,-0.069490075,0.1067103,0.12235002,0.10066114,0.044367027,0.09092355,0.11139705,-0.1183507,0.090166524,-0.003146058,-0.083837554,0.0013037345,0.040041644,-0.033447832,-0.05175728,-0.0015307739,0.11410722,-0.048518956,-0.060634904,-0.11735479,-0.042414434,-0.11431789,0.01380939,-0.07152194,-0.03883913,0.01996513,-0.04369068,0.0022716862,-0.03896625,0.004022009,-0.008591272,0.051142618,-0.016892564,0.0043484983,-0.016350456,-0.026023356,0.08940082,0.1264802,-0.31014025,0.0019825662,0.0030670273,0.04145409,-0.060896847,0.08601853,-0.014971431,0.047202937,-0.005185879,-0.0143569615,-0.019148173,0.1054453,-0.2889223,-0.002801083,-0.04870792,-0.003355929,-0.20558345,0.065045655,0.24813947,0.022992764,-0.044084065,0.0796226,-0.08356758,-0.00019097752,-0.04032801,0.11778226,-0.0231726,0.015789723,-0.13190539,0.01991354,0.067371845,0.11019981,-0.117126554,0.2638387,-0.031733602,0.0700285,0.37657,0.1819743,-0.16371915,-0.03627264,0.022211598,0.049095847,-0.07040831,-0.03537126,0.07185021,-0.07175836,0.2497032,-0.055477943,-0.19419715,0.39106023,-0.07963914,-0.164768,-0.018314447,0.18184175,-0.008642733,0.19910242,-0.09373818,0.012593416,0.062147126,-0.16952316,-0.053474277,0.2925944,-0.109875135,-0.022518918,-0.11962785,0.022788892,-0.008485086,0.05404454,0.024146408,0.1280952,0.01938949,0.06629045,-0.05055245,-0.046196748,-0.10725408,0.12392233,0.009542485,0.011084313,-0.09575387,0.010653995,-0.01860907,0.23238353,-0.11031173,-0.0096502565,-0.028802829,0.099537425,-0.12591763,0.0029786858,-0.10431979,-0.04930532,-0.059570517,-0.012606755,-0.10782008,-0.100700974,0.08449572,-0.0196199,0.11131069,0.066240296,0.003173032,-0.005808353,0.062672526,0.049133673,0.050027743,0.033872068,-0.06400557,0.015029741,-0.10602155,0.016970642,-0.020252228,0.03479658,0.06535716,-0.009298467,-0.021020297,0.044255316,-0.07312098,0.008085854,0.011146791,0.0010657964,0.081492305,0.0036644936,-0.023023596,0.036923304,-0.0653859,-0.10582379,-0.06466633,0.08188985,0.051183805,0.04225661,-0.07881932,0.020366436,0.0075076455,-0.1036325,0.00011307746,0.05065885,-0.05920691,-0.05706715,-0.022996467,-0.060821455,-0.02823864,0.064252466,0.095754676,0.048676886,-0.053623516,-0.026793564,-0.046687633,-0.03321628,0.006040007,0.048320226,-0.013883459,0.03457026,-0.03339273,0.10763908,0.051301852,-0.008211784,0.05084981,0.012002252,-0.03143526,-0.015248557,0.077153884,0.070964366,-0.03799708,0.0058181062,-0.036818456,0.023199905,0.055720553,0.12091089,-0.078638576,-0.11274582,0.0034537208,-0.0772209,-0.112996794,-0.09581202,-0.057063226,-0.012653744,-0.10588087,0.022429205,-0.074227706,-0.0050686826,-0.04964396,0.11805402,0.028250007,0.007912756,-0.043281697,0.088569984,0.030327702,-0.038632315,-0.021541823,0.030579168,0.09943948,0.010502137,0.08005118,-0.07930682,-0.028660972,-0.010235235,-0.11912124,-0.053440724,-0.043973103,-0.019307591,-0.050778735,0.0051742927,-0.03198279,-0.104784116,0.037448287,-0.115990445,-0.0334524,0.09554857,0.045559675,-0.003800825,0.103872724,0.036487855,-0.11551873,-0.028331634,-0.063537925,-0.09429168,0.015545454,-0.12626639,0.04629904,0.008006319,0.115069166,-0.03450059,-0.0019897886,0.10182023,0.11409536,-0.018372474,0.010141045,0.11863839,-0.010631454,-0.12750342,-0.06666984,0.0014951777,0.04556964,0.04289692,0.0026246987,0.031220255,-0.07083591,-0.019577226,-0.01349863,-0.14485669,-0.04748684,-0.057237998,-0.09091028,0.0022506677,0.0145676285,-0.021635495,-0.042455073,0.066423856,-0.02247253,-0.012711623,0.05605425,0.012689213,0.0054913815,-0.017886395,-0.063439064,0.073264316,0.0047021583,-0.0059506446,-0.0035742745,-0.056480218,-0.0058149695,0.049903564,-0.059739243,0.043921083,-0.060292862,-0.015021637,0.012139559,0.06885646,0.003271237,-0.0656298,0.033764444,0.033535995,0.02251158,0.03084343,0.058916613,-0.056329664,0.07215941,-0.020713553,-0.07078264,-0.0062922165,0.02115035,-0.07305766,0.06967363,-0.02819499,0.03270988,0.024243392,0.0126016885,0.043620467,0.070299745,0.016025648,-0.03577787,-0.037865024,0.063402936,-0.009671122,0.025004447,-0.015011501,0.0107710585,-0.06921805,0.023717843,0.049483612,0.05578251,-0.061911777,0.056508243,0.029103987,0.044721298,-0.05330881,-0.032454357,-0.019949079,0.029877715,-0.004433088,-0.036221545,0.0054311305,-0.02800487,-0.06470173,0.008418232,-0.07183379,-0.07395963,0.05410053,-0.012345463,0.060236767,-0.0584272,-0.03268997,0.01890982,0.023858584,-0.0069841444,-0.0027165562,-0.052984808,0.025044858,0.04926055,0.03288313,0.052367568,-0.035454728,0.06370713,-0.043690395,-0.053041812,0.061306775,-0.06347712,-0.07288531,-0.05783678,0.04375455,-0.09577841,-0.044045612,0.10610455,-0.0050374153,-0.07903845,-0.021801123,-0.09804182,-0.032365404,0.059888992,0.008302283,0.054243032,0.08501617,0.027842933,0.1053723,0.06721012,0.017036011,-0.026756996,-0.01428306,0.010688591,-0.0696114,0.04819335,0.005549753,-0.08004715,-0.018905252,0.46803308,0.07735559,0.042520244,-0.084454276,-0.030477544,0.08397811,-0.2105868,0.008752473,0.04986736,-0.082970314,-0.06423847,-0.07467875,0.061688215,-0.1093309,-0.33679017,0.05720764,-0.06331643,0.0014633834,0.008212179,-0.020982489,-0.11651686,-0.04071753,0.035827164,0.24519648,0.0990384,-0.08910949,0.053326257,0.3261689,-0.11556022,-0.07950231,0.10922992,0.018974658,-0.058901265,0.013503359,0.0035323347,-0.08390392,-0.084722504,-0.059895594,0.059975527,-0.022730285,-0.13422649,0.047017433,-0.055368517,0.29103512,0.58453715,-0.07128832,-0.070068516,0.035881087,0.09631507,0.37313005,-0.12392281,-0.006491299,-0.574531,-0.056697514,-0.022117764,0.14139251,-0.018989902,-0.07163094,0.2116381,-0.0082685,-0.09588989,-0.03344446,0.089178056,-0.004053208,-0.035111703,-0.2420312,-0.103484355,-0.010185241,-0.066068694,0.095573775,0.3023617,0.023313912,0.3276555,0.035026032,0.5254844,0.11646645,0.94224083,0.06226807,0.053208217,0.016636357,0.31490877,0.0033115922,-0.057205893,-0.11479358,0.5474778,-0.053184696,-0.16095412,0.017835218,-0.094186746,-0.1349573,-0.18668717,-0.49929464,0.08979648,-0.012679233,-0.060732577,-1.2873957,-0.5219867,0.020789763,-0.8951863,-0.0679267,-0.061947532,-0.046447545,-0.09420057,-0.5979227,-0.36021158,-0.06789454,-0.37492877,1.5267009,0.077509865,0.17549047,-0.02019827,0.04531724,0.0739015,0.44059703,-0.08539998,-0.08362379,-0.052726466,-0.3378797,-0.09198208,0.059842974,-0.32076803,-0.5347342,-0.100613095,0.060826827,-0.048066072,-0.013540596,-0.0054316,-0.11620408,0.60663,-0.055180702,-0.093535006,0.019925663,0.02668152,0.8915837,-0.06696136,-0.1455496,-0.22000961,-0.07634149,0.0007119775,1.2307445,0.19066654,0.027566414,0.008366765,0.0031705343,0.019668762,-0.077603206,-0.022439517,-0.08654178,-0.10516129,-0.07109384,-0.017149422,-0.008706023,-0.1032723,0.036197238,0.08853695,-0.07490398,-0.09395135,0.048879497,0.069748156,-0.06651407,0.1093192,0.07860873,0.097327285,-0.0992149,0.06429728,-0.063856564,-0.011111832,-0.056320157,-0.023064215,-0.07353506,-0.016543372,-0.051984955,-0.024693096,0.11009622,-0.0932579,-0.02414675,0.095454216,0.016472261,-0.07974914,-0.029586222,-0.04254432,-0.038997907,-0.014411099,0.018593464,0.0038410118,-0.027437158,0.0019331858,-0.11243019,-0.09712587,0.039992444,0.034091674,0.01700475,-0.0104840305,-0.07936161,0.054224808,0.034356095,0.027004983,0.01658754,-0.025240261,-0.010691578,-0.108995415,-0.029039364,-0.09653262,-0.0059453137,0.0721464,0.07025275,-0.024353208,-0.04610419,0.008250634,0.014607108,0.032117963,-0.07324783,0.05687952,-0.041734952,-0.05277829,0.08009334,-0.005262953,0.0090348795,-0.072073065,0.07411049,0.037667707,-0.082254134,0.04265219,-0.12253857,-0.04944959,0.12904404,-0.07931952,0.08080182,-0.006162005,-0.06664944,-0.12265509,-0.057040438,-0.06471347,-0.06229198,-0.08341467,-0.07862655,0.012739245,0.21084833,0.18468148,0.04807945,0.008855393,0.04508892,-0.1098726,0.07960255,0.19552463,0.037242763,-0.10535804,0.012240333,-0.0041391035,0.049467463,0.029937351,0.11510735,-0.21880166,0.040066075,0.10006602,-0.02325198,-0.0013497677,-0.005505729,-0.40898302,-0.18630357,0.09051065,-0.02221392,-0.15276082,-0.25118777,-0.22829616,-0.0042448007,-0.37245712,0.031114435,0.06262243,0.060806572,-0.07340352,-0.32366323,-0.394471,0.013446811,-0.23692167,0.40874982,0.023678653,-0.12200139,0.07683633,-0.38523126,0.35908446,0.5066305,0.030642364,-0.17447866,-0.123888515,-0.19701746,-0.08663502,-0.18511954,0.5033923,0.27704403,0.06627183,-0.07617718,-0.09740508,0.12411315,-0.008826137,-0.29897028,0.48198262,-0.050786562,0.017696675,0.08231747,0.083778284,0.47473672,-0.020166142,-0.34545997,0.05381119,0.034083266,-0.005776517,0.013010705,-0.072626814,-0.00041728196,-0.03674811,0.0046529705,-0.07539706,0.08677771,-0.119870655,-0.012915413,0.059358522,-0.06436308,0.030371202,-0.0047651255,0.038644634,-0.018659953,0.05440182,0.003058622,-0.0025594826,0.014142319,-0.043976337,-0.0064198757,-0.030740947,-0.004780583,0.048107117,-0.12802175,0.00015649827,0.0020245605,0.04220956,-0.020532634,-0.01726507,0.09780599,-0.0009930728,0.03053505,-0.017943116,0.0015096143,-0.049805686,-0.016083732,0.101054944,-0.0426547,-0.044130478,0.049375728,-0.07078534,0.009119405,0.047207683,-0.09465297,-0.0053038,-0.014844727,-0.091219366,-0.11560156,0.0026102022,0.019798774,0.04269038,0.05482,-0.07017128,-0.102618545,0.04474867,0.016204126,0.049556643,0.059836373,0.094481856,-0.072389126,-0.06969074,-0.005078819,-0.030011293,0.009785103,-0.04847484,-0.05608642,0.1173275,0.03367993,0.021527285,0.0014116012,0.054590687,0.025281116,0.04943724,0.05882816,0.020315694,0.028236449,0.07962216,-0.05489357,-0.068886146,0.07183309,-0.01007206,0.116869465,0.046748832,0.005488556,-0.020069303,-0.011030822,0.012496345,-0.09711351,-0.0008574874,-0.09564509,0.06803256,-0.09778195,-0.002151068,-0.04741791,-0.1048396,-0.050094947,0.021607164,0.0056362534,0.061219502,0.015546745,0.0203816,-0.084002666,0.04812466,-0.03141088,0.13166183,0.0064765285,0.031381655,-0.014132715,0.023111379,-0.07964452,-0.0336743,0.051543236,0.0432008,-0.06592462,0.0008596203,-0.03140634,0.007812647,0.06795123,0.0062247864,-0.01635228,0.03863576,-0.10142102,-0.03263062,-0.06939442,0.025704212,-0.096174575,0.028512478,-0.07954607,-0.04357913,-0.06426496,-0.04000816,-0.029947117,-0.018664163,0.09296896,0.02506886,-0.0522544,0.013508514,-0.03810464,0.07998242,-0.012899566,0.06388979,-0.02837799,-0.08675006,0.043287084,-0.020918384,-0.032385327,-0.07692669,0.017513288,0.01384364,-0.0030571818,-0.06842249,-0.07972648,-0.030447446,-0.036132302,-0.014910113,0.06398097,-0.070378214,-0.046272516,-0.021820227,0.0097495625,-0.074967965,-0.019882191,0.005733796,0.055362023,-0.048347585,-0.073084466,-0.03952388,0.019044476,-0.054697134,-0.026374677,-0.19037466,-0.09778746,0.08309535,0.010641761,0.4568093,0.02542659,-0.11343021,-0.4398794,0.07322775,-0.08779794,-0.22494672,-0.59772444,-0.03651511,-0.3489719,-0.16604842,-0.17307761,0.088432394,-0.032097477,0.03721364,-0.01905301,-0.2321435,-0.005889389,0.31008977,0.0010339948,-0.12500441,0.29889494,-0.4286287,-0.08187407,0.076122075,-0.08927596,-0.04974467,-1.4572331,0.11310999,-0.48972997,-0.04730672,0.09371131,0.021919673,-0.23424654,0.059191868,-0.09048644,0.2584986,-0.07756503,-0.01370313,-0.16292955,-0.07679192,0.06537194,0.12253651,-0.14245471,-0.6679004,-0.07544227,-0.07431109,0.128458,-0.20350428,0.56689996,-0.16078712,-0.43309322,-0.21394567,0.01919292,-0.24115543,0.09166799,-0.0115519175,0.07820814,-0.8325752,-0.042015333,-0.06782813,-0.044918556,-0.057823554,-0.087575756,-0.14206046,-0.47801986,0.094073005,-0.12187806,0.01666306,-0.49171174,-0.29306266,0.27101257,-0.03674691,-0.85205644,0.11940682,-0.20364334,-0.18596509,0.27126288,0.23627834,-0.030028814,0.023872085,-0.08323739,0.33839262,-0.042007145,-0.11440955,-0.10013466,-0.046045892,-0.36724764,-0.11998557,-0.23009361,0.032636397,0.020673355,0.14003263,-0.017630154,0.58727956,0.0016712938,-0.37601689,-0.04700158,-0.15277271,0.0895826,0.050446186,-0.090059616,0.19805877,0.023196414,-0.07972749,-0.049237277,0.84272677,0.027380269,-0.089381635,-0.023423485,-0.0498533,0.029220872,0.10266152,0.06279098,0.009238687,-0.026687186,-0.013668767,-0.596676,-0.22719923,-0.095169574,-1.1627777,0.010761539,-0.024657369,-0.037383284,-0.11498036,-0.31178513,-1.023849,-0.068597,0.07810599,0.89350826,-0.016201444,-0.031541213,0.02460359,-0.17903447,-0.13170855,0.3355132,-0.024082541,0.12837277,-0.07243186,0.13740526,-0.08228036,-0.15525018,0.04812151,-0.006829789,-0.13440248,-0.13074261,0.005691696,-0.036224812,0.062168375,-0.33224285,-0.10698873,0.008093583,-0.045255136,0.07000739,-0.08693478,0.8804871,-0.06399663,0.040477797,0.059650682,-0.024891421,0.061360598,0.7868155,-0.0101646995,0.044140078,0.017154869,0.086899124,0.014080228,0.008325903,-0.13171874,-0.020555118,-0.072603084,-0.045014452,-0.061771795,-0.01896666,0.030618893,0.022230303,0.09729787,0.08994518,-0.01260099,0.06131378,0.0061788857,-0.021978883,0.010245046,0.082941614,-0.013354755,-0.042689133,-0.033031426,-0.026410826,0.007642371,0.033764325,-0.0030989498,0.027971404,0.11314621,-0.052917622,0.020184278,0.109584816,-0.05371798,-0.029823499,0.114490464,-0.07310338,-0.095604636,-0.00067894906,-0.04501968,-0.114848755,0.0609487,-0.03160891,-0.065664105,0.061606243,-0.103021115,-0.101512685,-0.08794193,0.031577017,-0.021051805,0.049408667,-0.10507631,-0.004464777,-0.00047817428,-0.03481198,0.024177233,-0.116295345,0.030866588,0.061016504,-0.09230825,0.0010632998,-0.09789644,-0.080763996,-0.028821444,0.022532612,0.12530607,-0.12522621,-0.033204447,-0.07494426,0.024001978,-0.03777527,-0.03298413,0.039417855,-0.04786728,0.08959121,0.10582464,0.069587246,-0.01829797,0.020591022,-0.046485484,0.10028478,0.013494529,-0.044586502,-0.04470079,0.0975615,-0.06511725,0.022806117,-0.044028472,-0.12160006,-0.091839574,-0.12484443,-0.019921418,0.023852162,-0.00019804138,-0.09840557,-0.0069448124,0.11033592,0.032974128,-0.082767606,-0.027365578,0.054733757,0.05312881,0.078417905,0.05406241,0.12180853,0.046227943,-0.104263686,-0.024655329,-0.027330244,-0.10210177,0.009822518,0.05983442,0.078514315,0.030598253,-0.07533749,-0.077970296,-0.0042249206,0.046899255,0.013260723,0.123132505,-0.07109283,-0.019645577,0.023969695,-0.011988945,-0.1065639,0.008362949,-0.0024984584,-0.028194068,-0.046785712,-0.028739395,-0.023571404,-0.015717732,-0.10761797,0.10921206,0.00034455955,-0.102401055,-0.11396861,0.068801254,-0.04446155,0.005362091,-0.09315241,-0.006516163,0.095870934,-0.09918391,-0.045847178,0.016085554,-0.045773108,0.08870933,-0.065597095,-0.019289281,-0.004891114,-0.11177318,0.053706326,-0.045981295,-0.0543567,-0.02257055,0.0660478,-0.03440796,-0.0056783045,-0.012246978,0.044889517,0.10903414,0.01247329,0.06624313,-0.04659737,0.004461251,0.116376504,-0.10068789,0.03835559,-0.016062038,-0.03359128,-0.038032323,-0.010418914,0.032774087,0.062382802,-0.073365875,-0.008277491,0.04977639,-0.105087735,-0.11760674,-0.025226463,-0.009512111,-0.08957384,-0.07797036,-0.100501716,0.056014817,0.012938866,0.08065115,0.044394616,0.09215604,-0.016131373,0.04720027,-0.029991731,-0.108567625,0.028467543,0.017764635,-0.13078222,-0.006257015,-0.009949612,0.0063969,0.052598253,-0.07268553,-0.091768175,0.051559474,0.042949095,0.00073781185,0.037382215,0.012606166,0.07839909,0.097215764,-0.018936252,-0.077047676,0.03515441,-0.008736385,-0.08816534,-0.016942695,0.05042533,-0.007989874,-0.038104154,-0.035320934,0.0048354906,-0.021760555,0.005139506,0.071551755,-0.033428635,-0.06586448,0.10272731,-0.035014078,-0.029475128,-0.11839172,0.0895932,0.004231633,-0.06606149,-0.08800158,-0.027272297,-0.12345682,-0.021775406,-0.03499234,-0.07687676,0.017991602,-0.1186467,0.021516869,0.039665658,-0.06700589,0.06167321,0.09012552,0.08240991,-0.024554078,-0.11660796,-0.05031723,0.13669303,0.001796065,-0.0014833468,0.034251627,-0.011186627,0.011024219,0.10914804,0.060625095,-0.06678967,-0.006411204,0.031278454,-0.004236476,-0.13283956,0.021176657,0.062464666,0.10835667,-0.12153025,-0.022586258,0.0063895443,0.05844423,0.011880505,0.1429798,0.047859628,0.10049519,-0.06617409,-0.009185474,-0.06675679,-0.05992349,0.002672568,-0.03690703,-0.0081520155,0.0075301193,-0.0126829855,-0.122764386,0.0067508146,-0.050857987,-0.062212132,-0.055586208,0.07342914,-0.1003192,0.027140602,0.006848052,-0.062046457,0.11836147,-0.098038055,-0.0110233,-0.07047466,-0.04757952,-0.09081441,-0.023682712,-0.09074243,0.10173598,-0.05768771,-0.03702303,0.008310836,0.0139582325,-0.021800146,0.06465908,-0.062670864,-0.099002115,0.12369792,0.10928571,-0.10751941,-0.034091,-0.119581185,0.103326604,0.02383802,0.011171892,-0.11957227,-0.09030621,0.018046215,-0.04530734,0.033515424,-0.060126107,-0.020189755,-0.033387084,-0.016475067,0.013806174,0.009937611,0.09399251,0.024579292,0.066658586,-0.0087238755,-0.055930823,0.07241619,-0.017199466,0.09394341,-0.08546268,-0.006692667,-0.0124226,0.0031731054,0.01223928,-0.07643275,-0.016837956,-0.028517097,-0.08969416,-0.09594356,-0.101196796,0.060269263,-0.041413657,-0.1175948,-0.07337509,-0.07614964,-0.038720984,-0.12575792,0.03980726,0.056823127,0.09227083,0.009551942,0.0328778,0.024694664,-0.0005878936,0.02169595,-0.06527021,-0.09465402,-0.049828712,-0.042170353,0.07610535,-0.005751269,-0.042893365,-0.013058793,0.033246588,0.078247294,0.073392175,0.010173559,0.003743738,-0.012621287,-0.06841774,-0.08956432,-0.03109807,0.04614547,-0.034388565,-0.11900889,-0.07447804,0.083673246,0.07046554,-0.061454426,0.09672828,-0.0347705,0.07982769,0.046084724,0.116495885,-0.06056728,-0.09538133,0.030853976,-0.08382076,-0.013318337,-0.055939455,-0.0352365,0.094064176,0.062199444,-0.036073368,-0.036882672,-0.0652773,-0.09879846,0.051008552,-0.026123002,0.051236674,0.04113225,-0.036242213,0.03247559,-0.09332919,-0.0140529685,0.04829444,0.08981837,-0.054488584,-0.11813056,0.014097422,-0.012678478,-0.105918735,0.085091285,-0.052539364,-0.017629696,-0.07820761,0.020579215,0.028929483,-0.09245025,-0.07180155,0.027152024,-0.06176312,-0.077987954,-0.082917854,0.09447013,0.12853725,-0.046349373,-0.08659186,0.02400453,0.016751857,-0.08901529,0.059601057,0.04112686,0.055857502,-0.04661187,0.054898415,-0.08413246,-0.12082354,0.009454399,-0.019843824,0.02876967,-0.07363057,-0.081921786,-0.10605612,0.06310017,-0.123103596,-0.0056779664,0.04599598,-0.121884435,-0.11097979,0.04245448,0.027739376,-0.05532749,-0.0025409774,-0.020721842,-0.12473442,0.050827295,-0.08557923,-0.123779714,-0.12628385,-0.109612204,0.04147563,-0.062032886,0.03240458,-0.05977288,0.06084437,0.029154371,0.09455231,-0.09246941,0.031325642,0.11092565,0.00022699876,-0.09104561,-0.1112283,-0.11864838,0.026896216,-0.087599926,0.022686608,-0.046693902,-0.094414815,0.03199661,-0.017026465,0.06354678,-0.058774695,-0.06646123,-0.11983691,-0.0062334184,-0.044727802,-0.012051434,0.06899226,0.0022688878,-0.01791915,-0.031936657,0.010775104,-0.02764251,0.017648805,0.14883511,-0.9929505,0.076702885,0.55852,-0.08897536,0.073890015,0.0010027261,0.042108238,-0.33086434,-0.04980144,0.06157926,0.109520145,0.043397028,-0.09878826,-0.36545187,-0.59106517,-0.17852792,0.5554507,0.06598556,-0.2815907,0.46562827,0.021985823,-0.0592287,0.34825522,-0.0005941766,0.022931112,0.43261117,1.0191586,0.08853178,-0.7003712,0.05314988,-0.09185628,-0.7495556,-0.4372957,-0.1370051,-0.122191526,-0.06014326,-0.49766484,0.31459898,-0.7440174,-0.09833856,-0.32440346,0.083688274,-0.11648082,-0.07265135,-0.041732617,-0.43494567,0.24554928,0.8403677,-0.07580973,0.51069516,0.8057555,0.18515971,-0.3645811,-0.063532546,0.38320142,0.97294945,-0.11861818,-0.48967734,-0.051875442,-0.33453083,0.031143839,-0.19544733,-0.82167685,-0.3092279,-0.011973088,-0.013322115,-0.13974853,0.093271635,-0.25804773,-1.0690551,0.42692405,-0.028292138,-0.08302704,-0.059641626,0.19758883,-0.00972503,-0.027020115,-0.30246338,0.089367,0.21197754,-0.47353268,0.5772763,0.048145223,-0.06885007,0.054434635,-0.11817433,-0.112980224,0.02200728,-0.038570154,0.019322053,-0.023363354,0.03293015,-0.0056461645,-0.053749558,-0.059292715,0.12021025,-0.10706917,-0.06529031,-0.08861342,-0.06995541,0.033265173,0.005374081,0.03354344,0.056749534,0.09460035,0.08241034,-0.021427039,-0.12333453,-0.004574044,-0.06867166,0.006239794,-0.0034221695,-0.08591734,-0.02228585,0.00010600415,0.0071010287,-0.119343415,0.010909936,0.0897749,-0.0220446,0.06397324,0.073913544,0.056635052,-0.09395028,-0.0146679655,-0.10147404,-0.059493657,0.003074959,0.080897436,0.019976549,-0.026568953,0.014817333,0.013222408,-0.09547405,0.08347648,-0.042920638,0.03372821,0.02530798,0.03515554,-0.11553873,-0.05303424,-0.009898926,0.019099852,-0.07460695,-0.005704342,-0.015559267,0.07025922,-0.052227423,-0.10597048,-0.08643171,-0.0669184,-0.048246462,-0.0014661029,0.010809414,0.060955703,-0.036722444,-0.013480101,-0.027020738,-0.09338948,0.06608918,-0.008149371,-0.015484125,0.050127983,-0.010459149,0.020089962,-0.028744781,0.068611845,0.0971842,-0.31697217,-0.0710296,-0.051014878,-0.07181277,-0.09438539,-0.024457648,-0.03521643,0.009062989,0.0063156486,0.14548808,-0.07032935,0.2796101,-0.18164657,0.031001836,-0.008513649,-0.024938222,-0.24488673,-0.06390585,0.14775962,0.021324161,0.040727787,-0.0690982,-0.1408697,0.0079673305,0.015714854,0.10165229,0.121705905,-0.024225093,-0.031542085,-0.041040134,-0.052247353,0.1430131,-0.174134,0.21943295,-0.009135731,-0.0014215261,0.4693161,0.11143619,-0.33134142,0.044045717,0.12292906,-0.058228057,0.007573284,0.03596051,-0.035195943,-0.14119603,0.12972154,-0.054295793,-0.038911145,0.24434967,-0.0066599883,-0.11540456,-0.07112947,0.10349102,0.011244975,0.290222,0.00710018,0.24724622,-0.059949897,-0.3137505,0.020440213,-0.16789648,-0.044078216,0.01888558,0.07419491,0.018031172,-0.048591718,0.013444655,-0.01712336,0.13350567,-0.006336014,-0.046439826,0.019550957,-0.2419955,0.038515843,0.15358925,-0.07133615,-0.07793409,-0.115280375,0.061796427,0.06180109,0.13364846,-0.07820296,0.060430255,-0.06838545,0.011599358,-0.04906678,-0.08645315,0.114832304,-0.0068661775,0.06409021,0.06643762,-0.09528617,-0.068467796,0.052220996,-0.01084771,0.057546675,0.05890111,-0.024107557,0.12256967,0.01970908,0.11326328,0.07140976,-0.05586275,-0.073935375,-0.08649797,0.06692427,0.030873435,0.014820717,-0.058295302,-0.008274041,0.0058007506,-0.0094058765,-0.07263375,-0.07899201,0.06708193,-0.03767544,-0.054242447,0.11660834,-0.017045723,-0.11472535,0.03223016,-0.04582562,-0.10635122,0.05640611,0.042405453,0.04070569,-0.020189885,-0.093035795,-0.05079433,-0.021420373,-0.013077746,-0.041709647,-0.04566989,0.050834417,0.0016161649,0.03522955,-0.017195746,0.038880005,-0.05127616,0.006355906,-0.025908444,-0.031128222,0.0032369404,-0.02993542,-0.10108163,-0.034128718,0.01596348,0.0020277184,0.1166373,-0.00058240583,-0.0150186345,-0.055628285,-0.06473666,0.065521955,0.011474088,-0.030571617,-0.007429899,-0.013207747,0.030697264,-0.12634598,-0.037093192,-0.07401567,-0.012163787,0.003289871,0.011198434,-0.08836831,-0.07730282,-0.004270666,0.058993585,-0.12692598,-0.020390878,-0.03058186,-0.055494204,-0.0054470375,0.065196715,-0.027169826,-0.058447894,0.06304965,0.060437717,0.09880753,-0.00079356105,0.019170204,0.091265485,0.07390395,0.010461137,0.056071106,0.00021348668,0.089774705,-0.114628024,0.005328545,-0.065393806,-0.06989455,0.07922854,-0.09288661,0.010692098,0.06334065,0.02326382,-0.050086964,0.10533075,-0.041301116,0.00317174,0.147821,-0.059810046,-0.02924603,0.15105404,-0.11871885,-0.007818751,0.08661373,0.010740922,-0.06517195,0.042929128,-0.029146276,-0.03488549,0.030738508,-0.112560585,0.1239393,-0.02681427,-0.01966195,-0.03729799,0.018802918,-0.013654857,0.039335996,-0.011670039,0.054716315,0.05381824,-0.10241698,-0.030493973,-0.046976943,-0.044090837,0.007538526,0.05973968,0.022875406,-0.08669491,-0.12858799,-0.04820654,0.024605945,-0.1925954,0.04608397,0.06513932,0.0073836017,0.10163124,-0.048011295,-0.0908374,-0.11063023,0.009870209,0.1752624,-0.05875041,-0.03075217,0.041625943,-0.058331084,0.01348517,0.011076108,-0.0012425557,0.047070004,0.03218548,-0.059885535,0.011463277,0.04034368,0.06681584,0.072564036,-0.05026105,-0.07173492,-0.0005123317,-0.05302246,0.05410239,0.044974796,0.0657261,-0.031148937,0.04326731,0.059870556,0.010413021,-0.04990568,0.01719705,-0.07429216,0.05602756,0.06307787,-0.024687909,-0.07406227,0.030533545,-0.01924514,-0.026521005,-0.04495211,-0.0061107203,-0.06580655,0.051880926,0.04715451,0.025583975,-0.057535753,0.071274534,0.0082044825,-0.004025258,0.0671359,0.029917516,0.06984033,0.015913762,-0.037655137,0.031373218,-0.02287035,0.01268132,-0.00055904686,0.035971574,-0.066254005,-0.028246913,0.063236386,0.039606653,-0.010533571,0.014129885,0.02285166,-0.03948621,0.012097895,0.053593963,0.030694164,0.031067997,0.060265943,0.012676813,-0.036319606,-0.0143694915,0.0720658,0.046822324,0.050489664,0.060595155,0.012579933,-0.019669421,0.054248706,0.029266283,0.018787608,-0.05838355,-0.008152649,0.039073244,-0.06556182,0.051914275,0.00012360513,-0.023513239,-0.06735546,0.014976695,-0.033294324,0.0034096355,-0.050759915,-0.018341051,0.13586158,0.01257866,-0.052570485,-0.022122562,-0.11440516,-0.06699317,0.030586855,0.065566376,0.08361737,0.055460308,-0.11628885,-0.019182066,-0.14724909,0.08980376,0.04621197,-0.022766456,0.03873031,-0.029817907,0.011497285,0.022433475,-0.104454845,-0.06462037,0.36044872,-0.0011587429,0.08937517,-0.021553893,-0.0056788046,0.11609087,-0.042193018,-0.073913746,0.089645796,-0.001148337,-0.013344826,0.057125457,0.07115522,-0.05755937,-0.2742255,0.076535195,0.010482958,-0.07092947,-0.058885444,-0.106617995,-0.03456768,-0.03852436,0.0821584,0.06910655,0.12141061,-0.060560223,0.030286774,0.024907947,-0.004728032,0.018265601,-0.0026950995,0.13739224,-0.040109273,-0.018255455,-0.05344153,-0.008339622,0.028399166,0.03055063,-0.04545931,0.072059445,-0.051645603,0.07992735,0.023720779,-0.06334423,0.23558807,-0.06581131,-0.092829816,0.0031133457,0.109642036,0.3010781,-0.048440266,0.04839069,-0.23461424,0.024161126,-0.008863054,0.0009682992,-0.11879329,0.018714348,-0.034100205,0.007112066,0.09159371,-0.06657758,0.0026926545,-0.03454958,-0.058852386,-0.40024385,0.0013908051,0.029657245,-0.017357308,0.13722457,-0.47520846,-0.014255863,0.45051438,0.0011224613,0.34413078,-0.003393506,0.2467403,0.017379567,0.105932236,-0.039632108,0.51822996,-0.0019845334,-0.08873538,-0.04270061,-0.4189603,-0.047033906,-0.09505486,-0.1197271,-0.05770335,-0.1420175,0.101585396,-0.07204532,0.0871555,-0.0930925,-0.029563876,-1.0086478,-0.60928303,-0.03781463,-0.3221724,-0.06667325,-0.041071787,0.05882582,-0.027892504,-0.1411429,-0.368534,0.0022690096,-0.054520674,0.83333683,0.09366436,0.05042386,0.061712235,-0.24939203,-0.084195234,0.5864417,-0.018073631,0.0703131,-0.0061422274,-0.040169183,-0.081124425,-0.24741212,0.04366736,0.15406558,-0.093931094,0.08232823,-0.10804595,0.036226075,0.05817674,0.10599885,-0.47873276,-0.024406426,-0.12676577,0.16688357,-0.0005149417,0.36657685,-0.08682302,0.0012214554,0.0581314,-0.049088534,-0.06295763,0.96124077,-0.08324809,0.0880295,-0.0143854,-0.00026422917,-0.01894383,-0.06203543,0.05873218,0.10331631,0.018373128,-0.0036484003,-0.03160636,-0.050948538,-0.033370294,0.0561001,0.053504925,0.0001285197,-0.016549356,0.015845189,0.01196705,0.013502883,0.023775186,0.09865829,0.057948843,-0.0705304,0.08672479,0.03172726,-0.037684534,-0.053202767,0.043196857,-0.003720453,0.03710164,-0.08375608,-0.026802354,0.07272151,-0.065166436,0.0077387905,0.11368372,-0.11465947,-0.031088518,0.052381217,-0.073785625,-0.10507932,-0.016365763,-0.09226949,0.015843542,-0.045495242,-0.057242487,0.016652118,-0.107807696,0.07517011,0.08160257,-0.014040992,0.095344566,-0.121828414,0.0022240786,-0.04938854,0.042649355,-0.055806506,0.0147104375,0.10288345,-0.05928013,-0.037131965,-0.05412186,-0.030105261,0.10977741,-0.012389727,0.012763246,-0.040147375,-0.037249967,-0.09064742,-0.0072576553,-0.064701974,-0.016302794,0.06804014,-0.10447226,0.08312594,-0.06304609,0.008659006,-0.0016465494,0.041355878,-0.044330474,-0.11350424,0.033664346,0.11023951,0.0014068348,0.08523351,-0.041438922,0.0034906263,0.015866192,0.018330036,-0.09823414,-0.08541689,0.043751642,-0.10123321,-0.123380035,-0.03529622,-0.0014279282,0.110099465,-0.002735157,0.0019356963,-0.10565511,0.070987634,-0.15122059,0.01816881,0.3035513,0.07878289,0.016998751,-0.077287175,-0.12587906,0.018447822,-0.0040772283,-0.107415244,0.2625666,0.03165721,0.0777867,-0.021484349,-0.08600556,0.07712525,-0.34254757,-0.137427,-0.006995262,-0.06318911,-0.030476922,0.008768929,-0.3314925,-0.061015435,0.011280735,-0.027039953,-0.0005650746,0.01829008,-0.11824179,-0.25355205,-0.076513134,-0.006908715,-0.39085245,0.20192163,-0.12048977,-0.23799181,-0.005822867,-0.32212552,-0.33542415,0.2741509,0.11083335,0.19517288,0.009294053,-0.21217659,-0.027838083,-0.06633936,0.4953072,0.25847805,-0.0060058506,0.013342229,-0.03253747,0.120400794,0.018854551,0.19585174,0.39821285,-0.048465677,-0.07095545,0.008901955,0.09894932,0.32909864,-0.011692898,-0.32868686,-0.19647627,0.017475639,0.04835815,0.09819851,-0.0661749,0.06617156,-0.008896772,0.05387613,-0.02290335,-0.05988058,0.013912606,-0.007927681,0.017488189,0.06321159,0.09462839,-0.010148737,0.01758986,-0.036816042,0.080421425,-0.11697709,-0.11463687,0.031857394,0.029329248,0.08149092,-0.042092502,-0.032341793,0.017477512,-0.09621939,-0.1151331,-0.051967308,0.02258391,-0.011805132,0.068405166,0.044636812,0.009390002,0.041411176,-0.028161546,-0.0010669753,0.06683917,-0.10203455,-0.010163926,-0.0575051,-0.08232695,-0.011426896,-0.035803597,-0.025473151,0.016683199,0.008179166,0.02240587,0.041377105,0.0067311414,-0.11476637,0.004320324,-0.0848362,0.0035344735,0.04623039,0.01310131,-0.045235544,-0.00053270906,0.041612893,0.0013937205,-0.03743238,0.09391219,0.0120919645,0.017206289,-0.013936568,-0.025687996,-0.11180891,-0.06162693,0.046353243,0.042732906,-0.12113666,0.029083643,-0.017587058,-0.03557726,-0.035422444,-0.058556538,-0.061135076,-0.006410052,0.05722238,0.115704186,-0.030552402,0.061997414,-0.05023491,-0.0556946,0.08020658,0.012278058,-0.026858188,-0.033154108,0.10797519,0.07349566,0.033797063,-0.116768494,-0.077806875,0.009374156,-0.12094586,-0.0403169,-0.013595257,-0.00984284,-0.10117657,-0.040580645,0.076605834,0.14523101,-0.0978214,-0.019204661,0.014993034,0.009795214,-0.0333178,0.09431074,-0.0029021415,0.025283797,0.01675629,-0.00580809,0.02855879,-0.06480498,0.016755477,0.016067073,0.03261647,-0.07938971,-0.076790795,-0.09001399,0.001104895,-0.09921903,-0.07012846,0.035955712,0.0471825,-0.0033659015,0.01748629,-0.025363222,-0.056515615,0.0083621815,-0.100400254,0.012098724,0.014013082,-0.03109212,-0.0021257384,-0.067410514,-0.10028535,0.07176902,-0.03001082,0.09723495,0.12141643,0.069429755,0.024679415,0.10240876,-0.019801104,-0.055440795,0.07835116,0.025340438,-0.12176006,-0.03753746,-0.120689854,0.037658382,-0.011325702,-0.09307817,-0.046634283,0.030401349,0.005585552,-0.022057198,0.022279344,-0.05131809,0.017604047,0.11793518,0.09410389,0.015238579,0.049749203,0.12784235,0.103017144,0.016415574,-0.06429781,-0.05801174,-0.022482354,-0.06276171,0.0047875284,-0.12178798,-0.09728551,0.04827542,0.058854714,0.548852,-0.072004706,0.02370541,-0.49348423,0.01767949,0.018793985,-0.13881604,-0.41924852,0.20994264,-0.47662818,0.30422243,-0.20250973,-0.33241895,-0.0501269,0.094267316,0.18019572,-0.10369498,-0.054562613,0.14843935,-0.03587315,-0.09314682,-0.021764832,0.16948193,-0.124877624,-0.88407505,-0.09917635,-0.05980597,-1.3963739,0.04811463,-0.15207066,-0.12571758,-0.046546265,0.19888385,0.050628483,0.17333,0.012557499,-0.29084674,-0.08066541,-0.071008,-0.12964702,-0.12914795,-0.14649081,0.20660433,-0.24241409,-0.72283864,-0.16070937,-0.16715938,0.22582845,-0.3108714,0.33928853,-0.4035523,-0.47966346,-0.31842148,0.26745942,-0.20771103,0.21242768,-0.047378052,-0.4450337,-0.7182162,-0.17378056,-0.057592027,-0.03169354,-0.0784343,-0.112428814,-0.16283245,-0.22446398,-0.040166564,-0.030320378,-0.10352304,-0.26968405,-0.58620894,0.38308984,-0.062027402,-0.62852216,0.2348218,-0.20969345,-0.304136,0.03142024,-0.37003416,-0.20594545,-0.11724893,-0.093713544,0.33813184,0.014405891,-0.11682548,-0.012482335,-0.08644856,-0.34121522,-0.04428302,-0.1899794,-0.0043072226,0.04654446,0.19093484,-0.025732726,0.48858938,-0.04583247,-0.36826134,0.0009390876,-0.022969577,-0.015226985,-0.018869735,-0.07096696,0.23925853,-0.09206434,-0.11411622,0.051896833,-0.49339086,-0.06919357,-0.035498105,-0.0007534395,-0.10006482,-0.036947265,0.17266014,0.088707455,0.039182175,-0.052208975,-0.002933431,-1.5550908,-0.4991417,-0.045298237,-1.3908892,-0.09572321,0.02214089,-0.06119561,-0.09843473,-0.18842557,-0.70839226,0.08832395,-0.10654447,1.6425567,-0.025034837,0.113231555,-0.019543793,-0.81995744,-0.08666982,0.3374747,-0.03260096,0.0054843375,0.02063205,-0.021700123,0.0028103497,-0.32693815,0.03431014,0.73154205,0.0120618995,-0.05298935,-0.07511577,-0.03944682,-0.007444039,-0.16108498,-0.9118031,-0.017132774,-0.03930525,0.03209505,0.027814027,0.82318455,0.0030310736,0.037005346,-0.6841025,0.014768201,0.032957897,1.0872856,-0.085337184,-0.034012094,0.0075612804,0.018553497,-0.043666616,-0.10880351,-0.07707171,0.0035218424,-0.017793624,-0.02067028,-0.10618215,-0.11799527,0.066579446,-0.023009954,-0.0033371751,-0.09550697,-0.08636599,0.026783984,-0.038232554,-0.014237972,-0.061788727,0.079932354,0.0044005844,-0.02102358,0.015251053,0.10363924,-0.07049858,0.0722954,0.011137553,0.07278802,0.03771645,0.034557015,-0.06612122,0.049193114,-0.021923387,-0.08865885,0.017142314,-0.10382349,-0.004339095,-0.020674217,-0.024783298,-0.1046264,-0.020225942,-0.10704553,-0.012178367,0.056753173,-0.050185,-0.09542817,-0.007404766,-0.11355152,-0.052722566,-0.02556387,-0.060374774,-0.01774823,0.08237633,-0.033934318,0.11959471,0.018426655,0.10698627,0.025328903,-0.12575883,-0.08510691,-0.10202212,-0.077012256,0.0039295736,-0.054659203,0.07453202,-0.051508788,-0.07520767,-0.1390464,0.061388165,-0.057897445,0.05027257,0.0066647753,-0.020192565,0.027046382,0.0025562565,0.02051568,0.010998652,-0.053768,0.034832425,0.005317496,0.04233463,-0.017365187,-0.04639252,0.11664902,-0.040622134,-0.019974874,-0.09642476,-0.112639345,0.019609172,-0.11194691,0.036504995,0.07490684,-0.032891355,-0.04552808,0.07822856,0.062101305,0.12968145,-0.12022831,0.018177839,0.12777615,0.07382113,-0.01765979,0.065791726,0.010413273,0.06181507,-0.00750688,-0.07842767,-0.022870094,-0.07407317,-0.07451284,0.05205299,-0.029492421,0.042228226,-0.041904554,-0.08972294,0.0061048595,0.031946696,-0.03239595,0.027274253,-0.11497294,-0.12836294,-0.037359975,-0.0098436475,-0.081732266,0.01083795,0.06278069,-0.0042478116,-0.06345471,-0.09430763,-0.08927904,0.015131978,-0.0027822314,0.022241535,0.0081189945,-0.06516627,-0.046336703,0.027271492,0.044408195,-0.015903797,0.005720205,0.010608001,-0.004320912,-0.12095859,-0.009687382,0.019993654,-0.06306256,-0.056287304,-0.038397394,-0.002085164,-0.019939577,-0.005991047,0.08203149,-0.015609182,0.011807479,0.0060566887,0.05826272,-0.05664643,0.06858319,-0.0045990604,-0.01521546,0.0034312813,-0.10333743,0.016328737,-0.06598712,0.06493996,0.12810971,-0.06925552,0.028655859,0.11270258,-0.078414984,0.0063962657,0.046785083,-0.02069779,0.11271041,-0.118714966,0.074219435,0.004976492,0.003267452,-0.093242966,-0.0015412996,0.10616606,-0.13184966,-0.027852245,-0.034791972,0.029802643,-0.03553075,0.08724996,0.05913716,-0.038570244,-0.037219822,0.07182686,-0.07807157,-0.050621137,0.0044969693,-0.05137445,-0.059055697,-0.09993903,-0.04867496,0.0062645334,0.07956265,-0.05242907,-0.035296872,-0.03609585,-0.0051913043,0.011495843,-0.006740488,0.007058874,-0.08016675,0.04233916,-0.08291774,-0.04968228,0.057066813,-0.048379667,-0.056018304,0.027665824,0.05439232,0.015290966,-0.0064847325,-0.0153887905,-0.059434257,0.07008621,0.10263444,0.08439732,0.014787777,-0.0792883,0.08601163,0.059713405,-0.09676113,-0.08955468,-0.009957765,0.12916668,0.029809088,-0.086020686,-0.06855044,0.0062124673,-0.10850768,0.04197122,0.03199625,0.028253898,0.016716914,-0.06640159,-0.042115286,-0.06038317,0.08600931,-0.018645661,-0.03043947,0.025863007,-0.076962166,-0.073274486,0.023903837,-0.018820541,0.06032853,0.12825848,0.009988307,-0.060184892,-0.0133456495,-0.077696964,-0.0056084376,-0.05436478,-0.027380478,0.07511836,0.09114433,-0.06719762,0.06218475,0.14698242,-0.07173829,-0.07998471,-0.098390296,0.010667415,-0.06935351,0.02022342,0.09226462,0.06527832,-0.0155310705,0.028989231,0.0041428925,-0.1027265,0.057046726,-0.06447698,-0.09387261,-0.039033316,-0.020263541,-0.036984794,0.028911125,-0.06445492,-0.011743972,-0.058431443,0.05469662,0.11988959,0.06244223,-0.019789003,-0.041644495,0.024150867,-0.049329,0.02206392,-0.06113422,-0.10562765,-0.13119014,-0.054094784,0.10384947,0.036227603,-0.084606595,0.025344756,0.11419837,0.03001505,0.01390355,0.08376561,-0.018708268,-0.08734938,0.05826959,0.026561234,-0.12141358,-0.103134654,0.04991661,0.05395122,-0.10020672,-0.1169545,-0.101863466,0.021123867,-0.075363986,0.010267481,-0.029816948,0.03948988,0.017434936,-0.11304252,-0.021675281,0.023980362,0.034853887,0.10945964,-0.03782829,0.06549509,-0.034818944,-0.036625776,0.034067687,-0.011805734,0.054207068,-0.026065711,0.031358473,-0.08501352,0.0033353493,-0.00578987,0.09087927,-0.10622566,-0.06370051,-0.12023999,-0.055615254,-0.092378244,-0.02427944,-0.012732153,-0.032117236,-0.07048397,0.017634558,0.05218324,-0.11714069,0.07874977,0.032263994,0.111096576,0.08531257,0.007136223,-0.053999677,-0.07514397,-0.05464261,-0.07110025,0.0069835563,-0.088141195,-0.0958909,-0.047220208,0.079172514,-0.12103165,-0.07323565,0.025679851,-0.019823555,0.0152701875,-0.029842407,-0.050240103,-0.034142364,-0.063009515,-0.007265186,-0.016482523,0.0032301992,-0.094530866,-0.070540614,0.019175239,0.0045858203,0.023169052,0.07331981,-0.014036866,0.007909776,0.08907068,0.031202808,-0.0026531548,0.01545551,0.033557653,-0.021971079,-0.008707753,-0.11428576,0.019504203,-0.08015075,0.04684741,-0.010425039,-0.11683494,-0.06170923,-0.08955746,-0.028723633,-0.0737503,0.028924711,-0.004492201,0.0048412234,-0.08818122,-0.0069432687,-0.041356362,0.07458763,0.007303946,0.08663313,-0.01037775,-0.054690313,-0.019548267,0.0594395,-0.09956967,0.016325014,-0.017787782,-0.0686405,-0.12720461,-0.075444646,-0.024520751,-0.056373764,-0.11286718,-0.06963246,-0.031261016,-0.038953587,-0.031690706,0.06142789,0.034549788,-0.0679518,-0.057107925,0.04396069,-0.015964445,-0.14362483,-0.00866069,-0.0040161535,0.07765383,-0.10200093,0.1085701,-0.0019153813,-0.10900557,0.071551636,0.069015145,-0.011401038,-0.00616457,0.0150622185,-0.09938214,0.06484598,-0.1175077,-0.046578117,0.07725557,-0.065665305,-0.062206425,0.028311923,-0.007568702,-0.006369395,0.06809051,-0.069866255,-0.07484031,-0.05966969,0.016238797,-0.034498177,-0.019133136,-0.09741571,0.015287492,-0.0452636,0.11116705,0.0074597457,-0.012339899,0.021965094,-0.0044603595,0.0027365882,0.004741925,0.085469246,-0.114816464,-0.060289223,-0.07436093,-0.03546736,0.012414891,-0.06528047,-0.03161597,0.0034140989,-0.020865535,-0.016870081,-0.064217106,-0.0043152794,0.05479628,-0.10369765,-0.066298276,0.13332848,0.015536181,-0.019399466,-0.10537964,0.019533766,-0.06636427,-0.010074494,-0.052234657,-0.023761772,-0.029011667,0.06693285,-0.33584544,0.003947955,0.43829364,-0.090425566,0.08748472,-0.06262132,-0.003920965,-0.16303632,-0.07702078,0.22372106,-0.024984773,0.07508697,-0.8097191,0.2411153,0.29077545,-0.11900598,0.17962007,0.030267267,0.20491116,-0.30763584,-0.031035502,-0.06141515,-0.329527,-0.008076192,0.05212837,0.0946482,0.7292481,0.02437266,-0.33224732,0.015016422,-0.0036643858,-0.4491915,0.2626276,-0.4250978,-0.08329353,-0.06906474,0.15638605,0.28953266,-0.50505877,0.01950157,-0.782938,0.0931202,-0.023840604,0.03021799,-0.122144476,-0.37421602,-0.090691164,0.05126542,-0.14362662,-0.11189997,0.5806186,-0.80120146,-0.38144055,0.1873467,0.2730388,-0.10158808,0.1045163,0.009524085,-0.09810039,0.01606673,-0.18918727,-0.36066207,-0.026470926,0.3131234,0.0020486016,0.09791302,0.08656935,0.06293498,-0.2958447,-0.5112298,-0.26016325,0.04384827,-0.14239512,1.047002,0.12781905,0.29030132,-0.088332854,-0.5717487,0.024114974,-0.15668476,-0.05365705,0.6236852,-0.25382036,0.09443028,-0.06284301,0.011142552,0.049179003,-0.06727937,-0.026029496,-0.057059385,0.0025891548,-0.060944006,0.02397231,-0.046237163,0.013365503,0.03499892,0.0013813312,-0.031204611,0.036865257,-0.02260875,0.04992388,-0.106690206,0.14317141,0.008675999,0.015581757,0.07134852,0.09199303,-0.11714118,0.0094367545,-0.020828906,0.049469635,-0.059439033,-0.0009152761,-0.057381175,-0.038226195,0.05325851,-0.002709741,-0.01251772,0.052728817,-0.04927971,0.046023473,0.037176445,0.050205797,0.0083440095,-0.03778863,-0.032412406,0.021688767,0.045574717,0.04433524,0.014017433,-0.019419577,-0.03800965,0.09250894,0.072916485,0.015728159,-0.001614958,0.1065181,0.021026658,0.10270732,-0.046482768,-0.021895407,0.10294425,-0.009921707,0.04574147,-0.09043456,-0.017561879,0.10381262,0.006938897,-0.058900062,0.0037366876,0.010673492,0.016766345,0.051991403,-0.07102543,0.019065008,0.014409168,0.04723105,-0.005565471,-0.0861553,0.024498122,-0.02266172,0.008306401,-0.022461928,-0.073567554,-0.011275768,0.0033927127,0.052123636,0.09148173,-0.24749374,0.06192648,-0.22339424,0.005076118,0.13621165,0.053578705,-0.055037852,-0.020509668,0.09791246,-0.29612193,-0.012864337,0.40363342,-0.2073882,-0.06649856,-0.26448697,0.025280789,-0.3418342,0.008642837,-0.16567992,0.18070789,-0.074092366,0.013052112,-0.19718081,-0.03839016,-0.0416834,-0.35333362,0.13691598,-0.004547754,0.0044054296,0.060312986,0.042173866,-0.053574413,0.23748408,-0.04234318,0.026437739,0.06479474,0.4057561,-0.22965798,-0.31858945,-0.085009366,0.20306784,-0.1132488,0.07319866,-0.06586298,0.000582461,-0.17563248,0.17445494,0.012265498,0.1294946,0.28720364,0.013815483,-0.28806105,0.072140574,0.28857642,0.17240432,0.31371135,0.044468176,0.22456865,0.037824944,-0.41928878,-0.0116702095,-0.22277288,-0.102388605,0.034624238,0.0033658072,0.010317377,0.0038318932,-0.013083457,0.05791232,0.30584455,-0.07273626,0.06824961,0.050757825,-0.22842927,-0.10682159,0.29131386,-0.034872137,0.060083825,-0.21232335,0.031888545,-0.025363829,0.14512502,-0.21387239,0.025800351,-0.06440114,0.053038977,-0.08139002,0.017909488,0.08354272,-0.0802852,-0.031812128,-0.038525585,-0.004612435,-0.04152343,0.048790812,0.05850412,0.015496302,0.027639324,-0.06828267,0.061158635,-0.05141355,0.1179313,0.039758295,-0.05005555,0.048750184,-0.10197913,0.08381003,-0.0006050428,0.019582018,-0.05200459,-0.06250626,0.045201246,0.025627818,0.01203344,-0.045061424,-0.061633214,0.026304066,-0.02120924,-0.008634894,-0.052787017,-0.11703122,-0.06364309,-0.024590906,-0.067236654,0.025150724,0.04786472,-0.057707094,-0.016173098,-0.07170383,-0.021318732,-0.06465596,0.0062521743,-0.049133986,-0.041846182,0.057662398,-0.017194053,0.032581612,-0.06831838,0.0654746,-0.059933912,0.04410356,-0.030033763,-0.0054299124,-0.021960642,-0.0055197924,-0.09867203,-0.033492077,0.07478657,0.018916365,0.12268817,0.09678639,0.096472204,-0.06961155,-0.051952615,-0.0041266233,-0.06430752,0.013754916,0.017654698,0.04242711,0.04753679,-0.11881604,0.053062275,0.014435537,-0.09737113,-0.021486871,-0.10182373,-0.06708013,-0.057370607,-0.017530274,-0.08791022,-0.10889585,-0.099550486,-0.05731796,-0.12138078,-0.020473666,-0.019310795,-0.028648492,0.0051680338,0.059542853,0.050352264,0.111102656,0.004996991,-0.027119523,-0.005940431,0.07690012,-0.048912995,0.041127704,0.1101902,0.043445986,-0.06864843,-0.019440312,-0.033601847,-0.027504021,0.035200633,-0.077112265,0.03757211,-0.028658101,0.018868433,-0.12823491,0.06456929,-0.052791473,-0.02092191,0.07165027,-0.037745174,-0.019294629,0.031128068,0.015397293,-0.08285785,0.16413495,0.021792287,-0.10724516,0.057086572,-0.095098235,0.0034606329,0.084256925,0.0019292067,0.013159811,-0.06418881,0.027003719,-0.08957101,0.098394066,0.046600226,0.046712115,-0.09852308,-0.07157741,0.11695844,-0.045903157,-0.11914919,-0.123157285,-0.042580713,0.07642352,0.029578485,0.016416207,-0.12573364,-0.09523582,-0.0516763,-0.066640295,-0.027174648,0.03034842,0.05820225,-0.088516414,-0.0063540195,0.013251288,-0.15773028,-0.03622853,-0.015480888,0.08536532,0.020151127,0.0041632056,-0.009787636,-0.09931083,0.09485759,0.015989654,0.05338171,-0.06546849,0.040173344,-0.07309625,0.07505767,0.001397483,-0.0018482581,0.02443362,0.014597259,-0.013644636,-0.0017244741,-0.034511108,-0.059565023,-0.06311731,0.026342519,-0.05693925,0.03139182,-0.05606159,-0.04134976,0.028645411,0.059320062,-0.008113548,-0.06003496,0.0068494007,0.058357447,-0.069239944,0.03319321,0.0042902455,-0.035904076,0.036729403,0.017948315,0.017632939,0.020745441,-0.045367874,0.023518644,-0.024348702,-0.0077984408,-0.054390308,0.06256431,-0.050133415,-0.037108984,0.021081999,0.06531477,0.06266478,-0.010048322,-0.029112093,0.02299285,0.042075746,0.044330798,-0.048762433,-0.010632329,0.042827807,0.029094584,-0.04585441,-0.024221119,-0.050674558,-0.060610726,0.0060717463,0.038873814,-0.07453101,0.054868773,0.046093784,-0.014312521,0.06304452,-0.008271083,0.009274483,-0.07296323,-0.01601388,0.053551808,-0.06281084,0.03588608,0.074200794,0.00925035,-0.008640759,0.009170018,0.032786474,-0.03628888,-0.026421137,-0.055839155,-0.030506335,0.0043241233,0.06833626,-0.0021748096,-0.1174871,0.11626627,-0.0717623,-0.08526509,0.007612067,0.012447706,-0.040663205,0.074613675,-0.054846577,-0.10191257,0.00466964,-0.2026827,0.10062095,-0.008717781,-0.08633846,0.011398572,-0.19744483,-0.0023012394,-0.20578296,0.059838947,0.019906202,-0.08297062,-0.18501873,-0.01826385,-0.071084164,0.23497431,0.3296356,0.008907185,0.13104571,-0.10584814,-0.11544552,-0.3320398,-0.29273757,-0.012101796,0.028658511,-0.068348914,0.015043709,0.36012247,-0.004949324,-0.08565389,0.21232997,0.08215358,-0.018082594,0.05932787,-0.025713414,-0.11084133,0.06354131,-0.10223444,-0.30313247,0.04488625,-0.023010498,-0.055279654,0.019384813,0.059716213,0.0027852482,-0.218504,0.0149251465,0.056922816,-0.042181876,