//AUTO_GENERATED WITH get_params.py
//--------------------------------------------
/*
#ifndef EXP_WIDTH
#include <ap_fixed.h>

#define EXP_WIDTH	16
#define INT_WIDTH	4

typedef ap_fixed<EXP_WIDTH, INT_WIDTH> float24_t;

#endif
*/
#ifndef __WEIGHTS_H
#define __WEIGHTS_H



float conv_layer1_bias[8] ={ -0.25843808,-0.1986814,0.12328202,-0.26759896,0.047398187,-0.10635348,-0.02187866,0.11394993};

float conv_layer1_weights[5][5][1][8] ={ 0.057714086,0.19211042,0.1959309,-0.0751445,-0.48177123,-0.28424725,-0.16652966,-0.24225722,0.10531072,-0.12167877,0.29205745,0.11023331,0.19072813,0.28044167,-0.15087049,0.008677132,-0.17684023,-0.20421259,0.13561723,0.0317188,0.2517392,0.4048241,-0.1417589,-0.072599284,-0.07988506,-0.32169554,0.096224226,0.0760207,0.034207188,0.37723425,-0.17342095,-0.31306428,-0.030846704,-0.51722413,-0.39682972,-0.12508549,0.1812598,0.40600538,-0.3600062,0.013366387,-0.038672037,-0.017536242,-0.36121204,-0.0029453442,-0.29912242,-1.0458162,-0.13166237,-0.06515549,-0.15747638,0.06757243,-0.5144305,-0.00965621,0.13990776,-1.007165,-0.07838698,-0.56852543,-0.31255016,0.034709543,-0.5630736,0.026941814,-0.025854295,-0.2459691,-0.18729354,-0.5130001,-0.35246927,-0.17913646,-0.54841036,-0.13701786,0.17505196,0.14053187,-0.10627312,-0.090357825,-0.002847138,-0.21713829,-0.37339655,-0.04455723,0.10506196,-0.11463972,-0.16454808,0.19789755,-0.28238207,0.2570143,-0.032072153,0.07832317,-0.0111767035,0.21313368,-0.33277872,-0.48266906,-0.35709748,0.37732738,0.04536772,-0.1733878,0.266126,-0.47985512,-0.14853187,-0.3867868,-0.062876545,0.18752952,-0.19387309,-0.28614712,0.3343362,-0.70263493,-0.39690152,-0.24686605,0.10370957,0.09273495,0.031288084,-0.041472655,0.1641114,-0.67136824,-0.31796205,-0.03938438,0.4267705,0.20307621,0.053293947,-0.12157324,-0.28351158,-0.67128026,-0.32378492,0.29558888,-0.073874824,0.047450718,0.13251723,-0.09983797,0.08603116,0.09293092,-0.34158707,-0.7917188,-0.19488621,0.31233653,0.089476414,-0.105208315,0.3325436,0.10097637,-0.2452156,-0.17726256,0.097025625,0.46777847,0.25833592,-0.09756647,-0.0038735513,-0.11868945,-0.12217036,0.09284733,0.19416705,0.008733995,0.16702387,-0.1281837,0.10814996,-0.07345347,-0.028040212,0.2431897,0.13048184,0.20305501,0.2553032,-0.09859908,-0.3652511,-0.15783577,-0.5239846,0.17879903,0.4928681,-0.691684,-0.14477646,-0.13263924,0.23437226,0.3074953,-0.5479118,-1.1796767,0.39961517,-0.12587088,-0.064674325,-0.02579164,0.064780496,0.08523738,-0.58960116,0.026682321,0.38418087,0.34077945,-0.01057522,-0.092617534,0.06747923,0.1725527,0.37116635,0.1856333,0.029774835,0.2978279,0.054417003,-0.16501525,-0.119502485,0.15131423,0.4895799,0.16795863,-0.0750121,0.15559484,-0.10037517,0.00941533,-0.12899983,0.11614976,-0.49155265,0.13832562};

float conv_layer2_bias[16] ={ -0.2689254,-0.25864503,-0.42211995,0.14831534,-0.085221544,-0.12867299,-0.078145236,0.24876231,-0.0052414658,0.2105716,0.02699694,0.14885196,0.032856338,-0.06298019,0.016767167,-0.28802887};

float conv_layer2_weights[3][3][8][16] ={ -0.22973488,-0.2082653,-0.2144159,-0.01674259,0.15604973,0.03109508,-0.024746532,-0.14546463,0.10377577,-0.17081839,-0.06303342,-0.11161668,0.118664764,-0.104582116,0.35600695,-0.27525046,0.090956084,-0.27201402,-0.29632655,-0.075939536,0.22938605,-0.06661776,-0.24904618,0.07370131,-0.1402775,-0.21750002,0.21593912,-0.097369716,-0.03430288,-0.07316385,-0.476918,-0.06512903,0.10572514,-0.16743852,-0.38301444,-0.15768169,-0.11516394,-0.19023609,0.01877092,-0.21573421,-0.19265203,-0.011503881,-0.12523945,-0.2018567,-0.3462258,-0.1329248,0.2560444,0.08681975,0.025901033,-0.097593255,-0.004052291,-0.020879362,-0.072890274,-0.14664225,-0.15282217,-0.18619101,-0.071150765,-0.035134677,-0.12288344,0.043378316,0.0151308905,0.02912316,0.10374852,-0.105645455,-0.08935128,-0.14059,-0.3188007,-0.14391957,0.21552922,0.012979465,0.019587683,-0.34643033,-0.13638493,-0.15865971,-0.2656858,-0.11824034,0.117742136,-0.139855,-0.06600067,0.008737417,0.1549753,-0.057708766,-0.19317423,-0.07112278,0.23135617,-0.1626138,-0.08725271,-0.22140473,-0.20303836,0.01767508,0.16454159,-0.2811668,-0.022767538,-0.018973008,0.14513291,-0.02030373,-0.064540975,-0.19964005,0.025029643,0.02455176,-0.17436922,0.04411803,0.08760037,-0.20105341,-0.10248157,-0.076255,-0.21343243,-0.05920786,0.24341737,0.049570702,0.28551134,-0.02087657,0.053460456,-0.28442398,-0.38514856,-0.047348086,-0.38732383,0.15610042,-0.011137996,-0.031457026,0.017287102,0.07899574,-0.11759544,-0.0012445134,0.22518882,-0.07265883,-0.23246406,-0.055102635,-0.2819943,-0.12881887,-0.25171164,-0.043591294,0.15404703,0.02572285,-0.14873445,0.055666972,-0.24793492,0.04680617,-0.5786321,-0.1238726,0.02231214,-0.017719673,-0.12200379,-0.11938452,0.06903288,-0.16038573,-0.44084415,-0.08287455,0.19551656,-0.12447904,-0.25219217,-0.21975234,-0.29267648,0.018266506,-0.3075913,-0.055010036,-0.057001494,-0.16137606,-0.14804788,-0.25164297,-0.07478536,-0.050112575,-0.3071358,-0.11150488,0.21685626,-0.27218688,0.055358965,-0.13384153,-0.18824482,-0.09534777,-0.20141251,-0.13255724,-0.09911421,-0.12549244,-0.18971589,-0.06909518,0.16219895,-0.07209452,-0.22070383,-0.004933235,-0.047400463,0.014523397,-0.105484016,0.13673222,-0.08954842,0.008381133,-0.061144788,-0.029138528,-0.06661634,0.056168966,0.07666264,0.02523257,-0.0964897,-0.2172704,-0.26742554,-0.30356467,0.243982,-0.31141555,-0.10024458,-0.11404477,-0.08399355,0.00813252,-0.055262882,-0.26780176,0.18648101,-0.22315024,-0.15315309,0.015750919,0.035977088,-0.027199043,-0.20990238,-0.32589123,0.06782626,-0.05420959,0.017788777,-0.062171914,-0.40731457,-0.036129642,0.18802264,-0.13562195,-0.27041233,-0.08753439,0.09966814,0.09012994,-0.064020604,-0.1312434,0.06365946,-0.06503662,-0.14554246,-0.062290046,-0.08547037,0.07220504,-0.10274909,-0.0737258,-0.03059038,-0.06098796,-0.29593512,0.15121792,0.04467283,0.060974784,-0.22560592,-0.24396384,-0.26560286,-0.1208525,0.016411113,0.037221592,-0.007876175,-0.110332325,-0.40310407,-0.2615081,-0.23610198,-0.0043836674,0.13226753,-0.16804282,-0.030379502,0.06851631,-0.16177113,-0.21972889,-0.29767144,-0.08737897,0.24780539,-0.05555047,-0.13701572,-0.18018448,0.124292046,-0.1100307,0.21660547,-0.1161814,-0.3145123,-0.01762472,-0.48290956,-0.032499522,0.037758112,-0.09221987,-0.50769335,0.022799015,-0.15797165,-0.15385011,-0.09312984,-0.085150495,-0.21948634,-0.12290384,-0.2027324,-0.040222198,-0.33174306,-0.04924816,-0.077237606,-0.049857706,-0.116928235,-0.025807574,-0.31183544,-0.19516908,-0.22848263,-0.005261503,-0.14812236,-0.13372278,-0.23124939,0.01670372,0.020464145,-0.2322904,-0.04957559,-0.10106977,-0.09982504,0.038670644,-0.051301096,-0.047477487,-0.16859682,0.03365555,-0.09915305,-0.08476209,0.052695297,0.0037762795,-0.030440426,0.049053486,0.11258452,-0.15029246,-0.11516063,-0.060107965,-0.20456663,0.12271186,0.0018121528,-0.21527919,-0.16471292,-0.2615315,0.42245847,-0.15067968,-0.07711013,0.005643255,-0.05686948,-0.16504881,-0.9405579,-0.44975114,0.098920055,-0.28188148,-0.040746506,-0.025553718,-0.020063778,-0.195281,-0.14852113,-0.013956079,0.43385732,-0.016884496,-0.01848717,-0.22232728,-0.3496115,0.06251307,-0.42011043,0.047284037,-0.34085438,0.010865937,0.297975,0.06733954,-0.083137006,-0.1421334,-0.23957449,0.00633676,-0.16315106,-0.104323864,-0.24809216,-0.21907374,-0.059974007,-0.116554186,-0.07520154,-0.07497251,0.05972116,-0.04167447,-0.4231716,0.018400373,-0.13203676,-0.06744054,-0.20128891,-0.0071805087,-0.37888962,-0.1473006,-0.19900393,0.064564236,0.0359451,-0.24601184,0.22723004,-0.06571013,-0.06400893,-0.016613694,0.06225821,-0.0018874696,-0.13677734,-0.19835049,-0.13294987,-0.21890111,-0.5982256,0.010604786,-0.14522175,-0.120478414,-0.11733557,0.06335319,0.077124394,-0.1371254,0.16932441,0.0096230395,0.2348406,0.08782968,-0.022386668,-0.17232446,-0.17211182,-0.009717403,0.018777538,-0.20401168,-0.086137585,-0.122271135,-0.18737878,0.008091818,0.11279811,-0.16196975,-0.24373293,-0.0652209,0.25328797,-0.06828606,-0.039230794,-0.14258242,-0.48065007,0.040374048,0.080382064,0.07953435,0.064274505,-0.055300105,-0.18769945,-0.2940669,-0.02967776,-0.2673329,-0.18297571,0.09566427,0.15269294,-0.12878545,0.14500545,0.00820998,-0.061663438,-0.1403353,-0.06587356,0.09314178,-0.022516737,0.038473073,0.04016879,0.036116965,0.07119625,-0.20476237,0.012995183,-0.1467394,0.12782733,-0.047693834,-0.16895492,-0.22349162,-0.2811311,-0.2403292,-0.096706785,-0.2398602,-0.24549648,-0.14697169,-0.06171556,-0.16937256,0.116311915,-0.2931002,0.37467188,-0.5304596,-0.20666927,-0.0427379,0.13044985,-0.09455632,-0.12753977,-0.006186278,0.065971956,-0.12807119,-0.07180291,-0.07412243,-0.12731951,0.06805635,0.44511425,-0.07214507,-0.75640374,-0.05655561,0.11854952,-0.047431964,-0.081292234,-0.17393595,-0.12202941,-0.09489667,-0.060231984,-0.19034162,-0.05346176,0.039412428,-0.17158917,-0.021247841,0.041751724,-0.23221509,1.1582984,-0.075209334,-0.03900221,0.028643733,-0.13390017,-0.2613878,-0.1976816,-0.036571797,-0.16107337,-0.17360744,-0.04275339,-0.28810465,-0.1639227,0.030883156,-0.23234056,-0.2998628,0.2077647,0.011555251,-0.46000308,-0.17262362,0.04031631,-0.19119631,-0.22011773,0.0014955399,-0.64842004,0.053682253,-0.024928499,-0.033550147,-0.40035415,-0.14487454,-0.30724463,-0.09307785,-0.56999797,-0.20196052,0.28803667,-0.0757593,0.0040141772,-0.18981302,-0.23812202,-0.1430198,-0.4313776,-0.11814176,-0.24243939,-0.06914979,-0.19734797,-0.1106964,-0.112110525,-0.048010644,-0.056147918,-0.17126596,-0.24541354,-0.0729762,0.009846369,-0.05168013,-0.38526666,0.03762373,0.12662344,-0.15382567,-0.04987053,-0.22244501,-0.22357145,-0.12969786,-0.10835923,-0.06781945,-0.1018089,-0.15892617,0.07227255,-0.016448446,0.055961743,-0.11150994,-0.00018875902,0.020252556,-0.002228395,-0.07060917,-0.0917128,0.00016263234,-0.164839,0.09135314,-0.057071682,-0.05705577,-0.049901985,-0.0021929261,-0.11548556,0.006372361,-0.06473423,-0.09766817,-0.039507546,-0.06701428,0.14912893,-0.19839066,-0.05442516,-0.19569607,-0.23337005,-0.07419599,0.026509343,-0.055248827,0.3152849,-0.34935936,-0.052713577,0.033530716,-0.082771406,-0.15164231,-0.22925761,0.025200771,0.61384845,-0.18504749,-0.23728983,-0.13024749,-0.47223365,-0.044283867,0.44272375,-0.0013081856,-0.40934122,0.09909239,0.11747245,0.097821936,-0.15757965,-0.064118624,-0.067175806,0.051981855,0.28341463,0.064443275,-0.08816364,-0.08807252,-0.1833341,-0.17627798,-0.16087617,0.10801775,-0.14306562,-0.060530517,-0.10633864,-0.08511918,-0.092610404,-0.19813353,-0.40775296,-0.13352774,-0.55297107,-0.10389345,-0.12681143,-0.22919077,-0.16666129,-0.15269369,-0.22154276,-0.22266258,-0.18409123,0.03158277,-0.07046687,-0.13527067,0.17958853,-0.06493873,-0.3092373,-0.061600447,0.019372473,-0.16914359,-0.0872646,-0.12754494,0.16133317,-0.0035002537,0.005677622,-0.08070378,-0.09043267,-0.15976821,0.22738914,0.002182855,-0.17786117,-0.20791113,-0.45234153,-0.11275553,-0.45275578,-0.1505293,-0.045329396,0.061508626,-0.28857812,-0.18757652,-0.055711467,-0.1402654,-0.044781342,-0.012957795,0.18055114,0.03864739,-0.18491398,-0.07498714,-0.26511142,-0.13346803,0.057536595,-0.109464265,0.05372525,-0.101947434,-0.2850355,-0.28377226,0.04854048,-0.11825452,0.2563529,-0.034693174,0.15243697,-0.059307303,-0.04412692,0.06467351,-0.047283813,-0.21963698,-0.1122898,0.07437894,-0.060849547,0.019384239,-0.20964207,-0.07249882,-0.11602185,-0.06767748,0.25079298,-0.10867788,-0.09966115,0.061731882,0.00946938,-0.05169402,-0.0043090913,-0.25059563,-0.17384583,-0.12909071,-0.06689208,-0.1793995,-0.2508643,-0.11966598,-1.0421721,-0.17092314,-0.22395222,-0.25153857,-0.06460055,-0.07328537,-0.105248995,-0.049830295,-0.33239076,-0.052914735,0.07488557,0.13143954,-0.20058423,-0.11128965,-0.5406598,-0.1415445,-1.451061,-0.031399734,-0.19898388,-0.15503006,-0.23236798,0.07647466,-0.19496797,-0.3194275,-0.03847142,0.012864314,-0.31593874,-0.12584071,-0.01998768,-0.110252894,0.014469089,-0.26477382,-0.46904832,-0.14460799,0.08190743,0.105900794,-0.12621833,-0.07329481,0.0052366355,-0.2334878,0.15796697,-0.06540764,-0.14196979,-0.11606577,0.08172608,-0.08849667,0.00034656553,-0.09809468,-0.042669497,-0.14703795,-0.06765429,-0.23633933,0.23727608,-0.0826214,-0.17210583,-0.1341799,-0.44959313,-0.15535845,-0.058349352,-0.047990773,-0.011618498,0.055847492,-0.19612241,-0.12148623,-0.22185598,-0.0011378103,0.051242236,0.0018808835,-0.071499154,0.05658962,-0.10437403,-0.20420298,-0.23718956,-0.08058079,-0.61098236,-0.1372404,-0.086910136,-0.10793324,-0.17294066,0.037387203,-0.44413534,-0.107622415,0.060675457,-0.21036,0.33635527,-0.10606469,-0.08931219,-0.17066815,-0.26209164,-0.10864995,0.089743555,0.08919864,-0.17169169,-0.16483885,-0.03539142,-0.28292426,-0.12701395,-0.28307742,-0.33901465,-0.19153461,0.06222968,-0.08449115,0.026407639,0.17363179,-0.08304334,-0.06811815,-0.12474281,0.14897633,-0.16482846,0.07024526,0.076533385,-0.011900793,-0.046394218,-0.10214473,0.03993498,-0.013767892,0.086962655,-0.043613724,-0.19112705,-0.13901408,-0.22419232,-0.22734696,-0.40044743,-0.16994445,-0.08228944,-0.19188082,-0.2537774,-0.18565033,0.33885762,-0.38558096,0.25656962,-0.58110976,-0.010725659,-0.17604218,0.04286826,-0.17023005,-0.29152444,0.052979674,0.65543824,0.040015683,-0.2396244,-0.2215272,-0.502441,0.000610067,0.2824898,0.04996744,-0.7006655,-0.23710307,0.46699435,-0.1360262,-0.024860995,-0.32825327,0.04904956,-0.15988904,0.17602083,-0.04786244,-0.1991425,-0.22356418,-0.07842365,-0.106721915,0.07369057,0.052840367,0.05461501,-0.12706433,-0.16824645,-0.07226822,-0.17213582,-0.28154638,-0.2567677,-0.12641537,0.13472852,-0.048122384,-0.11253086,-0.12929684,-0.32829773,-0.008948433,-0.2733014,-0.3684757,0.017717665,-0.14544752,-0.4995127,-0.13243295,0.07289613,-0.25351706,-0.46886402,-0.040705338,0.07804038,-0.11282606,-0.07601788,-0.010446938,-0.17166585,-0.04022327,-0.2896378,-0.035201203,0.1065833,-0.08595129,0.07296794,-0.055553365,0.084527194,0.05114042,-0.45191556,-0.10310129,-0.044686805,-0.13561696,-0.1865855,-0.15451364,-0.08753716,-0.10827623,0.03188432,-0.13541895,0.113378435,-0.038885318,0.28884685,-0.2114116,0.040596377,-0.110140175,-0.25103703,0.06888387,0.19975653,-0.058768146,-0.035935834,0.020921508,-0.14608501,0.061045032,-0.33221334,-0.08863973,0.14317213,-0.21844631,0.22616787,-0.100976005,0.05858195,-0.03277088,0.018605338,-0.105077304,0.0005646763,-0.17230281,-0.14923929,-0.21736388,-0.19673796,-0.0421282,-0.07511053,0.050172992,-0.024277762,-0.2261985,-0.1037984,0.014867667,0.1283014,-0.17752273,-0.13336493,-0.105840445,-0.3980402,-0.09861174,-0.062331747,-0.19342868,-0.28996992,-0.07617902,-0.18253954,-0.19671598,0.21769588,-0.36826545,0.23681891,-0.09170195,-0.14492846,-0.30369055,-0.31845787,-0.22670813,-0.1625823,-0.050927185,-0.031712662,0.008297789,-0.32562226,-0.0778457,-0.79132986,-0.24156581,-0.13066976,0.050218232,-0.10126574,0.0015534331,-0.071025714,-0.16883259,-0.05757481,0.0827331,-0.028846491,0.05619172,-0.07006863,-0.114791475,0.065079294,-0.051606324,-0.14861389,0.03763933,0.026238505,-0.20562187,-0.20208897,-0.17976701,-0.0670967,-0.01977048,-0.13016967,-0.10677036,0.65424645,-0.033390194,0.049871784,-0.21943553,-0.064110786,-0.0018018981,0.19322844,-0.09840781,-0.56542766,-0.13449726,-0.3149357,-0.04792654,-0.039369676,-0.13455206,-0.23069043,-0.23722231,0.25838074,-0.15791562,-0.020425191,0.046229217,0.06413103,0.11336711,0.55125666,-0.09228379,0.21756312,-0.09889726,0.18915471,-0.0041735787,-0.09664372,-0.156976,-0.14264818,-0.16134478,-0.05535785,-0.19214246,0.06529755,-0.070974566,-0.2416598,-0.14175865,0.23270631,-0.0038724341,-0.02783183,-0.042000785,0.026251834,-0.06547793,0.051169094,-0.187262,-0.30112502,-0.05750031,0.13790005,0.061794233,-0.046806138,-0.14844258,-0.35577607,-0.031940043,0.05249123,0.032533966,0.113359235,-0.09063978,0.09840912,-0.23011173,-0.25723296,-0.09081898,0.06572523,-0.016523117,-0.12880683,-0.012966774,-0.08128615,0.00527293,0.0145502165,-0.065328546,0.03943235,0.003618929,0.2203833,-0.084520616,-0.1422448,-0.1568341,-0.018964168,-0.087340936,-0.12745205,-0.20931135,-0.121469535,-0.08568879,-0.06422807,-0.23041609,-0.10492935,-0.07021337,-0.30129656,-0.24278344,-0.44540107,-0.2767269,0.22076003,-0.122911245,0.0050118268,-0.18585639,-0.09274454,-0.19290172,-0.26784107,-0.12174775,0.052899204,0.03775615,-0.25328854,-0.1692394,-0.71735954,-0.252489,-0.021845266,-0.013290451,-0.3573758,-0.081138425,-0.008866766,-0.32946068,-0.08428872,-0.11909789,-0.23641881,-0.041660354,-0.05057391,-0.0052540353,-0.077755354,-0.14355727,-0.5411361,-0.03486974,-0.11304894,-0.21509449,0.24700612,-0.05977074,-0.26149693,-0.24591129,-0.19897972,-0.1387346,0.20252088,-0.04574343,-0.16891766,-0.05731873,0.0841768,-0.02607926,0.39245257,-0.29866487,-0.25462338,-0.091413066,-0.29370633,-0.11907209};

float fc_layer1_bias[120] ={ 0.04216462,-0.23661353,-0.18484694,0.058879364,-0.024311908,0.061033253,0.17046574,0.014571233,-0.065130964,-0.05387147,0.03334271,-0.046838474,-0.049738023,-0.002767819,-0.023031255,0.34717402,-0.055750772,-0.054028388,0.01105979,-0.07043854,-0.07765244,-0.12754226,0.06373347,-0.034092672,-0.054033928,-0.15003397,-0.2258567,0.06046601,-0.08556774,-0.046344146,-0.043908462,-0.036513057,-0.054032892,-0.062394053,-0.05909322,-0.04988826,-0.054042697,-0.06811787,-0.02455812,-0.026039455,-0.05403195,-0.16447209,-0.11673425,-0.054036483,-0.05398626,-0.03733396,-0.091001995,0.048901845,-0.06807091,-0.053977557,-0.114285514,-0.057488464,-0.05624821,0.060889397,0.1376896,-0.08729421,-0.025435954,-0.09020788,-0.054040596,-0.038059883,0.06657947,-0.055093545,-0.04677547,-0.06358016,-0.027548637,0.1288818,-0.06205095,-0.096178144,-0.11427991,-0.011422679,0.016437054,-0.04808098,-0.049936105,-0.077262655,-0.08600619,0.009526657,-0.1343738,-0.05403585,0.21212356,-0.04394474,-0.054492883,-0.08599941,0.036839757,0.07975229,-0.0064416905,0.02390452,-0.0077828174,-0.03893161,0.08716744,-0.041634355,0.14185919,0.0023339153,-0.109949835,-0.09523007,-0.01671081,-0.064175144,-0.023818891,-0.046801444,0.17923523,-0.059873432,-0.047176763,0.008017543,-0.15558927,-0.11548588,-0.041751802,0.018990757,0.0013782075,-0.043682102,-0.021831408,-0.12881985,0.06499055,-0.17163822,-0.09576646,-0.059958223,-0.075912155,-0.15759264,-0.203442,-0.037613187,-0.005044527,-0.10204819};

float fc_layer1_weights[576][120] ={ 0.052284263,-0.052789815,-0.019256108,-0.09122085,0.0074151233,0.047548823,0.07193672,0.07727831,0.018159814,-0.03368594,0.048532255,-0.052070085,-0.07139751,-0.051035818,-0.06382655,0.04944583,0.031086907,0.08072949,-0.043018803,-0.045146752,-0.017939925,0.014429927,0.03140463,-0.05920188,0.035543628,-0.04467079,-0.0028990135,-0.080042526,0.007995963,-0.042446572,-0.020439774,-0.054589167,-0.07834644,-0.052294727,0.0033205152,-0.07764385,0.049981274,0.080530085,-0.0032026991,0.018138848,0.08129709,0.07890966,-0.051012464,0.0027508512,0.056610636,0.04765562,0.09240339,0.036607154,0.09122328,-0.054352127,-0.038966917,0.051187612,-0.08755122,0.063696526,0.041134335,0.030579515,-0.030387167,0.08955436,0.045410596,0.03444343,0.05638022,0.091952436,0.08938628,-0.07556239,0.041697912,0.07658107,0.050449945,-0.05915008,-0.050666336,0.010213651,-0.046624124,-0.034419946,-0.026625536,0.085178725,0.050496705,0.06771859,-0.08131945,0.07456013,0.012754008,0.018029563,-0.025515273,-0.021931134,0.009583026,0.07484368,0.07078066,0.08212689,-0.029914774,-0.052612785,-0.0511933,0.012981065,0.07145917,0.0022475272,0.07735518,-0.0005120635,-0.0073708966,0.057240136,0.025863819,0.009249076,-0.06742364,0.072452374,0.015863582,0.025740825,0.0065913945,-0.07043123,0.087772824,0.037458666,-0.09134045,-0.025965996,0.008579284,-0.041942984,-0.05076343,0.0069636926,0.03690792,-0.07573529,0.07963317,0.077484824,-0.008118227,-0.037559383,-0.05964747,0.010773532,0.09900784,0.08247609,0.25205174,-0.14279482,0.090882115,0.13974561,0.11224882,0.12557612,-0.015919821,0.015840136,-0.016408257,-0.020364553,0.060581528,0.2117481,0.20911555,0.007803286,0.019137673,-0.00430692,-0.07899369,0.03807547,0.056050874,-0.26587746,0.03842982,0.027263403,-0.08715039,-0.13259606,0.14434893,-0.0805104,-0.19691816,-0.00828591,0.08931116,-0.11839063,0.068068944,-0.0074010193,-0.04911746,0.021105416,-0.013244264,0.20419988,-0.05477788,0.012788519,0.012645386,0.06945049,0.1719305,0.06901603,-0.085979275,0.0609741,-0.035233114,-0.2612206,0.080566786,-0.034132704,0.2800181,-0.01903551,-0.039332192,-0.123537526,0.120598406,-0.11334626,-0.14305241,-0.00934273,0.02192536,0.12917049,-0.11476308,0.15813906,-0.023643114,-0.018743843,-0.04952926,-0.13383244,-0.12547499,-0.027099393,-0.06666469,-0.24176076,-0.08219422,0.045818888,-0.053045426,-0.055918027,-0.087014474,-0.17758271,-0.0059036314,-0.030548718,0.07436609,-0.081848696,-0.0054143965,-0.031983815,-0.065981574,-0.02646153,-0.28403986,0.085324466,-0.3157361,-0.04733365,0.16379403,0.08599556,0.109889865,-0.08631278,-0.020357784,-0.03994934,0.081397995,-0.08373757,0.19998589,0.02589047,0.14798386,-0.090474404,0.05879972,-0.298678,0.15021262,0.06410911,0.024023026,-0.09566529,-0.08847522,-0.022423014,-0.017258674,0.30233592,-0.10888129,0.09743306,0.029777057,0.052408107,0.04336386,-0.06940242,0.046675168,0.0548703,-0.08075564,0.029362842,0.002347812,-0.022767656,-0.06565707,0.026998498,-0.025557868,-0.0661348,-0.06772964,-0.0846952,-0.0021983236,-0.0016556829,-0.037686825,0.038770117,-0.08892006,-0.08672161,0.05238659,0.036179163,0.05033394,-0.090767756,0.09024254,0.0093988925,-0.056960728,0.004702948,0.045163177,0.015465677,0.050474785,0.06702938,0.021653123,-0.07757713,0.06444412,-0.07039196,0.08015595,0.08272473,-0.0036922991,-0.07572529,-0.04364941,0.031662017,-0.08959649,-0.06320268,0.005072847,-0.019889876,0.080476515,-0.005328901,-0.08423787,0.006078422,0.07478779,-0.0027241334,-0.030488797,-0.0858193,0.08045583,0.042468525,0.037022106,0.028502807,-0.08585312,0.030173019,-0.060801096,-0.079946294,0.018912278,0.003673792,-0.017679557,0.053184994,0.05789078,-0.027116679,0.08768078,-0.089138635,0.09254802,0.03854207,-0.07137077,-0.042465452,-0.01503516,0.08832409,-0.07429188,0.0741666,-0.0067367256,0.06507755,0.08171988,0.018823244,-0.054728583,0.03361898,0.04603968,0.030838221,-0.08363111,-0.07003534,0.0019974113,-0.022868708,-0.055918336,-0.048573032,0.036689334,0.08577374,0.06445744,-0.029052727,-0.06734946,-0.029869765,0.07620034,-0.043198463,-0.061669316,-0.034011506,0.051937692,-0.045301683,-0.06757629,-0.009926744,-0.029568046,-0.020336635,0.05055871,-0.0114696175,-0.06967372,0.017974839,-0.06085845,0.04090547,0.057234533,0.06315025,-0.007271722,-0.007931389,0.044741325,0.06681196,0.06387954,0.07413793,-0.07901262,-0.07921583,-0.057734624,0.028376296,-0.057013057,-0.067734115,0.034883995,0.043704107,0.044116993,-0.11063926,-0.024548855,-0.039595213,-0.06665038,-0.04932973,0.036295976,-0.120985225,-0.04236455,0.0011536641,0.14970538,-0.16946024,-0.028293954,-0.03930643,0.02073954,-0.043092906,0.025365146,-0.002879938,0.014905538,-0.10860954,-0.02674374,-0.040765308,-0.093397915,0.06732064,-0.08516526,-0.035272695,-0.032165308,0.0749323,-0.018570328,0.016441602,0.008572922,0.04030609,-0.019447068,-0.029546257,-0.030503208,-0.038842514,-0.066542454,0.12466719,-0.06019557,-0.12828699,-0.005300689,-0.03406236,-0.0997306,-0.040691894,0.01413774,-0.014222006,-0.052613933,-0.039561953,-0.13213679,0.079479136,-0.014302739,-0.12645887,-0.035188172,-0.0018369952,-0.01635748,-0.077588506,0.11854678,0.015174244,-0.094417445,-0.11910392,-0.012715151,-0.11255432,-0.09589166,-0.11744549,0.03337335,-0.046797033,-0.033128187,-0.04992997,0.03357568,-0.14485805,-0.030199256,-0.026561841,-0.03459087,-0.06535553,0.025940657,-0.049931545,-0.12817919,-0.06699922,0.106398396,0.1411322,-0.11909011,-0.06338209,-0.005940001,-0.08134614,-0.053616878,-0.0073262933,-0.029000472,-0.043408513,0.025431313,-0.11487366,0.051486365,-0.06614228,-0.13233279,-0.1373909,0.14132328,-0.112439625,-0.01872138,0.0052150255,-0.012858755,-0.12005938,0.01926671,-0.1425965,-0.06160224,-0.034869164,-0.06226992,0.05424969,-0.0029514472,-0.059367683,-0.06571293,-0.013259627,-0.029567989,-0.08526043,-0.076670304,-0.11368562,-0.02741669,-0.09140565,-0.53480345,-0.39745745,-0.41808748,0.20042387,-0.08288611,-0.4898038,0.20274396,0.00075035007,-0.21118593,0.032006223,-0.554449,-0.069806114,-0.12032907,0.23657694,-0.22931577,-0.55434364,-0.10700755,-0.091713585,-0.020286791,-0.12257708,-0.117877305,0.016781399,0.29726577,-0.079521835,-0.1384856,0.097554274,-0.7040984,-0.182917,-0.42053035,0.032013405,0.04552637,-0.22688974,-0.04349169,-0.12708527,-0.053135995,0.033342265,-0.004502745,-0.117002405,-0.048335794,-0.10387922,0.009253954,0.124895215,-0.39792427,-0.039195836,-0.045147497,-0.11806912,-0.13911173,-0.18889312,-0.13038173,-0.12160464,0.073478624,0.027614687,-0.09937112,-0.5718066,0.4117636,-0.17643511,-0.1633356,0.0056974944,-0.12874596,0.4250044,-0.215441,-0.44185963,0.019853855,0.014854817,-0.031697992,0.07825913,-0.06588742,-0.05467249,-0.12730928,-0.071471736,0.31490326,0.0102347145,-0.08312742,-0.052838583,-0.13823643,0.18690494,-0.048919495,-0.056406517,0.5059642,0.040224236,0.017001446,0.017858967,-0.64206475,0.04659844,-0.055418137,-0.0026886426,0.25099227,0.024728663,-0.035387468,0.02485599,0.3614802,0.45960215,-0.63656634,0.03756968,0.23510702,-0.038951326,-0.54908746,0.0154192345,0.118282184,0.016565533,-0.09663364,-0.053868417,0.054059323,0.033022042,-0.026197262,-0.45200267,-0.20566711,-0.0125557715,-0.060152728,0.45746392,0.06322813,-0.16850635,-0.12357731,-0.017679846,0.01379887,-0.1525511,-0.3374289,0.022551233,-0.052375503,-0.06304338,-0.07414476,0.088711,-0.03572539,0.07389953,-0.0005982891,0.054469623,0.0072610974,-0.0024620816,-0.06815277,-0.089469224,-0.05047895,0.0069942623,-0.034820355,-0.022667043,0.055927627,-0.06200836,0.020284504,0.03224928,-0.06674805,-0.0038622394,-0.044532105,-0.081796825,0.050261684,-0.08890157,-0.009971388,-0.011284977,-0.030826755,0.08249796,0.084274046,-0.033076633,0.08824732,-0.03266429,0.07313993,-0.09007041,-0.03002844,-0.042879827,-0.040980883,0.034281574,0.08489806,-0.08146,0.088735946,0.015064292,-0.017823376,-0.06280902,-0.054841146,-0.072812885,-0.027026609,0.054238506,-0.07498161,0.007018879,0.06115354,0.06716321,-0.030695949,0.080077104,0.0070799515,-0.09145206,-0.03800765,0.0897722,-0.09041154,-0.019565992,0.017564334,0.06683255,-0.07559127,0.067890696,-0.036062438,-0.055793993,0.07710313,0.01728648,0.039831303,-0.02663187,0.045891576,-0.07177543,0.06223666,0.0022582412,0.033531256,-0.008507296,0.032750256,0.0058704987,0.03742986,0.034932606,-0.087995015,0.014539525,0.026760325,-0.033508252,0.0008684173,-0.010845326,-0.035566624,0.059046768,-0.06364251,-0.0064579323,0.051857226,0.005370207,-0.07718976,-0.029640809,0.075878255,0.08149112,0.0747843,0.04905262,-0.05272433,0.07315939,0.02917742,0.036987834,-0.06647037,-0.0018421859,-0.07678583,-0.06688419,-0.036858805,-0.05797277,-0.043869954,-0.082855,-0.016295709,-0.0703371,-0.089623645,-0.09274148,-0.008115858,0.082191385,0.034170426,0.01827979,-0.09158858,0.08338777,-0.07312182,0.06292481,0.025646899,-0.067436345,-0.033891555,-0.014534787,-0.03898972,0.11245019,-0.09292903,0.024731379,0.06093458,-0.064850464,0.036315773,-0.07469317,-0.01998847,-0.06659432,-0.08491604,-0.03870168,-0.0027947268,-0.043807574,-0.008721542,-0.0811475,-0.1351508,-0.07791991,-0.009110165,0.11886847,0.04247307,-0.052778713,0.031770714,-0.016624978,0.053062357,-0.022713535,-0.11557547,-0.14633422,-0.13268968,0.0054096896,-0.052747875,-0.08525153,-0.06601133,-0.0914459,-0.06581436,0.015577892,-0.01738481,-0.08217365,-0.09529896,-0.09909324,-0.12975049,-0.13494347,0.032801807,0.033881873,-0.070490845,-0.08932948,-0.05653777,-0.12142783,-0.110980235,0.05023355,-0.027244389,-0.14467539,-0.0026237802,-0.04254207,-0.046565484,-0.13358977,-0.10500975,-0.10295717,-0.07168076,-0.0415888,0.07441286,0.028863013,0.054886125,-0.12519646,0.07632163,-0.0071769035,-0.13602297,0.017514052,-0.13863935,0.020298831,-0.0029569827,0.03159369,0.065921,-0.047010247,-0.03215175,-0.019117044,-0.003855601,0.033476584,0.1254585,-0.06965461,-0.022142477,-0.1001627,-0.02160471,0.02651796,-0.044863556,-0.08116497,0.035888724,-0.13551429,0.017487045,0.02867337,0.012508952,-0.1142163,-0.008752726,-0.07775205,-0.026187036,-0.018802296,-0.061461896,-0.10303463,-0.05535152,-0.032864977,0.015610095,-0.0919579,-0.0068786684,-0.006184783,0.13110572,-0.08879306,0.014345344,-0.11311652,0.005193875,-0.04040571,-0.020664793,-0.004611092,0.11150247,-0.0420428,-0.021897687,-0.21181166,0.12990454,0.39716685,-0.01588905,-0.027873682,0.13629586,-0.019087495,-0.15492465,0.010683697,0.1261909,-0.06870958,-0.009899965,-0.06740596,0.030505398,0.04684375,-0.07192419,0.018183395,0.11121688,-0.057111565,-0.04417795,0.0748143,-0.03575427,-0.1233493,-0.095415525,0.02671862,-0.20175192,-0.028225644,0.045298707,0.0048164777,0.024930317,-0.15834343,-0.049099676,0.03294719,0.009460076,-0.02616501,0.021498317,-0.011776933,-0.120859735,0.059862822,-0.0752162,0.05539146,-0.017687365,0.033913672,-0.009847155,0.010716621,-0.07239597,0.21751955,-0.12149975,-0.10974405,0.030535735,-0.10587303,-0.012406148,-0.024088994,-0.10469243,0.43485573,-0.083224185,-0.054738775,-0.02440904,0.12634642,0.01931895,-0.1431517,-0.04081657,-0.04120589,0.02420822,0.18131767,-0.114980206,-0.11754057,-0.12212317,-0.024597708,-0.2476257,-0.017263854,0.02510512,-0.031089196,-0.086201265,0.23446582,0.0122996,-0.12102769,0.18671969,-0.0305555,0.00856484,-0.026319286,0.026539471,0.06894095,0.16468975,0.117775135,-0.30014685,-0.0004498769,-0.26441735,-0.0026151726,-0.03555541,0.024626458,0.044487994,-0.1335132,0.11296839,-0.07100746,-0.109156,-0.060354114,0.24098912,-0.09592555,-0.12691675,0.08564899,0.03661567,0.016825551,-0.11847818,0.38773546,-0.015070248,0.03567818,0.06114129,-0.037097793,0.068146534,-0.16490649,-0.12729515,0.0062275524,-0.12108885,-0.15300328,0.014714344,-0.05353161,-0.08915484,-0.14279686,-0.04560897,-0.29380867,0.22973743,0.12519386,-0.082850836,-0.07873937,-0.30334,0.0014588699,0.11184531,-0.0819365,0.03044115,-0.0051773563,-0.025346281,0.0239832,0.068493046,-0.32571256,-0.09716113,-0.074236445,0.16009551,0.009388536,-0.07603686,-0.10994752,0.08671033,0.013198891,0.028958378,0.0036288742,0.14049031,0.13812596,0.027033577,-0.054525718,0.005308402,0.31250003,-0.028811585,-0.015663302,-0.00018693309,-0.049459253,-0.07012253,-0.12178736,0.0066864123,0.022421094,-0.07972545,0.1645188,0.011257759,-0.068845406,0.0055438397,0.05413753,0.012240776,-0.033498745,0.023624102,-0.0239071,-0.02861291,-0.12626538,-0.103457265,0.12195151,0.21059798,-0.027396066,-0.13745405,-0.076578744,-0.11254506,-0.26679438,0.10841014,0.046893075,-0.071007,-0.117843494,-0.06470628,-0.24976827,0.0041430295,-0.0843851,-0.036220696,0.06083354,0.29625687,0.0043212334,-0.10748098,-0.07668485,-0.075076215,-0.22008565,-0.13399453,-0.046722554,0.18676549,-0.0837877,-0.13410802,0.0071186875,-0.34535334,0.15259823,0.12506738,0.13609128,-0.3512858,-0.11117302,0.28361398,-0.024380906,0.19061658,0.093850024,0.19265075,0.017141486,0.053901322,-0.08503845,0.046933837,0.09082899,0.17462802,-0.10148546,0.040342193,0.17628174,-0.080288514,0.03699521,0.042931005,0.10305151,0.35784093,0.043435328,0.0043333303,-0.020547956,-0.008982363,-0.19862047,-0.010249482,-0.12110945,-0.11926512,-0.20618793,0.035566058,0.041744433,-0.025691083,0.059905,0.07301798,-0.008720503,0.24431878,0.4695031,0.027751733,0.06290527,-0.48005614,0.024780527,-0.1989062,0.011801262,0.005019759,-0.12105042,-0.02481847,-0.085834615,-0.01667925,-0.17918669,0.0117902225,-0.07604777,0.05790954,-0.056106176,-0.14283577,-0.104263514,-0.07323748,-0.11498664,-0.037304696,-0.00953835,-0.07917699,0.1266562,0.053704493,-0.01518314,-0.1286208,-0.19423945,-0.082425565,-0.08561695,-0.044775616,-0.12370635,-0.09872002,-0.06903033,-0.06889394,0.034976307,0.037843894,-0.032279026,-0.01919602,-0.01951949,-0.118271925,-0.012450569,-0.112328626,-0.061606277,-0.11033642,-0.14039516,-0.05213835,0.036649555,-0.07864391,-0.037589554,0.0900331,0.125125,-0.13523759,-0.087773226,-0.042674467,-0.111722946,-0.265487,-0.2152223,0.023068212,-0.023188861,0.022819446,0.27165702,-0.10274869,-0.0163292,0.057754025,-0.058372807,0.27969187,-0.094311595,-0.09839412,-0.026108341,-0.10362094,0.18458118,-0.12873691,-0.08259723,0.18320476,0.0127298245,-0.05694258,-0.13650975,-0.28376517,0.03061908,0.071380764,0.011741293,0.14307424,-0.027830618,-0.30081087,-0.07746764,-0.03955702,-0.0068176864,0.058078755,-0.06858569,0.08868831,0.037898995,0.13448478,-0.135169,-0.10087906,-0.05344599,-0.029405061,0.006982892,0.07609525,-0.07888588,-0.003977759,0.016934095,0.029727245,0.039601788,0.027962016,-0.0010196584,0.0038520878,-0.11392444,-0.029564476,-0.13569933,-0.009042915,0.07704444,-0.10238422,-0.08740758,0.07058588,0.023085933,-0.3472611,-0.20513459,-0.14965123,0.3043503,0.008535052,-0.21407135,-0.12981151,-0.038417067,-0.17450908,-0.13222043,-0.100094564,0.018824339,-0.07231744,-0.08455926,0.23048583,-0.45860994,-0.010375107,-0.11201798,0.08765294,0.010023305,-0.1115738,0.12706406,-0.10026466,0.019605663,-0.040471025,0.038162082,-0.29201892,-0.21576345,-0.25814143,-0.0060669486,-0.10303006,-0.00046023418,-0.13502723,-0.0007649641,-0.08343256,-0.07042563,-0.12475416,0.197006,-0.075622275,-0.040392995,0.027213871,0.19299778,-0.05550746,-0.12851237,-0.06951254,-0.087523736,-0.04449647,-0.06023111,-0.058274493,-0.01845276,-0.10126934,-0.003165194,-0.052858695,-0.056136515,-0.0072174645,-0.0841163,-0.21833214,-0.017780963,-0.03633005,0.16082512,0.10696464,-0.14458723,-0.013612278,-0.016531657,-0.097460665,-0.1630307,0.0023334317,-0.15679358,-0.28823704,-0.13296083,0.13057825,-0.063004404,-0.019611083,0.036129594,0.018247414,0.38204637,-0.1898757,-0.032746516,0.29580212,-0.113718994,0.03348577,-0.0011089629,-0.2710145,0.055642657,-0.09653111,-0.13810727,0.14671755,-0.03730673,-0.20412543,0.0029120713,-0.058104433,0.1696476,-0.22298466,0.001473554,-0.44911894,0.0155080315,-0.09079396,-0.06775296,0.26501444,0.0018820354,-0.05628006,0.0050488776,-0.23557766,0.0071010385,-0.0059652897,-0.11007025,-0.029395148,-0.016633136,0.031508498,0.06966806,-0.0018762783,0.0071099172,-0.16105849,-0.060478013,-0.02542876,-0.104161225,-0.39236453,-0.12200092,-0.11096183,-0.106138945,0.05156271,0.45942906,0.40394238,0.29924676,-8.51988e-05,-0.12270738,-0.03792332,-0.06770683,0.12586707,0.02792378,-0.043166872,-0.06627153,0.003090581,-0.105536304,-0.16473302,0.43579474,-0.09704664,-0.026214298,0.028850213,0.0015943602,0.028831437,-0.060102273,-0.20855704,0.058861222,-0.058291208,-0.04969257,0.04733184,0.02566745,0.0050319824,-0.1300658,-0.05195324,-0.12438358,-0.02732831,0.035613075,-0.082344376,0.0128412,-0.10926543,-0.21762808,-0.04095437,-0.032408983,0.014908416,0.03831455,-0.056830592,0.010000426,-0.014709048,-0.070276916,-0.08680865,0.21746123,-0.091070406,-0.07016026,-0.11410718,-0.094974466,-0.08841432,0.21918121,0.31165236,-0.12168745,0.16689606,-0.08056222,0.006931629,0.27105293,0.096208155,0.015685627,-0.080057815,-0.133325,0.03031814,0.0071835467,-0.09491381,0.0008884966,0.111274265,0.017353036,0.10459993,-0.063835524,0.009114056,-0.023308367,-0.03719549,4.6595367e-05,0.028561404,-0.11439237,-0.024788657,0.03952877,-0.07200946,0.01808284,0.15449345,-0.036288302,-0.1260896,0.28807876,0.2761187,0.004789404,-0.26195273,0.031385794,-0.0056155105,0.022477295,-0.025756348,-0.01918528,0.100040615,-0.048930727,-0.17254777,-0.10351323,-0.17331535,-0.04201755,-0.095573865,0.12562087,0.34454572,-0.009972656,0.018705705,-0.011393047,0.0771175,-0.055590425,-0.045489203,-0.03913143,0.15766166,-0.031235766,-0.09404546,-0.08856942,-0.07785643,-0.13846287,-0.036123242,-0.101468764,0.0047613853,-0.059375174,-0.109909974,0.21986412,0.31291783,0.551648,-0.06913532,-0.25182307,0.2678157,-0.08085291,-0.15144019,-0.08925413,0.29964495,-0.08330424,-0.037984673,-0.7283912,-0.057897437,0.07253057,-0.015472758,0.011486319,0.05095784,0.031157322,-0.14638725,-0.09908602,0.36885005,-0.025256295,0.010057383,0.034357365,-0.37693158,-0.02773878,-0.09186116,-0.1247838,-0.04957733,0.4760869,-0.039416075,0.016874423,-0.06452211,-0.052169137,0.03806606,0.057752147,-0.015085403,0.046559356,-0.12424813,-0.047625456,-0.41529146,0.032770142,-0.044841863,-0.004320018,-0.23814972,-0.05901923,0.0047393856,-0.0065094647,-0.45310614,-0.054010134,-0.034175444,-0.30101943,-0.44721186,0.29274502,-0.1802241,0.013938304,-0.0729207,0.30178297,-0.22766231,0.07125927,-0.086184256,-0.15030487,0.039914157,0.2193486,0.07173344,-0.026986068,-0.36178085,0.4867495,0.17006573,0.02660142,0.027233971,-0.08367482,0.08392892,0.25270283,-0.09717237,-0.07491752,-0.105402045,-0.11884049,-0.09207885,0.01732751,0.13708097,0.088684596,0.20690398,-0.1795646,-0.25216827,-0.012551956,-0.40426424,-0.033888478,-0.38957074,0.10263797,-0.13113736,-0.03793803,0.027656492,-0.0031474128,-0.07829192,0.015320717,0.08962179,-0.042588294,-0.060220715,-0.062069945,0.26681262,-0.06449316,-0.08766428,-0.11295293,0.04096649,-0.12133475,0.030600939,-0.46898788,-0.07083648,0.33800948,-0.118026145,-0.10776568,0.07937915,0.07305346,0.10994272,0.029970964,0.27419382,0.06221906,0.03641682,0.078167446,0.3590519,0.35043067,0.014986292,-0.19475476,-0.12187376,0.094323285,-0.26799878,-0.104196265,-0.0058460603,-0.07487031,-0.11404604,-0.21123146,-0.1717466,0.4188929,-0.057108447,0.026290666,0.03203948,-0.0410763,-0.036504935,0.0012357091,-0.11098207,0.003519939,-0.089976236,-0.020258648,0.3139564,-0.041747686,-0.033390995,-0.05858918,0.011284432,0.09469184,-0.08377691,-0.09398024,-0.07334312,0.021432785,-0.08154896,-0.066964656,0.057180956,-0.05190101,-0.110768296,0.103703246,-0.08059569,-0.0018487226,-0.06649873,-0.022420513,-0.088106945,-0.35141304,-0.060224783,-0.041211147,-0.27825484,-0.13383354,0.030982796,-0.042721972,-0.21715324,-0.082419366,0.15762454,-0.04215261,0.036631938,0.30490592,0.29903406,-0.17178668,-0.10985254,-0.085334554,-0.03129955,0.2023979,-0.09377855,0.019538475,0.07888106,0.0050911596,0.21553485,-0.09134609,-0.078087166,-0.09667206,-0.078407094,-0.32525313,0.021803046,-0.12223601,-0.3804053,-0.10750094,-0.13824426,-0.04691418,0.38033357,-0.011151038,-0.43164352,-0.19831291,0.10927839,-0.11269456,-0.13687405,0.016048027,-0.33866924,0.059417292,0.11043797,-0.06959928,0.1876983,-0.048725594,-0.20108455,0.018631574,0.059352383,-0.08452481,-0.08507734,0.11487246,0.1193684,-0.120739706,-0.022591453,0.43596202,0.20794944,-0.08446607,-0.05091581,-0.12826861,0.07081428,-0.06808654,-0.084975354,-0.12707151,-0.031102277,0.03802352,-0.0855409,-0.021217274,0.0381118,0.03302128,-0.0023081366,-0.5282052,0.09460208,0.0826419,0.07043705,0.31059813,-0.2937169,-0.027009228,-0.14800113,-0.06559199,-0.14652446,-0.040259775,-0.08279149,0.303221,-0.21835054,-0.37397483,-0.008162222,-0.12952939,0.09724761,-0.0100471,-0.12531844,-0.05493769,0.020973347,0.032026738,0.0175383,-0.09400438,-0.2703388,-0.27367625,-0.14968304,-0.084992886,-0.059907712,-0.29891577,-0.01315249,-0.02841357,-0.0639418,-0.02954726,-0.102651775,-0.15165164,-0.1114972,-0.10196034,-0.12054071,0.15367272,-0.03796086,-0.10810238,-0.055266116,0.042270448,-0.08363938,-0.10286434,-0.07964885,-0.030139906,0.1513923,-0.063637614,-0.07372357,-0.28639296,0.21509525,0.24146591,-0.40104082,-0.084583685,-0.050423644,0.06588043,-0.21264882,-0.30699915,-0.019163053,-0.002243736,0.008695715,-0.025408497,0.13310485,0.08311086,-0.14252779,-0.07678782,0.33603358,-0.0051048244,-0.12430835,-0.09588085,-0.05755612,-0.14679725,0.0016129449,0.03466176,0.17495559,-0.011394523,-0.1181904,-0.17417271,-0.23916705,-0.09867967,0.13845481,-0.10799355,0.3971701,-0.06908351,0.34502068,-0.03678424,0.23031357,-0.0024697434,-0.3584836,-0.062825724,0.17813627,-0.0881057,-0.43086642,-0.025387688,-0.15508004,0.051345382,0.0984554,-0.015010344,-0.15254006,-0.14783941,-0.01664616,-0.3333753,-0.14108804,-0.1429991,-0.05636203,0.39749116,-0.013137415,-0.09410508,-0.11376818,-0.1094333,-0.037909623,-0.002995081,-0.14221895,-0.12278937,0.23203439,-0.038554512,0.046435364,0.01721555,-0.03355436,-0.009944625,0.050161637,0.06993642,-0.062389843,-0.028276533,-0.037095223,-0.052855007,-0.031735595,-0.036799856,0.01842682,-0.0017750934,0.034522124,-0.009386852,-0.018444337,-0.005573027,0.030468605,0.08907544,-0.06227223,0.009523436,0.073392846,-0.08704675,-0.036832925,0.0061561465,-0.039942723,-0.010540128,-0.08700409,-0.015481502,0.037870802,0.05391898,0.0322847,-0.06936714,0.0134548545,-0.059595004,0.08635495,-0.08183776,0.03159532,-0.040590838,-0.09060007,0.04833146,-0.081284456,-0.06870223,0.0368331,0.057112224,-0.00020235032,0.024589479,-0.055798136,0.037513755,0.023613185,-0.08238093,0.009315349,-0.013113923,0.07082475,-0.029773057,-0.077666804,-0.0052079037,-0.057705138,0.0043461025,0.039540567,0.046061106,-0.058081836,0.083946295,0.030539908,-0.080177516,0.012918994,-0.07800967,0.008512281,0.08828095,0.060172148,0.041781537,0.016682744,0.041907795,0.0038556233,0.07701569,0.0062058195,0.0031657815,0.05340364,0.011125155,0.031410366,0.0063602477,-0.056165714,0.082723804,0.07361334,-0.064717084,0.070712425,-0.02244597,0.03954553,-0.026464425,0.0768143,-0.08335062,-0.09266385,0.08604283,-0.06642705,0.03224387,0.021147832,-0.066388644,-0.034875695,0.0143837035,0.07433943,0.020061105,0.08911676,0.055535235,0.0054772645,0.042817153,-0.067572266,-0.071167186,-0.03229966,-0.06437124,0.01752077,0.05163849,-0.026075356,0.08658398,-0.06617527,0.003166534,0.01078555,0.030247286,0.0056599528,-0.025902957,-0.06727225,-0.01591903,0.044927843,-0.02511914,0.09141971,0.043488733,0.075926356,-0.07294008,-0.049499985,-0.05355913,-0.041969247,-0.07502586,0.064959876,0.0063422327,-0.08914784,-0.043094177,-0.023466313,-0.06998718,0.09065775,-0.0003080964,0.09457518,-0.028737737,0.092039295,-0.0390186,0.019709395,0.01274193,0.0033572614,-0.0026029467,-0.06547039,0.011616476,0.012531986,-0.076925665,-0.012328297,-0.055016175,0.09263443,0.08556455,0.00929893,-0.026708169,-0.010322388,-0.066664994,-0.029565036,-0.078187786,0.0961627,0.01505264,0.018602004,0.077817276,-0.03846893,-0.088404976,0.043675102,0.008573376,-0.060031474,-0.029657654,0.022543393,-0.07955377,0.030853212,-0.024796568,-0.034078646,0.052016437,-0.11636823,0.021616645,-0.007853515,0.034169607,-0.0065349266,-0.07466371,-0.026866026,-0.09284514,0.019597277,-0.063328214,0.028189689,0.086803935,-0.06886635,-0.07007352,-0.06651929,-0.06961746,-0.018422842,-0.058097064,-0.06920837,0.007839309,0.035508133,-0.076980345,-0.020668775,0.022377074,-0.014355853,0.057118766,0.052399606,0.04705625,-0.08372874,0.054059394,-0.05625964,0.109926805,-0.010761447,-0.06604432,-0.023329092,-0.06070784,0.004777126,0.059089947,-0.13508326,-0.0065136775,0.012239553,-0.029576972,-0.050257843,0.069149695,-0.04791695,-0.014877858,0.049660765,-0.08907599,0.008640535,0.10952892,-0.04731812,-0.044739734,0.066212706,-0.018352026,-0.014826216,0.026363753,0.0067811757,0.034188684,-0.0112350695,-0.086901985,0.035830144,-0.032594297,0.104572065,0.10503219,0.19310008,0.07614442,0.078055166,0.3023599,0.09241058,0.09262202,0.006029723,0.046874024,-0.112938434,-0.015589528,-0.09227827,0.18239765,0.21074834,-0.022137702,0.05691298,0.08994133,-0.042206585,0.061176755,-0.014393337,-0.21417429,0.04808851,-0.0011899099,-0.04634733,0.039768785,0.12182237,0.060400486,-0.14871408,-0.045827627,-0.047123507,-0.10171498,0.03737875,0.07208916,0.06740626,0.026250385,-0.0056695193,-0.040536284,-0.0137928575,-0.047780123,0.05291017,0.060202446,0.14518449,0.031236038,0.019070603,-0.082123585,-0.028930955,0.021729028,0.009612203,0.008034706,0.01716398,0.044927724,0.0038421154,-0.042926416,0.26956177,-0.033828124,-0.20066823,0.0851884,-0.03750245,0.042649798,0.0025171698,0.09053309,0.036756687,-0.07112386,-0.091341235,-0.06808016,-0.12762672,0.013010502,0.03773787,0.008225959,-0.08073402,-0.04728156,0.082566805,0.005735621,-0.08184626,-0.12255299,0.019257322,0.07758013,0.05057789,0.020672098,0.036339127,0.017234944,0.017105432,-0.1703552,-0.2449959,-0.06497943,-0.079445936,-0.019326746,0.20149772,-0.06611982,0.0067257155,0.039157767,-0.027368054,-0.04274194,0.110597014,0.014021508,0.06917155,0.078880005,-0.13866867,-0.027695023,-0.0089071095,-0.1047264,-0.0046053464,0.046620406,0.087360315,0.037926402,0.1676501,-0.06797291,-0.05721649,0.1710903,-0.1113895,0.14480121,0.004170783,0.07958337,-0.031996675,-0.25809345,-0.046536464,0.061957605,-0.2451357,-0.061724126,0.08961359,-0.16350701,0.24313799,-0.25027555,0.074589185,-0.018335355,-0.06311698,-0.017405732,0.13239168,0.061229534,0.10727826,0.0015823469,-0.09262864,0.037282355,0.230809,0.075013794,0.038454745,-0.0070116124,-0.2992352,-0.014829226,0.05160936,0.019772401,-0.0019417821,-0.03321807,-0.1203348,-0.00477781,-0.053992298,0.007814754,-0.033781376,-0.039598875,0.031931523,0.29198703,-0.10360337,-0.06138293,0.00021292313,-0.077984,-0.008506818,0.16272295,0.03176891,-0.072227634,0.008416795,-0.028734356,0.22854204,-0.022359667,-0.12887508,0.03760043,0.04008028,-0.07612523,-0.08122769,-0.035335205,-0.121995874,0.0029432625,0.025311597,-0.20084928,0.14923106,0.087465316,-0.049333166,0.025148919,-0.081294276,0.16676024,0.2779629,-0.11238382,-0.083272606,0.02649569,0.0029440073,-0.053744256,0.018857498,-0.027681906,0.009394422,-0.114700265,-0.14120428,0.0794084,0.080348454,-0.038277708,0.053938128,-0.23583725,0.036309075,0.028779535,0.23522271,0.14376351,-0.07852922,0.010388244,-0.026137978,0.09711222,-0.0150495,0.09938218,-0.24038506,0.03651406,0.08484423,0.045721542,0.09774296,0.02754558,-0.09864399,0.018318476,0.09173617,-0.031209672,-0.0045048725,0.03840863,0.16608725,0.11717977,-0.0013099908,-0.010398243,0.12891553,0.102190636,-0.0019671693,0.06751567,0.009844439,0.026109971,0.023174224,0.034653928,0.017530955,0.20088288,0.04578138,-0.073148675,0.10808646,-0.07020657,0.081418514,0.048823714,0.1163306,0.063836314,-0.06711902,0.11824834,-0.06758737,-0.086495444,-0.006572105,-0.050693527,0.08461482,0.023702517,-0.021178136,-0.09836585,0.10228271,-0.12410526,-0.11840906,-0.0728725,-0.010990246,0.057070665,-0.046561956,-0.08641268,0.11035679,0.017980505,-0.08575974,-0.04382187,-0.14169584,-0.003991189,0.0022855743,-0.046853926,-0.08193131,0.061291385,-0.005182824,0.01586105,-0.09609974,-0.08871665,-0.0363,-0.06437874,-0.14659706,0.040414467,0.021399181,-0.08890803,-0.09493564,0.030748235,-0.09872495,-0.032382533,-0.110484615,-0.106795,-0.019574335,-0.10501405,-0.11323775,-0.08245801,-0.082588986,0.016605726,-0.13903114,-0.112400904,-0.101859055,-0.037051033,0.16778524,-0.17436586,-0.04550869,0.008163745,0.03270177,-0.068509474,0.03301836,0.0106328465,-0.091069326,-0.1212591,-0.029956026,0.05824593,-0.0143476995,-0.051299017,-0.034882274,-0.0075160023,-0.047896348,-0.11938175,-0.023058696,-0.0296258,-0.12140775,-0.06436579,-0.05907159,-0.10278089,0.021679105,-0.06874152,-0.05823322,0.009869051,-0.053871587,0.06939944,-0.08829029,-0.009466408,-0.06935328,-0.06596948,-0.07820681,-0.13127074,0.11856884,-0.046045676,0.120694295,-0.10714215,0.035557944,-0.025323924,-0.02223714,-0.06318508,0.090077706,0.01569937,0.012007268,0.08690877,0.043314636,-0.07106927,-0.026466122,0.021747628,-0.124661595,0.0049653198,-0.09369212,0.025867471,0.11724873,-0.008414361,-0.035729222,-0.051826425,0.018085232,-0.11161777,-0.14133877,-0.020707479,-0.03387991,-0.10397007,-0.45750976,-0.111874595,-0.7249195,0.6634373,-0.078410365,-0.52768725,0.1356508,-0.15016986,-0.1964783,-0.027752653,-0.5214579,-0.0735995,-0.05017792,-0.45021614,0.2908926,0.012866222,0.027689693,-0.13964051,0.1374991,0.023503141,-0.13073061,0.06769292,0.40534547,-0.11595569,-0.069792725,0.051606517,0.012431623,0.09453234,-0.71179545,0.011818672,0.0097249,-0.15920836,-0.018331088,-0.0017385827,-0.12520728,-0.026200645,-0.14639762,-0.0831346,-0.109407514,0.0461121,-0.11280753,-0.058715846,0.06908851,-0.0770548,-0.061410762,0.044186555,-0.11612499,0.35827616,0.0178441,-0.09396632,-0.1123105,-0.098328,-0.061044104,-0.0825352,-0.42917362,-0.496762,0.048549186,-0.07994527,-0.03602814,-0.31963593,-0.18692175,-0.119401634,-0.1377625,-0.03254302,-0.042146336,-0.34693226,0.01757385,-0.08909779,-0.16456807,-0.62705725,-0.18935224,0.010319248,-0.029766316,-0.06951619,-0.04249517,0.021580134,0.024891699,-0.092918485,0.4409043,-0.097845584,-0.02806746,0.0033468418,-0.18983607,-0.031889156,-0.17840666,0.25682232,-0.26412797,0.014111693,-0.609789,-0.071872115,-0.04751884,0.45050904,0.32201096,0.037224766,-0.53565806,-0.13811913,-0.07367187,-0.03370209,0.19220412,-0.119094454,-0.09906831,-0.05060172,0.042936303,-0.1092416,0.025672985,-0.045156386,0.09555315,0.030169116,-0.088158935,-0.27946356,0.11221179,-0.101521894,-0.042137984,-0.028789397,-0.00201551,0.2326768,-0.14568879,0.043246273,-0.4055529,-0.015609056,0.06898574,0.0012628064,0.014727555,-0.035763375,-0.041345254,-0.03788758,-0.016096748,-0.08963399,0.003865786,0.051073857,-0.035218593,0.02634602,0.0206815,0.054334857,0.010158643,-0.008731589,0.008537091,0.057486497,-0.06453191,-0.07661649,0.072960384,0.092273004,-0.031223245,-0.027428187,0.036129974,0.022351377,0.057948433,0.07017674,0.07140351,0.09076928,-0.014274612,-0.01885242,0.00063007325,0.09129105,0.014065959,0.03530068,-0.017071709,-0.08983992,-0.0045131445,0.009621613,-0.044350542,0.089167915,-0.05732711,-0.05229672,0.08406719,0.01278799,0.0038089603,-0.010484852,-0.06622534,0.07824928,-0.005617626,-0.039562613,-0.070570536,0.057411008,-0.06593573,-0.06856908,-0.03654152,0.07403106,0.00083933026,0.04013551,0.03519126,-0.06840783,0.053746484,-0.089494035,-0.067031,0.058933325,0.049784087,-0.089458354,0.049485214,0.09139422,-0.085258156,-0.08173792,-0.0071456283,-0.04633064,-0.08864315,-0.06781176,0.0002854094,-0.073751256,0.07532609,0.021214977,-0.025896177,-0.016543195,0.021538809,0.014797613,0.02292496,0.043346487,0.019034006,-0.07459482,-0.038019825,0.041698463,-0.07272431,-0.041921493,0.068049766,0.00146126,-0.034870096,-0.013439134,0.032721452,-0.053950947,-0.06227327,0.048571877,-0.037265964,0.07897278,-0.09229605,0.08475455,0.07592844,-0.042878944,0.053746574,0.068629794,-0.03781473,-0.08021752,-0.08805244,-0.058923867,-0.073811956,0.046054624,0.0038009435,0.022150598,-0.049523514,0.017537527,0.029859848,-0.0061626807,0.083178975,0.01872994,-0.060107287,-0.07786366,0.014134153,-0.0480021,0.049154915,0.074291736,-0.012539777,-0.092363894,-0.02712875,-0.004105235,-0.084187716,-0.003441857,0.033683755,0.001823768,0.016211072,0.003892132,0.12401289,-0.08251065,-0.13137504,-0.050394166,-0.0622503,0.008239498,-0.09157616,0.08403227,-0.0037848726,0.12199007,0.02696837,-0.1072588,-0.032214135,-0.064700484,-0.07004175,-0.108658396,-0.08938958,-0.028640272,0.028551733,-0.10861024,-0.019728884,-0.020133507,0.020987261,-0.040558353,0.02694433,-0.023389632,-0.09162132,-0.09915416,-0.016082773,-0.011485877,-0.11889266,-0.02530586,-0.08475371,-0.1448343,-0.13227071,-0.036385983,-0.0055310396,-0.00848715,-0.079728626,-0.110928334,-0.14602533,-0.040016327,-0.05565221,0.02585469,-0.022401273,0.013792919,-0.0035368754,-0.033218395,-0.031040223,-0.020328175,0.08060964,-0.031617533,-0.019029377,-0.04251838,-0.12519468,-0.13135095,-0.014811514,-0.06672914,-0.08691565,-0.07232625,0.046356935,-0.048891768,-0.03332592,-0.015884412,-0.037907284,0.0932794,0.009273048,-0.062447034,-0.016831838,-0.0063374043,-0.066900305,-0.077994704,-0.08488449,-0.035246793,0.07579931,-0.08848523,0.109855615,-0.024893684,-0.02899829,0.04064745,-0.01753813,-0.06382104,-0.12856498,0.020325113,-0.08430529,-0.037681933,-0.09704164,0.033890717,0.009065981,-0.033526834,-0.010351402,0.04023951,0.06492391,-0.06904506,-0.0740606,-0.059328075,-0.062924236,-0.08568789,-0.029060991,0.011989168,0.098461255,0.07776367,-0.013934409,-0.24656868,0.25737438,0.14840686,-0.036639348,-0.112314545,0.23918672,0.1293284,-0.37302113,-0.054530665,-0.03691797,-0.11435549,0.040080976,-0.10455583,-0.30547205,0.15935478,-0.057585657,-0.073301405,0.098452546,-0.08592241,-0.038014997,-0.07631578,-0.014124322,0.025657589,-0.126007,0.05655363,-0.14245608,0.017525446,0.033155777,-0.09298665,-0.048317984,-0.13620459,-0.06668617,-0.11791625,-0.04269559,-0.005958477,-0.01728523,-0.017894669,0.011523378,-0.08612568,-0.097855344,-0.043684617,-0.082275,0.011609345,0.031644743,0.0050042104,0.022184905,0.0375061,0.033116102,-0.13704203,-0.16456367,-0.06658155,-0.014189397,-0.100803986,0.057901982,0.35154733,0.00985152,-0.12275948,-0.06322899,0.12643336,-0.11512017,-0.11814288,0.011432941,-0.037333373,-0.08350286,0.14523809,0.057465885,-0.068016306,0.020184489,0.042583305,-0.060637992,-0.038546216,-0.027972851,-0.06808897,-0.017170336,-0.052222922,-0.01787854,0.034461208,0.28751212,0.011289179,0.0127774095,-0.00013309982,0.0027135813,-0.02489331,0.17267504,0.18879841,-0.18733212,-0.017190903,-0.18506439,-0.022597905,0.08217485,0.08007925,0.1354144,-0.08014841,-0.005026765,-0.049977843,-0.06460654,-0.020318596,0.17412409,-0.10175925,-0.0789098,0.123061985,0.13058178,-0.01984434,0.037223518,0.22611526,0.013242215,0.03902084,0.0009192608,0.046868004,0.13508272,-0.002465993,-0.08341291,-0.027594605,-0.07510737,-0.20692903,-0.03313945,-0.074273385,-0.055498052,0.0019943519,-0.044170383,-0.24407443,0.39329612,-0.08745801,-0.08292238,0.04629595,-0.13558972,0.0590751,0.16232507,-0.05218765,0.21182898,0.050666712,-0.1141744,-0.04614902,0.26060134,-0.28793982,-0.061609488,-0.06227555,0.20135032,0.044895194,-0.14107892,-0.24420534,0.046368606,-0.07332775,-0.14260933,0.059909713,0.33182907,0.26355362,0.040309943,0.042319372,0.024711275,0.094353,-0.124445975,-0.020312378,-0.041658834,-0.03260411,-0.08802988,-0.16486895,-0.059414063,0.021531582,-0.0060408344,-0.011809829,0.011047583,-0.049906153,-0.121576,-0.018050749,-0.038220935,-0.3104732,0.007869619,-0.12561746,-0.06647565,-0.012223913,0.009301967,0.14341225,0.35140026,-0.030858386,-0.39122948,-0.14605208,0.031995744,-0.23242976,0.44722003,0.24221584,0.0059015024,0.020193052,-0.08480238,-0.31531715,-0.028105559,0.00063234475,-0.06785431,-0.062153384,0.36298165,-0.008455612,0.031003285,0.02668236,-0.08428386,-0.28576353,-0.09178724,0.008430992,0.042953838,-0.10486499,-0.09211807,-0.062108163,-0.04568518,0.20215721,-0.12312937,0.17619278,-0.40146998,-0.011779396,-0.11337628,-0.016725246,0.28172344,0.06594338,0.17174117,-0.04416735,-0.040856708,0.015552807,-0.16532612,-0.07886946,0.39006403,-0.010435687,-0.12184076,0.16242795,-0.0854839,0.02694364,0.0028698666,-0.18048199,0.3076194,0.024520442,-0.066934735,-0.040484063,0.029014487,0.030098438,-0.12200013,-0.13131532,-0.066599436,0.09454826,-0.11918639,-0.047819104,0.12154968,0.092198886,0.01898333,0.09564918,0.30404416,0.26443532,0.027269164,-0.014527738,0.042384394,0.049842846,0.02116237,-0.10738249,-0.08048015,-0.016192704,-0.14415273,-0.08665104,0.119321,-0.045837875,-0.019457692,-0.10782573,0.04507336,-0.061868437,-0.02001768,0.038545504,-0.11338064,0.031230323,0.02085892,0.013391989,-0.17528526,-0.003585475,0.00212419,-0.011414502,-0.06273886,-0.041175246,-0.108656436,-0.0039181523,-0.026619766,-0.009077011,-0.082900845,-0.0047747903,-0.06221715,-0.08056251,-0.03378495,-0.050875723,0.04379217,-0.100224525,-0.14236692,-0.06493698,-0.020621639,0.059442088,-0.03465405,-0.093324356,-0.0759806,-0.05199839,-0.02126385,-0.008711145,0.09085582,0.0012696354,-0.33295012,-0.095228106,-0.039933868,-0.3062344,-0.355928,-0.06928023,0.060833402,-0.116457745,0.01753693,0.48767176,0.02741296,-0.0627233,-0.11052617,-0.04298096,0.14880882,-0.13305998,-0.012706148,-0.048547424,-0.055809874,0.28476992,-0.116607025,-0.14635998,0.0793785,-0.07768558,-0.12227159,-0.120555475,-0.30876324,0.04563145,0.043716554,-0.026375497,0.01863182,0.009190075,-0.23139696,-0.02453831,-0.07440264,-0.018335026,0.04088272,-0.013370689,0.056317583,-0.063678324,-0.04045296,-0.05945414,0.034500383,-0.07826968,-0.02868178,-0.0262403,-0.3195531,-0.11366677,-0.039523456,0.113479055,-0.01053973,-0.03403549,-0.03547106,-0.021465534,0.013165223,-0.059317626,-0.050544217,-0.14721063,-0.045097977,0.06751664,0.032254834,-0.112068586,-0.043213945,-0.06354995,-0.24671184,0.09796033,-0.29772028,0.50304806,-0.052649073,-0.23526075,0.27872342,-0.20040397,-0.0023032909,-0.11682293,-0.16929115,-0.113110095,-0.116014026,-0.5416712,0.21246895,0.36034897,-0.044987604,-0.040949274,-0.026386885,0.014233771,0.036422756,0.16932335,0.28229603,0.00047009104,-0.13550654,-0.18435605,0.028485065,0.047244776,-0.24128595,0.045476407,-0.054764826,-0.13315025,-0.12700087,-0.09721135,-0.12290116,-0.028758245,-0.07591942,-0.13259065,-0.024133468,-0.10172739,-0.04168384,0.0012148472,-0.10577548,-0.0641045,-0.0049527236,-0.056617018,0.0156818,0.33831853,-0.095996305,-0.14215177,-0.10487669,-0.035337947,-0.06994299,0.052775867,-0.05766542,-0.23999281,0.06681835,-0.091647476,-0.07366314,0.057740595,-0.0049382243,0.22292899,-0.038496275,-0.025784848,-0.06689627,-0.15986758,-0.08492266,-0.13936377,-0.46611974,-0.34928605,-0.49730796,-0.10812793,0.04143665,-0.072244324,-0.0046067876,0.027497327,-0.21948877,-0.0053526787,0.10974436,-0.062913746,-0.014280683,-0.02378261,0.0088293,0.1378338,-0.24732508,0.4053722,-0.33240327,-0.062390428,-0.33149463,0.041206203,-0.054427523,0.10304336,0.28454122,-0.077387676,-0.5406426,-0.04733532,0.2663787,-0.10781121,0.010002185,-0.057322882,-0.06595983,0.18323201,-0.08173984,-0.10703425,-0.09914639,-0.33647215,0.13832441,0.038530257,0.05959662,-0.23731811,0.0084050195,0.10837468,0.00046678254,0.02940023,-0.124365,0.13245147,-0.11461213,0.026556786,-0.3744311,-0.16863321,-0.077211894,0.6127965,0.35518718,0.3553936,0.020390553,-0.12724665,-0.27348867,-0.028230244,0.045481358,-0.04939701,-0.04863799,-0.10156426,0.024945421,-0.1514144,-0.24330738,0.26460862,0.025207955,-0.053603966,0.02800153,-0.0390839,-0.0031078374,-0.051372256,-0.030773029,0.051026553,0.016378496,0.119894035,-0.20508774,-0.0011884556,0.00083739526,-0.052077472,-0.031032113,0.17626825,-0.052910794,-0.12981488,-0.07283458,0.014634228,-0.11549713,-0.048610758,0.041840438,0.029534103,-0.11884566,0.096508235,-0.012713176,-0.015981302,-0.05432168,-0.066459246,-0.07665657,0.08100401,-0.07428596,-0.08739726,-0.10509737,-0.099464566,-0.098171696,-0.15767857,0.25891253,-0.045629594,0.60510945,-0.12905237,-0.14045116,0.23306267,-0.06906704,0.041882817,0.04509567,-0.013905196,-0.04497419,0.16299962,-0.12328246,0.012205562,0.12117188,-0.025937676,-0.32878292,-0.008904353,0.0005289921,0.025805313,0.029256092,0.1548525,0.023880426,-0.05119766,-0.041404437,-0.05090471,-0.004799798,-0.13789012,0.10852571,0.11808105,-0.4155933,0.34018648,0.14803772,-0.096679084,-0.23869419,-0.051962472,0.071984515,0.0116847595,0.092023864,-0.0035050847,0.10731941,-0.14048368,-0.1776441,-0.07400517,-0.02516959,-0.12903531,-0.06117431,0.047752615,0.16632822,0.028094085,-0.06376048,-0.30656484,-0.007840206,0.045697987,0.050542746,0.049852647,0.14760683,-0.10273767,0.02002549,-0.1500371,-0.0305024,-0.17155872,-0.011764673,0.0035120465,-0.04306278,-0.007834487,0.04921914,-0.6501145,0.42254058,-0.52293426,0.0049394495,0.22219405,-0.12545256,0.5297159,0.2534269,-0.062489018,0.21893692,-0.049803387,-0.097903386,0.7516917,-0.39612392,-0.26343787,-0.12428067,-0.08950452,-0.5620639,0.0021025303,-0.10189026,-0.033422116,-0.24261461,-0.057959836,0.008377234,-0.09927997,-0.29664767,-0.4597431,-0.13622074,-0.12376804,-0.050341558,-0.17179799,-0.09971401,0.0030580522,0.021026688,-0.11394479,-0.09743607,-0.22154501,-0.036878977,-0.11342839,-0.04814732,0.3809828,-0.15610017,0.03306353,-0.07763338,-0.055379353,0.0030691058,-0.14853387,-0.043773085,-0.03945538,0.37805876,-0.05935389,-0.09324312,-0.6447388,0.70659226,0.2171414,-0.25324526,-0.034795888,-0.08191605,0.066842526,0.14177352,0.14174612,-0.068267204,-0.14033993,-0.08860168,-0.46361434,0.020324048,-0.045757603,-0.2957753,-0.41205993,-0.020508861,0.034530878,-0.116389215,-0.10690531,-0.13859704,-0.14976366,-0.055237405,-0.12636402,0.0063410117,-0.10263961,-0.008375747,-0.06574135,-0.23521031,-0.026826618,-0.25422278,-0.22876005,-0.4845908,-0.04541007,0.2864378,-0.017582424,0.11802222,-0.55274355,0.1781261,-0.06770201,0.052479994,-0.12892464,-0.40634617,-0.05380057,0.391953,-0.12871148,-0.015129879,0.037296254,0.06831712,-0.12465847,0.025784938,-0.43781126,-0.40774736,-0.09677572,0.049926747,0.13095066,-0.06453486,-0.1090592,0.014633206,-0.12617569,-0.18816264,-0.31687638,0.01946814,-0.12609833,-0.3879524,0.016599145,-0.06053172,0.15162757,0.26547313,0.16324574,0.034606144,-0.10348522,-0.14809872,-0.08692294,-0.31160137,-0.106124684,0.03330919,-0.05764319,-0.07478501,-0.15841544,-0.20055996,0.19861315,-0.05023438,-0.10019606,0.0475806,-0.13683112,0.017613268,0.048371732,-0.039012957,0.0059321322,-0.12408527,-0.009087478,0.46049324,-0.0051455996,-0.082217656,-0.037019018,-0.07647373,0.060583085,0.0199127,-0.07916591,-0.100882314,0.037287608,-0.09538763,0.008982435,-0.075991504,-0.091747895,-0.0029027674,0.09792552,0.012459556,-0.072700284,-0.13699788,0.021275876,-0.032030735,-0.36466753,-0.066573545,-0.0671666,-0.28244495,-0.03088913,-0.008924019,-0.12526299,-0.2184723,-0.13698779,-0.0030862293,-0.066515796,-0.0040351623,0.19392693,0.43009833,-0.04104714,0.041353017,-0.04297397,-0.10313701,0.06244487,0.027506204,-0.12779063,0.16748238,-0.045129538,0.14682736,0.011621329,-0.07405326,-0.11304549,-0.00067335076,-0.26245227,-0.13845934,-0.10769582,-0.35977435,-0.083286755,0.037561253,-0.11683894,0.27348506,0.13373058,-0.3480927,-0.14663649,0.18521158,-0.017926272,-0.1008533,0.025325358,-0.24240322,0.09604413,0.08146483,-0.062003735,0.030189637,-0.09171677,-0.046358764,-0.12445373,0.13028444,-0.088673316,-0.122494854,0.01707941,0.12184751,-0.060654458,0.039566252,0.3708819,0.09069378,-0.050175685,-0.09928642,-0.098801166,0.13120237,-0.13104199,-0.12553403,-0.11793257,-0.09751406,0.23808469,-0.10723285,-0.08151161,0.08071241,0.03975504,-0.078722775,-0.21765357,-0.03569776,0.18895502,-0.025197506,0.03418317,-0.123727314,-0.0022972561,-0.18818757,0.023230769,-0.2803959,0.040250726,0.06735046,0.010322771,0.013784007,0.109781034,-0.06438617,-0.13652973,0.012735858,-0.07067085,-0.13176419,-0.112320766,0.02216645,-0.11988222,-0.005339911,-0.0852096,-0.19157611,-0.07168189,-0.28092724,0.035835586,0.015087826,-0.20439331,0.01230813,-0.16956753,0.06607007,-0.12599112,0.012838372,-0.10787185,-0.11138105,-0.13013561,0.014799085,0.10808027,-0.06721633,0.00045870082,-0.056542788,-0.006056121,-0.14194725,0.093971826,-0.07286009,-0.1200199,0.080376975,0.05912801,-0.07521284,-0.2095412,-0.06717182,0.04355102,-0.13403144,-0.13882177,-0.0489988,0.08728369,-0.02872552,-0.09192842,-0.012385708,0.056220483,0.023237666,-0.119715005,0.0024349976,-0.04589404,-0.5557256,-0.42868236,0.18583277,-0.041814197,0.025410675,-0.09617064,-0.15208702,-0.13390355,-0.063318014,-0.10658013,0.16357008,0.008447227,-0.027112665,-0.12604022,-0.4006006,-0.055851933,-0.058500107,-0.092375815,0.039982785,-0.017897893,-0.036071636,-0.01415952,0.14099042,0.2082898,-0.17884934,0.028150944,-0.538702,-0.13183136,-0.11828818,0.0075411596,-0.02476071,-0.1091192,-0.0014320078,0.1545621,-0.1282053,-0.11807678,0.018249255,-0.29974335,-0.22410542,-0.036732484,-0.059443004,0.09584989,0.0028757583,-0.07593126,-0.14704089,-0.09000314,0.0077889645,0.20881258,-0.22235544,-0.01112729,0.08859054,-0.09253258,-0.088268355,-0.014789887,-0.059918642,-0.08046772,-0.049104996,-0.032662325,-0.051374774,0.035570614,-0.052988358,0.08688205,0.05696445,0.064179204,-0.07451607,-0.068479046,-0.06193985,0.012364998,-0.06675294,-0.028906003,-0.054448444,0.034169562,0.04818166,-0.059357103,0.004924424,0.02984763,-0.0041687414,-0.015591614,-0.08458998,-0.062245622,-0.03248594,0.011523917,0.0710377,-0.007842183,-0.0063420907,0.010447219,0.01804366,-0.027081996,-0.0058865473,-0.07725194,-0.028811745,-0.047150467,-0.054969184,-0.04973412,0.06101168,0.033231832,0.05597853,-0.050107762,-0.08391358,0.008606359,-0.08013455,0.007097438,0.03353309,0.08410709,-0.009297155,0.016882375,0.09007747,0.002510935,0.07907642,0.06275908,0.06264893,0.016307488,-0.019575201,-0.05719571,0.019240253,0.016145512,-0.089710556,-0.025934875,0.07543614,-0.060239602,0.071673445,-0.058883116,0.027795322,-0.003182821,0.05951085,0.0060943887,-0.07960548,0.030582033,-0.076673,-0.012914389,0.07688364,-0.02588839,0.08428881,0.03653059,-0.047978222,-0.06279669,-0.058912754,-0.028663658,0.07777945,-0.0346447,-0.006079532,0.0772982,-0.06375503,0.01843796,-0.083963275,0.020058803,-0.08869913,-0.08379645,-0.030465927,-0.040093914,0.09027039,0.014323406,0.004380062,0.06589878,-0.074182145,-0.06969164,0.0068478286,-0.025114916,-0.056448486,-0.029016003,-0.0898902,-0.079356864,0.0038406104,0.078783505,-0.034665532,-0.06477325,-0.007401556,0.070618756,0.0016226992,0.024605706,-0.01446335,-0.016421117,-0.13071029,-0.084444545,0.03838461,-0.06932838,0.008852973,0.09723538,-0.05157978,-0.09388579,-0.038793523,-0.086953685,0.023733107,0.06144432,0.031674802,-0.04643769,-0.027485877,0.010326728,0.039263707,0.09136065,-0.013929403,0.017919943,0.12214086,0.072306514,-0.020479225,0.08179492,-0.031139402,-0.13411686,-0.030836962,7.129861e-05,-0.034065094,-0.11173619,-0.016944863,0.010207035,-0.02234887,-0.10572616,-0.100148536,0.07819448,0.11341121,0.112704754,-0.10626218,-0.023256129,-0.14422573,-0.015665382,-0.021951897,0.11033582,-0.102444015,0.037862834,0.028141141,-0.05137645,-0.015139304,-0.04580443,0.073543675,-0.0008593425,-0.003672175,-0.0779436,0.08449788,0.055635296,0.092774235,0.032936834,0.06513868,-0.07275057,-0.05892276,0.013367741,0.0051208586,0.06297269,0.11996011,0.0042983964,0.04605501,-0.011670482,0.067465656,-0.08739952,-0.014417462,0.060379885,-0.02493786,0.010479703,-0.050269384,0.066009514,-0.022834035,0.13029768,-0.009159178,0.013628189,-0.07901024,0.033573132,-0.077210814,-0.12966123,-0.07026561,0.008683413,0.008026317,0.0123343645,-0.09082932,0.051222652,-0.04186325,0.037806816,0.048896834,0.028590953,0.02676986,0.033927325,0.026713781,-0.00761579,0.055776305,-0.059640154,-0.113392,-0.02344906,-0.058116503,-0.005362009,0.051423315,0.07886829,0.0507723,-0.07461852,0.08731715,0.08703434,0.014781239,0.025391957,-0.039569918,0.1483374,-0.021734579,0.050353214,-0.025691792,0.028206056,-0.0998138,-0.035809796,0.09224601,0.15350534,0.1580426,0.040772647,-0.08537756,0.13003366,0.008108185,0.07261543,-0.032311253,0.025977865,0.08886519,0.08883264,0.05603621,0.10824422,0.061539203,0.05572176,-0.028972328,-0.06835816,-0.023219042,0.036803283,-0.04653073,0.0013973232,0.0955232,0.016801246,0.0027430803,-0.042162586,0.10132283,0.038267005,-0.07125354,-0.035501696,0.006442502,-0.10689812,0.0093624145,-0.045877215,0.04064446,0.08588847,0.04358595,0.12654899,-0.064535454,-0.034108307,-0.05038312,0.13306588,0.30701455,-0.005472414,-0.027716741,0.0059049428,-0.08271982,-0.071012594,0.018346377,0.013173163,0.07676757,0.043537952,0.07390533,-0.09745746,0.11280135,0.05646432,-0.03943794,0.027137913,0.043982513,0.12036786,0.021431861,0.1286187,0.044423588,0.032210894,-0.1288938,0.031965863,-0.18688872,-0.025261879,0.06085194,-0.32262602,-0.09764346,-0.036713544,-0.07574368,-0.07454244,0.033902682,-0.16046421,0.01438576,-0.089614704,-0.05720322,0.088355966,0.052275293,-0.07127164,-0.13796477,-0.12006867,-0.09643392,-0.01841648,-0.025591394,0.0820976,0.091589294,0.07800137,0.10923049,-0.048604228,-0.0044254796,0.08930408,0.09044678,0.0226276,-0.09718356,-0.058429647,-0.11454767,0.060429595,-0.03110601,-0.109147675,-0.08155372,-0.057662413,0.09133733,0.07036843,0.04770927,-0.022390626,-0.055050448,0.034124278,0.017963002,0.20273507,-0.066499144,-0.022239342,-0.08788619,-0.18736635,-0.009249873,-0.005446404,-0.03360942,-0.06018528,0.1920713,0.41777813,-0.23951317,0.10078367,0.04447419,-0.10299274,-0.3102552,0.023427226,0.31311536,-0.13115244,-0.35290074,-0.08132386,0.028262552,-0.13040791,0.117463686,0.1715967,-0.10546366,-0.1031631,-0.062307138,0.0032331645,0.025731387,0.15299661,-0.12083572,0.14418557,0.055892687,-0.02678313,-0.15207127,0.032955114,-0.21074434,-0.0010715057,0.1427054,-0.101356834,-0.11901683,-0.055686202,-0.13887206,0.024240166,0.009449588,0.13879158,0.011261157,-0.076175034,-0.01922967,-0.28620645,0.055933442,-0.008707285,-0.13645197,0.14623347,-0.042386048,-0.26016718,-0.00039985255,-0.111630864,0.15596989,-0.06336578,-0.06001226,-0.10491575,0.029797485,0.18584543,-0.24240042,0.004846773,0.016630774,-0.32014367,0.34766266,0.43424734,-0.012916736,-0.07248277,0.11428624,0.09367012,0.03688915,-0.06953034,0.052732684,0.045652684,-0.33508846,0.054390974,0.09001628,-0.012961161,-0.049664523,0.38197166,0.1028738,-0.101681545,-0.31245023,-0.010095637,0.10590122,-0.0052455445,0.17166635,0.23575662,-0.17632781,0.32246208,-0.11359482,0.13288066,-0.18832023,-0.070936635,-0.030784128,-0.24100833,-0.11042653,0.0015517249,0.04781417,-0.056970973,-0.22739862,-0.007971525,-0.109758176,0.112381525,0.029532809,-0.26097575,-0.28214514,0.034401547,0.01114956,0.3076849,0.059474085,-0.015249786,0.03320385,0.11651297,0.29299366,-0.23974903,-0.0063641667,-0.05335,0.11676998,-0.017973287,0.003501656,-0.037023548,0.09721122,0.043429874,0.038746387,0.029793533,-0.045955792,0.009182765,0.0654919,-0.13664864,-0.057402637,0.005134961,0.017605912,-0.13131367,0.07019967,-0.09670416,-0.044907346,0.02939528,0.050076645,0.052788395,-0.14063859,-0.13961898,0.007953856,0.0131651405,0.023008538,-0.06306137,-0.09535626,-0.036116805,0.038388025,0.104808904,-0.057964534,-0.024659812,-0.048731357,0.0020823264,0.010060129,0.06179161,-0.030965228,-0.031948216,0.023092942,-0.08405313,-0.138817,0.026578197,-0.008227864,0.000310165,-0.09300449,0.011369686,-0.047052603,-0.11564944,-0.049701314,-0.055012047,-0.085731894,-0.026963625,-0.032468233,0.025344923,0.017191717,-0.12198236,0.010863396,-0.068677165,0.0059435135,-0.10731478,0.046462767,0.032601915,-0.096317865,-0.042215213,-0.02582879,-0.022042647,-0.072038464,-0.13449855,-0.007978356,-0.092131846,0.04660024,0.038559686,0.067377634,-0.09410367,-0.035146035,-0.041389428,-0.13808817,-0.097787015,-0.075676754,0.022609305,-0.07360617,-0.11651317,-0.015765527,-0.0005717927,-0.0666362,0.01814415,-0.12736277,0.06785631,-0.07857906,-0.028067384,0.026004206,-0.047206897,0.06579638,-0.12612793,0.13329439,0.015274098,-0.02922015,-0.10983499,0.14195602,0.033898313,0.015478209,-0.079505146,-0.0077617783,-0.12882583,0.03908817,0.120889395,-0.025539951,-0.006562834,-0.06271419,0.08721587,-0.019549875,-0.10372363,0.043757327,-0.0559804,0.10747182,0.021593027,-0.04118704,-0.044122577,-0.14166072,-0.05034717,0.022208465,-0.058946747,0.07319318,-0.10724298,0.15770106,0.13913555,-0.2371828,0.15751246,0.05520566,-0.1809911,0.20956577,-0.27088,-0.16749927,-0.10977352,0.006043108,0.017325599,0.047074545,-0.50625116,-0.18937904,0.35917363,-0.052954376,-0.012991116,-0.11153543,-0.05686087,0.016259555,0.04516156,0.030151531,-0.10554642,-0.114921264,-0.09195351,-0.1022216,0.22677556,-0.12017892,0.02334306,-0.06479552,-0.19375105,-0.057022307,-0.03037333,-0.025382772,-0.12428897,0.012854154,-0.3702601,0.06250455,0.052051365,0.00017105442,-0.3981724,-0.52568936,-0.01367542,-0.02627521,-0.01308655,-0.1420114,-0.18231043,0.02566185,-0.008676063,-0.14338897,-0.09249481,-0.010331152,0.24145038,0.10096618,-0.5488756,0.20202056,-0.0153274955,-0.12636107,-0.010265453,-0.1289063,-0.12379737,-0.12310527,-0.1229857,-0.11997206,0.4308922,-0.019280287,-0.014785535,-0.6663102,-0.9861791,-0.3097113,-0.058347486,-0.085263416,-0.06606766,-0.019898621,0.06183536,-0.058079746,-0.03735069,0.25634822,-0.10672689,-0.024811404,-0.1463562,0.6363784,-0.05600602,0.35373318,0.3742492,-0.089631625,-0.04139499,-0.4465848,0.0038463143,-0.2592436,0.36172172,0.26607955,0.03581088,0.44688314,0.03168763,0.3887576,0.0077051455,0.29086065,-0.050873946,-0.13008942,0.01781901,0.40650555,-0.14573573,-0.040541586,-0.11264401,0.038578216,-0.0073344815,0.0048153508,-0.06629952,0.028931132,-0.17740822,-0.015229188,-0.1301145,-0.054976337,0.42848498,-0.26145202,0.04878723,-0.29106715,-0.09199815,0.010747984,-0.0046435744,0.08774044,0.023707204,-0.080044515,0.06250531,0.066644095,0.076246955,0.06349135,-0.026058994,0.037506916,-0.07755282,0.021359064,-0.024736136,0.015916556,0.010055974,-0.091028966,0.017343126,-0.08660866,-0.025449485,-0.017604157,-0.02795586,-0.07069078,-0.073618524,-0.027384602,0.016040675,0.0857412,-0.09186744,0.055294015,0.059814908,0.08402968,0.054814078,0.055820383,-0.045414627,0.01938317,0.08400879,-0.06688001,-0.03926368,-0.071654186,-0.04934476,-0.06284849,-0.087727495,-0.09167804,-0.04228522,0.08576388,0.010334872,-0.0063473657,-0.009498909,0.0317251,-0.080456614,0.066044174,-0.074646726,0.091995455,-0.041085657,-0.048272617,-0.037015066,-0.056147628,0.084667705,-0.031367995,0.08954721,-0.014506564,0.051397286,-0.030855156,0.087468676,-0.035393428,-0.04540739,0.018571906,-0.039410114,0.08957697,0.07067103,0.01755473,-0.043697555,0.024740934,-0.0754997,-0.08751213,-0.049959425,0.032278545,-0.045308437,-0.07171947,-0.07356055,-0.08696891,0.006477773,0.005193472,-0.00030300766,-0.041909315,-0.025435738,-0.0006738156,-0.06032939,-0.07168261,-0.044333007,0.041586034,0.08679352,-0.051356513,-0.062127523,0.08697686,-0.03308885,-0.04198073,-0.054443065,-0.004513122,0.04787194,-0.0057246163,-0.04707755,-0.019819327,-0.05849867,0.07033252,-0.05525519,0.08274477,0.08735465,-0.031325735,0.045411684,0.07327736,-0.047295064,-0.06741881,0.063342266,0.09168022,0.058425657,0.08052456,-0.07437916,-0.08597203,0.045564063,-0.024657765,-0.07892624,0.014152541,0.06790907,-0.050851546,-0.11513127,-0.06257637,0.12285279,-0.0266857,-0.11941846,-0.00020826107,-0.07770718,0.029217647,-0.058313362,-0.06050929,0.04365886,-0.036523554,-0.10030699,0.07925205,-0.088243626,-0.066495664,-0.021259714,-0.0018905122,-0.02369101,-0.05703795,-0.040900763,-0.05129455,0.1495383,0.034871552,-0.0661511,0.02311609,-0.04784465,-0.09520703,-0.13175327,0.018681291,0.041444167,0.022034837,-0.108749844,0.033422016,0.057307713,-0.010727279,0.05807409,-0.0889714,-0.051500924,-0.11790444,-0.03328504,0.011466336,-0.011444442,-0.090696745,-0.051479302,-0.094788186,-0.0063204896,-0.04500814,0.042568218,0.014494154,-0.017327897,0.08256101,0.034043957,0.004707512,0.05076272,-0.054283172,-0.0373165,-0.071143135,-0.100444436,0.052493565,0.043813623,-0.030869344,-0.11698651,-0.0053562373,-0.10408541,-0.05897114,-0.0949006,-0.12581877,-0.07629282,-0.08294057,0.03825795,-0.08959182,-0.059387013,6.0694987e-05,-0.014535161,-0.042585272,-0.046862274,-0.06731318,0.032553267,0.019398205,-0.035209775,-0.048830327,0.037600152,-0.06517927,0.030367587,-0.07602431,-0.10121168,0.09978621,0.028258933,0.10186232,-0.0883093,-0.031302318,-0.05013448,-0.05249285,-0.060663976,-0.11764477,0.13042942,-0.018488698,-0.0015894097,-0.06639551,0.04950656,-0.05445859,0.003017742,0.026038576,0.07157451,-0.008873306,0.006927189,-0.10578242,0.030244727,-0.11131518,0.0929299,0.0002456126,0.0024550462,0.10081849,-0.025475495,0.02828367,0.09959762,-0.02511199,-0.13209337,-0.107992634,-0.06551181,0.14645876,0.065885216,-0.28160265,-0.06609941,-0.052832417,0.016874442,-0.1406701,-0.052636098,-0.20381553,0.04895099,-0.10521463,-0.05186722,-0.027035471,0.014549318,-0.116565734,0.04343381,-0.14933467,0.038681936,-0.0034002783,-0.029652944,-0.36551285,0.09514027,-0.1014835,-0.03949389,-0.12995964,-0.53780663,-0.12301124,-0.025075592,-0.1213277,-0.09484981,-0.06749116,-0.010833452,-0.058092233,-0.07368366,-0.145589,0.014657382,-0.011478677,-0.088004716,-0.037305485,-0.0518736,-0.08531975,-0.21990134,0.0075292373,-0.093765356,-0.06451929,0.00747321,0.022635348,-0.011254714,0.03713494,0.4955421,-0.19614014,-0.0942229,-0.12503114,-0.16073713,-0.16958044,-0.04586676,0.0060409615,-0.09128683,0.016018353,0.39302555,0.026663903,0.023570523,-0.12266421,-0.11359938,0.2901456,-0.07825935,0.0013060707,0.016062966,-0.038344834,0.03916749,0.022813037,-0.104265526,0.16988884,0.03497456,-0.06132276,0.017274477,-0.10690288,0.017197328,0.24194245,-0.19211091,0.338434,-0.062882416,0.005356221,0.0028516485,0.0945008,0.0044836574,-0.04005894,-0.016861256,0.115988,0.020566769,-0.0526319,-0.070313856,0.13469192,-0.017098513,-0.012641584,0.123709835,0.17159519,-0.14599177,-0.07241911,0.26203024,-0.13205466,-0.03450478,-0.09371136,-0.0042492854,0.1480456,-0.07420307,-0.11214451,-0.14228499,0.036903623,-0.0022448562,0.0075394,-0.12954336,0.045604207,0.025488667,0.008032182,0.0053634983,0.08673266,0.31526223,-0.052240215,0.06492781,-0.32683122,0.17036055,0.13811068,0.031467587,0.08937013,0.030939447,0.022864278,-0.097166695,0.31132278,-0.16404852,-0.09000326,0.035193633,0.31728727,-0.010048866,0.01312266,-0.20688042,0.24300654,-0.0046816496,-0.14222363,0.13608278,0.3611102,0.34311602,-0.023251504,-0.11127107,0.04285875,-0.10602999,0.01074732,-0.023355875,-0.11957207,-0.04951571,-0.061842397,-0.08641692,-0.032092407,-0.057893164,-0.05374449,0.11766829,-0.09088454,-0.07604022,-0.071041815,-0.054144893,0.034375556,-0.063809805,-0.064238705,-0.050524384,-0.18205258,0.016555687,-0.092491865,0.18146862,0.07267258,0.06601398,-0.10267169,-0.06828273,-0.045087583,0.16949534,0.49507776,0.20860155,0.021360768,-0.03417862,-0.091575444,-0.25921014,0.13169584,-0.041410003,-0.0120971445,0.078610785,0.26548675,0.016388288,-0.0232054,-0.058668464,-0.056947984,-0.18941444,0.031335786,-0.14147352,-0.017652294,-0.062417828,0.0058638924,-0.037157215,-0.13402349,0.09912992,-0.1840019,0.10206164,-0.20170958,-0.024332475,-0.015196051,-0.0870783,0.19313504,-0.041534644,0.030527178,-0.05227194,-0.04161287,0.024531567,-0.07319635,-0.046589755,-0.18682432,-0.019560661,0.0042522145,0.054491676,-0.044760704,-0.04382337,0.016581245,0.18081565,0.07502304,0.043671034,0.059457693,0.09602211,0.082324974,0.20678385,-0.12632303,0.005001089,-0.09807657,0.11534139,-0.019652026,0.003323382,0.17734484,0.07627467,0.07605999,0.33312058,0.1747956,0.27730954,-0.027936136,-0.03806895,-0.20558377,-0.009689117,-0.13241719,0.0016079952,0.01813578,0.03469659,-0.035392232,0.0032385853,0.058481056,0.05551345,0.02093266,-0.089618005,0.0692683,-0.007992243,-0.0903127,-0.11840457,0.0071110316,-0.08475562,0.039126385,-0.027130784,0.109418444,0.06418401,-0.11596375,-0.13573216,-0.06770336,0.19614737,-0.018078884,-0.0077102706,-0.024207782,-0.095017724,0.0088586435,-0.0013888213,-0.042839643,-0.016602729,-0.11711955,-0.0442491,0.1407572,-0.0052201627,-0.039865743,-0.07473889,-0.10075726,-0.07318392,0.002078082,-0.11923499,-0.07672181,0.007143682,-0.11715106,-0.15227199,0.16305074,-0.2523357,-0.19722435,-0.116275445,-0.12543996,-0.11298503,-0.43171355,0.08309674,-0.06564435,-0.057059485,-0.083589174,0.083564855,-0.05948773,-0.026902273,0.1700429,0.109011024,-0.04123872,0.019666405,-0.09741618,0.1288131,-0.03615261,0.24763829,0.10699875,-0.08329527,0.003284201,0.005259802,-0.11104343,0.06674754,-0.21646805,0.057353463,-0.0010028013,-0.06953135,0.18265542,-0.10793393,-0.18970753,-0.011646905,-0.10301923,-0.17103188,0.03474149,-0.008564589,0.115774974,0.043778203,-0.010376821,-0.11951806,0.0993012,0.011337421,-0.10436741,0.0054353843,-0.26286933,0.0021277734,-0.113561556,0.22707959,-0.139676,-0.075388305,-0.09692028,0.04364352,0.1078902,-0.029117681,-0.05536272,-0.12560588,-0.03996365,-0.009001298,-0.025558917,-0.034368306,0.080011934,0.020273969,0.1643975,-0.1838923,-0.0075007444,-0.28643194,-0.05087782,0.07152884,0.23863925,-0.12336247,-0.08013973,-0.08785234,0.2917953,-0.07690459,0.010639462,-0.11941278,-0.34364152,-0.14309171,0.012224345,0.0074797506,-0.12980083,-0.1227073,-0.097312,-0.13254513,-0.23505783,-0.12103747,-0.04538889,-0.19953482,0.13712727,0.05650888,0.036625292,0.020722063,0.0062980666,-0.010633282,-0.1143578,-0.08843061,0.08125589,-0.03598536,-0.016910817,-0.3302117,-0.11275041,-0.0035402698,0.018194597,-0.06713573,-1.0759891,-0.023868402,-0.018220723,-0.023043761,0.004043387,-0.53565073,-0.11798433,-0.13527305,0.09487435,-0.07378916,0.012488221,-0.047390018,0.081166714,-0.51859766,-0.03489758,0.015016059,-0.11309196,0.14589462,-0.37130117,0.22319543,0.0008948131,-0.08379035,0.034079608,0.32959935,-0.116354704,0.018638043,-0.51071906,-0.5076347,-0.383365,-0.13595517,-0.11912142,0.018955246,-0.1494049,0.003532234,-0.123516895,-0.041340396,-0.03990566,0.010364871,-0.07769795,0.03317933,0.6349608,-0.3150389,0.037404332,0.48081172,-0.28373152,-0.048674736,-0.18743992,-0.052590877,0.034834202,0.1703708,0.28356102,0.034443397,0.44541845,-0.056468714,0.16931574,-0.05226587,-0.10432432,-0.01945917,-0.09737632,-0.120092615,0.39724424,-0.06277723,-0.008649185,-0.23958004,-0.11775122,0.025280263,-0.067732826,-0.054508336,0.0954,-0.4672298,-0.020295307,-0.07455725,-0.097874306,0.02589096,-0.16386238,0.05295668,-0.5019691,-0.14795198,0.07987463,0.3643729,-0.06661037,0.13315804,-0.018000878,-0.16189592,0.33199295,0.11163455,0.11124074,-0.0920994,0.075292416,0.028948298,-0.119652376,-0.05777235,-0.029540375,0.02549166,-0.11059474,0.033017196,-0.028840989,-0.0787578,-0.043126136,-0.074365474,0.1389883,-0.063861564,-0.0005798926,-0.021329518,0.055152107,0.013889222,-0.05592767,-0.004204988,0.00923766,-0.27664194,0.019695237,-0.015827818,-0.14608212,-0.012355984,-0.051039193,-0.13844469,-0.03240465,0.05190212,-0.10847698,0.115564734,-0.01715122,-0.055150483,-0.075585425,-0.08807708,-0.062301554,-0.059810806,0.00035223833,-0.023915384,0.00014788655,-0.12344364,-0.12286784,-0.04015741,0.18459238,-0.22273092,0.43718657,-0.13086848,-0.14597233,0.11695897,-0.058718473,0.019415744,-0.069938205,-0.07302236,0.002493404,-0.13895412,-0.059146058,-0.112296194,0.013830167,-0.023363603,-0.18454176,-0.01675191,-0.08949948,-0.10341488,0.012444897,0.02387148,-0.09773925,-0.044214595,0.10417429,-0.022757733,-0.061653756,-0.07730272,0.5008799,-0.005059634,-0.2517402,0.39446935,-0.17385168,-0.027053759,0.19153856,-0.086329505,0.33208352,-0.1412029,-0.057909537,0.017315814,0.13493665,0.014808946,-0.12697406,-0.026885567,-0.07615959,-0.0007951856,-0.02172529,-0.009761866,-0.03389713,-0.029444378,-0.1290659,-0.50882137,0.10598104,0.006923554,0.027961016,0.013828515,0.060884215,-0.117632695,-0.050338227,-0.013630919,-0.051487073,-0.14010637,-0.0020340276,-0.09241476,0.043785285,-0.037896655,-0.025390217,-0.04495645,0.419141,-0.7082511,-0.035997413,0.46944755,-0.85357285,0.4874685,0.06951473,-0.056522693,0.36946315,-0.03805559,-0.07487696,0.8118541,-0.017486019,0.80871874,0.14237243,-0.02207188,-0.35588136,0.024312561,0.095601045,0.24200743,0.16485503,0.027921176,0.023248294,0.07447286,-0.35317305,-0.0150159905,-0.03645574,0.020034963,-0.05512588,0.066361845,-0.139552,-0.068377174,-0.027988464,-0.13637339,-0.00029710672,0.28949168,-0.09425734,-0.07952867,0.0019831043,0.4165306,0.31097052,-0.016445922,-0.0101242205,-0.061175615,-0.124128655,0.24305019,-0.059683338,-0.06455135,0.13813066,-0.05553407,-0.0054750233,-0.49293518,0.94432676,0.022690216,-0.85201025,-0.08350135,-0.0008735089,-0.31622455,0.10436758,-0.20229524,-0.058336426,-0.072224826,-0.084104694,-0.45481274,0.1487917,-0.053063802,0.17712812,-0.27931374,0.2426527,-0.009917497,0.040074676,-0.07556886,-0.08554808,0.013947469,0.07347707,0.035495717,-0.17540501,-0.09445324,0.021258565,-0.04266974,-0.29177618,-0.103133395,-0.45319435,-0.4613169,-0.3915102,0.030071476,0.6636273,0.009830895,0.18771012,-0.42220882,0.44016722,-0.08513544,-0.13916546,-0.042569783,-0.50343436,-0.037982833,0.62093174,0.030619178,-0.05488203,0.25830907,-0.07050121,-0.031089686,-0.10814154,0.11628196,-0.23232536,-0.062006786,-0.096788414,0.28422055,-0.013139102,-0.22643389,-0.08596677,-0.06763333,-0.02931237,-0.2803935,0.23386747,0.0037583166,-0.156974,-0.05310371,0.06292595,0.08496322,0.313246,0.23065624,-0.09805696,0.0520945,-0.265625,0.00898518,-0.28904364,-0.049009286,-0.074208416,-0.10348115,-0.12208201,-0.015925582,-0.29686797,-0.021651592,-0.014822368,-0.14349781,0.11511635,-0.053531554,-0.046225525,0.06837191,-0.2203873,0.00027661546,-0.050953947,0.015963396,0.5139713,0.065908894,-0.02766471,-0.08820054,-0.008714565,-0.12689273,-0.061052524,-0.005517345,-0.013177449,-0.13637185,-0.0707457,0.0059103006,-0.112098105,0.07531398,-0.1011721,0.086797416,-0.046947245,-0.13251524,-0.14336155,-0.012072417,-0.008107484,-0.38055792,-0.027325485,-0.028299078,-0.25782165,-0.11492394,0.03688827,-0.10313837,-0.090596676,0.38282293,-0.037609123,0.0007044855,-0.07483863,-0.06940313,0.2957743,-0.09238165,-0.13340576,0.011867068,0.0162515,0.08603411,-0.0803931,-0.09445888,0.24703845,0.02628452,0.37016994,-0.019209025,-0.1346315,0.036002614,-0.0016694721,-0.21966338,-0.036156837,-0.009791885,-0.30771056,-0.044026222,-0.09282818,-0.08229377,0.35839215,0.0055341804,-0.1721432,-0.21178989,0.15521145,-0.019150145,-0.19148614,0.0031290255,-0.40529647,-0.062917836,0.10476964,-0.059552737,0.11836044,-0.0957231,-0.13486536,-0.042572003,0.22543964,-0.12739038,-0.11001444,0.11981004,-0.13453534,-0.0028173134,-0.020996602,0.45596823,0.04427496,-0.05762674,0.04414615,-0.07838179,0.1211471,-0.11129469,-0.0024035508,-0.03785151,-0.07262133,0.272616,-0.0067569967,-0.08320546,0.012074709,0.001161024,-0.2608966,-0.32206744,-0.27194652,0.19373523,-0.01715975,-0.18111283,0.08736062,-0.20048687,-0.25072247,-0.099064834,-0.3499307,-0.022592397,-0.11128803,-0.12805612,-0.059478853,0.2763603,-0.036803134,-0.107685626,0.105419874,-0.06693101,-0.12881882,-0.023742978,-0.041516718,-0.10308084,0.004905129,-0.04873265,-0.23801862,-0.011006586,-0.10023346,0.039380427,-0.06863421,-0.16435003,-0.11273546,-0.0746176,-0.029891873,-0.014123536,-0.051162533,0.21180363,-0.09406733,-0.11809268,-0.057741992,-0.11199527,-0.11667936,-0.02910809,0.020795593,0.035108104,-0.07530354,-0.15178278,0.023393717,-0.030455727,-0.16990039,-0.078442566,-0.11891072,-0.09979663,-0.14048626,0.019930521,-0.12468791,-0.0968482,-0.02307511,-0.10392801,-0.08187248,-0.017365824,-0.041853826,-0.05979365,-0.113325484,0.07146662,-0.09817161,-0.0647515,-0.6024933,-0.7489356,0.2244939,-0.10171242,0.02049734,-0.14897998,-0.0908248,0.11514713,-0.06490274,0.0022859827,-0.06235542,-0.027339596,-0.011925096,-0.077222556,-0.11798963,0.12861438,-0.032924846,-0.04892059,0.15885037,-0.09027364,-0.127224,-0.118121624,-0.030122563,0.015842363,-0.2542696,-0.09991784,-0.36398226,-0.014895112,-0.09539267,-0.02805345,-0.059418008,0.03090216,-0.06629959,-0.016838057,-0.12328139,-0.035992183,0.03569327,-0.10382494,0.11505398,-0.07576818,-0.09913171,0.16238575,0.017732646,-0.11580167,-0.04289974,0.020014664,-0.2121765,0.114514805,-0.26032013,-0.11923164,0.099761605,-0.11320642,0.058261923,-0.047539078,-0.06536498,-0.03697396,0.07038083,-0.056547746,-0.061148353,0.026465334,0.06204789,0.05855403,0.05260407,0.020540118,-0.036194663,0.030235954,-0.00046046078,-0.070992924,0.034899183,0.074232794,-0.055540994,-0.056627814,-0.07445901,0.08776813,-0.008605763,0.06635531,-0.04097092,0.059438117,0.015993409,-0.013588801,-0.041717127,-0.072492614,-0.017758034,0.07546481,-0.0696874,0.034521513,-0.026480235,0.003417097,-0.03796187,-0.08694855,0.07364934,-0.01603651,0.08009226,-0.032683242,0.0027666762,-0.07771663,-0.07826717,0.0053729787,-0.089146316,0.090614565,0.0023860857,-0.07256305,0.07863083,-0.066563606,-0.011337467,0.028589323,0.043317296,-0.049510207,0.07317232,-0.050249882,0.07333181,-0.03759788,0.092224814,0.050873585,0.017843902,-0.01666227,-0.091914766,-0.06113899,-0.0225837,0.022454135,0.0017871112,0.047962643,-0.041448496,-0.0919891,0.0067943037,-0.024674594,-0.06947825,-0.070180245,-0.07507142,-0.089716114,-0.037128784,-0.0883082,0.0046916977,0.0028754994,0.05015009,0.03218145,0.07611013,-0.023277886,0.05296565,0.07075485,0.06642502,-0.034894466,-0.0155723095,0.07841282,-0.0006727129,-0.0064209253,-0.07947627,-0.039483454,0.017562807,-0.090651646,0.05304175,0.0795595,-0.090206794,0.036256112,-0.019470915,0.015047006,0.08420124,-0.040399,-0.07316758,-0.084362105,0.064310856,-0.028471395,0.07521448,-0.08436465,-0.056031033,-0.047937933,0.068089314,0.045971565,-0.007866003,-0.075417034,0.0449662,0.0562483,-0.008596388,-0.024615422,0.08249783,-0.006127216,0.13405703,0.13615932,-0.07870585,-0.06662353,0.012656087,-0.0626479,-0.016150424,0.07047851,0.14344376,-0.036855813,-0.01440566,0.02415739,-0.034935255,-0.00021009354,0.08462392,-0.027718335,-0.14038047,0.010676031,-0.14088975,0.063719615,-0.13448009,0.067298956,0.09280395,0.070081554,0.027189549,0.029560464,0.13607457,0.05096253,0.0055851163,-0.020865235,-0.11801672,0.04046812,0.03429314,-0.12173083,0.108941674,0.04338138,-0.022681506,-0.028810307,0.006597089,-0.092600256,0.0062232045,0.09368774,0.08069017,-0.06825941,0.039113194,-0.09704052,-0.11377381,0.05062058,-0.04228546,0.08191282,0.032091618,0.06423444,-0.08216571,-0.096570395,-0.08029665,0.015541472,-0.03268415,-0.1204486,0.0045960248,-0.06518567,0.04885456,0.058850445,-0.070722125,0.041005347,0.052412234,-0.029156853,-0.092219606,-0.049996417,-0.07143019,-0.057697736,-0.05578951,-0.013439022,-0.102158085,-0.09591988,-0.067167014,-0.03636639,-0.050595485,-0.12861075,0.04106558,0.014171934,-0.142834,-0.019403003,0.03213501,-0.05635836,0.06899349,-0.14500953,0.0821229,-0.035503436,0.13481237,-0.07505064,0.009730227,-0.057211,-0.12648545,0.03033039,0.05939398,-0.06700774,0.124088965,0.045587942,0.083115004,0.015913777,0.059463613,-0.0411922,-0.0755934,0.08132008,0.077819444,-0.119399525,0.07981317,-0.030104134,-0.08509198,0.09246682,0.114058234,0.04436613,-0.083384916,0.08084354,0.076140724,-0.018177874,-0.10145794,0.16907567,0.029872457,-0.012111489,-0.0006286353,0.17249708,0.021210536,0.010885891,-0.079049475,-0.040904116,-0.14313102,-0.034383666,0.029047042,0.114275165,0.009861751,0.12543875,0.06331501,0.044651352,0.04025389,-0.074488476,-0.02205415,0.010191613,0.06411821,0.035357006,0.05897834,-0.027224315,0.18427168,0.072271846,-0.11885101,-0.07712552,-0.08172552,-0.11785594,0.0045610964,0.0778982,-0.031918645,-0.048580162,-0.0015427917,-0.0035083403,0.04197479,-0.09056946,0.014345229,0.10289454,0.25781384,0.0093413815,-0.040212236,0.034863852,0.011581741,0.013588406,0.05745711,-0.08830138,0.0609973,0.042793967,-0.057704363,-0.041038793,0.16143826,0.0015821995,-0.04247461,0.0064125806,0.03244879,0.11453319,-0.00108551,0.04903801,-0.008707017,-0.05272387,-0.15901351,-0.028443126,-0.055461783,0.06802086,-0.004361555,-0.22218414,-0.22917442,-0.025752582,0.068091474,-0.010348201,-0.08392991,-0.1770411,-0.032182842,0.018695913,-0.11208617,-0.008727469,0.0034465566,0.045672826,-0.054073177,-0.08387636,-0.16921905,0.0346739,0.055749234,-0.082809225,0.08622725,-0.02465573,0.074040756,-0.037877858,0.0810635,0.07727905,-0.028991098,0.07192906,-0.12977621,-0.07664542,-0.05907399,-0.06418246,-0.04811912,-0.08885433,0.013976588,-0.056847762,0.028105855,-0.08309344,0.12670666,-0.016436674,0.062820725,0.010351746,0.10151463,0.15555108,-0.0067923963,-0.027945496,-0.06782686,-0.06377043,-0.053339574,0.032178245,-0.120260544,-0.001337491,0.17404388,-0.12835416,-0.20341548,-0.022983065,-0.018650945,-0.10312243,-0.09207912,-0.38115475,0.35081854,0.1230592,-0.035186745,0.0027542785,0.0326602,-0.17878534,0.4250222,0.29740638,-0.07401237,-0.1124195,0.34640482,0.06152334,0.093412444,-0.14057122,0.12257355,0.10407766,-0.13931905,-0.28677848,-0.03358427,0.05539848,-0.40202275,-0.037288863,0.13805035,-0.43975294,-0.10683507,-0.08246108,-0.044386454,0.05360291,-0.020582637,0.1828961,0.06781068,-0.014632573,0.028796276,-0.33226362,-0.036835946,0.001535692,-0.0059171245,0.14116693,0.01704537,0.20036128,0.10122154,-0.033766117,0.18471728,-0.13206191,-0.041133825,0.25054246,-0.34408385,-0.26098663,0.06343782,0.005735788,-0.06313085,-0.28363788,0.17339991,-0.063602835,0.059775524,-0.09419788,-0.16103698,0.2518398,0.1086677,-0.04069422,0.07022784,-0.049806748,-0.3160282,-0.07456619,-0.021826826,-0.12581775,0.014931913,0.28644893,-0.08001467,-0.12770706,-0.33908558,-0.025633495,-0.071837515,-0.1456732,0.42054898,0.22321951,0.1744053,0.39583135,0.12829335,0.13590759,-0.12560244,-0.030343827,-0.26917103,-0.3613453,-0.3211401,-0.056307156,-0.16284995,0.023008257,-0.12948868,-0.017390564,-0.10780491,-0.042486873,0.05548564,-0.088707365,-0.31810975,-0.07442023,0.030590983,0.20338906,0.12358552,0.04310715,-0.026532616,-0.21671708,0.0809497,-0.1394939,-0.0667519,0.1261416,0.029862994,-0.084976226,0.03560183,0.06552563,-0.13285169,0.012091346,-0.0470594,-0.10056602,-0.030700365,0.0055346787,-0.115357384,-0.02558686,0.05297248,0.053298388,-0.018518468,0.027738675,0.055709198,-0.12960175,-0.12701483,-0.035230353,0.11500302,0.035779648,-0.00015869214,-0.068633065,0.11176049,-0.100051194,-0.06110089,-0.07682882,-0.023900457,-0.049131803,-0.13686423,-0.028209612,-0.13428892,0.00825089,0.067767486,-0.13080749,0.0041427435,0.04807068,-0.063072056,-0.06581869,0.029203946,0.03437474,-0.048622936,-0.022567414,0.007474283,0.054030176,-0.08213851,0.075462356,-0.05743109,0.0008367563,-0.030533401,-0.09180189,-0.05200127,-0.077540725,-0.014384365,-0.09393188,-0.13460802,-0.121679544,-0.022824377,-0.060117666,0.08538199,0.07199866,-0.081641704,-0.030429004,0.009028216,-0.092813976,0.0682206,-0.089784026,-0.13685165,-0.07823012,-0.013653423,0.039831728,-0.026238069,-0.09693881,-0.009104548,0.0067228703,0.059699204,-0.113036126,-0.040404897,-0.00040272283,-0.08641632,-0.02307167,-0.09785336,-0.06411409,-0.021741392,0.032959636,-0.14574553,-0.070303306,-0.009586756,0.07339087,-0.049756367,-0.14224145,-0.104981646,-0.07624956,0.0401642,-0.057093516,-0.030553134,-0.006871046,0.0584814,-0.12653455,0.023855764,0.038471937,-0.102857284,0.045568626,0.13692875,-0.034718007,-0.01628469,0.11257501,-0.105367005,-0.122930795,-0.08501908,-0.022773996,-0.114150465,-0.04343665,0.007199872,0.0978075,0.05801934,-0.034512423,-0.06559145,-0.08197408,-0.11498581,-0.13524231,-0.13312161,-0.096961744,0.037136536,-0.060748857,-0.56730527,-0.16874583,0.28462985,-1.2044815,-0.0451211,0.029735796,-0.028665906,0.32644144,-0.47439536,0.0012943433,0.5548978,-0.12212055,0.0449016,0.36000544,-0.7711319,-0.1819051,-0.07114075,-0.0028100219,-0.34073794,-0.05296058,-0.011008541,-0.026555382,-0.2850182,-0.12647055,-0.026419753,-0.0976736,0.20563883,-0.43176794,-0.36921212,-0.053869,-0.033202358,0.24341287,-0.04283763,0.034034308,0.037704874,-0.11365459,-0.03636581,0.6175848,-0.046265505,-0.043519728,-0.044006903,-0.1150157,-0.3854627,-0.07702453,-0.120737575,-0.08703564,-0.009484868,-0.9035616,-0.14446588,-0.12693194,0.33830434,-0.017355952,-0.13429402,0.0042229933,0.5012302,-0.43376657,0.01943937,-0.0073131025,-0.05417215,-0.5978088,-0.0611921,-0.7765786,-0.10368078,-0.034692094,0.043873515,0.3809851,0.052141007,0.029654149,-0.13359128,-0.35916328,0.57844543,0.03689289,-0.036377974,-0.025351243,-0.0005222754,-0.053223804,-0.1004863,-0.08679712,0.28851557,-0.113958925,-0.12527832,-0.124886684,0.3799035,0.15186569,0.27437094,0.14838709,-0.36534604,-0.030201267,0.34970576,0.009514725,0.40957546,0.10955901,0.2101871,0.031782113,-0.17425479,-0.10006995,-0.21071059,-0.04073712,0.6601996,0.024517184,-0.040129427,0.18652526,0.23320335,-0.091892175,-0.117173776,-0.07071644,0.01861049,-0.014198879,0.04441731,0.19310482,-0.49839485,0.27806947,-0.01746525,-0.14752117,-0.15305561,-0.5896063,-0.109277874,-0.018685896,0.037421606,0.08684964,-0.046922307,0.057881273,0.091920115,0.08702838,0.041176833,-0.0033985227,-0.07164613,-0.024799556,-0.053243637,0.035073303,-0.032065917,-0.051055655,0.061336778,-0.05407564,-0.08051089,-0.08962816,0.056290142,-0.06539466,-0.049284372,-0.018574737,-0.0716556,0.03486932,0.05416087,0.0030095577,-0.06195344,-0.03899977,-0.004256785,-0.04847375,-0.00987532,-0.056282572,0.02570992,-0.011085264,-0.06648029,0.014604896,0.07251028,-0.06749049,0.085676454,0.07463833,-0.08800582,0.0004382357,-0.019821167,-0.077554815,-0.06587219,-0.084819734,0.06964307,-0.038583223,0.073005535,-0.06761922,-0.006212972,0.027718484,0.08118654,-0.03862938,0.046811067,-0.05787249,-0.0647802,0.06761386,-0.08445873,-0.016328007,0.030895978,0.02896186,-0.040365156,-0.016769499,-0.01485236,0.06237244,-0.042504236,-0.06972567,-0.041336842,0.05920928,0.05006125,0.03680616,0.030149288,-0.043996733,-0.070199504,0.012031935,0.07628732,0.034096994,0.0471346,-0.08914955,0.024074428,-0.057768293,-0.0145954415,-0.06952405,0.053213947,0.007551126,0.070101835,0.0059584677,0.08844257,0.012693733,0.048015498,-0.03144326,0.07723687,-0.03212934,-0.04942038,0.092387296,-0.081959225,-0.060056906,-0.07763781,0.06561535,0.06591936,0.054355077,-0.052244768,0.019173384,0.077319615,-0.05491028,0.012936167,-0.049329285,0.034841456,-0.073550105,-0.023193032,0.07476529,-0.0037795827,0.05774454,-0.02092538,0.0734596,-0.080630824,-0.080682516,0.028682783,0.08087944,0.02624204,0.041372485,-0.099986605,-0.037336446,0.05064997,0.05451574,-0.11685924,-0.0079089245,0.00753209,0.041434266,0.009055005,-0.13577873,0.041944537,-0.12415095,0.0038951717,-0.06849341,0.036731027,-0.059586063,-0.0116827395,0.035935763,-0.016453829,-0.019072175,0.033094864,-0.10063466,0.029818188,-0.07469586,-0.01292937,0.06527471,-0.0026504844,0.05966607,-0.070770636,-0.03325088,-0.02944627,-0.01838702,-0.1325913,-0.040117364,-0.005358527,-0.07084647,-0.052772503,-0.1182992,0.014616583,-0.10093913,0.010123749,0.11186377,-0.060161196,0.02453216,-0.08523303,-0.0011363227,-0.007463912,0.02452951,-0.02054818,-0.002167899,-0.12629628,0.011305492,-0.035114747,0.045740493,0.06965758,0.09053814,-0.036400024,-0.028344974,-0.13006164,-0.022807904,-0.020822823,0.01790836,0.06932787,-0.12708154,-0.11470805,0.0024389252,-0.033229016,-0.060093082,-0.013748497,0.044251416,0.020458423,-0.11916636,-0.06593313,-0.06619835,-0.038846523,0.07499903,-0.017014824,-0.016840192,0.071711704,-0.08760484,-0.043024857,-0.13046198,0.0047789365,0.071528584,0.032609962,0.05073348,0.054949068,-0.013923747,-0.052698832,-0.11788976,-0.0740532,-0.041815832,0.04792211,-0.12250621,0.16408865,-0.05256357,-0.0016066682,-0.025145281,0.034389757,-0.047502507,0.020348197,-0.012208034,0.060004823,-0.05351694,-0.11807814,0.06303946,-0.027469583,-0.026853736,-0.033306427,-0.030460062,0.02378632,-0.051623534,-0.024460843,-0.05309878,-0.005620023,-0.14420632,0.038698565,0.029335178,0.04354609,0.018921971,0.043270264,-0.28037328,-0.20009744,0.10788881,0.03891154,-0.04273199,-0.007946524,0.1253702,0.029596085,-0.05749051,-0.042961664,-0.08799732,-0.11096226,-0.059354354,-0.0026522574,-0.08437939,0.031672318,-0.11431115,0.036929578,-0.0016853082,-0.04558716,-0.073116496,-0.31005082,0.04991161,0.013532803,0.08287899,-0.060025435,-0.040541712,-0.025597982,-0.05809207,-0.009348868,0.08701717,-0.1175581,-0.023903728,-0.011064632,-0.11969296,-0.07970731,-0.14303133,-0.07295795,-0.103093475,-0.10758128,0.04840178,0.032427527,0.0011191252,-0.1310857,0.020352868,-0.1352343,-0.109622665,-0.060395423,-0.11709802,0.038707398,-0.13775522,0.041402962,-0.039078176,0.1738937,0.35786846,0.0064574885,-0.14582452,-0.0011190649,0.109781496,-0.06928623,-0.1291444,-0.053780142,-0.081693254,-0.002558923,0.052702144,0.034239646,-0.009726277,-0.08338222,-0.032370824,0.25927022,-0.12213744,-0.018472714,0.005602689,-0.109285995,0.08441597,-0.07129815,-0.12477091,-0.060607523,-0.07803255,-0.10438843,0.039568763,0.07264361,0.028605767,-0.03345897,-0.009464279,0.15065156,-0.027040059,0.037764065,-0.020959798,-0.13145867,-0.045380767,-0.00012225016,-0.04521628,0.04042984,-0.03564162,0.015804928,-0.037261035,0.02788959,0.042641025,0.036881737,0.131915,0.0025245463,-0.024782395,-0.074290074,0.19507663,0.03565329,-0.11634373,-0.08588823,-0.015369666,0.011734085,-0.01335028,0.028744144,-0.14005719,-0.037570305,-0.023376357,-0.08496153,-0.10091508,-0.0026759256,0.0025450883,0.02556283,-0.27635944,0.13459422,0.018824391,-0.054407656,-0.09061318,-0.34766477,0.31952804,0.10232004,0.03269009,-0.097017884,0.046821497,-0.07008018,0.3031384,0.3373336,-0.29773512,-0.13217555,-0.046611205,0.024085995,-0.05211024,-0.0003842474,-0.11305988,0.1627332,-0.09349018,-0.13330005,0.11577613,0.20084596,0.22996731,0.005607973,-0.046090513,-0.06823151,-0.16892244,-0.015409596,-0.08564997,-0.020836025,-0.10914467,-0.008843415,-0.20619093,-0.09474604,-0.08860049,-0.08100627,0.13852467,0.28608793,-0.11099762,-0.07879722,-0.030827057,-0.14106603,-0.3036998,0.037983656,-0.030945783,0.154779,-0.11006108,-0.08484883,0.16612898,0.34764478,-0.31441906,0.30838487,-0.084651805,-0.10760224,0.17414801,0.34783813,-0.095050745,-0.08239464,-0.006409088,0.04571176,-0.27138537,0.015977964,-0.1292482,-0.043707583,-0.030620672,0.34193003,-0.112350956,0.02342664,